{"learner":{"attributes":{"scikit_learn":"{\"_estimator_type\": \"regressor\"}"},"feature_names":[],"feature_types":[],"gradient_booster":{"model":{"cats":{"enc":[],"feature_segments":[],"sorted_idx":[]},"gbtree_model_param":{"num_parallel_tree":"1","num_trees":"300"},"iteration_indptr":[0,1,2,3,4,5,6,7,8,9,10,11,12,13,14,15,16,17,18,19,20,21,22,23,24,25,26,27,28,29,30,31,32,33,34,35,36,37,38,39,40,41,42,43,44,45,46,47,48,49,50,51,52,53,54,55,56,57,58,59,60,61,62,63,64,65,66,67,68,69,70,71,72,73,74,75,76,77,78,79,80,81,82,83,84,85,86,87,88,89,90,91,92,93,94,95,96,97,98,99,100,101,102,103,104,105,106,107,108,109,110,111,112,113,114,115,116,117,118,119,120,121,122,123,124,125,126,127,128,129,130,131,132,133,134,135,136,137,138,139,140,141,142,143,144,145,146,147,148,149,150,151,152,153,154,155,156,157,158,159,160,161,162,163,164,165,166,167,168,169,170,171,172,173,174,175,176,177,178,179,180,181,182,183,184,185,186,187,188,189,190,191,192,193,194,195,196,197,198,199,200,201,202,203,204,205,206,207,208,209,210,211,212,213,214,215,216,217,218,219,220,221,222,223,224,225,226,227,228,229,230,231,232,233,234,235,236,237,238,239,240,241,242,243,244,245,246,247,248,249,250,251,252,253,254,255,256,257,258,259,260,261,262,263,264,265,266,267,268,269,270,271,272,273,274,275,276,277,278,279,280,281,282,283,284,285,286,287,288,289,290,291,292,293,294,295,296,297,298,299,300],"tree_info":[0,0,0,0,0,0,0,0,0,0,0,0,0,0,0,0,0,0,0,0,0,0,0,0,0,0,0,0,0,0,0,0,0,0,0,0,0,0,0,0,0,0,0,0,0,0,0,0,0,0,0,0,0,0,0,0,0,0,0,0,0,0,0,0,0,0,0,0,0,0,0,0,0,0,0,0,0,0,0,0,0,0,0,0,0,0,0,0,0,0,0,0,0,0,0,0,0,0,0,0,0,0,0,0,0,0,0,0,0,0,0,0,0,0,0,0,0,0,0,0,0,0,0,0,0,0,0,0,0,0,0,0,0,0,0,0,0,0,0,0,0,0,0,0,0,0,0,0,0,0,0,0,0,0,0,0,0,0,0,0,0,0,0,0,0,0,0,0,0,0,0,0,0,0,0,0,0,0,0,0,0,0,0,0,0,0,0,0,0,0,0,0,0,0,0,0,0,0,0,0,0,0,0,0,0,0,0,0,0,0,0,0,0,0,0,0,0,0,0,0,0,0,0,0,0,0,0,0,0,0,0,0,0,0,0,0,0,0,0,0,0,0,0,0,0,0,0,0,0,0,0,0,0,0,0,0,0,0,0,0,0,0,0,0,0,0,0,0,0,0,0,0,0,0,0,0,0,0,0,0,0,0,0,0,0,0,0,0,0,0,0,0,0,0,0,0,0,0,0,0],"trees":[{"base_weights":[7.956443E-3,-8.015377E-1,2.9515512E0,-1.27158E0,8.026485E-2,2.1539664E0,5.100876E0,-1.6035533E0,-9.9240303E-1,-2.0960861E-1,6.749998E-1,1.4626486E0,2.7654386E0,4.4066854E0,6.995647E0,-1.7795905E0,-1.464514E0,-1.1745532E0,-8.1365144E-1,-3.7067148E-1,1.7549413E-1,4.148471E-1,1.0587163E0,1.355383E0,2.2707458E0,2.4137108E0,3.220575E0,4.185323E0,5.289482E0,6.01808E0,7.5139093E0,-1.8602293E0,-1.6921668E0,-1.5663749E0,-1.3651685E0,-1.2421879E0,-1.0110469E0,-9.250835E-1,-6.4870405E-1,-4.945658E-1,-1.5690596E-1,-1.2166258E-1,3.2334358E-1,3.2013267E-1,7.231367E-1,9.348458E-1,1.4069027E0,1.1393178E0,1.5968362E0,4.094062E0,2.2325895E0,2.1714604E0,2.7019956E0,3.0343103E0,3.7226083E0,3.5501854E0,4.3489633E0,4.9898543E0,5.6881833E0,5.553014E0,6.394463E0,6.967122E0,7.9819407E0,-9.09521E-2,-9.645375E-2,-8.233661E-2,-9.0641364E-2,-7.6102465E-2,-8.536307E-2,-6.627061E-2,-7.712157E-2,-6.537585E-2,-5.470517E-2,-6.2106557E-2,-4.893495E-2,-4.8625734E-2,-3.4106713E-2,-3.5775382E-2,-2.2915347E-2,-3.6242202E-2,-2.1288207E-2,-1.184862E-2,6.406104E-4,-2.6884103E-2,-1.4201291E-3,1.1749583E-2,2.7856419E-2,1.1879346E-2,2.3446763E-2,3.388944E-2,7.961625E-2,4.1964818E-2,6.279712E-2,6.465786E-2,9.476488E-2,4.308591E-2,6.392335E-2,7.0539534E-2,8.698924E-2,2.180637E-1,-1.049788E-2,1.0508581E-1,1.3281058E-1,9.798769E-2,1.1910074E-1,1.2356565E-1,1.452115E-1,1.4321375E-1,1.7699069E-1,1.8016604E-1,2.2988923E-1,1.3959922E-1,1.8314311E-1,2.0625186E-1,2.3329894E-1,-5.787341E-2,2.498565E-1,2.616278E-1,3.022184E-1,3.4066978E-1,2.6903212E-1,2.9540917E-1,3.5156226E-1,2.8858387E-1,3.545229E-1,3.7953332E-1,4.1080675E-1],"categories":[],"categories_nodes":[],"categories_segments":[],"categories_sizes":[],"default_left":[0,0,0,0,0,0,0,0,0,0,0,0,0,0,0,0,0,0,0,0,0,0,0,0,0,0,0,0,0,0,0,0,0,0,0,0,0,0,0,0,0,0,0,0,0,0,0,0,0,0,0,0,0,0,0,0,0,0,0,0,0,0,0,0,0,0,0,0,0,0,0,0,0,0,0,0,0,0,0,0,0,0,0,0,0,0,0,0,0,0,0,0,0,0,0,0,0,0,0,0,0,0,0,0,0,0,0,0,0,0,0,0,0,0,0,0,0,0,0,0,0,0,0,0,0,0,0],"id":0,"left_children":[1,3,5,7,9,11,13,15,17,19,21,23,25,27,29,31,33,35,37,39,41,43,45,47,49,51,53,55,57,59,61,63,65,67,69,71,73,75,77,79,81,83,85,87,89,91,93,95,97,99,101,103,105,107,109,111,113,115,117,119,121,123,125,-1,-1,-1,-1,-1,-1,-1,-1,-1,-1,-1,-1,-1,-1,-1,-1,-1,-1,-1,-1,-1,-1,-1,-1,-1,-1,-1,-1,-1,-1,-1,-1,-1,-1,-1,-1,-1,-1,-1,-1,-1,-1,-1,-1,-1,-1,-1,-1,-1,-1,-1,-1,-1,-1,-1,-1,-1,-1,-1,-1,-1,-1,-1,-1],"loss_changes":[4.866677E5,6.6395555E4,7.550594E4,9.682453E3,9.60253E3,1.3578422E4,1.5650594E4,1.1656406E3,1.8471602E3,2.3228057E3,1.8215645E3,1.3043281E3,2.7215E3,1.6834688E3,1.5734844E3,1.4530469E2,2.6777734E2,3.0961328E2,5.260176E2,6.992417E2,4.852515E2,3.1742957E2,3.167256E2,6.9297656E2,1.1372168E2,6.6603906E2,6.8339844E2,7.1033594E2,1.8019531E2,1.5914062E2,4.7771094E2,2.7523438E1,5.2466797E1,7.960547E1,9.3171875E1,1.909043E2,6.03125E1,1.9635156E2,1.4664258E2,2.6453174E2,1.3167783E2,1.4237329E2,1.5220209E2,1.0213245E2,9.966797E1,1.6590967E2,1.0493262E2,2.705293E2,1.6474707E2,4.11687E1,9.044141E1,2.285957E2,1.9757617E2,4.5607422E2,1.9285742E2,1.12453125E2,3.7458594E2,5.0734375E1,8.8791016E1,7.3052734E1,1.4672852E2,1.0194531E2,3.990625E1,0E0,0E0,0E0,0E0,0E0,0E0,0E0,0E0,0E0,0E0,0E0,0E0,0E0,0E0,0E0,0E0,0E0,0E0,0E0,0E0,0E0,0E0,0E0,0E0,0E0,0E0,0E0,0E0,0E0,0E0,0E0,0E0,0E0,0E0,0E0,0E0,0E0,0E0,0E0,0E0,0E0,0E0,0E0,0E0,0E0,0E0,0E0,0E0,0E0,0E0,0E0,0E0,0E0,0E0,0E0,0E0,0E0,0E0,0E0,0E0,0E0,0E0,0E0,0E0],"parents":[2147483647,0,0,1,1,2,2,3,3,4,4,5,5,6,6,7,7,8,8,9,9,10,10,11,11,12,12,13,13,14,14,15,15,16,16,17,17,18,18,19,19,20,20,21,21,22,22,23,23,24,24,25,25,26,26,27,27,28,28,29,29,30,30,31,31,32,32,33,33,34,34,35,35,36,36,37,37,38,38,39,39,40,40,41,41,42,42,43,43,44,44,45,45,46,46,47,47,48,48,49,49,50,50,51,51,52,52,53,53,54,54,55,55,56,56,57,57,58,58,59,59,60,60,61,61,62,62],"right_children":[2,4,6,8,10,12,14,16,18,20,22,24,26,28,30,32,34,36,38,40,42,44,46,48,50,52,54,56,58,60,62,64,66,68,70,72,74,76,78,80,82,84,86,88,90,92,94,96,98,100,102,104,106,108,110,112,114,116,118,120,122,124,126,-1,-1,-1,-1,-1,-1,-1,-1,-1,-1,-1,-1,-1,-1,-1,-1,-1,-1,-1,-1,-1,-1,-1,-1,-1,-1,-1,-1,-1,-1,-1,-1,-1,-1,-1,-1,-1,-1,-1,-1,-1,-1,-1,-1,-1,-1,-1,-1,-1,-1,-1,-1,-1,-1,-1,-1,-1,-1,-1,-1,-1,-1,-1,-1],"split_conditions":[3.5E0,1.7E0,6.12E0,9.2E-1,2.7E0,4.32E0,8.24E0,5.6E-1,1.3E0,2.4E0,3.08E0,5.25E0,5.4E0,7.8E0,9E0,3.3333334E-1,7.5E-1,1.2777778E0,1.48E0,2.2E0,2E0,3.5E0,3.5E0,3.68E0,1E0,5E0,6.6666665E0,6E0,8.8E0,8E0,1.02E1,4E0,4E0,4E0,4E0,1.2E0,7.5E-1,2.2E0,2.2E0,1.5E0,2.6666667E0,1.2E0,2.96E0,2.76E0,4.6666665E0,3.8E0,3.92E0,3.6E0,4E0,3E1,5.3E0,4.4E0,4.5E0,5.68E0,7.3E0,5E0,6.92E0,2.2E0,8.5E0,2.71E2,1.048E3,8E0,1.05E1,-9.09521E-2,-9.645375E-2,-8.233661E-2,-9.0641364E-2,-7.6102465E-2,-8.536307E-2,-6.627061E-2,-7.712157E-2,-6.537585E-2,-5.470517E-2,-6.2106557E-2,-4.893495E-2,-4.8625734E-2,-3.4106713E-2,-3.5775382E-2,-2.2915347E-2,-3.6242202E-2,-2.1288207E-2,-1.184862E-2,6.406104E-4,-2.6884103E-2,-1.4201291E-3,1.1749583E-2,2.7856419E-2,1.1879346E-2,2.3446763E-2,3.388944E-2,7.961625E-2,4.1964818E-2,6.279712E-2,6.465786E-2,9.476488E-2,4.308591E-2,6.392335E-2,7.0539534E-2,8.698924E-2,2.180637E-1,-1.049788E-2,1.0508581E-1,1.3281058E-1,9.798769E-2,1.1910074E-1,1.2356565E-1,1.452115E-1,1.4321375E-1,1.7699069E-1,1.8016604E-1,2.2988923E-1,1.3959922E-1,1.8314311E-1,2.0625186E-1,2.3329894E-1,-5.787341E-2,2.498565E-1,2.616278E-1,3.022184E-1,3.4066978E-1,2.6903212E-1,2.9540917E-1,3.5156226E-1,2.8858387E-1,3.545229E-1,3.7953332E-1,4.1080675E-1],"split_indices":[7,8,8,8,7,8,8,8,7,8,8,6,6,7,7,7,6,8,8,6,6,6,6,8,4,8,6,7,6,6,6,4,4,4,4,6,7,6,6,7,6,6,8,8,6,8,8,6,6,2,7,6,6,8,7,7,8,6,7,0,0,6,7,0,0,0,0,0,0,0,0,0,0,0,0,0,0,0,0,0,0,0,0,0,0,0,0,0,0,0,0,0,0,0,0,0,0,0,0,0,0,0,0,0,0,0,0,0,0,0,0,0,0,0,0,0,0,0,0,0,0,0,0,0,0,0,0],"split_type":[0,0,0,0,0,0,0,0,0,0,0,0,0,0,0,0,0,0,0,0,0,0,0,0,0,0,0,0,0,0,0,0,0,0,0,0,0,0,0,0,0,0,0,0,0,0,0,0,0,0,0,0,0,0,0,0,0,0,0,0,0,0,0,0,0,0,0,0,0,0,0,0,0,0,0,0,0,0,0,0,0,0,0,0,0,0,0,0,0,0,0,0,0,0,0,0,0,0,0,0,0,0,0,0,0,0,0,0,0,0,0,0,0,0,0,0,0,0,0,0,0,0,0,0,0,0,0],"sum_hessian":[2.04238E5,1.60187E5,4.4051E4,1.04489E5,5.5698E4,3.213E4,1.1921E4,4.7729E4,5.676E4,3.7447E4,1.8251E4,1.5082E4,1.7048E4,8.727E3,3.194E3,2.1057E4,2.6672E4,2.811E4,2.865E4,2.6404E4,1.1043E4,1.0878E4,7.373E3,1.3317E4,1.765E3,9.62E3,7.428E3,6.982E3,1.745E3,1.111E3,2.083E3,1.0943E4,1.0114E4,1.3162E4,1.351E4,1.988E4,8.23E3,1.7096E4,1.1554E4,1.6715E4,9.689E3,3.669E3,7.374E3,8.323E3,2.555E3,5.441E3,1.932E3,7.031E3,6.286E3,3.4E1,1.731E3,5.232E3,4.388E3,5.423E3,2.005E3,1.435E3,5.547E3,1.004E3,7.41E2,5.04E2,6.07E2,9.68E2,1.115E3,6.864E3,4.079E3,7.358E3,2.756E3,1.0021E4,3.141E3,1.1042E4,2.468E3,1.3789E4,6.091E3,1.006E3,7.224E3,1.4301E4,2.795E3,8.551E3,3.003E3,3.843E3,1.2872E4,6.583E3,3.106E3,6.71E2,2.998E3,5.353E3,2.021E3,5.355E3,2.968E3,2.43E3,1.25E2,4.196E3,1.245E3,1.57E3,3.62E2,2.35E3,4.681E3,2.736E3,3.55E3,3.2E1,2E0,1.327E3,4.04E2,2.614E3,2.618E3,2.056E3,2.332E3,4.063E3,1.36E3,1.769E3,2.36E2,1.89E2,1.246E3,3.259E3,2.288E3,1E0,1.003E3,3.32E2,4.09E2,5.6E1,4.48E2,3.5E2,2.57E2,9.5E1,8.73E2,4.3E2,6.85E2],"tree_param":{"num_deleted":"0","num_feature":"9","num_nodes":"127","size_leaf_vector":"1"}},{"base_weights":[-3.39106E-3,-7.4555415E-1,2.8582852E0,-1.1938158E0,1.15694076E-1,2.0384445E0,4.676735E0,-1.4791609E0,-8.8931847E-1,-2.0207071E-1,6.681633E-1,1.4944971E0,2.611219E0,3.9800248E0,6.269491E0,-1.6492023E0,-1.3185953E0,-9.994954E-1,-6.6197914E-1,-3.798446E-1,-5.1369206E-3,4.702668E-1,8.6253005E-1,1.2974463E0,1.7528325E0,2.4070365E0,3.0140848E0,3.7478209E0,4.605394E0,5.6883674E0,7.226604E0,-1.7732998E0,-1.5876445E0,-1.2784389E0,-1.484018E0,-1.108254E0,-9.1818374E-1,-6.358493E-1,-9.033766E-1,-5.264146E-1,-3.0946863E-1,-3.284253E-1,4.187632E-2,3.01855E-1,5.793879E-1,7.365253E-1,1.0677142E0,4.18547E-1,1.3412353E0,1.5559152E0,1.9457508E0,2.2129593E0,2.581199E0,2.5517662E0,3.0816696E0,3.4850767E0,3.9196208E0,4.395691E0,4.8561E0,5.288126E0,6.237607E0,6.7786617E0,7.7208447E0,-8.699229E-2,-9.1148786E-2,-7.719186E-2,-8.5110515E-2,-6.8006E-2,-6.0092617E-2,-7.738643E-2,-7.063811E-2,-5.385359E-2,-6.743622E-2,-4.4114526E-2,-5.5999022E-2,-4.1304156E-2,-3.0199755E-2,-4.2175442E-2,-5.8760334E-2,-5.3165823E-2,-2.5410896E-2,-1.411555E-2,-3.5028283E-2,-1.3272025E-2,-3.301334E-2,3.593795E-3,-1.4688164E-2,-4.157949E-3,1.7165741E-2,2.9911438E-2,-4.6574642E-4,3.852589E-2,1.12948E-2,5.4969292E-2,1.0913041E-2,6.2933974E-2,1.39467E-2,6.359985E-2,7.704621E-2,1.8447567E-2,7.8754745E-2,9.918756E-2,6.722457E-2,5.684902E-2,1.1197578E-1,1.3110319E-1,9.04082E-2,9.316062E-2,1.3660906E-1,1.449963E-1,1.640643E-1,1.5642507E-1,1.7988881E-1,1.9764702E-1,1.384233E-1,2.099844E-1,2.4202979E-1,-6.49249E-2,2.4341905E-1,-6.36976E-2,2.6490694E-1,2.913942E-1,3.3239755E-1,3.3023283E-1,3.6449203E-1,3.7344107E-1,4.3094364E-1],"categories":[],"categories_nodes":[],"categories_segments":[],"categories_sizes":[],"default_left":[0,0,0,0,0,0,0,0,0,0,0,0,0,0,0,0,0,0,0,0,0,0,0,0,0,0,0,0,0,0,0,0,0,0,0,0,0,0,0,0,0,0,0,0,0,0,0,0,0,0,0,0,0,0,0,0,0,0,0,0,0,0,0,0,0,0,0,0,0,0,0,0,0,0,0,0,0,0,0,0,0,0,0,0,0,0,0,0,0,0,0,0,0,0,0,0,0,0,0,0,0,0,0,0,0,0,0,0,0,0,0,0,0,0,0,0,0,0,0,0,0,0,0,0,0,0,0],"id":1,"left_children":[1,3,5,7,9,11,13,15,17,19,21,23,25,27,29,31,33,35,37,39,41,43,45,47,49,51,53,55,57,59,61,63,65,67,69,71,73,75,77,79,81,83,85,87,89,91,93,95,97,99,101,103,105,107,109,111,113,115,117,119,121,123,125,-1,-1,-1,-1,-1,-1,-1,-1,-1,-1,-1,-1,-1,-1,-1,-1,-1,-1,-1,-1,-1,-1,-1,-1,-1,-1,-1,-1,-1,-1,-1,-1,-1,-1,-1,-1,-1,-1,-1,-1,-1,-1,-1,-1,-1,-1,-1,-1,-1,-1,-1,-1,-1,-1,-1,-1,-1,-1,-1,-1,-1,-1,-1,-1],"loss_changes":[4.3372444E5,6.260514E4,6.2689188E4,9.265344E3,9.745384E3,9.027891E3,1.4476469E4,1.5010156E3,1.2917109E3,1.2338094E3,7.7926953E2,7.547383E2,1.1541406E3,1.3033125E3,2.1697969E3,2.0141406E2,1.8623438E2,3.063086E2,1.0568457E2,1.908916E2,2.5415346E2,1.8444312E2,2.6357275E2,3.2426074E2,2.4131836E2,3.1117188E2,1.4039453E2,2.859297E2,1.0787891E2,5.117578E2,2.7929688E2,1.1544922E1,8.7109375E1,1.4097656E2,2.2899414E1,1.0998633E2,1.4308594E2,9.163379E1,2.5746704E1,5.8147095E1,1.3273804E2,4.419748E1,1.4701913E2,6.3112793E1,6.7609375E1,1.09838135E2,1.0436084E2,4.6800865E1,1.091875E2,7.199512E1,7.147461E1,1.2435156E2,1.5115234E2,7.0811035E1,1.405E2,9.4552734E1,1.4267188E2,9.730859E1,9.022461E1,1.01359375E2,1.359414E2,2.2480469E1,9.51875E1,0E0,0E0,0E0,0E0,0E0,0E0,0E0,0E0,0E0,0E0,0E0,0E0,0E0,0E0,0E0,0E0,0E0,0E0,0E0,0E0,0E0,0E0,0E0,0E0,0E0,0E0,0E0,0E0,0E0,0E0,0E0,0E0,0E0,0E0,0E0,0E0,0E0,0E0,0E0,0E0,0E0,0E0,0E0,0E0,0E0,0E0,0E0,0E0,0E0,0E0,0E0,0E0,0E0,0E0,0E0,0E0,0E0,0E0,0E0,0E0,0E0,0E0,0E0,0E0],"parents":[2147483647,0,0,1,1,2,2,3,3,4,4,5,5,6,6,7,7,8,8,9,9,10,10,11,11,12,12,13,13,14,14,15,15,16,16,17,17,18,18,19,19,20,20,21,21,22,22,23,23,24,24,25,25,26,26,27,27,28,28,29,29,30,30,31,31,32,32,33,33,34,34,35,35,36,36,37,37,38,38,39,39,40,40,41,41,42,42,43,43,44,44,45,45,46,46,47,47,48,48,49,49,50,50,51,51,52,52,53,53,54,54,55,55,56,56,57,57,58,58,59,59,60,60,61,61,62,62],"right_children":[2,4,6,8,10,12,14,16,18,20,22,24,26,28,30,32,34,36,38,40,42,44,46,48,50,52,54,56,58,60,62,64,66,68,70,72,74,76,78,80,82,84,86,88,90,92,94,96,98,100,102,104,106,108,110,112,114,116,118,120,122,124,126,-1,-1,-1,-1,-1,-1,-1,-1,-1,-1,-1,-1,-1,-1,-1,-1,-1,-1,-1,-1,-1,-1,-1,-1,-1,-1,-1,-1,-1,-1,-1,-1,-1,-1,-1,-1,-1,-1,-1,-1,-1,-1,-1,-1,-1,-1,-1,-1,-1,-1,-1,-1,-1,-1,-1,-1,-1,-1,-1,-1,-1,-1,-1,-1],"split_conditions":[3.6E0,1.75E0,6.1E0,1E0,2.7E0,4.6E0,8.1E0,6E-1,1.5E0,2.2E0,3.1E0,4.1E0,5.5E0,7.3E0,1E1,2.857143E-1,4E0,1.2E0,5E0,1.8E0,1.6666666E0,2.8E0,3.6E0,2.5E0,4.4E0,5E0,4.6666665E0,6.25E0,1E0,9E0,1.05E1,4E0,4E0,8E-1,7.5E-1,5E0,4E0,1.2E0,2.6E1,6.666667E-1,6E0,4E0,5E0,1.6666666E0,1E1,6E0,9E0,2E0,4.25E0,2.25E0,6E0,3.2E0,8E0,8E0,1E0,5.25E0,1E1,7.8E0,4.3E1,5E0,1E0,1.377E3,2.5E1,-8.699229E-2,-9.1148786E-2,-7.719186E-2,-8.5110515E-2,-6.8006E-2,-6.0092617E-2,-7.738643E-2,-7.063811E-2,-5.385359E-2,-6.743622E-2,-4.4114526E-2,-5.5999022E-2,-4.1304156E-2,-3.0199755E-2,-4.2175442E-2,-5.8760334E-2,-5.3165823E-2,-2.5410896E-2,-1.411555E-2,-3.5028283E-2,-1.3272025E-2,-3.301334E-2,3.593795E-3,-1.4688164E-2,-4.157949E-3,1.7165741E-2,2.9911438E-2,-4.6574642E-4,3.852589E-2,1.12948E-2,5.4969292E-2,1.0913041E-2,6.2933974E-2,1.39467E-2,6.359985E-2,7.704621E-2,1.8447567E-2,7.8754745E-2,9.918756E-2,6.722457E-2,5.684902E-2,1.1197578E-1,1.3110319E-1,9.04082E-2,9.316062E-2,1.3660906E-1,1.449963E-1,1.640643E-1,1.5642507E-1,1.7988881E-1,1.9764702E-1,1.384233E-1,2.099844E-1,2.4202979E-1,-6.49249E-2,2.4341905E-1,-6.36976E-2,2.6490694E-1,2.913942E-1,3.3239755E-1,3.3023283E-1,3.6449203E-1,3.7344107E-1,4.3094364E-1],"split_indices":[7,7,7,7,7,7,7,7,7,7,7,7,7,7,6,7,4,7,4,6,6,6,6,6,6,7,6,6,3,7,7,4,4,7,7,4,4,6,1,6,4,4,4,6,4,4,4,4,6,6,4,6,4,1,3,6,4,7,0,6,3,0,1,0,0,0,0,0,0,0,0,0,0,0,0,0,0,0,0,0,0,0,0,0,0,0,0,0,0,0,0,0,0,0,0,0,0,0,0,0,0,0,0,0,0,0,0,0,0,0,0,0,0,0,0,0,0,0,0,0,0,0,0,0,0,0,0],"split_type":[0,0,0,0,0,0,0,0,0,0,0,0,0,0,0,0,0,0,0,0,0,0,0,0,0,0,0,0,0,0,0,0,0,0,0,0,0,0,0,0,0,0,0,0,0,0,0,0,0,0,0,0,0,0,0,0,0,0,0,0,0,0,0,0,0,0,0,0,0,0,0,0,0,0,0,0,0,0,0,0,0,0,0,0,0,0,0,0,0,0,0,0,0,0,0,0,0,0,0,0,0,0,0,0,0,0,0,0,0,0,0,0,0,0,0,0,0,0,0,0,0,0,0,0,0,0,0],"sum_hessian":[2.04216E5,1.62161E5,4.2055E4,1.06651E5,5.551E4,2.8988E4,1.3067E4,5.5055E4,5.1596E4,3.5241E4,2.0269E4,1.487E4,1.4118E4,9.093E3,3.974E3,2.6734E4,2.8321E4,3.4751E4,1.6845E4,1.8521E4,1.672E4,1.0045E4,1.0224E4,8.439E3,6.431E3,9.374E3,4.744E3,6.636E3,2.457E3,2.477E3,1.497E3,8.855E3,1.7879E4,2.2796E4,5.525E3,1.4861E4,1.989E4,1.5203E4,1.642E3,6.006E3,1.2515E4,2.122E3,1.4598E4,3.951E3,6.094E3,6.337E3,3.887E3,4.01E2,8.038E3,3.187E3,3.244E3,4.44E3,4.934E3,6.1E2,4.134E3,2.632E3,4.004E3,1.348E3,1.109E3,1.439E3,1.038E3,7.93E2,7.04E2,5.313E3,3.542E3,1.2944E4,4.935E3,1.1023E4,1.1773E4,2.906E3,2.619E3,1.316E4,1.701E3,1.6891E4,2.999E3,2.177E3,1.3026E4,1.349E3,2.93E2,1.95E2,5.811E3,1.1704E4,8.11E2,1.785E3,3.37E2,1.3401E4,1.197E3,3.84E2,3.567E3,5.905E3,1.89E2,5.941E3,3.96E2,3.747E3,1.4E2,5.6E1,3.45E2,5.974E3,2.064E3,5.1E1,3.136E3,3.049E3,1.95E2,1.08E2,4.332E3,4.684E3,2.5E2,1.29E2,4.81E2,2.172E3,1.962E3,6.39E2,1.993E3,3.889E3,1.15E2,9.43E2,4.05E2,2E0,1.107E3,2E0,1.437E3,5.27E2,5.11E2,6.02E2,1.91E2,5.57E2,1.47E2],"tree_param":{"num_deleted":"0","num_feature":"9","num_nodes":"127","size_leaf_vector":"1"}},{"base_weights":[-8.587819E-4,-6.837113E-1,2.826503E0,-1.1256679E0,1.8403447E-1,2.0631437E0,4.602282E0,-1.4162773E0,-8.450648E-1,-1.8564768E-1,6.0150105E-1,1.6440291E0,2.690218E0,3.9799855E0,6.2780933E0,-1.5761763E0,-1.2600808E0,-9.788432E-1,-6.281552E-1,-3.5884303E-1,9.1310024E-2,3.7302384E-1,9.995963E-1,1.340506E0,2.0195522E0,2.103451E0,2.8756328E0,3.6708906E0,4.509585E0,5.663793E0,6.9026885E0,-1.6598157E0,-1.4835967E0,-1.3188663E0,-1.0831028E0,-1.1046877E0,-8.487474E-1,-7.594696E-1,-4.985451E-1,-5.3479004E-1,-2.6167205E-1,9.716327E-4,4.3073305E-1,2.3700184E-1,6.309912E-1,9.0279865E-1,1.5163896E0,7.352542E-1,1.4170069E0,1.825565E0,2.3311825E0,1.3599411E0,2.1711497E0,2.749097E0,3.3771045E0,3.480899E0,4.03313E0,4.194352E0,4.8908515E0,5.0116014E0,5.987081E0,6.346931E0,7.3686624E0,-8.0883436E-2,-8.6758986E-2,-7.189286E-2,-8.085173E-2,-6.4070225E-2,-7.300329E-2,-5.1824924E-2,-6.587877E-2,-6.27332E-2,-5.2448284E-2,-4.6616055E-2,-3.7956387E-2,-3.6606595E-2,-5.4900207E-2,-2.3394613E-2,-4.1323908E-2,-3.6545794E-2,-2.4009906E-2,-1.947568E-2,-5.2605895E-3,-6.9723786E-3,6.145914E-3,2.5558785E-2,-1.0404723E-2,-3.738392E-3,1.6319973E-2,2.130351E-2,3.8338304E-2,3.2501977E-2,5.147296E-2,6.742109E-2,9.992333E-2,-1.3969067E-3,4.561232E-2,6.4250305E-2,8.625744E-2,8.002879E-2,1.0380818E-1,1.1197354E-1,1.4040808E-1,1.221955E-1,5.971548E-2,1.102013E-1,7.040139E-2,1.4010827E-1,1.0652714E-1,1.5774761E-1,1.8793163E-1,-7.3902756E-3,1.7475162E-1,1.6582273E-1,2.0692407E-1,3.0264047E-1,2.0693877E-1,2.656287E-1,2.3455177E-1,2.1193063E-1,2.5969365E-1,2.653273E-1,3.1197172E-1,2.5964925E-1,3.2739493E-1,3.686956E-1,7.108283E-2],"categories":[],"categories_nodes":[],"categories_segments":[],"categories_sizes":[],"default_left":[0,0,0,0,0,0,0,0,0,0,0,0,0,0,0,0,0,0,0,0,0,0,0,0,0,0,0,0,0,0,0,0,0,0,0,0,0,0,0,0,0,0,0,0,0,0,0,0,0,0,0,0,0,0,0,0,0,0,0,0,0,0,0,0,0,0,0,0,0,0,0,0,0,0,0,0,0,0,0,0,0,0,0,0,0,0,0,0,0,0,0,0,0,0,0,0,0,0,0,0,0,0,0,0,0,0,0,0,0,0,0,0,0,0,0,0,0,0,0,0,0,0,0,0,0,0,0],"id":2,"left_children":[1,3,5,7,9,11,13,15,17,19,21,23,25,27,29,31,33,35,37,39,41,43,45,47,49,51,53,55,57,59,61,63,65,67,69,71,73,75,77,79,81,83,85,87,89,91,93,95,97,99,101,103,105,107,109,111,113,115,117,119,121,123,125,-1,-1,-1,-1,-1,-1,-1,-1,-1,-1,-1,-1,-1,-1,-1,-1,-1,-1,-1,-1,-1,-1,-1,-1,-1,-1,-1,-1,-1,-1,-1,-1,-1,-1,-1,-1,-1,-1,-1,-1,-1,-1,-1,-1,-1,-1,-1,-1,-1,-1,-1,-1,-1,-1,-1,-1,-1,-1,-1,-1,-1,-1,-1,-1],"loss_changes":[3.9425656E5,6.308004E4,5.384003E4,8.8855E3,8.566195E3,7.2976562E3,1.242875E4,1.3350391E3,1.6083086E3,1.4121084E3,2.3706602E3,1.8957422E3,1.2047344E3,1.4094219E3,1.2009844E3,2.0233594E2,2.8035547E2,5.605E2,3.5965527E2,3.0951978E2,3.4731857E2,5.8106836E2,4.7411328E2,4.2558594E2,4.456914E2,1.3174316E2,5.2715625E2,3.6489844E2,3.648047E2,3.1472656E2,3.670547E2,4.1304688E1,7.434961E1,1.0565234E2,7.2493164E1,1.4433008E2,1.2561719E2,9.642676E1,1.0665796E2,6.863342E1,2.3338373E2,1.5322243E2,1.224635E2,3.023463E2,1.5876611E2,2.5570361E2,1.1860327E2,1.3996747E2,3.3046484E2,2.5558301E2,1.1846973E2,3.7657104E1,5.838867E1,2.1580078E2,1.3214453E2,1.8611328E2,1.2882227E2,1.569414E2,9.684375E1,5.5195312E1,1.5373828E2,1.3667969E2,1.6464844E1,0E0,0E0,0E0,0E0,0E0,0E0,0E0,0E0,0E0,0E0,0E0,0E0,0E0,0E0,0E0,0E0,0E0,0E0,0E0,0E0,0E0,0E0,0E0,0E0,0E0,0E0,0E0,0E0,0E0,0E0,0E0,0E0,0E0,0E0,0E0,0E0,0E0,0E0,0E0,0E0,0E0,0E0,0E0,0E0,0E0,0E0,0E0,0E0,0E0,0E0,0E0,0E0,0E0,0E0,0E0,0E0,0E0,0E0,0E0,0E0,0E0,0E0,0E0,0E0],"parents":[2147483647,0,0,1,1,2,2,3,3,4,4,5,5,6,6,7,7,8,8,9,9,10,10,11,11,12,12,13,13,14,14,15,15,16,16,17,17,18,18,19,19,20,20,21,21,22,22,23,23,24,24,25,25,26,26,27,27,28,28,29,29,30,30,31,31,32,32,33,33,34,34,35,35,36,36,37,37,38,38,39,39,40,40,41,41,42,42,43,43,44,44,45,45,46,46,47,47,48,48,49,49,50,50,51,51,52,52,53,53,54,54,55,55,56,56,57,57,58,58,59,59,60,60,61,61,62,62],"right_children":[2,4,6,8,10,12,14,16,18,20,22,24,26,28,30,32,34,36,38,40,42,44,46,48,50,52,54,56,58,60,62,64,66,68,70,72,74,76,78,80,82,84,86,88,90,92,94,96,98,100,102,104,106,108,110,112,114,116,118,120,122,124,126,-1,-1,-1,-1,-1,-1,-1,-1,-1,-1,-1,-1,-1,-1,-1,-1,-1,-1,-1,-1,-1,-1,-1,-1,-1,-1,-1,-1,-1,-1,-1,-1,-1,-1,-1,-1,-1,-1,-1,-1,-1,-1,-1,-1,-1,-1,-1,-1,-1,-1,-1,-1,-1,-1,-1,-1,-1,-1,-1,-1,-1,-1,-1,-1],"split_conditions":[3.64E0,1.8E0,6.12E0,1E0,2.52E0,4.88E0,8.24E0,6.4E-1,1.5E0,2.4E0,3.4E0,4.4E0,4.5E0,7.25E0,9.44E0,4.4E-1,1.2E0,1.28E0,1.48E0,1.5E0,3.25E0,3.08E0,4.6666665E0,2.5E0,5.25E0,3E0,6.6666665E0,6.92E0,7.28E0,8.2E0,1.02E1,4E0,4E0,4E0,4E0,6.666667E-1,1.2E0,6E0,5E0,1E0,2.12E0,2.16E0,4E0,2E0,2.5E0,2.96E0,5.5E0,1.6666666E0,4.32E0,4.32E0,6.6666665E0,3E0,9E0,5E0,7.5E0,2.6666667E0,5.25E0,1E0,1E1,6.5E0,6.92E2,8E0,1.605E3,-8.0883436E-2,-8.6758986E-2,-7.189286E-2,-8.085173E-2,-6.4070225E-2,-7.300329E-2,-5.1824924E-2,-6.587877E-2,-6.27332E-2,-5.2448284E-2,-4.6616055E-2,-3.7956387E-2,-3.6606595E-2,-5.4900207E-2,-2.3394613E-2,-4.1323908E-2,-3.6545794E-2,-2.4009906E-2,-1.947568E-2,-5.2605895E-3,-6.9723786E-3,6.145914E-3,2.5558785E-2,-1.0404723E-2,-3.738392E-3,1.6319973E-2,2.130351E-2,3.8338304E-2,3.2501977E-2,5.147296E-2,6.742109E-2,9.992333E-2,-1.3969067E-3,4.561232E-2,6.4250305E-2,8.625744E-2,8.002879E-2,1.0380818E-1,1.1197354E-1,1.4040808E-1,1.221955E-1,5.971548E-2,1.102013E-1,7.040139E-2,1.4010827E-1,1.0652714E-1,1.5774761E-1,1.8793163E-1,-7.3902756E-3,1.7475162E-1,1.6582273E-1,2.0692407E-1,3.0264047E-1,2.0693877E-1,2.656287E-1,2.3455177E-1,2.1193063E-1,2.5969365E-1,2.653273E-1,3.1197172E-1,2.5964925E-1,3.2739493E-1,3.686956E-1,7.108283E-2],"split_indices":[8,8,8,8,8,8,8,8,6,6,6,6,6,6,8,8,6,8,8,6,6,8,6,6,6,6,6,8,8,6,6,4,4,4,4,6,6,4,4,6,8,8,4,6,6,8,6,6,8,8,6,1,4,4,6,6,6,4,2,6,0,6,0,0,0,0,0,0,0,0,0,0,0,0,0,0,0,0,0,0,0,0,0,0,0,0,0,0,0,0,0,0,0,0,0,0,0,0,0,0,0,0,0,0,0,0,0,0,0,0,0,0,0,0,0,0,0,0,0,0,0,0,0,0,0,0,0],"split_type":[0,0,0,0,0,0,0,0,0,0,0,0,0,0,0,0,0,0,0,0,0,0,0,0,0,0,0,0,0,0,0,0,0,0,0,0,0,0,0,0,0,0,0,0,0,0,0,0,0,0,0,0,0,0,0,0,0,0,0,0,0,0,0,0,0,0,0,0,0,0,0,0,0,0,0,0,0,0,0,0,0,0,0,0,0,0,0,0,0,0,0,0,0,0,0,0,0,0,0,0,0,0,0,0,0,0,0,0,0,0,0,0,0,0,0,0,0,0,0,0,0,0,0,0,0,0,0],"sum_hessian":[2.04205E5,1.64481E5,3.9724E4,1.08977E5,5.5504E4,2.7783E4,1.1941E4,5.3532E4,5.5445E4,2.9437E4,2.6067E4,1.6655E4,1.1128E4,8.71E3,3.231E3,2.6448E4,2.7084E4,3.4292E4,2.1153E4,1.8111E4,1.1326E4,1.6563E4,9.504E3,9.213E3,7.442E3,2.675E3,8.453E3,5.505E3,3.205E3,1.634E3,1.597E3,1.3886E4,1.2562E4,2.0326E4,6.758E3,1.7427E4,1.6865E4,1.0505E4,1.0648E4,6.442E3,1.1669E4,8.946E3,2.38E3,1.0846E4,5.717E3,8.007E3,1.497E3,1.035E3,8.178E3,4.591E3,2.851E3,2.25E2,2.45E3,6.755E3,1.698E3,3.618E3,1.887E3,1.761E3,1.444E3,5.47E2,1.087E3,7.35E2,8.62E2,8.92E3,4.966E3,9.364E3,3.198E3,1.6072E4,4.254E3,5.642E3,1.116E3,4.715E3,1.2712E4,8.722E3,8.143E3,9.723E3,7.82E2,9.74E3,9.08E2,1.4E3,5.042E3,6.421E3,5.248E3,4.158E3,4.788E3,2.114E3,2.66E2,2.417E3,8.429E3,2.28E3,3.437E3,2.675E3,5.332E3,1.113E3,3.84E2,1.95E2,8.4E2,5.729E3,2.449E3,2.423E3,2.168E3,2.396E3,4.55E2,2.8E1,1.97E2,2.347E3,1.03E2,6.218E3,5.37E2,1.079E3,6.19E2,1.4E1,3.604E3,2.46E2,1.641E3,4.8E1,1.713E3,4.56E2,9.88E2,1.09E2,4.38E2,3E2,7.87E2,1.13E2,6.22E2,8.61E2,1E0],"tree_param":{"num_deleted":"0","num_feature":"9","num_nodes":"127","size_leaf_vector":"1"}},{"base_weights":[2.9015376E-3,-6.906391E-1,2.5298839E0,-1.0921134E0,6.1810303E-2,1.7493784E0,4.157282E0,-1.3768612E0,-8.5356444E-1,-1.8719214E-1,5.7762605E-1,1.2906119E0,2.3150191E0,3.6193407E0,5.97224E0,-1.5117263E0,-1.2429812E0,-9.928321E-1,-6.83135E-1,-3.88627E-1,3.144943E-2,3.456621E-1,9.182299E-1,1.1583945E0,1.8361629E0,2.0164504E0,2.5480564E0,3.3074515E0,4.168328E0,5.409192E0,6.5378537E0,-1.5996076E0,-1.4297951E0,-1.312587E0,-1.1317171E0,-1.0776167E0,-8.731293E-1,-7.635263E-1,-5.275898E-1,-6.301013E-1,-3.376846E-1,-9.8025374E-2,2.0104662E-1,3.7798977E-1,-1.2542407E-1,7.954817E-1,1.1791426E0,9.615745E-1,1.3590953E0,1.8826127E0,3.1274188E-1,1.4480942E0,2.125744E0,2.2921367E0,2.749331E0,2.8092868E0,3.446085E0,3.942482E0,4.565173E0,5.101952E0,5.8175497E0,5.8804884E0,6.785238E0,-8.0113344E-2,-1.3339545E-2,-7.411315E-2,-6.550932E-2,-6.303099E-2,-7.2929114E-2,-6.10421E-2,-5.376349E-2,-5.8546036E-2,-4.851716E-2,-4.6174146E-2,-4.0065255E-2,-4.233327E-2,-3.191146E-2,-2.4842696E-2,-4.1553315E-2,-5.325181E-2,-3.057217E-2,-1.5411493E-2,-3.1846914E-2,-2.077149E-2,-2.520987E-3,1.8936807E-4,1.6485112E-2,1.4645613E-2,2.6737187E-2,-1.4084393E-2,7.868232E-3,4.861626E-3,4.0947396E-2,5.345128E-2,7.49902E-2,4.94046E-2,1.2123391E-2,6.526988E-2,8.0674775E-2,9.1207705E-2,1.3015227E-1,-3.479481E-2,2.8533211E-2,2.6773825E-2,7.4975E-2,9.258996E-2,1.12637095E-1,1.164272E-1,6.784153E-2,1.3642359E-1,2.5379106E-1,1.1992011E-1,1.476723E-1,1.7092828E-1,2.1542151E-1,2.0070946E-1,1.434541E-1,-1.3681722E-2,2.2877362E-1,2.4213564E-1,2.7437744E-1,1.4883731E-1,2.9550374E-1,1.3701044E-1,2.961913E-1,2.5913772E-1,3.410681E-1],"categories":[],"categories_nodes":[],"categories_segments":[],"categories_sizes":[],"default_left":[0,0,0,0,0,0,0,0,0,0,0,0,0,0,0,0,0,0,0,0,0,0,0,0,0,0,0,0,0,0,0,0,0,0,0,0,0,0,0,0,0,0,0,0,0,0,0,0,0,0,0,0,0,0,0,0,0,0,0,0,0,0,0,0,0,0,0,0,0,0,0,0,0,0,0,0,0,0,0,0,0,0,0,0,0,0,0,0,0,0,0,0,0,0,0,0,0,0,0,0,0,0,0,0,0,0,0,0,0,0,0,0,0,0,0,0,0,0,0,0,0,0,0,0,0,0,0],"id":3,"left_children":[1,3,5,7,9,11,13,15,17,19,21,23,25,27,29,31,33,35,37,39,41,43,45,47,49,51,53,55,57,59,61,63,65,67,69,71,73,75,77,79,81,83,85,87,89,91,93,95,97,99,101,103,105,107,109,111,113,115,117,119,121,123,125,-1,-1,-1,-1,-1,-1,-1,-1,-1,-1,-1,-1,-1,-1,-1,-1,-1,-1,-1,-1,-1,-1,-1,-1,-1,-1,-1,-1,-1,-1,-1,-1,-1,-1,-1,-1,-1,-1,-1,-1,-1,-1,-1,-1,-1,-1,-1,-1,-1,-1,-1,-1,-1,-1,-1,-1,-1,-1,-1,-1,-1,-1,-1,-1],"loss_changes":[3.582926E5,4.8459086E4,5.591425E4,7.1040625E3,7.168567E3,7.7188594E3,1.3910781E4,8.590547E2,1.3503555E3,1.6578424E3,1.435333E3,1.183207E3,9.219844E2,1.871375E3,1.00316406E3,1.6871094E2,1.838711E2,3.1694336E2,3.197119E2,2.4079419E2,3.963937E2,1.6468958E2,2.3481006E2,5.2130273E2,2.2613574E2,3.600625E2,3.789922E2,4.7554688E2,3.3916406E2,1.7608203E2,2.2386719E2,4.0154297E1,7.524609E1,1.0982031E2,4.5061523E1,1.8233984E2,4.6246094E1,1.7524805E2,8.097974E1,2.7036987E1,1.4243005E2,1.5466254E2,1.9833182E2,1.3476611E2,3.0756123E1,8.1994385E1,8.148169E1,1.27197754E2,8.734473E1,1.261875E2,2.5371552E1,4.3577393E1,1.6633594E2,1.0917969E2,1.890957E2,8.383789E1,1.1560156E2,1.8452734E2,7.296484E1,6.778906E1,1.6560938E2,4.5145508E1,3.2492188E1,0E0,0E0,0E0,0E0,0E0,0E0,0E0,0E0,0E0,0E0,0E0,0E0,0E0,0E0,0E0,0E0,0E0,0E0,0E0,0E0,0E0,0E0,0E0,0E0,0E0,0E0,0E0,0E0,0E0,0E0,0E0,0E0,0E0,0E0,0E0,0E0,0E0,0E0,0E0,0E0,0E0,0E0,0E0,0E0,0E0,0E0,0E0,0E0,0E0,0E0,0E0,0E0,0E0,0E0,0E0,0E0,0E0,0E0,0E0,0E0,0E0,0E0,0E0,0E0],"parents":[2147483647,0,0,1,1,2,2,3,3,4,4,5,5,6,6,7,7,8,8,9,9,10,10,11,11,12,12,13,13,14,14,15,15,16,16,17,17,18,18,19,19,20,20,21,21,22,22,23,23,24,24,25,25,26,26,27,27,28,28,29,29,30,30,31,31,32,32,33,33,34,34,35,35,36,36,37,37,38,38,39,39,40,40,41,41,42,42,43,43,44,44,45,45,46,46,47,47,48,48,49,49,50,50,51,51,52,52,53,53,54,54,55,55,56,56,57,57,58,58,59,59,60,60,61,61,62,62],"right_children":[2,4,6,8,10,12,14,16,18,20,22,24,26,28,30,32,34,36,38,40,42,44,46,48,50,52,54,56,58,60,62,64,66,68,70,72,74,76,78,80,82,84,86,88,90,92,94,96,98,100,102,104,106,108,110,112,114,116,118,120,122,124,126,-1,-1,-1,-1,-1,-1,-1,-1,-1,-1,-1,-1,-1,-1,-1,-1,-1,-1,-1,-1,-1,-1,-1,-1,-1,-1,-1,-1,-1,-1,-1,-1,-1,-1,-1,-1,-1,-1,-1,-1,-1,-1,-1,-1,-1,-1,-1,-1,-1,-1,-1,-1,-1,-1,-1,-1,-1,-1,-1,-1,-1,-1,-1,-1],"split_conditions":[3.5E0,1.7E0,5.8E0,9.0909094E-1,2.7E0,4.44E0,8.24E0,6E-1,1.32E0,2.16E0,3.08E0,4.6E0,5E0,6.92E0,9.44E0,3.3333334E-1,1.75E1,2.12E1,1.7E0,1.5E0,2.56E0,6E0,3.68E0,3.64E0,1E1,2.46E1,5.16E0,5.7E0,7.8E0,9E0,9.6E0,3.2E1,1.54E1,4E0,7.5E-1,1.1E0,1.3E0,2.45E1,5E0,7.5E-1,5E0,1.7E0,2.23E1,2.76E0,2.94E1,1.51E1,3.21E1,1E1,3.46E1,5.8E0,3.22E2,3.6E0,4.3E0,9E0,7.8E0,5E0,8.1E0,6E0,2.37E1,8.8E0,3.02E1,7.1E0,3.05E1,-8.0113344E-2,-1.3339545E-2,-7.411315E-2,-6.550932E-2,-6.303099E-2,-7.2929114E-2,-6.10421E-2,-5.376349E-2,-5.8546036E-2,-4.851716E-2,-4.6174146E-2,-4.0065255E-2,-4.233327E-2,-3.191146E-2,-2.4842696E-2,-4.1553315E-2,-5.325181E-2,-3.057217E-2,-1.5411493E-2,-3.1846914E-2,-2.077149E-2,-2.520987E-3,1.8936807E-4,1.6485112E-2,1.4645613E-2,2.6737187E-2,-1.4084393E-2,7.868232E-3,4.861626E-3,4.0947396E-2,5.345128E-2,7.49902E-2,4.94046E-2,1.2123391E-2,6.526988E-2,8.0674775E-2,9.1207705E-2,1.3015227E-1,-3.479481E-2,2.8533211E-2,2.6773825E-2,7.4975E-2,9.258996E-2,1.12637095E-1,1.164272E-1,6.784153E-2,1.3642359E-1,2.5379106E-1,1.1992011E-1,1.476723E-1,1.7092828E-1,2.1542151E-1,2.0070946E-1,1.434541E-1,-1.3681722E-2,2.2877362E-1,2.4213564E-1,2.7437744E-1,1.4883731E-1,2.9550374E-1,1.3701044E-1,2.961913E-1,2.5913772E-1,3.410681E-1],"split_indices":[7,8,8,8,7,8,8,8,8,8,8,7,7,8,8,7,5,5,7,7,8,4,8,8,4,5,8,7,7,7,7,5,5,4,7,7,7,5,4,7,4,7,5,8,5,5,5,4,5,7,0,7,7,4,7,7,7,4,5,8,5,7,5,0,0,0,0,0,0,0,0,0,0,0,0,0,0,0,0,0,0,0,0,0,0,0,0,0,0,0,0,0,0,0,0,0,0,0,0,0,0,0,0,0,0,0,0,0,0,0,0,0,0,0,0,0,0,0,0,0,0,0,0,0,0,0,0],"split_type":[0,0,0,0,0,0,0,0,0,0,0,0,0,0,0,0,0,0,0,0,0,0,0,0,0,0,0,0,0,0,0,0,0,0,0,0,0,0,0,0,0,0,0,0,0,0,0,0,0,0,0,0,0,0,0,0,0,0,0,0,0,0,0,0,0,0,0,0,0,0,0,0,0,0,0,0,0,0,0,0,0,0,0,0,0,0,0,0,0,0,0,0,0,0,0,0,0,0,0,0,0,0,0,0,0,0,0,0,0,0,0,0,0,0,0,0,0,0,0,0,0,0,0,0,0,0,0],"sum_hessian":[2.04437E5,1.60412E5,4.4025E4,1.04601E5,5.5811E4,2.9756E4,1.4269E4,4.7681E4,5.692E4,3.7641E4,1.817E4,1.6432E4,1.3324E4,1.1009E4,3.26E3,2.3748E4,2.3933E4,3.1321E4,2.5599E4,1.9591E4,1.805E4,1.081E4,7.36E3,1.3229E4,3.203E3,5.845E3,7.479E3,7.025E3,3.984E3,1.639E3,1.621E3,1.1449E4,1.2299E4,1.4716E4,9.217E3,1.833E4,1.2991E4,1.6874E4,8.725E3,3.411E3,1.618E4,1.0236E4,7.814E3,1.0116E4,6.94E2,5.008E3,2.352E3,6.682E3,6.547E3,3.108E3,9.5E1,9.45E2,4.9E3,3.298E3,4.181E3,1.534E3,5.491E3,2.546E3,1.438E3,9.43E2,6.96E2,4.5E2,1.171E3,1.1426E4,2.3E1,8.541E3,3.758E3,1.086E4,3.856E3,3.566E3,5.651E3,9.798E3,8.532E3,7.63E3,5.361E3,1.014E4,6.734E3,7.925E3,8E2,1.38E2,3.273E3,1.4732E4,1.448E3,1.334E3,8.902E3,3.085E3,4.729E3,6.559E3,3.557E3,4.47E2,2.47E2,1.63E2,4.845E3,1.754E3,5.98E2,6.444E3,2.38E2,5.411E3,1.136E3,2.878E3,2.3E2,1.9E1,7.6E1,5.1E1,8.94E2,1.557E3,3.343E3,3.173E3,1.25E2,4.146E3,3.5E1,4.03E2,1.131E3,5.326E3,1.65E2,2.384E3,1.62E2,3E0,1.435E3,5.72E2,3.71E2,2.3E1,6.73E2,7E0,4.43E2,2.9E1,1.142E3],"tree_param":{"num_deleted":"0","num_feature":"9","num_nodes":"127","size_leaf_vector":"1"}},{"base_weights":[4.230988E-3,-6.1690736E-1,2.5726001E0,-1.0163205E0,1.688527E-1,1.8697374E0,4.1807437E0,-1.2808111E0,-7.609178E-1,-1.4129306E-1,6.144304E-1,1.3933008E0,2.354354E0,3.6090968E0,5.7130437E0,-1.4247955E0,-1.1416987E0,-9.097811E-1,-6.0838485E-1,-2.6990277E-1,1.2697662E-1,4.742408E-1,1.0715433E0,1.2219108E0,1.7522246E0,2.0593283E0,2.6349528E0,3.3487256E0,4.0601E0,4.924326E0,6.1403923E0,-1.4864749E0,-1.3037027E0,-1.1947199E0,-9.784507E-1,-1.0655313E0,-8.343779E-1,-6.8749815E-1,-4.021449E-1,-3.3493257E-1,-3.544363E-3,-1.4217412E-1,2.6025853E-1,2.8216863E-1,7.127209E-1,9.073979E-1,1.4502789E0,1.0422782E0,1.4504875E0,1.2563145E0,1.892101E0,1.9431214E0,2.4883347E0,2.5711606E0,3.408951E0,2.7672105E0,3.4384313E0,3.8491096E0,4.490664E0,4.4927654E0,5.3188467E0,5.706408E0,6.5106335E0,-7.674077E-2,-6.9855675E-2,-6.837911E-2,-6.128035E-2,-6.406649E-2,-5.5197418E-2,-4.999352E-2,-3.6021493E-2,-5.7677634E-2,-4.5304734E-2,-4.3924447E-2,-3.4744322E-2,-3.9070796E-2,-2.8165942E-2,-2.1840287E-2,2.6303742E-3,-2.1919189E-2,-1.1230776E-2,-1.9882899E-3,1.2211883E-2,-2.6111035E-2,-2.7426141E-3,9.479604E-3,2.2153502E-2,5.1272204E-3,1.896854E-2,2.2008402E-2,4.0601853E-2,3.592426E-2,5.1155336E-2,6.5310106E-2,9.198988E-2,4.093493E-2,6.0989268E-2,-5.526333E-2,7.325029E-2,4.8107527E-2,7.378148E-2,8.680551E-2,1.05785325E-1,7.680979E-2,1.0206833E-1,1.21352114E-1,1.8958443E-1,1.1990996E-1,1.387371E-1,1.2138285E-1,1.7430525E-1,-2.9120577E-2,1.4088945E-1,1.6881786E-1,2.0551379E-1,1.5516768E-1,1.9606946E-1,2.0372386E-1,2.3675266E-1,2.4363175E-1,2.044224E-1,2.3434465E-1,2.8626874E-1,1.2666248E-1,2.881427E-1,2.9266644E-1,3.355163E-1],"categories":[],"categories_nodes":[],"categories_segments":[],"categories_sizes":[],"default_left":[0,0,0,0,0,0,0,0,0,0,0,0,0,0,0,0,0,0,0,0,0,0,0,0,0,0,0,0,0,0,0,0,0,0,0,0,0,0,0,0,0,0,0,0,0,0,0,0,0,0,0,0,0,0,0,0,0,0,0,0,0,0,0,0,0,0,0,0,0,0,0,0,0,0,0,0,0,0,0,0,0,0,0,0,0,0,0,0,0,0,0,0,0,0,0,0,0,0,0,0,0,0,0,0,0,0,0,0,0,0,0,0,0,0,0,0,0,0,0,0,0,0,0,0,0,0,0],"id":4,"left_children":[1,3,5,7,9,11,13,15,17,19,21,23,25,27,29,31,33,35,37,39,41,43,45,47,49,51,53,55,57,59,61,63,65,67,69,71,73,75,77,79,81,83,85,87,89,91,93,95,97,99,101,103,105,107,109,111,113,115,117,119,121,123,125,-1,-1,-1,-1,-1,-1,-1,-1,-1,-1,-1,-1,-1,-1,-1,-1,-1,-1,-1,-1,-1,-1,-1,-1,-1,-1,-1,-1,-1,-1,-1,-1,-1,-1,-1,-1,-1,-1,-1,-1,-1,-1,-1,-1,-1,-1,-1,-1,-1,-1,-1,-1,-1,-1,-1,-1,-1,-1,-1,-1,-1,-1,-1,-1],"loss_changes":[3.2515022E5,5.1509324E4,4.4856188E4,7.3495156E3,7.6438765E3,6.374336E3,1.0552781E4,1.0690547E3,1.2564805E3,1.1252509E3,1.4541641E3,8.548379E2,1.1280469E3,1.0190703E3,1.0746406E3,1.9421484E2,2.3419531E2,3.281211E2,4.4590918E2,3.8184546E2,3.7917792E2,7.9562134E2,3.2985156E2,3.8576465E2,3.0977148E2,3.2813672E2,3.375547E2,2.8161328E2,2.746875E2,1.730918E2,3.038203E2,7.298828E1,4.25791E1,1.5991602E2,3.6154297E1,1.2715332E2,1.1556641E2,2.3004883E2,1.1956262E2,2.0211829E2,3.8844624E1,1.16156815E2,9.1237915E1,1.6801227E2,2.0942676E2,8.055786E1,8.789453E1,2.0874707E2,1.5553027E2,6.264319E1,1.186875E2,2.0715039E2,1.0423535E2,2.2166016E2,3.1739258E1,1.2887549E2,1.8759766E2,1.0447656E2,8.760547E1,6.593359E1,1.27052734E2,1.6182617E2,1.1009375E2,0E0,0E0,0E0,0E0,0E0,0E0,0E0,0E0,0E0,0E0,0E0,0E0,0E0,0E0,0E0,0E0,0E0,0E0,0E0,0E0,0E0,0E0,0E0,0E0,0E0,0E0,0E0,0E0,0E0,0E0,0E0,0E0,0E0,0E0,0E0,0E0,0E0,0E0,0E0,0E0,0E0,0E0,0E0,0E0,0E0,0E0,0E0,0E0,0E0,0E0,0E0,0E0,0E0,0E0,0E0,0E0,0E0,0E0,0E0,0E0,0E0,0E0,0E0,0E0],"parents":[2147483647,0,0,1,1,2,2,3,3,4,4,5,5,6,6,7,7,8,8,9,9,10,10,11,11,12,12,13,13,14,14,15,15,16,16,17,17,18,18,19,19,20,20,21,21,22,22,23,23,24,24,25,25,26,26,27,27,28,28,29,29,30,30,31,31,32,32,33,33,34,34,35,35,36,36,37,37,38,38,39,39,40,40,41,41,42,42,43,43,44,44,45,45,46,46,47,47,48,48,49,49,50,50,51,51,52,52,53,53,54,54,55,55,56,56,57,57,58,58,59,59,60,60,61,61,62,62],"right_children":[2,4,6,8,10,12,14,16,18,20,22,24,26,28,30,32,34,36,38,40,42,44,46,48,50,52,54,56,58,60,62,64,66,68,70,72,74,76,78,80,82,84,86,88,90,92,94,96,98,100,102,104,106,108,110,112,114,116,118,120,122,124,126,-1,-1,-1,-1,-1,-1,-1,-1,-1,-1,-1,-1,-1,-1,-1,-1,-1,-1,-1,-1,-1,-1,-1,-1,-1,-1,-1,-1,-1,-1,-1,-1,-1,-1,-1,-1,-1,-1,-1,-1,-1,-1,-1,-1,-1,-1,-1,-1,-1,-1,-1,-1,-1,-1,-1,-1,-1,-1,-1,-1,-1,-1,-1,-1],"split_conditions":[3.64E0,1.8E0,6.12E0,1E0,2.7E0,4.7E0,8.24E0,6.25E-1,1.3333334E0,2.4E0,4E0,4.44E0,5.16E0,7.08E0,9E0,5E-1,1.2E0,1E0,2E0,2.5E0,2E0,3E0,4.6666665E0,4E0,2.46E1,6.2E0,7.5E0,5.2E0,8.2E0,8.8E0,1.02E1,1.17E1,1.37E1,1.575E1,2E0,2.11E1,1.6666666E0,2.45E1,3.2E0,2.04E0,3.25E0,1.2E0,2.92E0,2.8E0,2.4E1,2.96E0,5.5E0,2.78E1,1.47E1,3.9E0,4.25E0,4.2E0,8.25E0,1E0,1.61E2,2.6666667E0,7.8E0,5.25E0,7.52E0,1.4E1,8E0,2.91E1,9.44E0,-7.674077E-2,-6.9855675E-2,-6.837911E-2,-6.128035E-2,-6.406649E-2,-5.5197418E-2,-4.999352E-2,-3.6021493E-2,-5.7677634E-2,-4.5304734E-2,-4.3924447E-2,-3.4744322E-2,-3.9070796E-2,-2.8165942E-2,-2.1840287E-2,2.6303742E-3,-2.1919189E-2,-1.1230776E-2,-1.9882899E-3,1.2211883E-2,-2.6111035E-2,-2.7426141E-3,9.479604E-3,2.2153502E-2,5.1272204E-3,1.896854E-2,2.2008402E-2,4.0601853E-2,3.592426E-2,5.1155336E-2,6.5310106E-2,9.198988E-2,4.093493E-2,6.0989268E-2,-5.526333E-2,7.325029E-2,4.8107527E-2,7.378148E-2,8.680551E-2,1.05785325E-1,7.680979E-2,1.0206833E-1,1.21352114E-1,1.8958443E-1,1.1990996E-1,1.387371E-1,1.2138285E-1,1.7430525E-1,-2.9120577E-2,1.4088945E-1,1.6881786E-1,2.0551379E-1,1.5516768E-1,1.9606946E-1,2.0372386E-1,2.3675266E-1,2.4363175E-1,2.044224E-1,2.3434465E-1,2.8626874E-1,1.2666248E-1,2.881427E-1,2.9266644E-1,3.355163E-1],"split_indices":[8,8,8,8,7,7,8,8,8,8,6,8,8,8,7,6,6,6,6,6,6,8,6,6,5,6,6,6,6,8,6,5,5,5,6,5,6,5,6,8,6,6,8,6,5,8,6,5,5,7,6,8,6,3,0,6,7,6,8,1,6,5,8,0,0,0,0,0,0,0,0,0,0,0,0,0,0,0,0,0,0,0,0,0,0,0,0,0,0,0,0,0,0,0,0,0,0,0,0,0,0,0,0,0,0,0,0,0,0,0,0,0,0,0,0,0,0,0,0,0,0,0,0,0,0,0,0],"split_type":[0,0,0,0,0,0,0,0,0,0,0,0,0,0,0,0,0,0,0,0,0,0,0,0,0,0,0,0,0,0,0,0,0,0,0,0,0,0,0,0,0,0,0,0,0,0,0,0,0,0,0,0,0,0,0,0,0,0,0,0,0,0,0,0,0,0,0,0,0,0,0,0,0,0,0,0,0,0,0,0,0,0,0,0,0,0,0,0,0,0,0,0,0,0,0,0,0,0,0,0,0,0,0,0,0,0,0,0,0,0,0,0,0,0,0,0,0,0,0,0,0,0,0,0,0,0,0],"sum_hessian":[2.03814E5,1.64123E5,3.9691E4,1.08812E5,5.5311E4,2.7621E4,1.207E4,5.3453E4,5.5359E4,3.2612E4,2.2699E4,1.393E4,1.3691E4,8.793E3,3.277E3,2.6262E4,2.7191E4,2.8014E4,2.7345E4,2.2044E4,1.0568E4,1.7373E4,5.326E3,9.431E3,4.499E3,6.678E3,7.013E3,5.58E3,3.213E3,1.156E3,2.121E3,1.7392E4,8.87E3,2.052E4,6.671E3,9.134E3,1.888E4,1.9762E4,7.583E3,1.7718E4,4.326E3,3.5E3,7.068E3,9.624E3,7.749E3,3.718E3,1.608E3,5.284E3,4.147E3,9.92E2,3.507E3,5.259E3,1.419E3,6.483E3,5.3E2,7.5E2,4.83E3,2.163E3,1.05E3,5.58E2,5.98E2,9.84E2,1.137E3,1.1276E4,6.116E3,4.87E3,4E3,1.0494E4,1.0026E4,6.157E3,5.14E2,5.881E3,3.253E3,1.434E4,4.54E3,1.1249E4,8.513E3,7.046E3,5.37E2,9.142E3,8.576E3,3.775E3,5.51E2,6.53E2,2.847E3,5.099E3,1.969E3,3.38E3,6.244E3,2.071E3,5.678E3,1.415E3,2.303E3,1.177E3,4.31E2,2.341E3,2.943E3,2.3E1,4.124E3,4.26E2,5.66E2,2.071E3,1.436E3,1.026E3,4.233E3,1.358E3,6.1E1,3.512E3,2.971E3,4.1E1,4.89E2,1.1E1,7.39E2,4.427E3,4.03E2,1.95E2,1.968E3,3.95E2,6.55E2,2.82E2,2.76E2,2.39E2,3.59E2,1.8E1,9.66E2,2.72E2,8.65E2],"tree_param":{"num_deleted":"0","num_feature":"9","num_nodes":"127","size_leaf_vector":"1"}},{"base_weights":[3.7579234E-3,-6.0603374E-1,2.3442967E0,-9.6400124E-1,1.2839547E-1,1.6216795E0,3.7563505E0,-1.2204382E0,-7.1737653E-1,-1.24771595E-1,5.488163E-1,1.1516522E0,2.0594795E0,3.2033536E0,5.152103E0,-1.3264364E0,-1.0589095E0,-8.337329E-1,-5.387172E-1,-2.5257373E-1,1.3113338E-1,3.26337E-1,8.3760476E-1,1.0408673E0,1.6073132E0,1.7747531E0,2.2592561E0,2.9151661E0,3.5401049E0,4.6511135E0,5.910504E0,-1.4097726E0,-1.2296635E0,-1.1190559E0,-9.4172525E-1,-9.269281E-1,-7.277631E-1,-6.334631E-1,-4.153058E-1,-3.576221E-1,-1.4951696E-1,-5.2400154E-1,1.5676908E-1,3.598776E-1,-1.4420146E-1,7.3252314E-1,1.1347734E0,9.018466E-1,1.199845E0,1.6559105E0,1.4878505E-1,1.5769608E0,1.9068376E0,2.0500624E0,2.4094148E0,2.5520895E0,3.0631177E0,3.4003923E0,4.011412E0,4.427829E0,5.0933404E0,5.353572E0,6.1078057E0,-7.333962E-2,-6.670655E-2,-6.386149E-2,-5.7042606E-2,-5.367235E-2,-6.360181E-2,-5.0231215E-2,-4.4876643E-2,-5.133462E-2,-4.228879E-2,-3.956463E-2,-3.1387057E-2,-3.5456527E-2,-2.5748476E-2,-2.182961E-2,-5.428907E-3,-1.6032735E-2,-2.9290488E-2,-2.3701528E-2,-5.1765693E-3,-3.8034316E-2,-1.3104278E-2,6.0447394E-3,2.3225961E-2,1.4901394E-2,2.6136408E-2,3.0285122E-3,-1.732124E-2,2.2907378E-2,3.985731E-2,4.5729466E-2,6.486322E-2,4.620632E-2,1.4687411E-2,5.1707078E-2,6.500064E-2,8.0826595E-2,1.5236317E-1,-1.4385563E-2,3.174419E-2,8.1018575E-2,4.5103967E-2,8.746481E-2,1.0626998E-1,1.0152199E-1,1.8414038E-1,1.122813E-1,1.3018425E-1,8.180436E-2,1.3105142E-1,1.09196536E-1,1.5498577E-1,1.5931858E-1,1.8257962E-1,2.222269E-1,1.9144024E-1,2.1325926E-1,2.4642323E-1,1.8740994E-1,2.6194528E-1,1.2893975E-1,2.7102116E-1,2.428966E-1,3.094687E-1],"categories":[],"categories_nodes":[],"categories_segments":[],"categories_sizes":[],"default_left":[0,0,0,0,0,0,0,0,0,0,0,0,0,0,0,0,0,0,0,0,0,0,0,0,0,0,0,0,0,0,0,0,0,0,0,0,0,0,0,0,0,0,0,0,0,0,0,0,0,0,0,0,0,0,0,0,0,0,0,0,0,0,0,0,0,0,0,0,0,0,0,0,0,0,0,0,0,0,0,0,0,0,0,0,0,0,0,0,0,0,0,0,0,0,0,0,0,0,0,0,0,0,0,0,0,0,0,0,0,0,0,0,0,0,0,0,0,0,0,0,0,0,0,0,0,0,0],"id":5,"left_children":[1,3,5,7,9,11,13,15,17,19,21,23,25,27,29,31,33,35,37,39,41,43,45,47,49,51,53,55,57,59,61,63,65,67,69,71,73,75,77,79,81,83,85,87,89,91,93,95,97,99,101,103,105,107,109,111,113,115,117,119,121,123,125,-1,-1,-1,-1,-1,-1,-1,-1,-1,-1,-1,-1,-1,-1,-1,-1,-1,-1,-1,-1,-1,-1,-1,-1,-1,-1,-1,-1,-1,-1,-1,-1,-1,-1,-1,-1,-1,-1,-1,-1,-1,-1,-1,-1,-1,-1,-1,-1,-1,-1,-1,-1,-1,-1,-1,-1,-1,-1,-1,-1,-1,-1,-1,-1],"loss_changes":[2.9155822E5,4.260573E4,4.307617E4,6.8897812E3,5.652496E3,5.745211E3,1.1014734E4,9.131172E2,1.154166E3,1.0841125E3,1.2821455E3,6.7839844E2,8.185E2,9.8334375E2,1.5128281E3,2.583203E2,1.4814258E2,3.314922E2,2.559126E2,2.3927563E2,1.8551405E2,1.7801123E2,2.70375E2,2.3849414E2,1.8638281E2,1.5288281E2,2.61875E2,2.888711E2,2.9696484E2,2.1896875E2,1.4410156E2,7.273828E1,6.160547E1,9.6197266E1,1.9072754E1,1.4398633E2,9.953906E1,1.10743164E2,6.2096924E1,9.215564E1,1.665059E2,2.5589104E1,1.172583E2,1.0586487E2,3.1119606E1,1.1344995E2,7.992212E1,7.81333E1,8.254248E1,1.3467822E2,1.8430168E1,6.87041E1,1.1930957E2,1.0645117E2,1.5130664E2,9.706543E1,1.1932422E2,1.8432812E2,6.784766E1,1.11947266E2,1.3975E2,6.559961E1,9.033594E1,0E0,0E0,0E0,0E0,0E0,0E0,0E0,0E0,0E0,0E0,0E0,0E0,0E0,0E0,0E0,0E0,0E0,0E0,0E0,0E0,0E0,0E0,0E0,0E0,0E0,0E0,0E0,0E0,0E0,0E0,0E0,0E0,0E0,0E0,0E0,0E0,0E0,0E0,0E0,0E0,0E0,0E0,0E0,0E0,0E0,0E0,0E0,0E0,0E0,0E0,0E0,0E0,0E0,0E0,0E0,0E0,0E0,0E0,0E0,0E0,0E0,0E0,0E0,0E0],"parents":[2147483647,0,0,1,1,2,2,3,3,4,4,5,5,6,6,7,7,8,8,9,9,10,10,11,11,12,12,13,13,14,14,15,15,16,16,17,17,18,18,19,19,20,20,21,21,22,22,23,23,24,24,25,25,26,26,27,27,28,28,29,29,30,30,31,31,32,32,33,33,34,34,35,35,36,36,37,37,38,38,39,39,40,40,41,41,42,42,43,43,44,44,45,45,46,46,47,47,48,48,49,49,50,50,51,51,52,52,53,53,54,54,55,55,56,56,57,57,58,58,59,59,60,60,61,61,62,62],"right_children":[2,4,6,8,10,12,14,16,18,20,22,24,26,28,30,32,34,36,38,40,42,44,46,48,50,52,54,56,58,60,62,64,66,68,70,72,74,76,78,80,82,84,86,88,90,92,94,96,98,100,102,104,106,108,110,112,114,116,118,120,122,124,126,-1,-1,-1,-1,-1,-1,-1,-1,-1,-1,-1,-1,-1,-1,-1,-1,-1,-1,-1,-1,-1,-1,-1,-1,-1,-1,-1,-1,-1,-1,-1,-1,-1,-1,-1,-1,-1,-1,-1,-1,-1,-1,-1,-1,-1,-1,-1,-1,-1,-1,-1,-1,-1,-1,-1,-1,-1,-1,-1,-1,-1,-1,-1,-1],"split_conditions":[3.6E0,1.8E0,5.8E0,1E0,2.7E0,4.32E0,7.84E0,7.2E-1,1.4210526E0,2.4E0,3.08E0,4.6E0,4.9E0,6.64E0,9.44E0,1.2E1,1.95E1,2.12E1,1.7E0,2.04E0,1.5E0,6E0,3.8E0,3.68E0,1E1,2.95E1,5.08E0,5.8E0,7.8E0,8.8E0,9.6E0,4.4E-1,6.666667E-1,4E0,9E-1,1.1E0,1.2777778E0,2.49E1,2.5E0,4E0,1.6E0,1.3E0,3.32E0,2.84E0,1E1,2.16E1,2.59E1,1E1,2.82E1,6.1E0,1E0,7E0,4.88E0,7.1E0,1E0,2.38E1,2.61E1,1E0,9E0,9E0,3.1E1,2.1E2,3.19E1,-7.333962E-2,-6.670655E-2,-6.386149E-2,-5.7042606E-2,-5.367235E-2,-6.360181E-2,-5.0231215E-2,-4.4876643E-2,-5.133462E-2,-4.228879E-2,-3.956463E-2,-3.1387057E-2,-3.5456527E-2,-2.5748476E-2,-2.182961E-2,-5.428907E-3,-1.6032735E-2,-2.9290488E-2,-2.3701528E-2,-5.1765693E-3,-3.8034316E-2,-1.3104278E-2,6.0447394E-3,2.3225961E-2,1.4901394E-2,2.6136408E-2,3.0285122E-3,-1.732124E-2,2.2907378E-2,3.985731E-2,4.5729466E-2,6.486322E-2,4.620632E-2,1.4687411E-2,5.1707078E-2,6.500064E-2,8.0826595E-2,1.5236317E-1,-1.4385563E-2,3.174419E-2,8.1018575E-2,4.5103967E-2,8.746481E-2,1.0626998E-1,1.0152199E-1,1.8414038E-1,1.122813E-1,1.3018425E-1,8.180436E-2,1.3105142E-1,1.09196536E-1,1.5498577E-1,1.5931858E-1,1.8257962E-1,2.222269E-1,1.9144024E-1,2.1325926E-1,2.4642323E-1,1.8740994E-1,2.6194528E-1,1.2893975E-1,2.7102116E-1,2.428966E-1,3.094687E-1],"split_indices":[7,8,8,8,7,8,8,8,8,8,8,7,7,8,8,5,5,5,7,8,7,4,8,8,4,5,8,7,7,8,7,8,7,4,7,7,8,5,7,4,7,7,8,8,4,5,5,4,5,7,3,4,8,7,3,5,5,3,2,7,5,0,5,0,0,0,0,0,0,0,0,0,0,0,0,0,0,0,0,0,0,0,0,0,0,0,0,0,0,0,0,0,0,0,0,0,0,0,0,0,0,0,0,0,0,0,0,0,0,0,0,0,0,0,0,0,0,0,0,0,0,0,0,0,0,0,0],"split_type":[0,0,0,0,0,0,0,0,0,0,0,0,0,0,0,0,0,0,0,0,0,0,0,0,0,0,0,0,0,0,0,0,0,0,0,0,0,0,0,0,0,0,0,0,0,0,0,0,0,0,0,0,0,0,0,0,0,0,0,0,0,0,0,0,0,0,0,0,0,0,0,0,0,0,0,0,0,0,0,0,0,0,0,0,0,0,0,0,0,0,0,0,0,0,0,0,0,0,0,0,0,0,0,0,0,0,0,0,0,0,0,0,0,0,0,0,0,0,0,0,0,0,0,0,0,0,0],"sum_hessian":[2.04279E5,1.62058E5,4.2221E4,1.08953E5,5.3105E4,2.793E4,1.4291E4,5.3412E4,5.5541E4,3.3146E4,1.9959E4,1.3471E4,1.4459E4,1.0238E4,4.053E3,3.2245E4,2.1167E4,3.3633E4,2.1908E4,2.2106E4,1.104E4,1.1275E4,8.684E3,1.0839E4,2.632E3,5.966E3,8.493E3,5.522E3,4.716E3,2.445E3,1.608E3,1.7318E4,1.4927E4,1.3982E4,7.185E3,1.7891E4,1.5742E4,1.2391E4,9.517E3,1.0946E4,1.116E4,4.15E2,1.0625E4,1.0525E4,7.5E2,6.418E3,2.266E3,5.786E3,5.053E3,2.547E3,8.5E1,2.394E3,3.572E3,3.555E3,4.938E3,1.604E3,3.918E3,3.644E3,1.072E3,1.632E3,8.13E2,4.28E2,1.18E3,9.864E3,7.454E3,9.712E3,5.215E3,1.0777E4,3.205E3,2.956E3,4.229E3,8.02E3,9.871E3,9.623E3,6.119E3,7.559E3,4.832E3,8.899E3,6.18E2,9.422E3,1.524E3,1.384E3,9.776E3,2.17E2,1.98E2,9.517E3,1.108E3,7.63E3,2.895E3,3.73E2,3.77E2,1.225E3,5.193E3,9.65E2,1.301E3,5.581E3,2.05E2,1.908E3,3.145E3,2.479E3,6.8E1,4.5E1,4E1,2.248E3,1.46E2,2.081E3,1.491E3,3.515E3,4E1,2.686E3,2.252E3,1.14E2,1.49E3,1.59E2,3.759E3,1.975E3,1.669E3,3.11E2,7.61E2,1.239E3,3.93E2,8.2E1,7.31E2,1.1E1,4.17E2,7.6E1,1.104E3],"tree_param":{"num_deleted":"0","num_feature":"9","num_nodes":"127","size_leaf_vector":"1"}},{"base_weights":[1.2798026E-3,-6.0966384E-1,2.103541E0,-9.1760445E-1,7.19456E-2,1.5199853E0,3.7537959E0,-1.1520681E0,-6.8347615E-1,-1.3112302E-1,4.4873437E-1,1.1092503E0,2.1042125E0,3.2261376E0,5.1728005E0,-1.2736561E0,-9.9058545E-1,-8.4916747E-1,-5.4825217E-1,-2.3856746E-1,1.11025065E-1,3.4879804E-1,8.588402E-1,9.0011895E-1,1.431132E0,1.8232254E0,2.3823502E0,3.0122802E0,3.783146E0,4.1685E0,5.4491105E0,-1.35999E0,-1.2037816E0,-1.0530888E0,-8.688508E-1,-8.0816543E-1,-1.0608835E0,-6.0156983E-1,-3.2497036E-1,-4.4296968E-1,-1.6387242E-1,-1.2683934E-1,2.3150565E-1,2.1508741E-1,5.772175E-1,8.929321E-1,-1.3501118E-1,4.5423946E-1,1.0077016E0,1.0835357E0,1.581661E0,1.8642809E0,7.624561E-1,2.0723448E0,2.5507555E0,2.0609841E0,3.0650158E0,3.6587105E0,4.452515E0,5.067275E-1,4.1833844E0,4.9607363E0,5.803155E0,-6.90139E-2,-6.0092546E-2,-5.8714416E-2,-6.692039E-2,-5.487293E-2,-4.5836378E-2,-4.5446213E-2,-3.6255978E-2,-4.1484214E-2,-2.2468662E-2,-5.733384E-2,-4.4581946E-2,-3.379945E-2,-2.572292E-2,-1.8659329E-2,6.1486913E-3,-1.895686E-2,-2.915434E-2,-1.3058941E-2,-2.6040473E-3,-1.2711373E-2,9.308927E-3,1.2848309E-2,-6.6617737E-3,1.2898813E-2,-3.0381137E-3,3.007928E-2,-6.605928E-3,3.8726993E-2,6.0281117E-2,-4.1906245E-2,1.463599E-2,1.192038E-2,4.363359E-2,4.6639938E-2,6.670374E-2,3.9032433E-2,6.5398276E-2,7.329108E-2,9.419469E-2,8.4055334E-2,1.0654465E-1,-7.6354935E-4,5.5219907E-2,8.381675E-2,1.1087234E-1,1.2404317E-1,1.5379007E-1,-3.5338711E-3,1.0769423E-1,1.4277129E-1,1.6390091E-1,1.6177115E-1,1.885256E-1,3.2748885E-2,2.2509646E-1,-4.2478394E-2,6.2100764E-2,-2.1980835E-2,2.0952928E-1,1.9256286E-1,2.5603503E-1,2.7078804E-1,3.033841E-1],"categories":[],"categories_nodes":[],"categories_segments":[],"categories_sizes":[],"default_left":[0,0,0,0,0,0,0,0,0,0,0,0,0,0,0,0,0,0,0,0,0,0,0,0,0,0,0,0,0,0,0,0,0,0,0,0,0,0,0,0,0,0,0,0,0,0,0,0,0,0,0,0,0,0,0,0,0,0,0,0,0,0,0,0,0,0,0,0,0,0,0,0,0,0,0,0,0,0,0,0,0,0,0,0,0,0,0,0,0,0,0,0,0,0,0,0,0,0,0,0,0,0,0,0,0,0,0,0,0,0,0,0,0,0,0,0,0,0,0,0,0,0,0,0,0,0,0],"id":6,"left_children":[1,3,5,7,9,11,13,15,17,19,21,23,25,27,29,31,33,35,37,39,41,43,45,47,49,51,53,55,57,59,61,63,65,67,69,71,73,75,77,79,81,83,85,87,89,91,93,95,97,99,101,103,105,107,109,111,113,115,117,119,121,123,125,-1,-1,-1,-1,-1,-1,-1,-1,-1,-1,-1,-1,-1,-1,-1,-1,-1,-1,-1,-1,-1,-1,-1,-1,-1,-1,-1,-1,-1,-1,-1,-1,-1,-1,-1,-1,-1,-1,-1,-1,-1,-1,-1,-1,-1,-1,-1,-1,-1,-1,-1,-1,-1,-1,-1,-1,-1,-1,-1,-1,-1,-1,-1,-1],"loss_changes":[2.6250325E5,3.3239492E4,4.431417E4,5.987172E3,3.770821E3,8.156633E3,8.984797E3,1.0688047E3,1.2224688E3,8.332096E2,7.070513E2,1.3428008E3,1.0925352E3,1.0328125E3,8.8109375E2,1.8589453E2,1.7723438E2,2.1204688E2,3.5762988E2,3.385985E2,2.8211047E2,4.2377002E2,1.1467651E2,5.802539E2,4.0965332E2,3.0282227E2,3.6277344E2,3.116914E2,1.8594531E2,3.6414062E1,4.1228906E2,4.293164E1,6.668359E1,9.256836E1,4.5125977E1,1.5829688E2,5.6709473E1,1.5693652E2,1.2522894E2,5.2870605E1,1.7672165E2,1.3203279E2,6.071225E1,1.0360681E2,8.864844E1,1.2008496E2,3.4229355E1,2.1247437E2,2.3715527E2,1.606958E2,1.8923535E2,3.248418E2,6.969252E1,1.3919043E2,1.5985352E2,6.669116E1,2.5867188E2,8.495703E1,6.760889E1,5.044246E0,2.5279297E1,1.7177734E2,1.1808984E2,0E0,0E0,0E0,0E0,0E0,0E0,0E0,0E0,0E0,0E0,0E0,0E0,0E0,0E0,0E0,0E0,0E0,0E0,0E0,0E0,0E0,0E0,0E0,0E0,0E0,0E0,0E0,0E0,0E0,0E0,0E0,0E0,0E0,0E0,0E0,0E0,0E0,0E0,0E0,0E0,0E0,0E0,0E0,0E0,0E0,0E0,0E0,0E0,0E0,0E0,0E0,0E0,0E0,0E0,0E0,0E0,0E0,0E0,0E0,0E0,0E0,0E0,0E0,0E0],"parents":[2147483647,0,0,1,1,2,2,3,3,4,4,5,5,6,6,7,7,8,8,9,9,10,10,11,11,12,12,13,13,14,14,15,15,16,16,17,17,18,18,19,19,20,20,21,21,22,22,23,23,24,24,25,25,26,26,27,27,28,28,29,29,30,30,31,31,32,32,33,33,34,34,35,35,36,36,37,37,38,38,39,39,40,40,41,41,42,42,43,43,44,44,45,45,46,46,47,47,48,48,49,49,50,50,51,51,52,52,53,53,54,54,55,55,56,56,57,57,58,58,59,59,60,60,61,61,62,62],"right_children":[2,4,6,8,10,12,14,16,18,20,22,24,26,28,30,32,34,36,38,40,42,44,46,48,50,52,54,56,58,60,62,64,66,68,70,72,74,76,78,80,82,84,86,88,90,92,94,96,98,100,102,104,106,108,110,112,114,116,118,120,122,124,126,-1,-1,-1,-1,-1,-1,-1,-1,-1,-1,-1,-1,-1,-1,-1,-1,-1,-1,-1,-1,-1,-1,-1,-1,-1,-1,-1,-1,-1,-1,-1,-1,-1,-1,-1,-1,-1,-1,-1,-1,-1,-1,-1,-1,-1,-1,-1,-1,-1,-1,-1,-1,-1,-1,-1,-1,-1,-1,-1,-1,-1,-1,-1,-1],"split_conditions":[3.32E0,1.8E0,6.12E0,1E0,2.7E0,4.7E0,8.24E0,7.2E-1,1.2777778E0,2.4E0,4E0,4.08E0,5.16E0,7.28E0,8.2E0,4.4E-1,1.93E1,4E0,2.2E0,1.5E0,2E0,2.92E0,1E1,2.6666667E0,3.5E0,9E0,5.4E0,4.5E0,9.2E0,4.6666665E0,9.44E0,1.66E1,5E0,1E0,1.2E0,2.2E0,2.01E1,2.44E1,3.2E0,3E0,2.08E0,2.76E1,6E0,4E0,1E1,4.6666665E0,2.61E1,2.92E1,4.5E0,2.69E1,4.88E0,5.5E0,4.44E0,2.96E1,7.5E0,2.6666667E0,6.64E0,6.25E0,7.5E0,4.84E2,8.7E1,3.12E1,1.02E1,-6.90139E-2,-6.0092546E-2,-5.8714416E-2,-6.692039E-2,-5.487293E-2,-4.5836378E-2,-4.5446213E-2,-3.6255978E-2,-4.1484214E-2,-2.2468662E-2,-5.733384E-2,-4.4581946E-2,-3.379945E-2,-2.572292E-2,-1.8659329E-2,6.1486913E-3,-1.895686E-2,-2.915434E-2,-1.3058941E-2,-2.6040473E-3,-1.2711373E-2,9.308927E-3,1.2848309E-2,-6.6617737E-3,1.2898813E-2,-3.0381137E-3,3.007928E-2,-6.605928E-3,3.8726993E-2,6.0281117E-2,-4.1906245E-2,1.463599E-2,1.192038E-2,4.363359E-2,4.6639938E-2,6.670374E-2,3.9032433E-2,6.5398276E-2,7.329108E-2,9.419469E-2,8.4055334E-2,1.0654465E-1,-7.6354935E-4,5.5219907E-2,8.381675E-2,1.1087234E-1,1.2404317E-1,1.5379007E-1,-3.5338711E-3,1.0769423E-1,1.4277129E-1,1.6390091E-1,1.6177115E-1,1.885256E-1,3.2748885E-2,2.2509646E-1,-4.2478394E-2,6.2100764E-2,-2.1980835E-2,2.0952928E-1,1.9256286E-1,2.5603503E-1,2.7078804E-1,3.033841E-1],"split_indices":[8,8,8,7,7,7,8,8,8,8,6,8,8,8,6,8,5,4,6,6,6,8,4,6,6,4,6,6,6,6,8,5,4,6,8,6,5,5,6,4,8,5,4,4,4,6,5,5,6,5,8,6,8,5,6,6,8,6,7,0,0,5,6,0,0,0,0,0,0,0,0,0,0,0,0,0,0,0,0,0,0,0,0,0,0,0,0,0,0,0,0,0,0,0,0,0,0,0,0,0,0,0,0,0,0,0,0,0,0,0,0,0,0,0,0,0,0,0,0,0,0,0,0,0,0,0,0],"split_type":[0,0,0,0,0,0,0,0,0,0,0,0,0,0,0,0,0,0,0,0,0,0,0,0,0,0,0,0,0,0,0,0,0,0,0,0,0,0,0,0,0,0,0,0,0,0,0,0,0,0,0,0,0,0,0,0,0,0,0,0,0,0,0,0,0,0,0,0,0,0,0,0,0,0,0,0,0,0,0,0,0,0,0,0,0,0,0,0,0,0,0,0,0,0,0,0,0,0,0,0,0,0,0,0,0,0,0,0,0,0,0,0,0,0,0,0,0,0,0,0,0,0,0,0,0,0,0],"sum_hessian":[2.04382E5,1.58361E5,4.6021E4,1.0908E5,4.9281E4,3.4E4,1.2021E4,5.4499E4,5.4581E4,3.2023E4,1.7258E4,1.9966E4,1.4034E4,8.765E3,3.256E3,3.1086E4,2.3413E4,2.4525E4,3.0056E4,2.2181E4,9.842E3,1.3878E4,3.38E3,1.2105E4,7.861E3,6.985E3,7.049E3,6.338E3,2.427E3,7.06E2,2.55E3,1.3897E4,1.7189E4,1.5465E4,7.948E3,2.055E4,3.975E3,2.4261E4,5.795E3,5.935E3,1.6246E4,3.309E3,6.533E3,8.755E3,5.123E3,3.268E3,1.12E2,2.354E3,9.751E3,2.378E3,5.483E3,6.724E3,2.61E2,2.486E3,4.563E3,3.35E2,6.003E3,2.052E3,3.75E2,3E0,7.03E2,1.078E3,1.472E3,1.231E4,1.587E3,1.4108E4,3.081E3,1.1663E4,3.802E3,6.211E3,1.737E3,1.9386E4,1.164E3,2.634E3,1.341E3,1.308E4,1.1181E4,5.232E3,5.63E2,4.08E3,1.855E3,8.685E3,7.561E3,2.352E3,9.57E2,6.107E3,4.26E2,7.577E3,1.178E3,4.953E3,1.7E2,2.373E3,8.95E2,4.2E1,7E1,1.554E3,8E2,7.934E3,1.817E3,1.014E3,1.364E3,3.968E3,1.515E3,3.99E3,2.734E3,8E1,1.81E2,6.7E2,1.816E3,4.032E3,5.31E2,1.4E1,3.21E2,3.033E3,2.97E3,4.35E2,1.617E3,5E0,3.7E2,1E0,2E0,1E0,7.02E2,1.39E2,9.39E2,6.06E2,8.66E2],"tree_param":{"num_deleted":"0","num_feature":"9","num_nodes":"127","size_leaf_vector":"1"}},{"base_weights":[1.6382323E-3,-5.2852225E-1,2.197575E0,-8.7238E-1,1.4688234E-1,1.6000419E0,3.5836625E0,-1.138628E0,-6.873099E-1,-1.4606115E-1,4.7500613E-1,1.2371618E0,2.074528E0,3.1093676E0,4.867131E0,-1.2452983E0,-1.028744E0,-8.2123965E-1,-5.339827E-1,-2.5672394E-1,1.2000371E-1,3.1895125E-1,8.4635824E-1,1.0006531E0,1.5470675E0,1.7801305E0,2.3685803E0,2.8596094E0,3.531835E0,4.4305954E0,5.500924E0,-1.2956706E0,-1.1480973E0,-1.0862085E0,-9.178851E-1,-9.2286193E-1,-6.8431646E-1,-6.692635E-1,-4.3745443E-1,-4.198853E-1,-1.82915E-1,7.791808E-2,5.800398E-1,3.5865072E-2,4.1188318E-1,7.6461256E-1,1.1857305E0,4.6487984E-1,1.0705603E0,1.3290374E0,1.7082294E0,1.286518E0,1.9050659E0,2.405324E0,1.1501638E0,2.7220886E0,3.125606E0,3.3136086E0,3.9948416E0,4.0159116E0,4.6508656E0,3.3586662E0,5.545024E0,-6.788065E-2,-6.2655695E-2,-6.0785975E-2,-5.39738E-2,-5.6859594E-2,-4.9326017E-2,-4.937217E-2,-4.3957714E-2,-4.860706E-2,-4.0272556E-2,-3.8216837E-2,-2.9556025E-2,-3.1679437E-2,-4.4057652E-2,-2.0520842E-2,-3.5659682E-2,-2.7224755E-2,-1.6977591E-2,-1.42578175E-2,-3.2789253E-3,7.472086E-3,-5.9570293E-3,2.7245909E-2,1.306329E-1,-2.7573772E-3,1.7305033E-2,1.281822E-2,2.8074792E-2,7.079811E-3,3.979562E-2,1.7230223E-1,5.749014E-2,-9.370426E-3,3.0662214E-2,4.355562E-2,6.0142577E-2,6.3962005E-2,9.0848E-2,7.889395E-2,9.467727E-2,6.1238308E-2,1.0928313E-1,8.7197535E-2,1.0537968E-1,1.1687987E-1,1.5018931E-1,2.7605062E-2,7.663424E-2,7.247871E-2,1.383328E-1,1.09821476E-1,1.5884739E-1,1.6858916E-1,7.9442315E-2,2.3510233E-1,1.8603885E-1,2.0591414E-1,1.649525E-1,1.9532365E-1,2.3889601E-1,2.0632704E-1,5.9688687E-2,2.654015E-1,2.9840285E-1],"categories":[],"categories_nodes":[],"categories_segments":[],"categories_sizes":[],"default_left":[0,0,0,0,0,0,0,0,0,0,0,0,0,0,0,0,0,0,0,0,0,0,0,0,0,0,0,0,0,0,0,0,0,0,0,0,0,0,0,0,0,0,0,0,0,0,0,0,0,0,0,0,0,0,0,0,0,0,0,0,0,0,0,0,0,0,0,0,0,0,0,0,0,0,0,0,0,0,0,0,0,0,0,0,0,0,0,0,0,0,0,0,0,0,0,0,0,0,0,0,0,0,0,0,0,0,0,0,0,0,0,0,0,0,0,0,0,0,0,0,0,0,0,0,0,0,0],"id":7,"left_children":[1,3,5,7,9,11,13,15,17,19,21,23,25,27,29,31,33,35,37,39,41,43,45,47,49,51,53,55,57,59,61,63,65,67,69,71,73,75,77,79,81,83,85,87,89,91,93,95,97,99,101,103,105,107,109,111,113,115,117,119,121,123,125,-1,-1,-1,-1,-1,-1,-1,-1,-1,-1,-1,-1,-1,-1,-1,-1,-1,-1,-1,-1,-1,-1,-1,-1,-1,-1,-1,-1,-1,-1,-1,-1,-1,-1,-1,-1,-1,-1,-1,-1,-1,-1,-1,-1,-1,-1,-1,-1,-1,-1,-1,-1,-1,-1,-1,-1,-1,-1,-1,-1,-1,-1,-1,-1],"loss_changes":[2.3781327E5,3.8214805E4,3.2896656E4,5.371867E3,5.3359785E3,4.7773594E3,7.269078E3,5.2278125E2,1.3205E3,8.635787E2,1.5171274E3,1.1516074E3,1.0371172E3,9.1209375E2,8.684531E2,1.0957031E2,1.3933594E2,4.7709375E2,3.9138086E2,2.4937695E2,1.667684E2,4.8504736E2,2.1401172E2,3.338213E2,2.369502E2,3.684922E2,2.6651953E2,1.9260938E2,3.144375E2,1.5633594E2,1.0532422E2,3.766211E1,3.4655273E1,7.258984E1,1.9410645E1,1.1322266E2,1.0865234E2,9.383984E1,1.3022754E2,6.4391846E1,1.7110135E2,1.11292725E2,5.011902E1,1.2871582E2,3.2283325E2,1.2168628E2,1.1801196E2,9.9988144E1,2.0726367E2,6.808887E1,9.148633E1,6.4951294E1,1.5288477E2,2.2960547E2,3.9875122E1,2.0196875E2,8.208789E1,2.1638867E2,1.8291602E2,3.5729492E1,9.9083984E1,4.328244E1,9.705078E1,0E0,0E0,0E0,0E0,0E0,0E0,0E0,0E0,0E0,0E0,0E0,0E0,0E0,0E0,0E0,0E0,0E0,0E0,0E0,0E0,0E0,0E0,0E0,0E0,0E0,0E0,0E0,0E0,0E0,0E0,0E0,0E0,0E0,0E0,0E0,0E0,0E0,0E0,0E0,0E0,0E0,0E0,0E0,0E0,0E0,0E0,0E0,0E0,0E0,0E0,0E0,0E0,0E0,0E0,0E0,0E0,0E0,0E0,0E0,0E0,0E0,0E0,0E0,0E0],"parents":[2147483647,0,0,1,1,2,2,3,3,4,4,5,5,6,6,7,7,8,8,9,9,10,10,11,11,12,12,13,13,14,14,15,15,16,16,17,17,18,18,19,19,20,20,21,21,22,22,23,23,24,24,25,25,26,26,27,27,28,28,29,29,30,30,31,31,32,32,33,33,34,34,35,35,36,36,37,37,38,38,39,39,40,40,41,41,42,42,43,43,44,44,45,45,46,46,47,47,48,48,49,49,50,50,51,51,52,52,53,53,54,54,55,55,56,56,57,57,58,58,59,59,60,60,61,61,62,62],"right_children":[2,4,6,8,10,12,14,16,18,20,22,24,26,28,30,32,34,36,38,40,42,44,46,48,50,52,54,56,58,60,62,64,66,68,70,72,74,76,78,80,82,84,86,88,90,92,94,96,98,100,102,104,106,108,110,112,114,116,118,120,122,124,126,-1,-1,-1,-1,-1,-1,-1,-1,-1,-1,-1,-1,-1,-1,-1,-1,-1,-1,-1,-1,-1,-1,-1,-1,-1,-1,-1,-1,-1,-1,-1,-1,-1,-1,-1,-1,-1,-1,-1,-1,-1,-1,-1,-1,-1,-1,-1,-1,-1,-1,-1,-1,-1,-1,-1,-1,-1,-1,-1,-1,-1,-1,-1,-1],"split_conditions":[3.64E0,1.8E0,6.12E0,8.8E-1,2.52E0,4.8E0,8.24E0,5E-1,1.25E0,2.6E0,3.6E0,4.4E0,5.4E0,7.3333335E0,1E1,1.3E1,1.76E1,2.11E1,1.36E0,1.5E0,4E0,2.2E0,4.6666665E0,2.5E0,4.2E0,2.66E1,1E1,6.92E0,7.52E0,8.8E0,2.95E1,3.2E-1,5.6E-1,1E0,6.666667E-1,1.2777778E0,1.2777778E0,4E0,5E0,2.07E1,2.12E0,3E0,6.2E0,2.98E1,2.96E0,1.67E1,1E0,1.6666666E0,3.96E0,6.2E0,5.25E0,2.9E1,1E0,7.5E0,3.15E1,2.425E1,4.6666665E0,1E1,9E0,4E0,3.18E1,4E0,1.9E1,-6.788065E-2,-6.2655695E-2,-6.0785975E-2,-5.39738E-2,-5.6859594E-2,-4.9326017E-2,-4.937217E-2,-4.3957714E-2,-4.860706E-2,-4.0272556E-2,-3.8216837E-2,-2.9556025E-2,-3.1679437E-2,-4.4057652E-2,-2.0520842E-2,-3.5659682E-2,-2.7224755E-2,-1.6977591E-2,-1.42578175E-2,-3.2789253E-3,7.472086E-3,-5.9570293E-3,2.7245909E-2,1.306329E-1,-2.7573772E-3,1.7305033E-2,1.281822E-2,2.8074792E-2,7.079811E-3,3.979562E-2,1.7230223E-1,5.749014E-2,-9.370426E-3,3.0662214E-2,4.355562E-2,6.0142577E-2,6.3962005E-2,9.0848E-2,7.889395E-2,9.467727E-2,6.1238308E-2,1.0928313E-1,8.7197535E-2,1.0537968E-1,1.1687987E-1,1.5018931E-1,2.7605062E-2,7.663424E-2,7.247871E-2,1.383328E-1,1.09821476E-1,1.5884739E-1,1.6858916E-1,7.9442315E-2,2.3510233E-1,1.8603885E-1,2.0591414E-1,1.649525E-1,1.9532365E-1,2.3889601E-1,2.0632704E-1,5.9688687E-2,2.654015E-1,2.9840285E-1],"split_indices":[8,8,8,8,8,8,8,6,6,6,6,6,6,6,6,5,5,5,8,6,6,6,6,6,8,5,4,8,8,8,5,8,8,6,8,8,8,4,4,5,8,4,6,5,8,5,4,6,8,6,6,2,3,6,5,5,6,4,2,4,5,4,1,0,0,0,0,0,0,0,0,0,0,0,0,0,0,0,0,0,0,0,0,0,0,0,0,0,0,0,0,0,0,0,0,0,0,0,0,0,0,0,0,0,0,0,0,0,0,0,0,0,0,0,0,0,0,0,0,0,0,0,0,0,0,0,0],"split_type":[0,0,0,0,0,0,0,0,0,0,0,0,0,0,0,0,0,0,0,0,0,0,0,0,0,0,0,0,0,0,0,0,0,0,0,0,0,0,0,0,0,0,0,0,0,0,0,0,0,0,0,0,0,0,0,0,0,0,0,0,0,0,0,0,0,0,0,0,0,0,0,0,0,0,0,0,0,0,0,0,0,0,0,0,0,0,0,0,0,0,0,0,0,0,0,0,0,0,0,0,0,0,0,0,0,0,0,0,0,0,0,0,0,0,0,0,0,0,0,0,0,0,0,0,0,0,0],"sum_hessian":[2.0427E5,1.64545E5,3.9725E4,1.09034E5,5.5511E4,2.776E4,1.1965E4,4.4709E4,6.4325E4,2.9328E4,2.6183E4,1.5732E4,1.2028E4,8.739E3,3.226E3,2.2681E4,2.2028E4,3.4332E4,2.9993E4,2.0713E4,8.615E3,1.8437E4,7.746E3,8.925E3,6.807E3,6.014E3,6.014E3,5.497E3,3.242E3,1.915E3,1.311E3,1.4931E4,7.75E3,1.4502E4,7.526E3,1.9703E4,1.4629E4,1.2487E4,1.7506E4,6.45E3,1.4263E4,7.894E3,7.21E2,4.557E3,1.388E4,6.245E3,1.501E3,1.031E3,7.894E3,2.897E3,3.91E3,1.217E3,4.797E3,5.837E3,1.77E2,3.631E3,1.866E3,2.209E3,1.033E3,6.71E2,1.244E3,2.8E1,1.283E3,6.068E3,8.863E3,3.895E3,3.855E3,9.588E3,4.914E3,2.683E3,4.843E3,1.3873E4,5.83E3,7.867E3,6.762E3,1.0691E4,1.796E3,1.5945E4,1.561E3,2.526E3,3.924E3,7.621E3,6.642E3,5.792E3,2.102E3,7.1E2,1.1E1,3.524E3,1.033E3,6.807E3,7.073E3,2.99E2,5.946E3,2.2E1,1.479E3,1.91E2,8.4E2,3.151E3,4.743E3,2.632E3,2.65E2,2.301E3,1.609E3,1.141E3,7.6E1,2.677E3,2.12E3,5.248E3,5.89E2,7E1,1.07E2,1.24E2,3.507E3,1E2,1.766E3,2.136E3,7.3E1,2.84E2,7.49E2,5.83E2,8.8E1,1.86E2,1.058E3,2E1,8E0,8.31E2,4.52E2],"tree_param":{"num_deleted":"0","num_feature":"9","num_nodes":"127","size_leaf_vector":"1"}},{"base_weights":[1.4215003E-3,-5.060887E-1,2.068987E0,-8.260903E-1,1.2904663E-1,1.5112425E0,3.3955226E0,-1.0158132E0,-5.850576E-1,-6.625356E-2,5.867208E-1,1.066617E0,1.8841093E0,2.940255E0,4.635232E0,-1.1359708E0,-8.800466E-1,-6.8873537E-1,-4.5362976E-1,-2.2270663E-1,1.0708898E-1,4.3950894E-1,8.0030024E-1,9.5035446E-1,1.4136406E0,1.6947318E0,2.2338064E0,2.7515385E0,3.4158583E0,4.1864805E0,5.1300635E0,-1.2292216E0,-1.0662584E0,-9.4017583E-1,-7.758105E-1,-7.417016E-1,-5.739106E-1,-5.630252E-1,-3.78491E-1,-3.2318407E-1,-9.748944E-2,-1.4199593E-2,2.1595275E-1,-6.25587E-2,4.8463678E-1,6.862242E-1,1.0801063E0,8.611488E-1,1.1003829E0,1.4549793E0,1.271986E-1,1.247502E0,1.763329E0,2.1680372E0,2.7037592E0,2.3886724E0,2.8621001E0,3.474511E0,2.2274063E0,3.8473732E0,4.4139047E0,4.8648977E0,5.456741E0,-6.360007E-2,-5.7664882E-2,-5.5428375E-2,-4.8036963E-2,-4.4822607E-2,-5.4080587E-2,-4.236563E-2,-3.689781E-2,-4.7114536E-2,-3.5564724E-2,-3.0495837E-2,-2.2839408E-2,-2.5481334E-2,-3.4451008E-2,-1.7530842E-2,-3.3598747E-2,-1.47634065E-2,-2.9586384E-2,-2.34535E-2,-2.6245941E-3,2.9014107E-3,-1.0330863E-2,1.2641422E-2,-1.3626998E-3,-3.1008372E-2,5.232723E-4,9.1363705E-4,2.5819767E-2,2.3972644E-2,3.9963104E-2,3.572319E-2,5.8990806E-2,3.9300498E-2,5.324033E-2,-8.157881E-2,5.5345446E-2,7.0305474E-2,1.0486125E-1,-6.5602966E-2,1.5779654E-2,6.468833E-2,2.2711977E-2,8.001544E-2,9.5474824E-2,1.10668324E-1,7.546971E-2,7.419612E-2,1.4017382E-1,-6.6550456E-2,1.2011661E-1,1.3838427E-1,1.6358294E-1,1.6399421E-1,1.8468015E-1,6.395992E-2,1.3639988E-1,1.4577879E-1,1.9711606E-1,9.505721E-2,2.2225372E-1,2.1027838E-1,2.530595E-1,2.5166047E-1,2.9625413E-1],"categories":[],"categories_nodes":[],"categories_segments":[],"categories_sizes":[],"default_left":[0,0,0,0,0,0,0,0,0,0,0,0,0,0,0,0,0,0,0,0,0,0,0,0,0,0,0,0,0,0,0,0,0,0,0,0,0,0,0,0,0,0,0,0,0,0,0,0,0,0,0,0,0,0,0,0,0,0,0,0,0,0,0,0,0,0,0,0,0,0,0,0,0,0,0,0,0,0,0,0,0,0,0,0,0,0,0,0,0,0,0,0,0,0,0,0,0,0,0,0,0,0,0,0,0,0,0,0,0,0,0,0,0,0,0,0,0,0,0,0,0,0,0,0,0,0,0],"id":8,"left_children":[1,3,5,7,9,11,13,15,17,19,21,23,25,27,29,31,33,35,37,39,41,43,45,47,49,51,53,55,57,59,61,63,65,67,69,71,73,75,77,79,81,83,85,87,89,91,93,95,97,99,101,103,105,107,109,111,113,115,117,119,121,123,125,-1,-1,-1,-1,-1,-1,-1,-1,-1,-1,-1,-1,-1,-1,-1,-1,-1,-1,-1,-1,-1,-1,-1,-1,-1,-1,-1,-1,-1,-1,-1,-1,-1,-1,-1,-1,-1,-1,-1,-1,-1,-1,-1,-1,-1,-1,-1,-1,-1,-1,-1,-1,-1,-1,-1,-1,-1,-1,-1,-1,-1,-1,-1,-1],"loss_changes":[2.14222E5,3.3315715E4,2.9764172E4,4.983953E3,4.9089106E3,4.694379E3,6.7078125E3,9.9396875E2,6.538926E2,1.0439801E3,5.16105E2,5.200459E2,1.01647266E3,7.726328E2,6.884375E2,2.090039E2,1.7877734E2,1.6279199E2,1.7384131E2,2.5453009E2,2.411333E2,2.2039441E2,2.1314893E2,1.2864453E2,1.7217041E2,3.0452734E2,1.6132227E2,2.436289E2,1.6450195E2,1.12734375E2,1.0477734E2,4.346289E1,8.161719E1,1.1132129E2,2.7748535E1,1.1132617E2,3.5465576E1,5.7644043E1,1.0248035E2,8.397522E1,1.5060779E2,1.20076004E2,8.631894E1,3.270377E1,1.321648E2,1.1094238E2,6.9849365E1,9.215674E1,6.6114746E1,9.560498E1,2.8071198E1,4.8333496E1,2.0343945E2,1.3847461E2,7.612158E1,7.7583984E1,1.7577734E2,8.82207E1,5.2995422E1,4.893164E1,6.987305E1,8.820508E1,1.0327734E2,0E0,0E0,0E0,0E0,0E0,0E0,0E0,0E0,0E0,0E0,0E0,0E0,0E0,0E0,0E0,0E0,0E0,0E0,0E0,0E0,0E0,0E0,0E0,0E0,0E0,0E0,0E0,0E0,0E0,0E0,0E0,0E0,0E0,0E0,0E0,0E0,0E0,0E0,0E0,0E0,0E0,0E0,0E0,0E0,0E0,0E0,0E0,0E0,0E0,0E0,0E0,0E0,0E0,0E0,0E0,0E0,0E0,0E0,0E0,0E0,0E0,0E0,0E0,0E0],"parents":[2147483647,0,0,1,1,2,2,3,3,4,4,5,5,6,6,7,7,8,8,9,9,10,10,11,11,12,12,13,13,14,14,15,15,16,16,17,17,18,18,19,19,20,20,21,21,22,22,23,23,24,24,25,25,26,26,27,27,28,28,29,29,30,30,31,31,32,32,33,33,34,34,35,35,36,36,37,37,38,38,39,39,40,40,41,41,42,42,43,43,44,44,45,45,46,46,47,47,48,48,49,49,50,50,51,51,52,52,53,53,54,54,55,55,56,56,57,57,58,58,59,59,60,60,61,61,62,62],"right_children":[2,4,6,8,10,12,14,16,18,20,22,24,26,28,30,32,34,36,38,40,42,44,46,48,50,52,54,56,58,60,62,64,66,68,70,72,74,76,78,80,82,84,86,88,90,92,94,96,98,100,102,104,106,108,110,112,114,116,118,120,122,124,126,-1,-1,-1,-1,-1,-1,-1,-1,-1,-1,-1,-1,-1,-1,-1,-1,-1,-1,-1,-1,-1,-1,-1,-1,-1,-1,-1,-1,-1,-1,-1,-1,-1,-1,-1,-1,-1,-1,-1,-1,-1,-1,-1,-1,-1,-1,-1,-1,-1,-1,-1,-1,-1,-1,-1,-1,-1,-1,-1,-1,-1,-1,-1,-1],"split_conditions":[3.7E0,1.8E0,6.12E0,1.08E0,2.88E0,4.44E0,8.24E0,7.2E-1,1.5E0,2.3E0,3.44E0,4.6E0,5.6E0,7.5E0,9.6E0,4.4E-1,1.95E1,2.47E1,1.48E0,2.12E0,2.4E0,1.61E1,3.16E1,3.88E0,1E1,2.48E1,6.9E0,6E0,7E0,8.8E0,1E0,1.07E1,1.69E1,4E0,9E-1,7.5E-1,1.52E0,3E0,5E0,5E0,1.5E0,3E0,4E0,1.04E1,2.2E0,3.1E0,3.56E0,3.28E1,1.33E1,5.8E0,1.95E2,8E0,5E0,6E0,1.61E2,4E0,7.28E0,8.1E0,7.8E0,7.1E0,1.8E2,9.44E0,1.063E3,-6.360007E-2,-5.7664882E-2,-5.5428375E-2,-4.8036963E-2,-4.4822607E-2,-5.4080587E-2,-4.236563E-2,-3.689781E-2,-4.7114536E-2,-3.5564724E-2,-3.0495837E-2,-2.2839408E-2,-2.5481334E-2,-3.4451008E-2,-1.7530842E-2,-3.3598747E-2,-1.47634065E-2,-2.9586384E-2,-2.34535E-2,-2.6245941E-3,2.9014107E-3,-1.0330863E-2,1.2641422E-2,-1.3626998E-3,-3.1008372E-2,5.232723E-4,9.1363705E-4,2.5819767E-2,2.3972644E-2,3.9963104E-2,3.572319E-2,5.8990806E-2,3.9300498E-2,5.324033E-2,-8.157881E-2,5.5345446E-2,7.0305474E-2,1.0486125E-1,-6.5602966E-2,1.5779654E-2,6.468833E-2,2.2711977E-2,8.001544E-2,9.5474824E-2,1.10668324E-1,7.546971E-2,7.419612E-2,1.4017382E-1,-6.6550456E-2,1.2011661E-1,1.3838427E-1,1.6358294E-1,1.6399421E-1,1.8468015E-1,6.395992E-2,1.3639988E-1,1.4577879E-1,1.9711606E-1,9.505721E-2,2.2225372E-1,2.1027838E-1,2.530595E-1,2.5166047E-1,2.9625413E-1],"split_indices":[7,8,8,8,8,8,8,8,7,7,8,7,7,7,7,8,5,5,8,8,8,5,5,8,4,5,7,7,4,8,3,5,5,4,7,7,8,4,4,4,7,4,4,5,7,7,8,5,5,7,0,4,8,4,0,7,8,7,7,7,0,8,0,0,0,0,0,0,0,0,0,0,0,0,0,0,0,0,0,0,0,0,0,0,0,0,0,0,0,0,0,0,0,0,0,0,0,0,0,0,0,0,0,0,0,0,0,0,0,0,0,0,0,0,0,0,0,0,0,0,0,0,0,0,0,0,0],"split_type":[0,0,0,0,0,0,0,0,0,0,0,0,0,0,0,0,0,0,0,0,0,0,0,0,0,0,0,0,0,0,0,0,0,0,0,0,0,0,0,0,0,0,0,0,0,0,0,0,0,0,0,0,0,0,0,0,0,0,0,0,0,0,0,0,0,0,0,0,0,0,0,0,0,0,0,0,0,0,0,0,0,0,0,0,0,0,0,0,0,0,0,0,0,0,0,0,0,0,0,0,0,0,0,0,0,0,0,0,0,0,0,0,0,0,0,0,0,0,0,0,0,0,0,0,0,0,0],"sum_hessian":[2.04153E5,1.63918E5,4.0235E4,1.09E5,5.4918E4,2.8327E4,1.1908E4,6.099E4,4.801E4,3.8493E4,1.6425E4,1.2922E4,1.5405E4,8.712E3,3.196E3,3.2351E4,2.8639E4,2.6836E4,2.1174E4,2.0232E4,1.8261E4,9.725E3,6.7E3,9.682E3,3.24E3,9.997E3,5.408E3,6.242E3,2.47E3,1.681E3,1.515E3,1.3832E4,1.8519E4,1.8157E4,1.0482E4,1.8361E4,8.475E3,8.619E3,1.2555E4,1.1224E4,9.008E3,8.638E3,9.623E3,8.02E2,8.923E3,4.762E3,1.938E3,6.076E3,3.606E3,3.139E3,1.01E2,1.332E3,8.665E3,4.749E3,6.59E2,1.463E3,4.779E3,2.352E3,1.18E2,6.82E2,9.99E2,8.45E2,6.7E2,8.837E3,4.995E3,1.3212E4,5.307E3,1.3875E4,4.282E3,3.621E3,6.861E3,2.413E3,1.5948E4,6.479E3,1.996E3,6.057E3,2.562E3,1.1468E4,1.087E3,1.0169E4,1.055E3,9.72E2,8.036E3,6.281E3,2.357E3,8.356E3,1.267E3,9.2E1,7.1E2,5.69E2,8.354E3,1.685E3,3.077E3,4.17E2,1.521E3,4.442E3,1.634E3,8E0,3.598E3,2.92E3,2.19E2,1.1E1,9E1,1.258E3,7.4E1,4.102E3,4.563E3,4.441E3,3.08E2,5.1E1,6.08E2,5E0,1.458E3,3.89E3,8.89E2,1.254E3,1.098E3,4.2E1,7.6E1,6.6E1,6.16E2,1.3E1,9.86E2,1.99E2,6.46E2,3.58E2,3.12E2],"tree_param":{"num_deleted":"0","num_feature":"9","num_nodes":"127","size_leaf_vector":"1"}},{"base_weights":[-6.783136E-5,-5.1255304E-1,1.8607502E0,-8.185657E-1,1.5196568E-2,1.3927276E0,3.259021E0,-1.0475212E0,-6.6703135E-1,-1.6656245E-1,4.17201E-1,1.0053142E0,1.8565933E0,2.8253396E0,4.335979E0,-1.1311655E0,-9.686834E-1,-7.587704E-1,-5.320493E-1,-2.845289E-1,8.6804456E-4,3.2010505E-1,6.0053694E-1,7.7406186E-1,1.1582304E0,1.6484916E0,2.106543E0,2.591134E0,3.155228E0,3.9571922E0,4.898963E0,-1.173516E0,-1.0558963E0,-1.0084147E0,-8.7674206E-1,-8.2810974E-1,-6.7579496E-1,-5.000994E-1,-7.129981E-1,-3.2609534E-1,-1.3806994E-1,-2.685302E-1,3.995396E-2,2.739504E-1,5.0472486E-1,3.7910587E-1,6.8056476E-1,1.9567865E-1,8.105623E-1,1.0003136E0,1.3419358E0,1.6840196E0,7.376698E-1,1.6897366E0,2.1800425E0,1.4864068E0,2.6202762E0,3.189283E0,2.13837E0,3.406425E0,4.1856437E0,4.6367745E0,5.372495E0,-6.064697E-2,-5.6441348E-2,-5.4188658E-2,-4.8095837E-2,-4.8738588E-2,-5.4906208E-2,-4.504263E-2,-3.8738217E-2,-4.3481134E-2,-3.3948887E-2,-3.5001703E-2,-2.7555168E-2,-2.58438E-2,-1.4694536E-2,-4.0095594E-2,-2.6102353E-2,-2.1211617E-2,-1.3550122E-2,1.2567168E-1,-7.0791165E-3,-1.0361711E-2,-3.1153414E-2,3.1850573E-3,-1.1558256E-2,-8.359602E-3,1.4809035E-2,4.1560944E-2,2.2603502E-2,1.0841172E-1,1.6768537E-2,3.5153568E-2,-6.98023E-4,-1.8502135E-2,1.8154388E-2,4.1498315E-2,1.2487461E-2,1.8846594E-2,5.197807E-2,6.15012E-2,7.5978465E-2,6.2223423E-2,8.668544E-2,4.3073766E-2,-1.2985055E-2,5.7394452E-2,1.0244077E-1,1.0668061E-1,1.2365699E-1,5.8307152E-2,1.5721707E-1,1.04249634E-1,1.3384633E-1,1.4457715E-1,1.671279E-1,1.2551205E-1,3.9423704E-2,2.0638044E-1,1.4498012E-1,1.2199779E-1,2.1342118E-1,2.0169762E-1,2.429244E-1,2.5565583E-1,3.0426514E-1],"categories":[],"categories_nodes":[],"categories_segments":[],"categories_sizes":[],"default_left":[0,0,0,0,0,0,0,0,0,0,0,0,0,0,0,0,0,0,0,0,0,0,0,0,0,0,0,0,0,0,0,0,0,0,0,0,0,0,0,0,0,0,0,0,0,0,0,0,0,0,0,0,0,0,0,0,0,0,0,0,0,0,0,0,0,0,0,0,0,0,0,0,0,0,0,0,0,0,0,0,0,0,0,0,0,0,0,0,0,0,0,0,0,0,0,0,0,0,0,0,0,0,0,0,0,0,0,0,0,0,0,0,0,0,0,0,0,0,0,0,0,0,0,0,0,0,0],"id":9,"left_children":[1,3,5,7,9,11,13,15,17,19,21,23,25,27,29,31,33,35,37,39,41,43,45,47,49,51,53,55,57,59,61,63,65,67,69,71,73,75,77,79,81,83,85,87,89,91,93,95,97,99,101,103,105,107,109,111,113,115,117,119,121,123,125,-1,-1,-1,-1,-1,-1,-1,-1,-1,-1,-1,-1,-1,-1,-1,-1,-1,-1,-1,-1,-1,-1,-1,-1,-1,-1,-1,-1,-1,-1,-1,-1,-1,-1,-1,-1,-1,-1,-1,-1,-1,-1,-1,-1,-1,-1,-1,-1,-1,-1,-1,-1,-1,-1,-1,-1,-1,-1,-1,-1,-1,-1,-1,-1],"loss_changes":[1.9476702E5,2.586118E4,2.8856781E4,3.5159531E3,4.294564E3,5.9363945E3,5.1529375E3,2.6508984E2,7.5490625E2,7.994293E2,3.2556934E2,6.3590625E2,7.786797E2,6.011914E2,6.572617E2,6.117578E1,7.504883E1,2.0836133E2,1.4234863E2,1.445094E2,1.7618274E2,1.0182483E2,1.120022E2,1.5123047E2,3.1306836E2,2.6443164E2,2.0549219E2,1.4477344E2,1.0641797E2,2.2505664E2,1.3301367E2,2.0689453E1,1.7454102E1,4.2714844E1,1.4742676E1,1.218457E2,4.9592285E1,7.243848E1,6.243457E1,9.98811E1,4.9258934E1,4.59422E1,9.4091385E1,9.3949036E1,4.0746277E1,1.31042E2,7.272705E1,4.057421E1,7.319141E1,1.422959E2,9.7666016E1,1.704082E2,3.8502518E1,1.9766187E2,7.366797E1,6.058139E1,1.308164E2,1.3463672E2,5.2737335E1,1.9381543E2,1.8322656E2,9.080078E1,5.1529297E1,0E0,0E0,0E0,0E0,0E0,0E0,0E0,0E0,0E0,0E0,0E0,0E0,0E0,0E0,0E0,0E0,0E0,0E0,0E0,0E0,0E0,0E0,0E0,0E0,0E0,0E0,0E0,0E0,0E0,0E0,0E0,0E0,0E0,0E0,0E0,0E0,0E0,0E0,0E0,0E0,0E0,0E0,0E0,0E0,0E0,0E0,0E0,0E0,0E0,0E0,0E0,0E0,0E0,0E0,0E0,0E0,0E0,0E0,0E0,0E0,0E0,0E0,0E0,0E0],"parents":[2147483647,0,0,1,1,2,2,3,3,4,4,5,5,6,6,7,7,8,8,9,9,10,10,11,11,12,12,13,13,14,14,15,15,16,16,17,17,18,18,19,19,20,20,21,21,22,22,23,23,24,24,25,25,26,26,27,27,28,28,29,29,30,30,31,31,32,32,33,33,34,34,35,35,36,36,37,37,38,38,39,39,40,40,41,41,42,42,43,43,44,44,45,45,46,46,47,47,48,48,49,49,50,50,51,51,52,52,53,53,54,54,55,55,56,56,57,57,58,58,59,59,60,60,61,61,62,62],"right_children":[2,4,6,8,10,12,14,16,18,20,22,24,26,28,30,32,34,36,38,40,42,44,46,48,50,52,54,56,58,60,62,64,66,68,70,72,74,76,78,80,82,84,86,88,90,92,94,96,98,100,102,104,106,108,110,112,114,116,118,120,122,124,126,-1,-1,-1,-1,-1,-1,-1,-1,-1,-1,-1,-1,-1,-1,-1,-1,-1,-1,-1,-1,-1,-1,-1,-1,-1,-1,-1,-1,-1,-1,-1,-1,-1,-1,-1,-1,-1,-1,-1,-1,-1,-1,-1,-1,-1,-1,-1,-1,-1,-1,-1,-1,-1,-1,-1,-1,-1,-1,-1,-1,-1,-1,-1,-1],"split_conditions":[3.5E0,1.7E0,6.4E0,8E-1,2.7E0,4.7E0,8.5E0,5E-1,1.3E0,2.2E0,3.4E0,3.9E0,5.5E0,7.3E0,1.02E1,1.14E1,1.76E1,1.95E1,4E0,2.25E0,1.6666666E0,3.26E1,3E0,2.5E0,4.4E0,9E0,2.77E1,1.29E2,1E1,6.92E2,2.1E1,2.857143E-1,1.88E1,4E0,2.63E1,1.25E0,2.95E1,2.2E0,2.45E1,2.21E1,6.8E0,4E0,5E0,1.6666666E0,6E0,1E0,9E0,2.14E1,1E1,2.6666667E0,3.21E1,2.4E1,6.2E0,5.6E0,7E0,7.6666665E0,5.5E0,7.4E0,1.063E3,2.71E2,2.99E1,3.35E1,1.24E1,-6.064697E-2,-5.6441348E-2,-5.4188658E-2,-4.8095837E-2,-4.8738588E-2,-5.4906208E-2,-4.504263E-2,-3.8738217E-2,-4.3481134E-2,-3.3948887E-2,-3.5001703E-2,-2.7555168E-2,-2.58438E-2,-1.4694536E-2,-4.0095594E-2,-2.6102353E-2,-2.1211617E-2,-1.3550122E-2,1.2567168E-1,-7.0791165E-3,-1.0361711E-2,-3.1153414E-2,3.1850573E-3,-1.1558256E-2,-8.359602E-3,1.4809035E-2,4.1560944E-2,2.2603502E-2,1.0841172E-1,1.6768537E-2,3.5153568E-2,-6.98023E-4,-1.8502135E-2,1.8154388E-2,4.1498315E-2,1.2487461E-2,1.8846594E-2,5.197807E-2,6.15012E-2,7.5978465E-2,6.2223423E-2,8.668544E-2,4.3073766E-2,-1.2985055E-2,5.7394452E-2,1.0244077E-1,1.0668061E-1,1.2365699E-1,5.8307152E-2,1.5721707E-1,1.04249634E-1,1.3384633E-1,1.4457715E-1,1.671279E-1,1.2551205E-1,3.9423704E-2,2.0638044E-1,1.4498012E-1,1.2199779E-1,2.1342118E-1,2.0169762E-1,2.429244E-1,2.5565583E-1,3.0426514E-1],"split_indices":[7,7,7,7,7,7,7,7,7,7,6,7,7,7,6,5,5,5,4,6,6,5,7,6,6,4,5,0,4,0,1,7,5,4,5,6,5,6,5,5,5,4,4,6,1,4,4,5,4,6,5,5,6,6,6,6,6,6,0,0,5,5,6,0,0,0,0,0,0,0,0,0,0,0,0,0,0,0,0,0,0,0,0,0,0,0,0,0,0,0,0,0,0,0,0,0,0,0,0,0,0,0,0,0,0,0,0,0,0,0,0,0,0,0,0,0,0,0,0,0,0,0,0,0,0,0,0],"split_type":[0,0,0,0,0,0,0,0,0,0,0,0,0,0,0,0,0,0,0,0,0,0,0,0,0,0,0,0,0,0,0,0,0,0,0,0,0,0,0,0,0,0,0,0,0,0,0,0,0,0,0,0,0,0,0,0,0,0,0,0,0,0,0,0,0,0,0,0,0,0,0,0,0,0,0,0,0,0,0,0,0,0,0,0,0,0,0,0,0,0,0,0,0,0,0,0,0,0,0,0,0,0,0,0,0,0,0,0,0,0,0,0,0,0,0,0,0,0,0,0,0,0,0,0,0,0,0],"sum_hessian":[2.04233E5,1.60132E5,4.4101E4,1.01359E5,5.8773E4,3.3043E4,1.1058E4,4.0365E4,6.0994E4,4.0474E4,1.8299E4,1.8007E4,1.5036E4,7.886E3,3.172E3,1.9579E4,2.0786E4,3.6311E4,2.4683E4,2.3744E4,1.673E4,1.1965E4,6.334E3,7.17E3,1.0837E4,8.209E3,6.827E3,4.617E3,3.269E3,1.901E3,1.271E3,1.252E4,7.059E3,1.4507E4,6.279E3,1.9776E4,1.6535E4,2.0982E4,3.701E3,1.8494E4,5.25E3,2.119E3,1.4611E4,9.574E3,2.391E3,1.683E3,4.651E3,4.26E2,6.744E3,5.831E3,5.006E3,7.9E3,3.09E2,1.027E3,5.8E3,1.2E2,4.497E3,3.161E3,1.08E2,5.62E2,1.339E3,8.25E2,4.46E2,6.638E3,5.882E3,5.436E3,1.623E3,1.0559E4,3.948E3,5.072E3,1.207E3,1.5466E4,4.31E3,1.384E4,2.695E3,1.9402E4,1.58E3,2.523E3,1.178E3,6.647E3,1.1847E4,6E0,5.244E3,1.808E3,3.11E2,1.3435E4,1.176E3,4.59E2,9.115E3,3.3E2,2.061E3,3.9E1,1.644E3,4.505E3,1.46E2,9.7E1,3.29E2,6.518E3,2.26E2,3.46E2,5.485E3,3.076E3,1.93E3,8.05E2,7.095E3,2.75E2,3.4E1,4.11E2,6.16E2,5.014E3,7.86E2,1.02E2,1.8E1,4.34E2,4.063E3,1.081E3,2.08E3,8.4E1,2.4E1,2.29E2,3.33E2,6.2E1,1.277E3,2.27E2,5.98E2,3.33E2,1.13E2],"tree_param":{"num_deleted":"0","num_feature":"9","num_nodes":"127","size_leaf_vector":"1"}},{"base_weights":[-2.509851E-3,-4.583345E-1,1.8575133E0,-7.5644535E-1,9.396568E-2,1.3992224E0,3.1458595E0,-9.674051E-1,-5.8530354E-1,-1.2092084E-1,4.406165E-1,1.0576004E0,1.8188053E0,2.7068226E0,4.1486073E0,-1.0775816E0,-8.9052796E-1,-7.001458E-1,-4.7384113E-1,-2.4127643E-1,1.151377E-2,3.2651547E-1,6.1459684E-1,8.9973277E-1,1.2617056E0,1.635704E0,2.0673552E0,2.5086741E0,3.0721586E0,3.7536948E0,4.7484317E0,-1.137784E0,-1.0277284E0,-9.375362E-1,-8.0135596E-1,-6.732998E-1,-9.084248E-1,-6.7077714E-1,-4.510876E-1,-2.1998282E-1,-5.3224444E-1,6.705392E-2,-1.307964E-1,2.5396025E-1,4.7821337E-1,3.746075E-1,6.710718E-1,2.4449146E-1,9.241672E-1,1.0448169E0,1.3920915E0,1.4372861E0,1.7343609E0,1.9856336E0,2.3270235E0,9.738568E-1,2.5270495E0,3.1227517E0,1.655703E0,3.402409E0,3.9788263E0,4.586346E0,5.5145693E0,-5.7052154E-2,3.0766267E-3,-5.2320905E-2,-4.3425206E-2,-4.8455663E-2,-4.048851E-2,-4.1451797E-2,-3.6068317E-2,-3.573941E-2,-2.8599897E-2,-4.8361853E-2,-3.6270235E-2,-3.9229944E-2,-2.6995122E-2,-2.6064081E-2,-2.0058407E-2,-2.1896934E-2,-9.656499E-3,-3.1185493E-2,-1.7204456E-2,-1.0629159E-3,9.190645E-3,2.7038187E-2,-7.7093802E-3,-6.3028294E-3,1.365711E-2,9.848317E-3,2.8775493E-2,9.694113E-2,1.6693642E-2,3.447134E-2,2.868982E-3,-5.5707306E-2,1.7444381E-2,4.7598105E-2,2.1144828E-2,8.710057E-3,5.4206092E-2,4.6055514E-2,7.2906904E-2,6.1929118E-2,8.355527E-2,8.448783E-2,1.0291018E-1,1.0131478E-1,7.232589E-2,7.4461475E-2,1.2061995E-1,6.513495E-2,-6.2212218E-2,1.1903532E-1,1.3506247E-1,1.3564861E-1,1.6487257E-1,1.6101544E-1,6.263744E-2,1.8182968E-1,1.4798012E-1,1.4873613E-1,2.0465906E-1,2.3272033E-1,1.7106065E-1,2.8000376E-1,7.871457E-2],"categories":[],"categories_nodes":[],"categories_segments":[],"categories_sizes":[],"default_left":[0,0,0,0,0,0,0,0,0,0,0,0,0,0,0,0,0,0,0,0,0,0,0,0,0,0,0,0,0,0,0,0,0,0,0,0,0,0,0,0,0,0,0,0,0,0,0,0,0,0,0,0,0,0,0,0,0,0,0,0,0,0,0,0,0,0,0,0,0,0,0,0,0,0,0,0,0,0,0,0,0,0,0,0,0,0,0,0,0,0,0,0,0,0,0,0,0,0,0,0,0,0,0,0,0,0,0,0,0,0,0,0,0,0,0,0,0,0,0,0,0,0,0,0,0,0,0],"id":10,"left_children":[1,3,5,7,9,11,13,15,17,19,21,23,25,27,29,31,33,35,37,39,41,43,45,47,49,51,53,55,57,59,61,63,65,67,69,71,73,75,77,79,81,83,85,87,89,91,93,95,97,99,101,103,105,107,109,111,113,115,117,119,121,123,125,-1,-1,-1,-1,-1,-1,-1,-1,-1,-1,-1,-1,-1,-1,-1,-1,-1,-1,-1,-1,-1,-1,-1,-1,-1,-1,-1,-1,-1,-1,-1,-1,-1,-1,-1,-1,-1,-1,-1,-1,-1,-1,-1,-1,-1,-1,-1,-1,-1,-1,-1,-1,-1,-1,-1,-1,-1,-1,-1,-1,-1,-1,-1,-1],"loss_changes":[1.7322734E5,2.701859E4,2.3740047E4,3.8472188E3,4.285198E3,4.2502188E3,4.6337734E3,4.0334766E2,7.528965E2,5.660533E2,4.3680664E2,5.258164E2,6.024453E2,5.2371094E2,7.4279297E2,5.769336E1,1.17125E2,1.6142871E2,1.3351709E2,1.1515503E2,1.3365631E2,1.4623169E2,1.1790723E2,1.4747119E2,2.0017578E2,1.4765039E2,1.1512695E2,1.3192578E2,1.7950586E2,1.3996875E2,1.3253906E2,3.4759766E1,3.1049805E1,7.348242E1,2.0910156E1,1.075E2,3.48833E1,4.5621216E1,9.36084E1,1.0139014E2,2.160727E1,1.254196E2,7.465209E1,6.56178E1,1.1758063E2,1.0531535E2,7.944092E1,4.7620277E1,1.2350098E2,9.155371E1,1.3708301E2,1.1654443E2,7.044922E1,9.130859E1,9.261133E1,4.392638E1,1.135918E2,1.6909375E2,5.3338028E1,6.856641E1,1.229707E2,6.773633E1,6.4293945E1,0E0,0E0,0E0,0E0,0E0,0E0,0E0,0E0,0E0,0E0,0E0,0E0,0E0,0E0,0E0,0E0,0E0,0E0,0E0,0E0,0E0,0E0,0E0,0E0,0E0,0E0,0E0,0E0,0E0,0E0,0E0,0E0,0E0,0E0,0E0,0E0,0E0,0E0,0E0,0E0,0E0,0E0,0E0,0E0,0E0,0E0,0E0,0E0,0E0,0E0,0E0,0E0,0E0,0E0,0E0,0E0,0E0,0E0,0E0,0E0,0E0,0E0,0E0,0E0],"parents":[2147483647,0,0,1,1,2,2,3,3,4,4,5,5,6,6,7,7,8,8,9,9,10,10,11,11,12,12,13,13,14,14,15,15,16,16,17,17,18,18,19,19,20,20,21,21,22,22,23,23,24,24,25,25,26,26,27,27,28,28,29,29,30,30,31,31,32,32,33,33,34,34,35,35,36,36,37,37,38,38,39,39,40,40,41,41,42,42,43,43,44,44,45,45,46,46,47,47,48,48,49,49,50,50,51,51,52,52,53,53,54,54,55,55,56,56,57,57,58,58,59,59,60,60,61,61,62,62],"right_children":[2,4,6,8,10,12,14,16,18,20,22,24,26,28,30,32,34,36,38,40,42,44,46,48,50,52,54,56,58,60,62,64,66,68,70,72,74,76,78,80,82,84,86,88,90,92,94,96,98,100,102,104,106,108,110,112,114,116,118,120,122,124,126,-1,-1,-1,-1,-1,-1,-1,-1,-1,-1,-1,-1,-1,-1,-1,-1,-1,-1,-1,-1,-1,-1,-1,-1,-1,-1,-1,-1,-1,-1,-1,-1,-1,-1,-1,-1,-1,-1,-1,-1,-1,-1,-1,-1,-1,-1,-1,-1,-1,-1,-1,-1,-1,-1,-1,-1,-1,-1,-1,-1,-1,-1,-1,-1],"split_conditions":[3.7E0,1.8E0,6.5E0,9E-1,2.7E0,4.9E0,8.5E0,5E-1,1.3E0,2.2E0,3.4E0,4.3E0,5.7E0,7.5E0,1.02E1,3E-1,1.75E1,5E0,1E0,6E0,3E0,3.2E0,3E0,2.5E0,4.4E0,2.98E1,6.6666665E0,2.33E1,1E1,8.8E0,1.24E1,3.04E1,1.88E1,1E0,2.52E1,2.39E1,2.11E1,2.13E1,1.5E0,1.25E0,2.67E1,2.6E0,1E0,1.6666666E0,2.34E1,1E0,1E1,1.69E1,7E0,2.6666667E0,2.3E1,5.3333335E0,5.6E0,6E0,3E0,2.9E1,1E0,7.25E0,7.2E0,3.56E1,3.12E1,2.9E1,3E1,-5.7052154E-2,3.0766267E-3,-5.2320905E-2,-4.3425206E-2,-4.8455663E-2,-4.048851E-2,-4.1451797E-2,-3.6068317E-2,-3.573941E-2,-2.8599897E-2,-4.8361853E-2,-3.6270235E-2,-3.9229944E-2,-2.6995122E-2,-2.6064081E-2,-2.0058407E-2,-2.1896934E-2,-9.656499E-3,-3.1185493E-2,-1.7204456E-2,-1.0629159E-3,9.190645E-3,2.7038187E-2,-7.7093802E-3,-6.3028294E-3,1.365711E-2,9.848317E-3,2.8775493E-2,9.694113E-2,1.6693642E-2,3.447134E-2,2.868982E-3,-5.5707306E-2,1.7444381E-2,4.7598105E-2,2.1144828E-2,8.710057E-3,5.4206092E-2,4.6055514E-2,7.2906904E-2,6.1929118E-2,8.355527E-2,8.448783E-2,1.0291018E-1,1.0131478E-1,7.232589E-2,7.4461475E-2,1.2061995E-1,6.513495E-2,-6.2212218E-2,1.1903532E-1,1.3506247E-1,1.3564861E-1,1.6487257E-1,1.6101544E-1,6.263744E-2,1.8182968E-1,1.4798012E-1,1.4873613E-1,2.0465906E-1,2.3272033E-1,1.7106065E-1,2.8000376E-1,7.871457E-2],"split_indices":[7,7,7,7,7,7,7,7,7,7,6,7,7,7,6,7,5,4,6,4,4,7,7,6,6,5,6,5,4,6,6,5,5,6,5,5,5,5,7,6,5,6,2,6,5,4,4,5,4,6,5,6,7,4,2,2,3,6,6,5,5,2,2,0,0,0,0,0,0,0,0,0,0,0,0,0,0,0,0,0,0,0,0,0,0,0,0,0,0,0,0,0,0,0,0,0,0,0,0,0,0,0,0,0,0,0,0,0,0,0,0,0,0,0,0,0,0,0,0,0,0,0,0,0,0,0,0],"split_type":[0,0,0,0,0,0,0,0,0,0,0,0,0,0,0,0,0,0,0,0,0,0,0,0,0,0,0,0,0,0,0,0,0,0,0,0,0,0,0,0,0,0,0,0,0,0,0,0,0,0,0,0,0,0,0,0,0,0,0,0,0,0,0,0,0,0,0,0,0,0,0,0,0,0,0,0,0,0,0,0,0,0,0,0,0,0,0,0,0,0,0,0,0,0,0,0,0,0,0,0,0,0,0,0,0,0,0,0,0,0,0,0,0,0,0,0,0,0,0,0,0,0,0,0,0,0,0],"sum_hessian":[2.04313E5,1.64099E5,4.0214E4,1.06574E5,5.7525E4,2.9664E4,1.055E4,4.7732E4,5.8842E4,3.5512E4,2.2013E4,1.6353E4,1.3311E4,7.34E3,3.21E3,1.9612E4,2.812E4,2.8979E4,2.9863E4,1.8604E4,1.6908E4,1.3296E4,8.717E3,9.224E3,7.129E3,7.669E3,5.642E3,4.764E3,2.576E3,1.94E3,1.27E3,8.874E3,1.0738E4,1.8407E4,9.713E3,2.5674E4,3.305E3,3.09E3,2.6773E4,1.7337E4,1.267E3,1.2162E4,4.746E3,8.996E3,4.3E3,1.662E3,7.055E3,3.32E2,8.892E3,2.68E3,4.449E3,2.552E3,5.117E3,4.298E3,1.344E3,5.7E1,4.707E3,2.486E3,9E1,7.64E2,1.176E3,1.054E3,2.16E2,8.85E3,2.4E1,9.605E3,1.133E3,1.4754E4,3.653E3,7.209E3,2.504E3,1.821E4,7.464E3,2.498E3,8.07E2,1.65E3,1.44E3,1.1123E4,1.565E4,1.9E3,1.5437E4,8.51E2,4.16E2,6.925E3,5.237E3,1.59E2,4.587E3,4.32E2,8.564E3,1.106E3,3.194E3,4.1E1,1.621E3,6.85E3,2.05E2,2.3E1,3.09E2,8.424E3,4.68E2,1.16E2,2.564E3,5.49E2,3.9E3,1.383E3,1.169E3,4.503E3,6.14E2,3.994E3,3.04E2,1.26E2,1.218E3,5E1,7E0,2.566E3,2.141E3,7.48E2,1.738E3,1.7E1,7.3E1,4.95E2,2.69E2,1.23E2,1.053E3,9.93E2,6.1E1,2.11E2,5E0],"tree_param":{"num_deleted":"0","num_feature":"9","num_nodes":"127","size_leaf_vector":"1"}},{"base_weights":[-2.517678E-3,-4.3809947E-1,1.7702123E0,-7.0002913E-1,1.2178241E-1,1.3854076E0,3.166799E0,-8.94299E-1,-5.121184E-1,-9.2795566E-2,4.1516495E-1,1.0453756E0,1.8035469E0,2.6813986E0,4.0339704E0,-1.0229027E0,-8.2238513E-1,-5.969319E-1,-3.769564E-1,-2.098455E-1,-5.1576126E-4,3.2923296E-1,6.197095E-1,8.696776E-1,1.2462299E0,1.5892615E0,1.9980484E0,2.5578732E0,2.991443E0,3.6783245E0,4.5469656E0,-1.0767511E0,-9.792227E-1,-8.737595E-1,-7.372656E-1,-5.743235E-1,-7.8313744E-1,-3.558362E-1,-5.771193E-1,-1.9083883E-1,-4.6503296E-1,-1.7971796E-1,4.4680174E-2,2.3893607E-1,4.357885E-1,6.097869E-1,2.299381E0,6.7456204E-1,9.6017057E-1,1.0766904E0,1.3787916E0,1.3961675E0,1.6823174E0,1.4589729E0,2.0415618E0,1.6054887E0,2.602069E0,3.0418425E0,1.612101E0,3.4898973E0,4.0960693E0,4.010357E0,4.7190423E0,-5.4011434E-2,-7.3517845E-3,-4.979381E-2,-4.210104E-2,-4.170128E-2,-4.9318757E-2,-3.944594E-2,-3.4553736E-2,-3.24331E-2,-2.6089547E-2,-4.182167E-2,-2.7999386E-2,-2.17444E-2,-1.5349309E-2,-3.3043686E-2,-1.90386E-2,-1.6506232E-2,-8.105174E-3,-2.3569657E-2,5.562345E-2,-1.6724449E-2,-3.1284064E-3,4.6107126E-3,-3.8648196E-3,-6.3215867E-3,1.2796648E-2,1.2778736E-2,2.5982037E-2,3.1526845E-2,-3.5512277E-3,5.0931048E-2,1.5451857E-1,2.31462E-2,3.840719E-2,4.9255054E-2,2.206757E-2,3.608021E-2,5.631722E-2,5.410686E-2,7.196789E-2,5.8182087E-2,8.267312E-2,8.159115E-2,9.918498E-2,-1.0762656E-1,7.477596E-2,1.0378206E-1,7.7134445E-2,8.345253E-2,-8.042505E-2,1.8690844E-1,1.2841658E-1,1.6247906E-1,1.4246194E-1,-1.9935338E-2,9.94785E-2,1.7668392E-1,9.3882196E-2,2.1207224E-1,1.451799E-1,2.0524295E-1,9.90946E-2,2.2842947E-1,2.762773E-1],"categories":[],"categories_nodes":[],"categories_segments":[],"categories_sizes":[],"default_left":[0,0,0,0,0,0,0,0,0,0,0,0,0,0,0,0,0,0,0,0,0,0,0,0,0,0,0,0,0,0,0,0,0,0,0,0,0,0,0,0,0,0,0,0,0,0,0,0,0,0,0,0,0,0,0,0,0,0,0,0,0,0,0,0,0,0,0,0,0,0,0,0,0,0,0,0,0,0,0,0,0,0,0,0,0,0,0,0,0,0,0,0,0,0,0,0,0,0,0,0,0,0,0,0,0,0,0,0,0,0,0,0,0,0,0,0,0,0,0,0,0,0,0,0,0,0,0],"id":11,"left_children":[1,3,5,7,9,11,13,15,17,19,21,23,25,27,29,31,33,35,37,39,41,43,45,47,49,51,53,55,57,59,61,63,65,67,69,71,73,75,77,79,81,83,85,87,89,91,93,95,97,99,101,103,105,107,109,111,113,115,117,119,121,123,125,-1,-1,-1,-1,-1,-1,-1,-1,-1,-1,-1,-1,-1,-1,-1,-1,-1,-1,-1,-1,-1,-1,-1,-1,-1,-1,-1,-1,-1,-1,-1,-1,-1,-1,-1,-1,-1,-1,-1,-1,-1,-1,-1,-1,-1,-1,-1,-1,-1,-1,-1,-1,-1,-1,-1,-1,-1,-1,-1,-1,-1,-1,-1,-1],"loss_changes":[1.5777188E5,2.405371E4,2.165443E4,4.0788008E3,3.2911182E3,4.490746E3,3.6533438E3,5.0727344E2,6.509512E2,3.2614648E2,3.8796436E2,6.1398047E2,5.8741406E2,2.0620703E2,5.528672E2,4.528125E1,1.534668E2,1.4647754E2,9.239331E1,6.4473206E1,1.3676321E2,1.4954114E2,1.0746484E2,1.635581E2,1.8123242E2,1.1888672E2,1.7116406E2,1.6418555E2,1.0528223E2,1.312461E2,9.871289E1,2.833496E1,2.404004E1,9.749414E1,3.1118652E1,1.2121387E2,4.4439453E1,7.638965E1,3.4101868E1,4.953653E1,9.774963E0,6.164395E1,7.819374E1,5.232779E1,1.0765637E2,9.179834E1,3.5348694E1,5.807068E1,8.1711914E1,6.2166992E1,8.035547E1,1.2969678E2,6.597461E1,7.6867676E1,1.13546875E2,3.945639E1,1.3685742E2,5.1876953E1,4.4816284E1,8.378613E1,8.632422E1,5.243994E1,9.1125E1,0E0,0E0,0E0,0E0,0E0,0E0,0E0,0E0,0E0,0E0,0E0,0E0,0E0,0E0,0E0,0E0,0E0,0E0,0E0,0E0,0E0,0E0,0E0,0E0,0E0,0E0,0E0,0E0,0E0,0E0,0E0,0E0,0E0,0E0,0E0,0E0,0E0,0E0,0E0,0E0,0E0,0E0,0E0,0E0,0E0,0E0,0E0,0E0,0E0,0E0,0E0,0E0,0E0,0E0,0E0,0E0,0E0,0E0,0E0,0E0,0E0,0E0,0E0,0E0],"parents":[2147483647,0,0,1,1,2,2,3,3,4,4,5,5,6,6,7,7,8,8,9,9,10,10,11,11,12,12,13,13,14,14,15,15,16,16,17,17,18,18,19,19,20,20,21,21,22,22,23,23,24,24,25,25,26,26,27,27,28,28,29,29,30,30,31,31,32,32,33,33,34,34,35,35,36,36,37,37,38,38,39,39,40,40,41,41,42,42,43,43,44,44,45,45,46,46,47,47,48,48,49,49,50,50,51,51,52,52,53,53,54,54,55,55,56,56,57,57,58,58,59,59,60,60,61,61,62,62],"right_children":[2,4,6,8,10,12,14,16,18,20,22,24,26,28,30,32,34,36,38,40,42,44,46,48,50,52,54,56,58,60,62,64,66,68,70,72,74,76,78,80,82,84,86,88,90,92,94,96,98,100,102,104,106,108,110,112,114,116,118,120,122,124,126,-1,-1,-1,-1,-1,-1,-1,-1,-1,-1,-1,-1,-1,-1,-1,-1,-1,-1,-1,-1,-1,-1,-1,-1,-1,-1,-1,-1,-1,-1,-1,-1,-1,-1,-1,-1,-1,-1,-1,-1,-1,-1,-1,-1,-1,-1,-1,-1,-1,-1,-1,-1,-1,-1,-1,-1,-1,-1,-1,-1,-1,-1,-1,-1],"split_conditions":[3.7E0,1.9E0,6.8E0,1E0,2.7E0,5E0,8.5E0,5E-1,1.5E0,2.2E0,3.6E0,4.4E0,5.7E0,7.8E0,1.02E1,2.857143E-1,1.76E1,5E0,5E0,6E0,2E0,3.1E0,5.5E0,2.69E1,4.4E0,2.98E1,2.61E1,5.5E0,1E1,9.6E0,3.35E1,2.95E1,1.87E1,4E0,7.5E-1,1.2E0,2.46E1,1.6E0,2.57E1,1.5E0,3.73E1,2.38E1,3E0,1.6666666E0,2.47E1,1E1,1.7E1,3.25E0,8E0,1.91E2,3E2,5.4E0,5.6E0,3.5E0,6E0,1.605E3,1E0,1.4E1,2.9E1,1E1,3.77E1,1.3E1,1.26E1,-5.4011434E-2,-7.3517845E-3,-4.979381E-2,-4.210104E-2,-4.170128E-2,-4.9318757E-2,-3.944594E-2,-3.4553736E-2,-3.24331E-2,-2.6089547E-2,-4.182167E-2,-2.7999386E-2,-2.17444E-2,-1.5349309E-2,-3.3043686E-2,-1.90386E-2,-1.6506232E-2,-8.105174E-3,-2.3569657E-2,5.562345E-2,-1.6724449E-2,-3.1284064E-3,4.6107126E-3,-3.8648196E-3,-6.3215867E-3,1.2796648E-2,1.2778736E-2,2.5982037E-2,3.1526845E-2,-3.5512277E-3,5.0931048E-2,1.5451857E-1,2.31462E-2,3.840719E-2,4.9255054E-2,2.206757E-2,3.608021E-2,5.631722E-2,5.410686E-2,7.196789E-2,5.8182087E-2,8.267312E-2,8.159115E-2,9.918498E-2,-1.0762656E-1,7.477596E-2,1.0378206E-1,7.7134445E-2,8.345253E-2,-8.042505E-2,1.8690844E-1,1.2841658E-1,1.6247906E-1,1.4246194E-1,-1.9935338E-2,9.94785E-2,1.7668392E-1,9.3882196E-2,2.1207224E-1,1.451799E-1,2.0524295E-1,9.90946E-2,2.2842947E-1,2.762773E-1],"split_indices":[7,7,7,7,7,7,7,7,7,7,6,6,7,7,6,7,5,4,4,4,6,7,6,5,7,5,5,6,4,7,5,5,5,4,7,6,5,6,5,6,5,5,4,6,5,4,1,6,4,0,0,6,7,6,4,0,4,1,5,4,5,6,6,0,0,0,0,0,0,0,0,0,0,0,0,0,0,0,0,0,0,0,0,0,0,0,0,0,0,0,0,0,0,0,0,0,0,0,0,0,0,0,0,0,0,0,0,0,0,0,0,0,0,0,0,0,0,0,0,0,0,0,0,0,0,0,0],"split_type":[0,0,0,0,0,0,0,0,0,0,0,0,0,0,0,0,0,0,0,0,0,0,0,0,0,0,0,0,0,0,0,0,0,0,0,0,0,0,0,0,0,0,0,0,0,0,0,0,0,0,0,0,0,0,0,0,0,0,0,0,0,0,0,0,0,0,0,0,0,0,0,0,0,0,0,0,0,0,0,0,0,0,0,0,0,0,0,0,0,0,0,0,0,0,0,0,0,0,0,0,0,0,0,0,0,0,0,0,0,0,0,0,0,0,0,0,0,0,0,0,0,0,0,0,0,0,0],"sum_hessian":[2.04321E5,1.6402E5,4.0301E4,1.11743E5,5.2277E4,3.1597E4,8.704E3,5.494E4,5.6803E4,3.0194E4,2.2083E4,1.7428E4,1.4169E4,5.583E3,3.121E3,1.9699E4,3.5241E4,3.49E4,2.1903E4,1.331E4,1.6884E4,1.5552E4,6.531E3,9.299E3,8.129E3,6.746E3,7.423E3,3.999E3,1.584E3,1.848E3,1.273E3,8.812E3,1.0887E4,2.1971E4,1.327E4,3.1125E4,3.775E3,1.9815E4,2.088E3,1.2389E4,9.21E2,3.4E3,1.3484E4,8.42E3,7.132E3,6.494E3,3.7E1,2.949E3,6.35E3,3.571E3,4.558E3,2.199E3,4.547E3,5.57E2,6.866E3,1.79E2,3.82E3,1.527E3,5.7E1,1.28E3,5.68E2,3.15E2,9.58E2,8.779E3,3.3E1,9.703E3,1.184E3,1.6247E4,5.724E3,6.257E3,7.013E3,1.2883E4,1.8242E4,3.045E3,7.3E2,7.565E3,1.225E4,1.462E3,6.26E2,2.117E3,1.0272E4,9.18E2,3E0,1.464E3,1.936E3,9.703E3,3.781E3,3.74E2,8.046E3,2.266E3,4.866E3,6.302E3,1.92E2,1.5E1,2.2E1,9.06E2,2.043E3,6.058E3,2.92E2,4.4E2,3.131E3,7.76E2,3.782E3,1.158E3,1.041E3,3.9E3,6.47E2,5E0,5.52E2,6.424E3,4.42E2,1.76E2,3E0,1.07E2,3.713E3,7.27E2,8E2,9E0,4.8E1,1.245E3,3.5E1,5.04E2,6.4E1,3E2,1.5E1,8.13E2,1.45E2],"tree_param":{"num_deleted":"0","num_feature":"9","num_nodes":"127","size_leaf_vector":"1"}},{"base_weights":[1.5804511E-3,-4.3502933E-1,1.6098915E0,-7.1079004E-1,2.0232642E-2,1.1866245E0,2.8446748E0,-8.979379E-1,-5.784132E-1,-1.8470742E-1,2.879397E-1,7.992031E-1,1.5216388E0,2.4274752E0,3.8565774E0,-9.740321E-1,-8.1265885E-1,-6.8884206E-1,-4.8303533E-1,-2.564264E-1,5.4391127E-2,1.8961067E-1,5.977976E-1,6.3399667E-1,9.813995E-1,1.173612E0,1.6751108E0,2.1821127E0,2.6720362E0,3.5758271E0,4.3542037E0,-1.0090117E0,-8.7416935E-1,-7.658283E-1,-9.0005606E-1,-7.587683E-1,-5.7879055E-1,-5.694584E-1,-4.0600693E-1,-3.128596E-1,-1.5180044E-1,2.2710674E-2,7.088854E-1,-1.2872854E-1,2.3976178E-1,5.336842E-1,8.9878285E-1,3.857493E-1,7.281967E-1,8.990608E-1,1.2898464E0,8.843766E-1,1.327401E0,1.4869198E0,1.8637725E0,1.0275041E0,2.2078834E0,2.4327133E0,2.9491045E0,3.1155548E0,3.7633135E0,4.049889E0,4.7348585E0,-4.899275E-2,-5.2712906E-2,-4.495519E-2,-3.870079E-2,-4.0162858E-2,-3.1172851E-2,-4.7419246E-2,-3.8532156E-2,-3.5611268E-2,-4.1859422E-2,-3.2328695E-2,-2.5646705E-2,-2.7203212E-2,-4.0037755E-2,-1.8908145E-2,-2.894468E-2,-1.439015E-2,-2.334182E-2,-1.4283906E-2,-4.9262717E-3,4.1318987E-3,-6.984159E-3,4.3555144E-2,-1.4370549E-2,-2.1942202E-2,-1.6111321E-3,8.835158E-3,2.156364E-2,-1.0367446E-2,2.7781373E-2,5.4351926E-2,2.0980632E-2,1.973086E-3,2.4432136E-2,3.2837506E-2,4.3071404E-2,4.289422E-2,6.728936E-2,1.4965051E-1,6.2426496E-2,3.1984024E-2,5.072437E-2,2.9664272E-2,6.721321E-2,7.3523335E-2,1.6282782E-1,9.055038E-2,1.1625482E-1,2.38936E-3,6.766762E-2,1.0988482E-1,2.2583485E-1,9.315478E-2,1.2561058E-1,1.5083107E-1,7.657548E-2,5.6803137E-2,1.5801108E-1,1.6578315E-1,2.0013092E-1,1.861713E-1,2.3211811E-1,2.19298E-1,2.5522372E-1],"categories":[],"categories_nodes":[],"categories_segments":[],"categories_sizes":[],"default_left":[0,0,0,0,0,0,0,0,0,0,0,0,0,0,0,0,0,0,0,0,0,0,0,0,0,0,0,0,0,0,0,0,0,0,0,0,0,0,0,0,0,0,0,0,0,0,0,0,0,0,0,0,0,0,0,0,0,0,0,0,0,0,0,0,0,0,0,0,0,0,0,0,0,0,0,0,0,0,0,0,0,0,0,0,0,0,0,0,0,0,0,0,0,0,0,0,0,0,0,0,0,0,0,0,0,0,0,0,0,0,0,0,0,0,0,0,0,0,0,0,0,0,0,0,0,0,0],"id":12,"left_children":[1,3,5,7,9,11,13,15,17,19,21,23,25,27,29,31,33,35,37,39,41,43,45,47,49,51,53,55,57,59,61,63,65,67,69,71,73,75,77,79,81,83,85,87,89,91,93,95,97,99,101,103,105,107,109,111,113,115,117,119,121,123,125,-1,-1,-1,-1,-1,-1,-1,-1,-1,-1,-1,-1,-1,-1,-1,-1,-1,-1,-1,-1,-1,-1,-1,-1,-1,-1,-1,-1,-1,-1,-1,-1,-1,-1,-1,-1,-1,-1,-1,-1,-1,-1,-1,-1,-1,-1,-1,-1,-1,-1,-1,-1,-1,-1,-1,-1,-1,-1,-1,-1,-1,-1,-1,-1],"loss_changes":[1.4355583E5,2.0185752E4,2.2809484E4,2.480207E3,3.3277683E3,4.2180547E3,4.6943984E3,2.6840234E2,6.17416E2,5.891299E2,8.0119556E2,4.531963E2,9.291172E2,4.677422E2,4.38625E2,7.5677734E1,7.939551E1,2.087168E2,2.0929199E2,1.5599353E2,1.6436841E2,3.187893E2,1.2176807E2,1.846936E2,1.8088672E2,2.3626709E2,4.2665625E2,1.15115234E2,2.5461133E2,1.6811328E2,1.16125E2,2.036914E1,1.3520996E1,6.742529E1,4.1930664E1,6.0051758E1,4.6825684E1,8.666992E1,7.9907715E1,6.6098145E1,6.6031525E1,7.361333E1,5.9402084E1,8.133009E1,2.0823004E2,8.5077515E1,9.9763306E1,7.758441E1,5.4006348E1,1.0297705E2,1.02379395E2,5.844165E1,4.2319824E1,1.716543E2,1.427168E2,2.8028358E1,8.081445E1,9.150195E1,1.7005273E2,5.0256348E1,1.448457E2,1.0959863E2,4.376758E1,0E0,0E0,0E0,0E0,0E0,0E0,0E0,0E0,0E0,0E0,0E0,0E0,0E0,0E0,0E0,0E0,0E0,0E0,0E0,0E0,0E0,0E0,0E0,0E0,0E0,0E0,0E0,0E0,0E0,0E0,0E0,0E0,0E0,0E0,0E0,0E0,0E0,0E0,0E0,0E0,0E0,0E0,0E0,0E0,0E0,0E0,0E0,0E0,0E0,0E0,0E0,0E0,0E0,0E0,0E0,0E0,0E0,0E0,0E0,0E0,0E0,0E0,0E0,0E0],"parents":[2147483647,0,0,1,1,2,2,3,3,4,4,5,5,6,6,7,7,8,8,9,9,10,10,11,11,12,12,13,13,14,14,15,15,16,16,17,17,18,18,19,19,20,20,21,21,22,22,23,23,24,24,25,25,26,26,27,27,28,28,29,29,30,30,31,31,32,32,33,33,34,34,35,35,36,36,37,37,38,38,39,39,40,40,41,41,42,42,43,43,44,44,45,45,46,46,47,47,48,48,49,49,50,50,51,51,52,52,53,53,54,54,55,55,56,56,57,57,58,58,59,59,60,60,61,61,62,62],"right_children":[2,4,6,8,10,12,14,16,18,20,22,24,26,28,30,32,34,36,38,40,42,44,46,48,50,52,54,56,58,60,62,64,66,68,70,72,74,76,78,80,82,84,86,88,90,92,94,96,98,100,102,104,106,108,110,112,114,116,118,120,122,124,126,-1,-1,-1,-1,-1,-1,-1,-1,-1,-1,-1,-1,-1,-1,-1,-1,-1,-1,-1,-1,-1,-1,-1,-1,-1,-1,-1,-1,-1,-1,-1,-1,-1,-1,-1,-1,-1,-1,-1,-1,-1,-1,-1,-1,-1,-1,-1,-1,-1,-1,-1,-1,-1,-1,-1,-1,-1,-1,-1,-1,-1,-1,-1,-1],"split_conditions":[3.44E0,1.64E0,6.24E0,8.181818E-1,2.4E0,4.4E0,8.24E0,5E-1,1.2E0,2.5E0,3.5E0,4E0,4.6E0,6.92E0,1.02E1,1.45E1,3E0,2.07E1,1.28E0,2.04E0,4.2E0,1.6666666E0,4.6666665E0,2.4E1,5.25E0,2.8E1,5.32E0,2.35E1,7.6E0,8E0,1E0,4E0,7.2E-1,1.2E0,1.71E1,3E0,1.16E0,5E0,4E0,4E0,1.5E0,3E0,4E0,1.2E0,3.08E0,1.49E1,3E0,2.25E0,3.92E0,4.32E0,1E0,3.9E0,1E0,8.25E0,7.5E0,5.99E2,1.05E1,5.25E0,7E0,1E0,7.7E2,3.63E1,1.063E3,-4.899275E-2,-5.2712906E-2,-4.495519E-2,-3.870079E-2,-4.0162858E-2,-3.1172851E-2,-4.7419246E-2,-3.8532156E-2,-3.5611268E-2,-4.1859422E-2,-3.2328695E-2,-2.5646705E-2,-2.7203212E-2,-4.0037755E-2,-1.8908145E-2,-2.894468E-2,-1.439015E-2,-2.334182E-2,-1.4283906E-2,-4.9262717E-3,4.1318987E-3,-6.984159E-3,4.3555144E-2,-1.4370549E-2,-2.1942202E-2,-1.6111321E-3,8.835158E-3,2.156364E-2,-1.0367446E-2,2.7781373E-2,5.4351926E-2,2.0980632E-2,1.973086E-3,2.4432136E-2,3.2837506E-2,4.3071404E-2,4.289422E-2,6.728936E-2,1.4965051E-1,6.2426496E-2,3.1984024E-2,5.072437E-2,2.9664272E-2,6.721321E-2,7.3523335E-2,1.6282782E-1,9.055038E-2,1.1625482E-1,2.38936E-3,6.766762E-2,1.0988482E-1,2.2583485E-1,9.315478E-2,1.2561058E-1,1.5083107E-1,7.657548E-2,5.6803137E-2,1.5801108E-1,1.6578315E-1,2.0013092E-1,1.861713E-1,2.3211811E-1,2.19298E-1,2.5522372E-1],"split_indices":[8,8,8,8,8,8,8,6,6,6,6,6,6,8,6,5,4,5,8,8,6,6,6,5,6,5,8,5,6,6,3,4,8,6,5,4,8,4,4,4,6,4,4,6,8,5,4,6,8,8,4,7,4,6,6,0,6,6,4,4,0,5,0,0,0,0,0,0,0,0,0,0,0,0,0,0,0,0,0,0,0,0,0,0,0,0,0,0,0,0,0,0,0,0,0,0,0,0,0,0,0,0,0,0,0,0,0,0,0,0,0,0,0,0,0,0,0,0,0,0,0,0,0,0,0,0,0],"split_type":[0,0,0,0,0,0,0,0,0,0,0,0,0,0,0,0,0,0,0,0,0,0,0,0,0,0,0,0,0,0,0,0,0,0,0,0,0,0,0,0,0,0,0,0,0,0,0,0,0,0,0,0,0,0,0,0,0,0,0,0,0,0,0,0,0,0,0,0,0,0,0,0,0,0,0,0,0,0,0,0,0,0,0,0,0,0,0,0,0,0,0,0,0,0,0,0,0,0,0,0,0,0,0,0,0,0,0,0,0,0,0,0,0,0,0,0,0,0,0,0,0,0,0,0,0,0,0],"sum_hessian":[2.04434E5,1.60786E5,4.3648E4,1.00133E5,6.0653E4,3.2507E4,1.1141E4,4.1482E4,5.8651E4,3.4354E4,2.6299E4,1.5076E4,1.7431E4,7.891E3,3.25E3,2.1916E4,1.9566E4,2.7178E4,3.1473E4,2.6427E4,7.927E3,1.9965E4,6.334E3,7.909E3,7.167E3,5.337E3,1.2094E4,3.944E3,3.947E3,2.083E3,1.167E3,1.6224E4,5.692E3,1.2746E4,6.82E3,1.6615E4,1.0563E4,1.4829E4,1.6644E4,1.7166E4,9.261E3,7.562E3,3.65E2,2.717E3,1.7248E4,5.224E3,1.11E3,2.177E3,5.732E3,5.66E3,1.507E3,1.855E3,3.482E3,6.059E3,6.035E3,8.7E1,3.857E3,2.123E3,1.824E3,6.08E2,1.475E3,6.55E2,5.12E2,9.88E3,6.344E3,4.551E3,1.141E3,1.0089E4,2.657E3,4.961E3,1.859E3,1.0433E4,6.182E3,5.201E3,5.362E3,1.3365E4,1.464E3,1.4338E4,2.306E3,1.4766E4,2.4E3,2.635E3,6.626E3,5.524E3,2.038E3,3.14E2,5.1E1,6.44E2,2.073E3,1.2977E4,4.271E3,1.5E2,5.074E3,7.96E2,3.14E2,4.99E2,1.678E3,3.735E3,1.997E3,5.185E3,4.75E2,3.4E1,1.473E3,6.46E2,1.209E3,7.9E1,3.403E3,6.005E3,5.4E1,5.42E3,6.15E2,2.2E1,6.5E1,3.842E3,1.5E1,2.63E2,1.86E3,1.74E3,8.4E1,1.4E1,5.94E2,5.19E2,9.56E2,4.27E2,2.28E2,2.7E2,2.42E2],"tree_param":{"num_deleted":"0","num_feature":"9","num_nodes":"127","size_leaf_vector":"1"}},{"base_weights":[-6.2248996E-4,-4.297947E-1,1.4790752E0,-6.759048E-1,-6.088287E-3,1.0208672E0,2.500682E0,-8.3360547E-1,-5.3238004E-1,-1.8162239E-1,2.4704032E-1,7.3930514E-1,1.3698688E0,2.118755E0,3.4812376E0,-9.18515E-1,-7.5269186E-1,-6.4004123E-1,-4.4975892E-1,-2.576798E-1,-1.2630022E-2,5.1903993E-2,3.6709833E-1,5.8606225E-1,9.270884E-1,1.1240785E0,1.500706E0,1.8563297E0,2.323783E0,3.1174033E0,4.0224285E0,-9.535213E-1,-8.242835E-1,-7.2053796E-1,-8.7661487E-1,-7.216344E-1,-5.472267E-1,-4.8032695E-1,-2.8777155E-1,-3.078998E-1,-1.5732144E-1,-6.224573E-2,2.2045147E-1,-3.792824E-1,8.449315E-2,2.7820995E-1,5.268764E-1,4.1779837E-1,7.3812896E-1,8.614227E-1,1.2730016E0,8.403982E-1,1.2762272E0,1.5401162E0,8.1511945E-1,1.515191E0,1.9681852E0,2.0987127E0,2.4841897E0,2.9098856E0,3.5121622E0,3.05873E0,4.1126814E0,-5.0034285E-2,-4.6219755E-2,-4.2970452E-2,-3.6783062E-2,-3.7651457E-2,-3.0979408E-2,-4.5980368E-2,-3.7862506E-2,-3.387722E-2,-3.9655577E-2,-2.9667879E-2,-2.264583E-2,-2.7410109E-2,-2.1051938E-2,3.675973E-2,-1.5222172E-2,-2.0063799E-2,-1.3361871E-2,-1.17101325E-2,-3.5127357E-3,6.7822733E-3,-5.1490157E-3,1.5070215E-2,-1.9973092E-2,-3.391016E-2,-1.3647093E-2,1.3911108E-3,1.0642012E-2,9.843396E-3,2.0116756E-2,2.8101852E-2,-2.6594118E-5,9.665074E-3,2.7107924E-2,3.3025723E-2,4.451288E-2,4.0004052E-2,5.627988E-2,1.4680831E-1,6.163769E-2,2.9043997E-2,4.933594E-2,-5.7391565E-2,6.409443E-2,7.337778E-2,9.2861466E-2,2.1668328E-2,5.2200373E-2,7.935203E-2,2.8245032E-2,9.298487E-2,1.08963385E-1,9.629409E-2,1.1521566E-1,1.2639633E-1,9.1864645E-2,1.17089085E-1,1.4935867E-1,1.5495901E-1,1.9825786E-1,-2.373834E-2,1.6096455E-1,2.096697E-1,1.817897E-1],"categories":[],"categories_nodes":[],"categories_segments":[],"categories_sizes":[],"default_left":[0,0,0,0,0,0,0,0,0,0,0,0,0,0,0,0,0,0,0,0,0,0,0,0,0,0,0,0,0,0,0,0,0,0,0,0,0,0,0,0,0,0,0,0,0,0,0,0,0,0,0,0,0,0,0,0,0,0,0,0,0,0,0,0,0,0,0,0,0,0,0,0,0,0,0,0,0,0,0,0,0,0,0,0,0,0,0,0,0,0,0,0,0,0,0,0,0,0,0,0,0,0,0,0,0,0,0,0,0,0,0,0,0,0,0,0,0,0,0,0,0,0,0,0,0,0,0],"id":13,"left_children":[1,3,5,7,9,11,13,15,17,19,21,23,25,27,29,31,33,35,37,39,41,43,45,47,49,51,53,55,57,59,61,63,65,67,69,71,73,75,77,79,81,83,85,87,89,91,93,95,97,99,101,103,105,107,109,111,113,115,117,119,121,123,125,-1,-1,-1,-1,-1,-1,-1,-1,-1,-1,-1,-1,-1,-1,-1,-1,-1,-1,-1,-1,-1,-1,-1,-1,-1,-1,-1,-1,-1,-1,-1,-1,-1,-1,-1,-1,-1,-1,-1,-1,-1,-1,-1,-1,-1,-1,-1,-1,-1,-1,-1,-1,-1,-1,-1,-1,-1,-1,-1,-1,-1,-1,-1,-1],"loss_changes":[1.2993214E5,1.6538764E4,2.1530898E4,2.2703516E3,2.5894048E3,3.1198047E3,5.3266406E3,3.2771875E2,4.6694434E2,4.4231128E2,5.5905896E2,5.053457E2,4.5432227E2,5.4734375E2,7.733047E2,7.6140625E1,9.6918945E1,1.7230762E2,1.4703906E2,1.1956079E2,1.2354575E2,1.2777879E2,2.0967993E2,2.474541E2,1.7830322E2,2.1171387E2,2.4869727E2,1.6880664E2,2.0244922E2,1.8564844E2,1.2666992E2,2.2424805E1,1.9053223E1,6.330957E1,2.5162842E1,3.769922E1,4.6165283E1,1.0038672E2,8.073947E1,5.9944458E1,5.2978302E1,7.101539E1,9.421489E1,2.0127037E1,6.1477394E1,9.5787964E1,9.791284E1,1.2829224E2,5.9452393E1,1.0671631E2,8.0589355E1,6.489197E1,4.5481934E1,1.9854102E2,4.3673798E1,7.5302E1,7.3509766E1,8.084473E1,9.02207E1,6.2070312E1,1.4092773E2,8.152368E1,4.098828E1,0E0,0E0,0E0,0E0,0E0,0E0,0E0,0E0,0E0,0E0,0E0,0E0,0E0,0E0,0E0,0E0,0E0,0E0,0E0,0E0,0E0,0E0,0E0,0E0,0E0,0E0,0E0,0E0,0E0,0E0,0E0,0E0,0E0,0E0,0E0,0E0,0E0,0E0,0E0,0E0,0E0,0E0,0E0,0E0,0E0,0E0,0E0,0E0,0E0,0E0,0E0,0E0,0E0,0E0,0E0,0E0,0E0,0E0,0E0,0E0,0E0,0E0,0E0,0E0],"parents":[2147483647,0,0,1,1,2,2,3,3,4,4,5,5,6,6,7,7,8,8,9,9,10,10,11,11,12,12,13,13,14,14,15,15,16,16,17,17,18,18,19,19,20,20,21,21,22,22,23,23,24,24,25,25,26,26,27,27,28,28,29,29,30,30,31,31,32,32,33,33,34,34,35,35,36,36,37,37,38,38,39,39,40,40,41,41,42,42,43,43,44,44,45,45,46,46,47,47,48,48,49,49,50,50,51,51,52,52,53,53,54,54,55,55,56,56,57,57,58,58,59,59,60,60,61,61,62,62],"right_children":[2,4,6,8,10,12,14,16,18,20,22,24,26,28,30,32,34,36,38,40,42,44,46,48,50,52,54,56,58,60,62,64,66,68,70,72,74,76,78,80,82,84,86,88,90,92,94,96,98,100,102,104,106,108,110,112,114,116,118,120,122,124,126,-1,-1,-1,-1,-1,-1,-1,-1,-1,-1,-1,-1,-1,-1,-1,-1,-1,-1,-1,-1,-1,-1,-1,-1,-1,-1,-1,-1,-1,-1,-1,-1,-1,-1,-1,-1,-1,-1,-1,-1,-1,-1,-1,-1,-1,-1,-1,-1,-1,-1,-1,-1,-1,-1,-1,-1,-1,-1,-1,-1,-1,-1,-1,-1],"split_conditions":[3.32E0,1.64E0,5.8E0,9.2E-1,2.4E0,4.4E0,7.84E0,5E-1,1.2E0,2.4E0,2.6E0,4E0,4.6E0,6.25E0,9.44E0,1.45E1,4E0,1.95E1,2.2E0,2.04E0,3.25E0,1.2E0,3.5E0,2.8E1,5.5E0,2.8E1,7E0,5E0,6.64E0,9E0,8.2E0,3.2E-1,7.2E-1,1.2E0,1.62E1,3E0,1.32E0,1.28E0,1E0,1.25E0,2.59E1,2E0,4E0,1.4E0,2.95E1,2.92E0,6E0,2.6666667E0,3.88E0,4.2E0,1E0,3.9E0,1.4E1,6.5E0,3.08E1,1.514E3,6.64E0,1E0,6E0,6.25E0,1E0,2.88E1,3.73E1,-5.0034285E-2,-4.6219755E-2,-4.2970452E-2,-3.6783062E-2,-3.7651457E-2,-3.0979408E-2,-4.5980368E-2,-3.7862506E-2,-3.387722E-2,-3.9655577E-2,-2.9667879E-2,-2.264583E-2,-2.7410109E-2,-2.1051938E-2,3.675973E-2,-1.5222172E-2,-2.0063799E-2,-1.3361871E-2,-1.17101325E-2,-3.5127357E-3,6.7822733E-3,-5.1490157E-3,1.5070215E-2,-1.9973092E-2,-3.391016E-2,-1.3647093E-2,1.3911108E-3,1.0642012E-2,9.843396E-3,2.0116756E-2,2.8101852E-2,-2.6594118E-5,9.665074E-3,2.7107924E-2,3.3025723E-2,4.451288E-2,4.0004052E-2,5.627988E-2,1.4680831E-1,6.163769E-2,2.9043997E-2,4.933594E-2,-5.7391565E-2,6.409443E-2,7.337778E-2,9.2861466E-2,2.1668328E-2,5.2200373E-2,7.935203E-2,2.8245032E-2,9.298487E-2,1.08963385E-1,9.629409E-2,1.1521566E-1,1.2639633E-1,9.1864645E-2,1.17089085E-1,1.4935867E-1,1.5495901E-1,1.9825786E-1,-2.373834E-2,1.6096455E-1,2.096697E-1,1.817897E-1],"split_indices":[8,8,8,8,8,8,8,6,6,6,6,6,6,6,8,5,4,5,6,8,6,6,6,5,6,5,4,6,8,7,6,8,8,6,5,4,8,8,4,6,5,4,4,7,5,8,4,6,8,8,4,7,0,6,5,0,8,3,4,6,3,5,5,0,0,0,0,0,0,0,0,0,0,0,0,0,0,0,0,0,0,0,0,0,0,0,0,0,0,0,0,0,0,0,0,0,0,0,0,0,0,0,0,0,0,0,0,0,0,0,0,0,0,0,0,0,0,0,0,0,0,0,0,0,0,0,0],"split_type":[0,0,0,0,0,0,0,0,0,0,0,0,0,0,0,