{"learner":{"attributes":{"scikit_learn":"{\"_estimator_type\": \"regressor\"}"},"feature_names":[],"feature_types":[],"gradient_booster":{"model":{"cats":{"enc":[],"feature_segments":[],"sorted_idx":[]},"gbtree_model_param":{"num_parallel_tree":"1","num_trees":"300"},"iteration_indptr":[0,1,2,3,4,5,6,7,8,9,10,11,12,13,14,15,16,17,18,19,20,21,22,23,24,25,26,27,28,29,30,31,32,33,34,35,36,37,38,39,40,41,42,43,44,45,46,47,48,49,50,51,52,53,54,55,56,57,58,59,60,61,62,63,64,65,66,67,68,69,70,71,72,73,74,75,76,77,78,79,80,81,82,83,84,85,86,87,88,89,90,91,92,93,94,95,96,97,98,99,100,101,102,103,104,105,106,107,108,109,110,111,112,113,114,115,116,117,118,119,120,121,122,123,124,125,126,127,128,129,130,131,132,133,134,135,136,137,138,139,140,141,142,143,144,145,146,147,148,149,150,151,152,153,154,155,156,157,158,159,160,161,162,163,164,165,166,167,168,169,170,171,172,173,174,175,176,177,178,179,180,181,182,183,184,185,186,187,188,189,190,191,192,193,194,195,196,197,198,199,200,201,202,203,204,205,206,207,208,209,210,211,212,213,214,215,216,217,218,219,220,221,222,223,224,225,226,227,228,229,230,231,232,233,234,235,236,237,238,239,240,241,242,243,244,245,246,247,248,249,250,251,252,253,254,255,256,257,258,259,260,261,262,263,264,265,266,267,268,269,270,271,272,273,274,275,276,277,278,279,280,281,282,283,284,285,286,287,288,289,290,291,292,293,294,295,296,297,298,299,300],"tree_info":[0,0,0,0,0,0,0,0,0,0,0,0,0,0,0,0,0,0,0,0,0,0,0,0,0,0,0,0,0,0,0,0,0,0,0,0,0,0,0,0,0,0,0,0,0,0,0,0,0,0,0,0,0,0,0,0,0,0,0,0,0,0,0,0,0,0,0,0,0,0,0,0,0,0,0,0,0,0,0,0,0,0,0,0,0,0,0,0,0,0,0,0,0,0,0,0,0,0,0,0,0,0,0,0,0,0,0,0,0,0,0,0,0,0,0,0,0,0,0,0,0,0,0,0,0,0,0,0,0,0,0,0,0,0,0,0,0,0,0,0,0,0,0,0,0,0,0,0,0,0,0,0,0,0,0,0,0,0,0,0,0,0,0,0,0,0,0,0,0,0,0,0,0,0,0,0,0,0,0,0,0,0,0,0,0,0,0,0,0,0,0,0,0,0,0,0,0,0,0,0,0,0,0,0,0,0,0,0,0,0,0,0,0,0,0,0,0,0,0,0,0,0,0,0,0,0,0,0,0,0,0,0,0,0,0,0,0,0,0,0,0,0,0,0,0,0,0,0,0,0,0,0,0,0,0,0,0,0,0,0,0,0,0,0,0,0,0,0,0,0,0,0,0,0,0,0,0,0,0,0,0,0,0,0,0,0,0,0,0,0,0,0,0,0,0,0,0,0,0,0],"trees":[{"base_weights":[9.1422896E-4,-1.5504158E-1,7.712507E-1,-2.714999E-1,5.2249156E-2,5.7951844E-1,1.56201E0,-3.416502E-1,-2.00976E-1,-2.2649985E-2,1.9072999E-1,4.0446866E-1,7.7181953E-1,1.3910846E0,2.0364473E0,-3.68635E-1,-3.1316015E-1,-2.4345075E-1,-1.6606987E-1,-5.3769875E-2,7.8330524E-2,1.5010054E-1,3.640567E-1,2.2702268E-1,4.5167473E-1,6.12839E-1,9.629932E-1,1.2301359E0,1.6570535E0,2.081578E0,8.3629787E-1,-3.5948965E-1,-3.977901E-1,-3.212491E-1,-2.6647043E-1,-2.6329666E-1,-2.1392138E-1,-1.7607935E-1,-4.804642E-2,-9.895996E-2,-1.8935077E-2,6.314566E-2,6.564253E-1,1.05491824E-1,2.1703698E-1,3.487501E-1,1.5640371E0,-2.0961264E-1,2.7163056E-1,3.800681E-1,5.8501124E-1,5.863969E-1,9.738988E-1,5.3860205E-1,9.861557E-1,1.1544632E0,1.6295488E0,1.4401047E0,1.9007131E0,1.8653121E0,2.3322527E0,5.287552E-1,1.4273489E0,-1.8094834E-2,-1.2314122E-2,-1.9722423E-2,-2.1367392E-2,-1.6682802E-2,-1.5329063E-2,-1.4024532E-2,-9.573507E-3,-1.2723719E-2,-1.522431E-2,-9.884676E-3,-1.2530746E-2,-9.57793E-3,-6.851349E-3,-3.5234746E-3,1.2419758E-2,-6.634003E-3,-3.558196E-3,-1.9696786E-3,1.4309849E-3,2.1667427E-3,9.0175895E-3,3.608981E-2,-1.1985044E-2,-1.8592923E-3,5.841891E-3,7.2650723E-3,1.3222428E-2,1.5942855E-2,2.6479835E-2,1.0060703E-1,4.4094715E-2,-4.7613983E-3,-1.5814697E-2,1.436411E-2,-9.572196E-3,1.7020402E-2,2.149685E-2,2.479933E-2,3.4963395E-2,2.3893042E-2,3.2286692E-2,1.3615082E-1,4.6589296E-2,1.5820961E-2,4.7474463E-2,4.6774488E-2,6.307674E-2,9.103945E-2,5.687073E-2,1.2596752E-1,7.930699E-2,2.0443471E-2,7.4792854E-2,8.753334E-2,1.0556264E-1,7.4546725E-2,9.575879E-2,9.1604225E-2,1.2215723E-1,-1.5829846E-2,3.4640472E-2,1.665106E-1,5.35276E-2],"categories":[],"categories_nodes":[],"categories_segments":[],"categories_sizes":[],"default_left":[0,0,0,0,0,0,0,0,0,0,0,0,0,0,0,0,0,0,0,0,0,0,0,0,0,0,0,0,0,0,0,0,0,0,0,0,0,0,0,0,0,0,0,0,0,0,0,0,0,0,0,0,0,0,0,0,0,0,0,0,0,0,0,0,0,0,0,0,0,0,0,0,0,0,0,0,0,0,0,0,0,0,0,0,0,0,0,0,0,0,0,0,0,0,0,0,0,0,0,0,0,0,0,0,0,0,0,0,0,0,0,0,0,0,0,0,0,0,0,0,0,0,0,0,0,0,0],"id":0,"left_children":[1,3,5,7,9,11,13,15,17,19,21,23,25,27,29,31,33,35,37,39,41,43,45,47,49,51,53,55,57,59,61,63,65,67,69,71,73,75,77,79,81,83,85,87,89,91,93,95,97,99,101,103,105,107,109,111,113,115,117,119,121,123,125,-1,-1,-1,-1,-1,-1,-1,-1,-1,-1,-1,-1,-1,-1,-1,-1,-1,-1,-1,-1,-1,-1,-1,-1,-1,-1,-1,-1,-1,-1,-1,-1,-1,-1,-1,-1,-1,-1,-1,-1,-1,-1,-1,-1,-1,-1,-1,-1,-1,-1,-1,-1,-1,-1,-1,-1,-1,-1,-1,-1,-1,-1,-1,-1],"loss_changes":[2.4537078E4,4.10039E3,5.2126484E3,5.379658E2,6.337393E2,9.313916E2,5.413037E2,4.1799805E1,8.036987E1,1.24617004E2,1.509787E2,1.2128174E2,4.0023145E2,2.0925879E2,9.43999E1,7.321045E0,9.932861E0,1.4279907E1,3.5164124E1,4.771647E1,8.196532E1,5.1860962E1,7.424744E1,5.940448E1,1.09052246E2,6.819702E1,5.8311035E1,9.1180664E1,9.547949E1,8.835254E1,1.1242325E1,5.720459E0,4.9072266E-1,4.0112305E0,4.071411E0,5.2374268E0,5.808563E0,1.6564209E1,1.54986725E1,1.23580475E1,1.6656187E1,2.1131195E1,1.417379E1,1.6887024E1,2.3592377E1,2.157425E1,1.3814705E1,3.4232464E0,2.0095383E1,1.4586304E1,4.0309326E1,4.2931152E1,3.3556335E1,2.8182701E1,7.799951E1,2.7374023E1,1.48532715E1,5.6134644E1,2.3851074E1,1.4375244E1,3.922998E1,6.460103E0,1.1371422E1,0E0,0E0,0E0,0E0,0E0,0E0,0E0,0E0,0E0,0E0,0E0,0E0,0E0,0E0,0E0,0E0,0E0,0E0,0E0,0E0,0E0,0E0,0E0,0E0,0E0,0E0,0E0,0E0,0E0,0E0,0E0,0E0,0E0,0E0,0E0,0E0,0E0,0E0,0E0,0E0,0E0,0E0,0E0,0E0,0E0,0E0,0E0,0E0,0E0,0E0,0E0,0E0,0E0,0E0,0E0,0E0,0E0,0E0,0E0,0E0,0E0,0E0,0E0,0E0],"parents":[2147483647,0,0,1,1,2,2,3,3,4,4,5,5,6,6,7,7,8,8,9,9,10,10,11,11,12,12,13,13,14,14,15,15,16,16,17,17,18,18,19,19,20,20,21,21,22,22,23,23,24,24,25,25,26,26,27,27,28,28,29,29,30,30,31,31,32,32,33,33,34,34,35,35,36,36,37,37,38,38,39,39,40,40,41,41,42,42,43,43,44,44,45,45,46,46,47,47,48,48,49,49,50,50,51,51,52,52,53,53,54,54,55,55,56,56,57,57,58,58,59,59,60,60,61,61,62,62],"right_children":[2,4,6,8,10,12,14,16,18,20,22,24,26,28,30,32,34,36,38,40,42,44,46,48,50,52,54,56,58,60,62,64,66,68,70,72,74,76,78,80,82,84,86,88,90,92,94,96,98,100,102,104,106,108,110,112,114,116,118,120,122,124,126,-1,-1,-1,-1,-1,-1,-1,-1,-1,-1,-1,-1,-1,-1,-1,-1,-1,-1,-1,-1,-1,-1,-1,-1,-1,-1,-1,-1,-1,-1,-1,-1,-1,-1,-1,-1,-1,-1,-1,-1,-1,-1,-1,-1,-1,-1,-1,-1,-1,-1,-1,-1,-1,-1,-1,-1,-1,-1,-1,-1,-1,-1,-1,-1],"split_conditions":[8.8E-1,4E-1,1.8333334E0,2E-1,6.4E-1,1.1428572E0,2.7E0,8.695652E-2,2.777778E-1,6.666667E-1,1E0,5E-1,1.36E0,2.08E0,1E1,4E0,2.5E-1,2.2222222E-1,6.666667E-1,4.7619048E-1,1.5E0,8E-1,2.25E0,2.2222222E-1,1.12E0,2.2E0,6.666667E-1,2.6666667E0,1E0,3.1E0,1E0,2.5E-1,2.8E1,1.6E-1,5E-1,4E0,3E0,3.6E-1,1.2E0,2.5E-1,6E-1,8.333333E-1,6E0,2E-1,7.2E-1,1.2222222E0,7.916667E-1,1.08E0,1.68E0,1E0,1E0,1.08E0,1E0,1E0,1.88E0,1E0,1.08E0,1.2E0,1.7E1,2.2E0,3.78E2,2.2E0,7E0,-1.8094834E-2,-1.2314122E-2,-1.9722423E-2,-2.1367392E-2,-1.6682802E-2,-1.5329063E-2,-1.4024532E-2,-9.573507E-3,-1.2723719E-2,-1.522431E-2,-9.884676E-3,-1.2530746E-2,-9.57793E-3,-6.851349E-3,-3.5234746E-3,1.2419758E-2,-6.634003E-3,-3.558196E-3,-1.9696786E-3,1.4309849E-3,2.1667427E-3,9.0175895E-3,3.608981E-2,-1.1985044E-2,-1.8592923E-3,5.841891E-3,7.2650723E-3,1.3222428E-2,1.5942855E-2,2.6479835E-2,1.0060703E-1,4.4094715E-2,-4.7613983E-3,-1.5814697E-2,1.436411E-2,-9.572196E-3,1.7020402E-2,2.149685E-2,2.479933E-2,3.4963395E-2,2.3893042E-2,3.2286692E-2,1.3615082E-1,4.6589296E-2,1.5820961E-2,4.7474463E-2,4.6774488E-2,6.307674E-2,9.103945E-2,5.687073E-2,1.2596752E-1,7.930699E-2,2.0443471E-2,7.4792854E-2,8.753334E-2,1.0556264E-1,7.4546725E-2,9.575879E-2,9.1604225E-2,1.2215723E-1,-1.5829846E-2,3.4640472E-2,1.665106E-1,5.35276E-2],"split_indices":[8,8,7,8,8,7,7,8,8,6,7,6,8,8,4,4,6,7,6,8,6,6,6,7,8,6,6,6,3,7,3,6,2,8,6,4,4,8,6,6,6,7,4,6,8,7,8,8,8,3,3,8,4,3,8,4,8,6,2,6,0,6,2,0,0,0,0,0,0,0,0,0,0,0,0,0,0,0,0,0,0,0,0,0,0,0,0,0,0,0,0,0,0,0,0,0,0,0,0,0,0,0,0,0,0,0,0,0,0,0,0,0,0,0,0,0,0,0,0,0,0,0,0,0,0,0,0],"split_type":[0,0,0,0,0,0,0,0,0,0,0,0,0,0,0,0,0,0,0,0,0,0,0,0,0,0,0,0,0,0,0,0,0,0,0,0,0,0,0,0,0,0,0,0,0,0,0,0,0,0,0,0,0,0,0,0,0,0,0,0,0,0,0,0,0,0,0,0,0,0,0,0,0,0,0,0,0,0,0,0,0,0,0,0,0,0,0,0,0,0,0,0,0,0,0,0,0,0,0,0,0,0,0,0,0,0,0,0,0,0,0,0,0,0,0,0,0,0,0,0,0,0,0,0,0,0,0],"sum_hessian":[2.04238E5,1.69852E5,3.4386E4,1.08753E5,6.1099E4,2.7677E4,6.709E3,5.4519E4,5.4234E4,3.9653E4,2.1446E4,1.449E4,1.3187E4,4.935E3,1.774E3,2.7993E4,2.6526E4,2.4462E4,2.9772E4,3.0312E4,9.341E3,1.7375E4,4.071E3,3.046E3,1.1444E4,7.202E3,5.985E3,3.078E3,1.857E3,1.709E3,6.5E1,2.1319E4,6.674E3,2.2604E4,3.922E3,1.4625E4,9.837E3,2.7444E4,2.328E3,1.3194E4,1.7118E4,9.103E3,2.38E2,1.0428E4,6.947E3,4.021E3,5E1,2.82E2,2.764E3,7.448E3,3.996E3,6.713E3,4.89E2,3.11E2,5.674E3,2.591E3,4.87E2,9.86E2,8.71E2,9.22E2,7.87E2,4.4E1,2.1E1,2.0873E4,4.46E2,6.009E3,6.65E2,1.2234E4,1.037E4,3.302E3,6.2E2,1.2051E4,2.574E3,6.825E3,3.012E3,1.9651E4,7.793E3,2.165E3,1.63E2,5.96E3,7.234E3,1.1969E4,5.149E3,7.788E3,1.315E3,2.22E2,1.6E1,7.68E2,9.66E3,2.766E3,4.181E3,3.453E3,5.68E2,2.9E1,2.1E1,1.37E2,1.45E2,2.674E3,9E1,4.153E3,3.295E3,2.249E3,1.747E3,2.376E3,4.337E3,1E1,4.79E2,2.03E2,1.08E2,4.796E3,8.78E2,6.2E1,2.529E3,2E1,4.67E2,5.1E1,9.35E2,5.14E2,3.57E2,1.12E2,8.1E2,1.46E2,6.41E2,7E0,3.7E1,2E0,1.9E1],"tree_param":{"num_deleted":"0","num_feature":"9","num_nodes":"127","size_leaf_vector":"1"}},{"base_weights":[-1.4980487E-3,-1.3664502E-1,7.679879E-1,-2.3202327E-1,9.54263E-2,5.7364875E-1,1.4602225E0,-3.126893E-1,-1.6787007E-1,1.7711569E-2,1.8707122E-1,4.834203E-1,8.3851427E-1,1.3233588E0,2.0811403E0,-3.3868665E-1,-2.890357E-1,-2.2373173E-1,-1.304735E-1,-1.6428212E-2,6.0516205E-2,1.1950818E-1,2.3332034E-1,3.948062E-1,5.799273E-1,7.5943166E-1,1.0415146E0,1.2459005E0,1.5949364E0,1.4004928E0,2.172113E0,-2.4306353E-2,-3.3757558E-1,-2.815645E-1,-3.2094932E-1,-2.1607696E-1,-2.5984776E-1,-1.6123942E-1,-9.227626E-2,-1.0128545E-2,-1.5102825E-1,5.584855E-2,2.4723883E-1,2.5777954E-1,1.113502E-1,1.6164164E-1,2.6921234E-1,3.47573E-1,4.5491278E-1,7.258366E-2,5.8431107E-1,4.7806042E-1,7.845652E-1,1.6036502E0,1.0283418E0,1.1191326E0,1.3964323E0,2.4896202E0,1.5685862E0,1.5126954E0,3.0856067E-2,1.9174854E0,2.3324728E0,-1.6512873E-2,-1.79665E-2,-1.3621755E-2,-1.5329616E-2,-1.7490618E-2,-1.5670529E-2,-7.932617E-3,-1.1013361E-2,-1.378908E-2,-1.088795E-2,-9.010908E-3,-7.0777456E-3,-4.379713E-3,-7.2507407E-3,4.28526E-3,-8.629542E-4,-1.0129086E-2,-4.7299275E-3,1.695406E-3,4.1108616E-3,1.6489452E-2,1.0115424E-3,2.161851E-2,5.9030736E-3,5.944432E-3,6.611474E-4,5.7950956E-3,1.0950307E-2,1.299219E-2,2.7778769E-2,1.6066257E-2,2.3347316E-2,3.230497E-2,2.1722294E-2,-4.8977975E-3,1.8653845E-2,2.8591588E-2,3.73273E-2,2.1152822E-2,3.943431E-2,3.634825E-2,4.2616647E-2,-2.807153E-3,9.032693E-2,4.6972547E-2,5.5506445E-2,8.804905E-3,5.6989968E-2,6.335855E-2,7.729258E-2,1.2954989E-1,3.0608932E-2,5.3170312E-2,7.954561E-2,8.036365E-2,2.9361188E-2,-1.4047294E-2,8.651694E-2,6.7709826E-2,9.988855E-2,8.9769214E-2,1.230097E-1],"categories":[],"categories_nodes":[],"categories_segments":[],"categories_sizes":[],"default_left":[0,0,0,0,0,0,0,0,0,0,0,0,0,0,0,0,0,0,0,0,0,0,0,0,0,0,0,0,0,0,0,0,0,0,0,0,0,0,0,0,0,0,0,0,0,0,0,0,0,0,0,0,0,0,0,0,0,0,0,0,0,0,0,0,0,0,0,0,0,0,0,0,0,0,0,0,0,0,0,0,0,0,0,0,0,0,0,0,0,0,0,0,0,0,0,0,0,0,0,0,0,0,0,0,0,0,0,0,0,0,0,0,0,0,0,0,0,0,0,0,0,0,0,0,0],"id":1,"left_children":[1,3,5,7,9,11,13,15,17,19,21,23,25,27,29,31,33,35,37,39,41,43,45,47,49,51,53,55,57,59,61,-1,63,65,67,69,71,73,75,77,79,81,83,85,87,89,91,93,95,97,99,101,103,105,107,109,111,113,115,117,119,121,123,-1,-1,-1,-1,-1,-1,-1,-1,-1,-1,-1,-1,-1,-1,-1,-1,-1,-1,-1,-1,-1,-1,-1,-1,-1,-1,-1,-1,-1,-1,-1,-1,-1,-1,-1,-1,-1,-1,-1,-1,-1,-1,-1,-1,-1,-1,-1,-1,-1,-1,-1,-1,-1,-1,-1,-1,-1,-1,-1,-1,-1,-1],"loss_changes":[2.1237385E4,3.8449937E3,4.1034863E3,6.370503E2,3.6036374E2,5.689258E2,5.655156E2,3.343799E1,1.4323047E2,4.0013973E1,7.2522156E1,1.5175537E2,9.63667E1,1.13331055E2,7.16333E1,4.090576E0,6.7199707E0,7.5461426E0,4.826123E1,1.291507E1,1.0574741E1,1.0616364E1,3.541327E1,2.615393E1,1.8873047E1,3.0450928E1,1.0894897E1,7.991992E1,2.469165E1,2.223645E1,3.8891113E1,0E0,3.9863281E0,5.206421E0,1.067749E0,5.4259033E0,3.1617126E0,8.474304E0,4.513138E0,9.9462185E0,1.9619637E0,6.8552246E0,5.5402374E0,1.27555275E1,6.591614E0,1.2046883E1,2.4489197E1,1.6124268E1,1.5664795E1,3.8287492E0,1.6644531E1,5.817177E0,1.4994385E1,1.2561279E1,1.1010864E1,4.5073486E1,3.566504E1,4.694748E0,1.1628174E1,1.0785034E1,6.8449554E0,1.6107788E1,3.9965576E1,0E0,0E0,0E0,0E0,0E0,0E0,0E0,0E0,0E0,0E0,0E0,0E0,0E0,0E0,0E0,0E0,0E0,0E0,0E0,0E0,0E0,0E0,0E0,0E0,0E0,0E0,0E0,0E0,0E0,0E0,0E0,0E0,0E0,0E0,0E0,0E0,0E0,0E0,0E0,0E0,0E0,0E0,0E0,0E0,0E0,0E0,0E0,0E0,0E0,0E0,0E0,0E0,0E0,0E0,0E0,0E0,0E0,0E0,0E0,0E0,0E0,0E0],"parents":[2147483647,0,0,1,1,2,2,3,3,4,4,5,5,6,6,7,7,8,8,9,9,10,10,11,11,12,12,13,13,14,14,15,15,16,16,17,17,18,18,19,19,20,20,21,21,22,22,23,23,24,24,25,25,26,26,27,27,28,28,29,29,30,30,32,32,33,33,34,34,35,35,36,36,37,37,38,38,39,39,40,40,41,41,42,42,43,43,44,44,45,45,46,46,47,47,48,48,49,49,50,50,51,51,52,52,53,53,54,54,55,55,56,56,57,57,58,58,59,59,60,60,61,61,62,62],"right_children":[2,4,6,8,10,12,14,16,18,20,22,24,26,28,30,32,34,36,38,40,42,44,46,48,50,52,54,56,58,60,62,-1,64,66,68,70,72,74,76,78,80,82,84,86,88,90,92,94,96,98,100,102,104,106,108,110,112,114,116,118,120,122,124,-1,-1,-1,-1,-1,-1,-1,-1,-1,-1,-1,-1,-1,-1,-1,-1,-1,-1,-1,-1,-1,-1,-1,-1,-1,-1,-1,-1,-1,-1,-1,-1,-1,-1,-1,-1,-1,-1,-1,-1,-1,-1,-1,-1,-1,-1,-1,-1,-1,-1,-1,-1,-1,-1,-1,-1,-1,-1,-1,-1,-1,-1],"split_conditions":[1E0,5E-1,1.8333334E0,2E-1,7E-1,1.4285715E0,2.9E0,1E-1,3E-1,5.714286E-1,7.5E-1,1.1428572E0,2E0,2.75E0,2.5E0,1E0,4E0,4E0,4E-1,1E1,1.2E0,9.6E1,8E-1,1.1E0,2.5E-1,1E0,1E0,1E0,1E0,1E1,3.2E0,-2.4306353E-2,4E0,1.298E3,3.59E2,2E0,2.2E1,4E-1,6E0,1.41E2,7.9E2,1E0,3E0,1.5E1,6E0,1E0,1.5E0,1.25E0,1.29E2,1E0,2E0,4E0,1E0,7E0,1.7E0,1E0,2.142857E0,3E1,2E0,2.7E1,3.3333333E0,7E0,4.09E2,-1.6512873E-2,-1.79665E-2,-1.3621755E-2,-1.5329616E-2,-1.7490618E-2,-1.5670529E-2,-7.932617E-3,-1.1013361E-2,-1.378908E-2,-1.088795E-2,-9.010908E-3,-7.0777456E-3,-4.379713E-3,-7.2507407E-3,4.28526E-3,-8.629542E-4,-1.0129086E-2,-4.7299275E-3,1.695406E-3,4.1108616E-3,1.6489452E-2,1.0115424E-3,2.161851E-2,5.9030736E-3,5.944432E-3,6.611474E-4,5.7950956E-3,1.0950307E-2,1.299219E-2,2.7778769E-2,1.6066257E-2,2.3347316E-2,3.230497E-2,2.1722294E-2,-4.8977975E-3,1.8653845E-2,2.8591588E-2,3.73273E-2,2.1152822E-2,3.943431E-2,3.634825E-2,4.2616647E-2,-2.807153E-3,9.032693E-2,4.6972547E-2,5.5506445E-2,8.804905E-3,5.6989968E-2,6.335855E-2,7.729258E-2,1.2954989E-1,3.0608932E-2,5.3170312E-2,7.954561E-2,8.036365E-2,2.9361188E-2,-1.4047294E-2,8.651694E-2,6.7709826E-2,9.988855E-2,8.9769214E-2,1.230097E-1],"split_indices":[7,7,7,7,7,7,7,7,7,7,7,7,6,6,6,4,4,4,7,4,6,0,6,7,6,6,4,3,4,4,7,0,4,0,0,2,1,6,4,0,0,3,4,1,4,3,6,6,0,3,6,4,3,1,7,6,7,2,7,2,7,1,0,0,0,0,0,0,0,0,0,0,0,0,0,0,0,0,0,0,0,0,0,0,0,0,0,0,0,0,0,0,0,0,0,0,0,0,0,0,0,0,0,0,0,0,0,0,0,0,0,0,0,0,0,0,0,0,0,0,0,0,0,0,0],"split_type":[0,0,0,0,0,0,0,0,0,0,0,0,0,0,0,0,0,0,0,0,0,0,0,0,0,0,0,0,0,0,0,0,0,0,0,0,0,0,0,0,0,0,0,0,0,0,0,0,0,0,0,0,0,0,0,0,0,0,0,0,0,0,0,0,0,0,0,0,0,0,0,0,0,0,0,0,0,0,0,0,0,0,0,0,0,0,0,0,0,0,0,0,0,0,0,0,0,0,0,0,0,0,0,0,0,0,0,0,0,0,0,0,0,0,0,0,0,0,0,0,0,0,0,0,0],"sum_hessian":[2.04216E5,1.73708E5,3.0508E4,1.23111E5,5.0597E4,2.3822E4,6.686E3,5.4535E4,6.8576E4,2.738E4,2.3217E4,1.7771E4,6.051E3,5.481E3,1.205E3,2.5974E4,2.8561E4,2.7497E4,4.1079E4,1.5232E4,1.2148E4,9.436E3,1.3781E4,9.267E3,8.504E3,4.358E3,1.693E3,4.269E3,1.212E3,1.44E2,1.061E3,1.91E2,2.5783E4,2.3151E4,5.41E3,2.2694E4,4.803E3,2.2751E4,1.8328E4,1.4552E4,6.8E2,1.1853E4,2.95E2,5.24E2,8.912E3,4.6E3,9.181E3,5.193E3,4.074E3,7.3E1,8.431E3,3.59E2,3.999E3,3.6E1,1.657E3,2.322E3,1.947E3,3.2E1,1.18E3,1.33E2,1.1E1,4.15E2,6.46E2,1.9305E4,6.478E3,1.6972E4,6.179E3,1.111E3,4.299E3,1.546E3,2.1148E4,3.48E3,1.323E3,1.1579E4,1.1172E4,1.6836E4,1.492E3,1.007E3,1.3545E4,3.54E2,3.26E2,6.471E3,5.382E3,2.16E2,7.9E1,2.32E2,2.92E2,8.276E3,6.36E2,2.561E3,2.039E3,8.892E3,2.89E2,4.26E3,9.33E2,3.91E2,3.683E3,4.7E1,2.6E1,7.833E3,5.98E2,3.07E2,5.2E1,2.168E3,1.831E3,4E0,3.2E1,8E2,8.57E2,5E1,2.272E3,1.049E3,8.98E2,3E1,2E0,5.2E1,1.128E3,1.2E2,1.3E1,1E1,1E0,5.4E1,3.61E2,1.27E2,5.19E2],"tree_param":{"num_deleted":"0","num_feature":"9","num_nodes":"125","size_leaf_vector":"1"}},{"base_weights":[-3.5058157E-4,-1.4749622E-1,6.625367E-1,-2.4687465E-1,3.7964962E-2,5.2701545E-1,1.44228E0,-3.1070057E-1,-1.8262398E-1,-3.0399093E-2,1.3773677E-1,3.944581E-1,7.897911E-1,1.2472823E0,1.8554008E0,-3.3535084E-1,-2.845421E-1,-2.2383493E-1,-1.4910565E-1,-3.3882346E-2,6.9232863E-1,1.24354E-1,5.5583817E-1,3.8538703E-1,1.4478929E0,6.4605165E-1,9.5776695E-1,-1.1270166E-1,1.2967607E0,1.6844168E0,2.1845448E0,-3.2747406E-1,-3.5986137E-1,-2.8724352E-1,-1.7023718E-1,-2.39473E-1,-1.9041945E-1,-1.6431336E-1,-9.568874E-2,-9.209008E-2,-6.81388E-3,5.366495E-1,1.3035007E0,7.6955885E-2,1.8691346E-1,4.8834705E-1,1.5116307E0,3.1874782E-1,4.9615324E-1,1.767323E0,1.1894277E0,2.3824929E-1,6.9120216E-1,9.1330904E-1,1.4471836E0,-1.7942484E-1,5.1187396E-1,1.1289647E0,1.4903059E0,1.2051915E0,1.7515578E0,1.6058555E0,2.3264627E0,-1.648687E-2,-1.1076181E-2,-1.8721173E-2,-1.7633114E-2,-1.2521763E-2,-1.4570042E-2,-6.3778395E-3,-1.187957E-2,-1.163325E-2,-1.3572055E-2,-8.907567E-3,-1.2775562E-2,-8.804248E-3,-6.6363537E-3,1.2620389E-2,-5.055613E-3,-1.7090272E-2,-4.4244835E-3,-1.6983716E-3,1.9910978E-3,1.5174813E-2,4.6745263E-2,8.174187E-2,2.4610275E-2,2.201728E-3,6.6369325E-3,6.6715474E-3,1.2264728E-2,2.1178534E-2,4.071065E-2,9.705389E-2,4.0667538E-2,1.4020286E-2,2.106341E-2,2.1440111E-2,2.8988982E-2,8.188768E-2,1.4237814E-1,7.925489E-2,4.3709602E-2,-9.228952E-3,1.6530063E-2,3.0702377E-2,3.9375585E-2,4.6418644E-2,2.4206197E-2,6.484473E-2,8.334478E-2,-5.1938365E-5,-1.4916723E-2,1.104813E-1,9.312957E-3,5.2718528E-2,6.5809086E-2,6.3725986E-2,8.741256E-2,7.118853E-2,3.8505863E-2,8.975531E-2,5.5870175E-2,8.323211E-2,-2.6490912E-2,1.19660854E-1,4.509179E-2],"categories":[],"categories_nodes":[],"categories_segments":[],"categories_sizes":[],"default_left":[0,0,0,0,0,0,0,0,0,0,0,0,0,0,0,0,0,0,0,0,0,0,0,0,0,0,0,0,0,0,0,0,0,0,0,0,0,0,0,0,0,0,0,0,0,0,0,0,0,0,0,0,0,0,0,0,0,0,0,0,0,0,0,0,0,0,0,0,0,0,0,0,0,0,0,0,0,0,0,0,0,0,0,0,0,0,0,0,0,0,0,0,0,0,0,0,0,0,0,0,0,0,0,0,0,0,0,0,0,0,0,0,0,0,0,0,0,0,0,0,0,0,0,0,0,0,0],"id":2,"left_children":[1,3,5,7,9,11,13,15,17,19,21,23,25,27,29,31,33,35,37,39,41,43,45,47,49,51,53,55,57,59,61,63,65,67,69,71,73,75,77,79,81,83,85,87,89,91,93,95,97,99,101,103,105,107,109,111,113,115,117,119,121,123,125,-1,-1,-1,-1,-1,-1,-1,-1,-1,-1,-1,-1,-1,-1,-1,-1,-1,-1,-1,-1,-1,-1,-1,-1,-1,-1,-1,-1,-1,-1,-1,-1,-1,-1,-1,-1,-1,-1,-1,-1,-1,-1,-1,-1,-1,-1,-1,-1,-1,-1,-1,-1,-1,-1,-1,-1,-1,-1,-1,-1,-1,-1,-1,-1],"loss_changes":[1.9918549E4,3.080024E3,3.9191338E3,4.461494E2,3.9769122E2,1.1005459E3,4.4010742E2,3.5100098E1,7.487036E1,8.712454E1,1.3257993E2,2.0019922E2,2.5521924E2,2.5140674E2,9.5313965E1,5.3066406E0,8.130371E0,1.2662842E1,2.4279175E1,5.4253384E1,1.5094841E1,6.810516E1,4.667479E1,1.5360327E2,1.2676392E1,1.0502612E2,1.0494678E2,5.5927677E0,1.1532861E2,3.52771E1,4.537549E1,5.0285645E0,5.831909E-1,3.8864746E0,1.7347622E0,3.541626E0,6.149658E0,8.631775E0,1.2542355E1,9.796661E0,2.9766407E1,1.2158775E1,8.06612E0,2.4000145E1,3.0884918E1,1.4177719E1,1.2815193E1,5.101819E1,4.381299E1,6.2537537E0,1.1336716E1,2.235802E1,3.7732666E1,2.8514648E1,1.1211426E1,2.5451086E0,6.7750087E0,2.5621094E1,9.0725586E1,1.2787888E1,2.6080078E1,1.6073425E1,4.329956E1,0E0,0E0,0E0,0E0,0E0,0E0,0E0,0E0,0E0,0E0,0E0,0E0,0E0,0E0,0E0,0E0,0E0,0E0,0E0,0E0,0E0,0E0,0E0,0E0,0E0,0E0,0E0,0E0,0E0,0E0,0E0,0E0,0E0,0E0,0E0,0E0,0E0,0E0,0E0,0E0,0E0,0E0,0E0,0E0,0E0,0E0,0E0,0E0,0E0,0E0,0E0,0E0,0E0,0E0,0E0,0E0,0E0,0E0,0E0,0E0,0E0,0E0,0E0,0E0],"parents":[2147483647,0,0,1,1,2,2,3,3,4,4,5,5,6,6,7,7,8,8,9,9,10,10,11,11,12,12,13,13,14,14,15,15,16,16,17,17,18,18,19,19,20,20,21,21,22,22,23,23,24,24,25,25,26,26,27,27,28,28,29,29,30,30,31,31,32,32,33,33,34,34,35,35,36,36,37,37,38,38,39,39,40,40,41,41,42,42,43,43,44,44,45,45,46,46,47,47,48,48,49,49,50,50,51,51,52,52,53,53,54,54,55,55,56,56,57,57,58,58,59,59,60,60,61,61,62,62],"right_children":[2,4,6,8,10,12,14,16,18,20,22,24,26,28,30,32,34,36,38,40,42,44,46,48,50,52,54,56,58,60,62,64,66,68,70,72,74,76,78,80,82,84,86,88,90,92,94,96,98,100,102,104,106,108,110,112,114,116,118,120,122,124,126,-1,-1,-1,-1,-1,-1,-1,-1,-1,-1,-1,-1,-1,-1,-1,-1,-1,-1,-1,-1,-1,-1,-1,-1,-1,-1,-1,-1,-1,-1,-1,-1,-1,-1,-1,-1,-1,-1,-1,-1,-1,-1,-1,-1,-1,-1,-1,-1,-1,-1,-1,-1,-1,-1,-1,-1,-1,-1,-1,-1,-1,-1,-1,-1],"split_conditions":[8.4E-1,4E-1,1.88E0,2E-1,6E-1,1.28E0,2.75E0,8.695652E-2,2.777778E-1,1.5E0,1.5E0,2.5E0,1.6E0,5E-1,2.84E0,4E0,5E-1,2.5E-1,5E-1,2.5E-1,1.282E3,8E-1,2.25E0,1.2E0,1.08E0,5E-1,2.6666667E0,1E0,2.2E0,7E0,4.09E2,2.5E-1,1E1,3E0,1.048E3,4E0,4E0,3.6E-1,1E0,1E0,5.2E-1,1.6666666E0,2.2E1,7.2E-1,7.2E-1,2E0,9.77E2,1.08E0,1.08E0,3E1,1.3E1,2E-1,1E0,1E1,1.9E1,6.7E2,1E0,2.2E0,1E0,3E0,7E0,2.7E1,8E0,-1.648687E-2,-1.1076181E-2,-1.8721173E-2,-1.7633114E-2,-1.2521763E-2,-1.4570042E-2,-6.3778395E-3,-1.187957E-2,-1.163325E-2,-1.3572055E-2,-8.907567E-3,-1.2775562E-2,-8.804248E-3,-6.6363537E-3,1.2620389E-2,-5.055613E-3,-1.7090272E-2,-4.4244835E-3,-1.6983716E-3,1.9910978E-3,1.5174813E-2,4.6745263E-2,8.174187E-2,2.4610275E-2,2.201728E-3,6.6369325E-3,6.6715474E-3,1.2264728E-2,2.1178534E-2,4.071065E-2,9.705389E-2,4.0667538E-2,1.4020286E-2,2.106341E-2,2.1440111E-2,2.8988982E-2,8.188768E-2,1.4237814E-1,7.925489E-2,4.3709602E-2,-9.228952E-3,1.6530063E-2,3.0702377E-2,3.9375585E-2,4.6418644E-2,2.4206197E-2,6.484473E-2,8.334478E-2,-5.1938365E-5,-1.4916723E-2,1.104813E-1,9.312957E-3,5.2718528E-2,6.5809086E-2,6.3725986E-2,8.741256E-2,7.118853E-2,3.8505863E-2,8.975531E-2,5.5870175E-2,8.323211E-2,-2.6490912E-2,1.19660854E-1,4.509179E-2],"split_indices":[8,8,8,8,8,8,6,8,8,6,6,6,6,6,8,4,6,6,6,6,0,6,6,6,8,6,6,3,8,1,0,6,1,2,0,4,4,8,4,4,8,6,1,8,8,6,0,8,8,1,2,6,3,4,2,0,2,6,3,1,4,1,4,0,0,0,0,0,0,0,0,0,0,0,0,0,0,0,0,0,0,0,0,0,0,0,0,0,0,0,0,0,0,0,0,0,0,0,0,0,0,0,0,0,0,0,0,0,0,0,0,0,0,0,0,0,0,0,0,0,0,0,0,0,0,0,0],"split_type":[0,0,0,0,0,0,0,0,0,0,0,0,0,0,0,0,0,0,0,0,0,0,0,0,0,0,0,0,0,0,0,0,0,0,0,0,0,0,0,0,0,0,0,0,0,0,0,0,0,0,0,0,0,0,0,0,0,0,0,0,0,0,0,0,0,0,0,0,0,0,0,0,0,0,0,0,0,0,0,0,0,0,0,0,0,0,0,0,0,0,0,0,0,0,0,0,0,0,0,0,0,0,0,0,0,0,0,0,0,0,0,0,0,0,0,0,0,0,0,0,0,0,0,0,0,0,0],"sum_hessian":[2.04205E5,1.67111E5,3.7094E4,1.08807E5,5.8304E4,3.1603E4,5.491E3,5.4582E4,5.4225E4,3.4598E4,2.3706E4,2.1008E4,1.0595E4,3.733E3,1.758E3,2.8095E4,2.6487E4,2.4319E4,2.9906E4,3.4433E4,1.65E2,2.2972E4,7.34E2,2.083E4,1.78E2,5.712E3,4.883E3,1.31E2,3.602E3,1.161E3,5.97E2,2.1273E4,6.822E3,2.5874E4,6.13E2,1.6562E4,7.757E3,2.3277E4,6.629E3,1.0929E4,2.3504E4,1.33E2,3.2E1,1.3071E4,9.901E3,6.87E2,4.7E1,1.3008E4,7.822E3,7.7E1,1.01E2,5.7E2,5.142E3,4.479E3,4.04E2,1.19E2,1.2E1,1.933E3,1.669E3,1.45E2,1.016E3,1.2E2,4.77E2,2.0826E4,4.47E2,2.24E3,4.582E3,2.632E3,2.3242E4,3.77E2,2.36E2,1.3661E4,2.901E3,6.53E3,1.227E3,1.6954E4,6.323E3,1.01E2,6.528E3,1.54E2,1.0775E4,1.4855E4,8.649E3,8.5E1,4.8E1,2.2E1,1E1,8.221E3,4.85E3,5.169E3,4.732E3,5.75E2,1.12E2,2.8E1,1.9E1,9.47E3,3.538E3,4.336E3,3.486E3,7.1E1,6E0,4.3E1,5.8E1,1.02E2,4.68E2,2.859E3,2.283E3,4.326E3,1.53E2,2.44E2,1.6E2,4.8E1,7.1E1,1E0,1.1E1,1.387E3,5.46E2,9.12E2,7.57E2,9.5E1,5E1,9.49E2,6.7E1,1.17E2,3E0,4.55E2,2.2E1],"tree_param":{"num_deleted":"0","num_feature":"9","num_nodes":"127","size_leaf_vector":"1"}},{"base_weights":[-4.3519126E-4,-1.4055759E-1,6.281866E-1,-2.3386486E-1,3.356433E-2,4.7258383E-1,1.3329353E0,-2.9615593E-1,-1.740157E-1,-3.3281665E-2,1.3124399E-1,3.638928E-1,7.059776E-1,1.2277898E0,2.0820749E0,-3.191871E-1,-2.707363E-1,-2.1116422E-1,-1.422796E-1,-6.2140852E-2,2.4876788E-2,1.1210591E-1,3.496339E-1,2.982544E-1,4.557839E-1,3.4280807E-1,7.838444E-1,1.0757262E0,1.422817E0,1.9902893E0,2.6570303E0,-3.2481545E-1,-2.7734742E-1,-2.8377813E-1,-2.5730363E-1,-2.0162253E-1,-2.5619227E-1,-1.6097973E-1,-1.1526787E-1,-8.965937E-2,-3.1514674E-2,1.4383498E-2,2.81002E-1,7.719479E-2,1.6377243E-1,2.842343E-1,5.3896564E-1,2.749722E-1,4.6871698E-1,3.10604E-1,4.9443343E-1,2.1491711E-1,5.756917E-1,7.082392E-1,9.298488E-1,9.464578E-1,1.269257E0,1.2539045E0,1.6119347E0,2.032057E0,5.765425E-1,2.164906E0,3.0852723E0,-1.6283317E-2,-5.07173E-3,-1.7560901E-2,-1.338466E-2,-1.3632717E-2,-1.49544375E-2,-1.3762096E-2,-1.2009381E-2,-1.1737395E-2,-9.408507E-3,-1.4182917E-2,-9.600132E-3,-1.0166101E-2,-7.406272E-3,-7.992627E-3,-4.867063E-3,-5.1365662E-3,-2.4209174E-3,-2.2780604E-3,8.5716177E-4,-8.099423E-4,2.4988062E-3,1.6394198E-2,-1.3492639E-2,2.7775213E-3,6.897121E-3,-8.988484E-4,8.829849E-3,1.5316717E-2,5.822545E-3,1.306356E-1,2.625422E-2,4.822332E-3,1.43484995E-2,2.504215E-2,1.2307549E-2,-1.2856941E-2,1.6837485E-2,2.1591853E-2,2.849066E-2,-8.5005695E-3,1.3932175E-2,1.8098032E-2,3.3798616E-2,3.0084822E-2,3.88787E-2,3.849172E-2,4.8859786E-2,4.842725E-2,8.866924E-3,5.9731167E-2,7.574319E-2,6.4268515E-2,2.724773E-2,6.072667E-2,8.376501E-2,9.29161E-2,1.1602366E-1,9.297679E-2,1.7763318E-2,1.1841289E-1,6.1943717E-2,1.7366935E-1,9.838723E-2],"categories":[],"categories_nodes":[],"categories_segments":[],"categories_sizes":[],"default_left":[0,0,0,0,0,0,0,0,0,0,0,0,0,0,0,0,0,0,0,0,0,0,0,0,0,0,0,0,0,0,0,0,0,0,0,0,0,0,0,0,0,0,0,0,0,0,0,0,0,0,0,0,0,0,0,0,0,0,0,0,0,0,0,0,0,0,0,0,0,0,0,0,0,0,0,0,0,0,0,0,0,0,0,0,0,0,0,0,0,0,0,0,0,0,0,0,0,0,0,0,0,0,0,0,0,0,0,0,0,0,0,0,0,0,0,0,0,0,0,0,0,0,0,0,0,0,0],"id":3,"left_children":[1,3,5,7,9,11,13,15,17,19,21,23,25,27,29,31,33,35,37,39,41,43,45,47,49,51,53,55,57,59,61,63,65,67,69,71,73,75,77,79,81,83,85,87,89,91,93,95,97,99,101,103,105,107,109,111,113,115,117,119,121,123,125,-1,-1,-1,-1,-1,-1,-1,-1,-1,-1,-1,-1,-1,-1,-1,-1,-1,-1,-1,-1,-1,-1,-1,-1,-1,-1,-1,-1,-1,-1,-1,-1,-1,-1,-1,-1,-1,-1,-1,-1,-1,-1,-1,-1,-1,-1,-1,-1,-1,-1,-1,-1,-1,-1,-1,-1,-1,-1,-1,-1,-1,-1,-1,-1],"loss_changes":[1.8007803E4,2.7160735E3,4.0857705E3,4.057373E2,3.808632E2,7.741206E2,5.282666E2,3.1137695E1,6.5418335E1,5.8126415E1,9.901224E1,1.2549609E2,2.7397998E2,1.7379883E2,3.840747E1,6.498047E0,4.369507E0,1.0936035E1,1.5105347E1,1.9504318E1,3.086569E1,3.9292572E1,2.3484467E1,4.810327E1,4.853418E1,5.0925537E1,8.748486E1,8.200635E1,8.061914E1,4.1225586E1,1.6713745E1,4.652832E0,2.276535E0,2.1081543E0,3.772705E0,9.36145E0,7.8227844E0,9.598206E0,9.776871E0,6.5672073E0,7.4889345E0,1.2012472E1,1.1761452E1,1.70932E1,2.048204E1,5.2334366E0,1.2704636E1,2.2880066E1,1.0308807E1,2.7206665E1,3.2080322E1,2.7226723E1,1.2765213E1,3.8425293E1,1.9862549E1,3.376953E1,2.2551758E1,2.98833E1,2.8611328E1,3.0613281E1,5.585076E0,7.423065E0,1.7887817E1,0E0,0E0,0E0,0E0,0E0,0E0,0E0,0E0,0E0,0E0,0E0,0E0,0E0,0E0,0E0,0E0,0E0,0E0,0E0,0E0,0E0,0E0,0E0,0E0,0E0,0E0,0E0,0E0,0E0,0E0,0E0,0E0,0E0,0E0,0E0,0E0,0E0,0E0,0E0,0E0,0E0,0E0,0E0,0E0,0E0,0E0,0E0,0E0,0E0,0E0,0E0,0E0,0E0,0E0,0E0,0E0,0E0,0E0,0E0,0E0,0E0,0E0,0E0,0E0],"parents":[2147483647,0,0,1,1,2,2,3,3,4,4,5,5,6,6,7,7,8,8,9,9,10,10,11,11,12,12,13,13,14,14,15,15,16,16,17,17,18,18,19,19,20,20,21,21,22,22,23,23,24,24,25,25,26,26,27,27,28,28,29,29,30,30,31,31,32,32,33,33,34,34,35,35,36,36,37,37,38,38,39,39,40,40,41,41,42,42,43,43,44,44,45,45,46,46,47,47,48,48,49,49,50,50,51,51,52,52,53,53,54,54,55,55,56,56,57,57,58,58,59,59,60,60,61,61,62,62],"right_children":[2,4,6,8,10,12,14,16,18,20,22,24,26,28,30,32,34,36,38,40,42,44,46,48,50,52,54,56,58,60,62,64,66,68,70,72,74,76,78,80,82,84,86,88,90,92,94,96,98,100,102,104,106,108,110,112,114,116,118,120,122,124,126,-1,-1,-1,-1,-1,-1,-1,-1,-1,-1,-1,-1,-1,-1,-1,-1,-1,-1,-1,-1,-1,-1,-1,-1,-1,-1,-1,-1,-1,-1,-1,-1,-1,-1,-1,-1,-1,-1,-1,-1,-1,-1,-1,-1,-1,-1,-1,-1,-1,-1,-1,-1,-1,-1,-1,-1,-1,-1,-1,-1,-1,-1,-1,-1],"split_conditions":[8.4E-1,4E-1,1.8333334E0,1.6666667E-1,6E-1,1.28E0,3.1E0,8.695652E-2,2.777778E-1,6E-1,1.1E0,1.04E0,1.1E0,2.08E0,1.486E3,2.88E1,1.3636364E-1,4E0,3.75E-1,4.7619048E-1,1E0,7.2E-1,1.2222222E0,1.2222222E0,8.333333E-1,1E0,1.64E0,2.1111112E0,1E0,1E1,3.7142856E0,1.678E3,1.56E2,1.021E3,2.03E1,1.1111111E-1,2.26E1,1.52E1,3.2E-1,5E-1,3.14E1,5.2E-1,7E0,7.5E-1,3.3333334E-1,1.498E3,1E1,1.22E1,4E0,2.2222222E-1,1E0,4.2857143E-1,2.22E1,2.68E1,2.54E1,1E1,2.5555556E0,1E1,8E0,3.52E1,2.77E1,3.6E0,4.5E0,-1.6283317E-2,-5.07173E-3,-1.7560901E-2,-1.338466E-2,-1.3632717E-2,-1.49544375E-2,-1.3762096E-2,-1.2009381E-2,-1.1737395E-2,-9.408507E-3,-1.4182917E-2,-9.600132E-3,-1.0166101E-2,-7.406272E-3,-7.992627E-3,-4.867063E-3,-5.1365662E-3,-2.4209174E-3,-2.2780604E-3,8.5716177E-4,-8.099423E-4,2.4988062E-3,1.6394198E-2,-1.3492639E-2,2.7775213E-3,6.897121E-3,-8.988484E-4,8.829849E-3,1.5316717E-2,5.822545E-3,1.306356E-1,2.625422E-2,4.822332E-3,1.43484995E-2,2.504215E-2,1.2307549E-2,-1.2856941E-2,1.6837485E-2,2.1591853E-2,2.849066E-2,-8.5005695E-3,1.3932175E-2,1.8098032E-2,3.3798616E-2,3.0084822E-2,3.88787E-2,3.849172E-2,4.8859786E-2,4.842725E-2,8.866924E-3,5.9731167E-2,7.574319E-2,6.4268515E-2,2.724773E-2,6.072667E-2,8.376501E-2,9.29161E-2,1.1602366E-1,9.297679E-2,1.7763318E-2,1.1841289E-1,6.1943717E-2,1.7366935E-1,9.838723E-2],"split_indices":[8,8,7,8,8,8,7,8,8,7,7,8,7,8,0,5,8,4,7,8,7,8,7,7,7,3,8,7,3,4,7,0,0,0,5,7,5,5,8,7,5,8,4,7,7,0,5,5,4,7,3,7,5,5,5,4,7,4,1,5,5,7,7,0,0,0,0,0,0,0,0,0,0,0,0,0,0,0,0,0,0,0,0,0,0,0,0,0,0,0,0,0,0,0,0,0,0,0,0,0,0,0,0,0,0,0,0,0,0,0,0,0,0,0,0,0,0,0,0,0,0,0,0,0,0,0,0],"split_type":[0,0,0,0,0,0,0,0,0,0,0,0,0,0,0,0,0,0,0,0,0,0,0,0,0,0,0,0,0,0,0,0,0,0,0,0,0,0,0,0,0,0,0,0,0,0,0,0,0,0,0,0,0,0,0,0,0,0,0,0,0,0,0,0,0,0,0,0,0,0,0,0,0,0,0,0,0,0,0,0,0,0,0,0,0,0,0,0,0,0,0,0,0,0,0,0,0,0,0,0,0,0,0,0,0,0,0,0,0,0,0,0,0,0,0,0,0,0,0,0,0,0,0,0,0,0,0],"sum_hessian":[2.04437E5,1.67174E5,3.7263E4,1.08846E5,5.8328E4,3.0525E4,6.738E3,5.3333E4,5.5513E4,3.463E4,2.3698E4,2.0828E4,9.697E3,5.911E3,8.27E2,2.7975E4,2.5358E4,2.5573E4,2.994E4,2.3145E4,1.1485E4,2.179E4,1.908E3,1.2152E4,8.676E3,1.713E3,7.984E3,3.325E3,2.586E3,7.17E2,1.1E2,2.4652E4,3.323E3,1.2856E4,1.2502E4,2.1106E4,4.467E3,1.7689E4,1.2251E4,1.219E4,1.0955E4,1.1034E4,4.51E2,1.3005E4,8.785E3,1.42E3,4.88E2,1.0694E4,1.458E3,1.826E3,6.85E3,1.107E3,6.06E2,5.264E3,2.72E3,1.997E3,1.328E3,1.37E3,1.216E3,6.96E2,2.1E1,5.4E1,5.6E1,2.4558E4,9.4E1,3.8E2,2.943E3,7.457E3,5.399E3,6.097E3,6.405E3,6.091E3,1.5015E4,3.126E3,1.341E3,4.116E3,1.3573E4,3.511E3,8.74E3,9.255E3,2.935E3,8.501E3,2.454E3,5.935E3,5.099E3,4.16E2,3.5E1,9.59E3,3.415E3,5.79E2,8.206E3,1.254E3,1.66E2,2E0,4.86E2,6.74E2,1.002E4,1.273E3,1.85E2,8E1,1.746E3,3.746E3,3.104E3,1.57E2,9.5E2,1.95E2,4.11E2,2.079E3,3.185E3,6.25E2,2.095E3,1.941E3,5.6E1,1.023E3,3.05E2,1.311E3,5.9E1,1.7E2,1.046E3,4.39E2,2.57E2,2E0,1.9E1,4.3E1,1.1E1,4E1,1.6E1],"tree_param":{"num_deleted":"0","num_feature":"9","num_nodes":"127","size_leaf_vector":"1"}},{"base_weights":[9.945066E-4,-1.3337591E-1,6.0583E-1,-2.3342587E-1,1.5199752E-2,4.2499402E-1,1.1570053E0,-2.814667E-1,-1.7587768E-1,-5.6718647E-2,1.0844237E-1,3.1871575E-1,5.8365166E-1,9.712385E-1,1.5410463E0,-3.0317524E-1,-2.5851694E-1,-1.9961561E-1,-1.4841251E-1,-6.902586E-2,1.02684274E-1,9.79194E-2,4.8903263E-1,2.7211356E-1,4.1359007E-1,3.169479E-1,6.4436704E-1,8.5888684E-1,1.2243028E0,1.4211154E0,1.8879732E0,-3.047725E-1,-2.1830396E-1,-2.611977E-1,-1.4804947E-1,-2.1498737E-1,-1.6460265E-1,-1.5905036E-1,-1.0523206E-1,-9.0736166E-2,-2.6859673E-2,7.8276835E-2,7.088704E-1,6.359598E-2,1.6562669E-1,4.0615737E-1,1.1022195E0,-1.0338625E-2,2.8251377E-1,4.0009788E-1,7.2971344E-1,-2.6720792E-1,3.522708E-1,5.3057754E-1,7.3788697E-1,7.8451276E-1,1.0658189E0,1.1822039E0,1.768736E0,3.1413227E-2,1.4472497E0,1.3832986E0,2.0011463E0,-1.5389489E-2,-1.3372338E-2,-1.2019132E-2,9.646082E-3,-1.3309143E-2,-1.1537573E-2,1.5122888E-2,-8.283806E-3,-1.1114296E-2,-7.456932E-3,-8.561033E-3,-5.0037913E-3,-8.198897E-3,-4.2962506E-3,-5.384809E-3,2.9134957E-2,-6.134359E-3,-3.3691486E-3,-1.9487931E-3,1.4053765E-3,3.6639913E-3,2.1690266E-2,1.6387962E-2,7.8401886E-2,9.601141E-4,4.7074216E-3,4.118174E-3,1.0063333E-2,1.791584E-2,3.3555392E-2,2.9187838E-2,7.249082E-2,8.055959E-2,-1.3345806E-3,1.0174139E-2,1.5830575E-2,1.836502E-2,2.2918807E-2,4.313235E-2,1.8017791E-2,-1.692114E-2,-4.331147E-3,1.2810123E-2,2.5560578E-2,4.6580555E-3,2.6939258E-2,-4.658987E-3,3.758813E-2,3.3861548E-2,4.1372918E-2,4.790936E-2,5.935902E-2,5.496223E-2,7.076559E-2,7.9792015E-2,1.2881975E-1,4.179235E-2,-9.122453E-3,6.469262E-2,8.056291E-2,3.2867525E-2,7.771676E-2,-3.0838052E-2,1.0053005E-1],"categories":[],"categories_nodes":[],"categories_segments":[],"categories_sizes":[],"default_left":[0,0,0,0,0,0,0,0,0,0,0,0,0,0,0,0,0,0,0,0,0,0,0,0,0,0,0,0,0,0,0,0,0,0,0,0,0,0,0,0,0,0,0,0,0,0,0,0,0,0,0,0,0,0,0,0,0,0,0,0,0,0,0,0,0,0,0,0,0,0,0,0,0,0,0,0,0,0,0,0,0,0,0,0,0,0,0,0,0,0,0,0,0,0,0,0,0,0,0,0,0,0,0,0,0,0,0,0,0,0,0,0,0,0,0,0,0,0,0,0,0,0,0,0,0,0,0],"id":4,"left_children":[1,3,5,7,9,11,13,15,17,19,21,23,25,27,29,31,33,35,37,39,41,43,45,47,49,51,53,55,57,59,61,63,65,67,69,71,73,75,77,79,81,83,85,87,89,91,93,95,97,99,101,103,105,107,109,111,113,115,117,119,121,123,125,-1,-1,-1,-1,-1,-1,-1,-1,-1,-1,-1,-1,-1,-1,-1,-1,-1,-1,-1,-1,-1,-1,-1,-1,-1,-1,-1,-1,-1,-1,-1,-1,-1,-1,-1,-1,-1,-1,-1,-1,-1,-1,-1,-1,-1,-1,-1,-1,-1,-1,-1,-1,-1,-1,-1,-1,-1,-1,-1,-1,-1,-1,-1,-1],"loss_changes":[1.6564533E4,2.4789934E3,3.6922686E3,2.754712E2,4.5003644E2,4.702256E2,6.514258E2,2.6980957E1,2.9533813E1,7.4335976E1,1.16988525E2,7.3763794E1,1.8099585E2,1.7440332E2,1.2138965E2,3.7163086E0,7.7818604E0,1.3053955E1,9.6414795E0,3.219638E1,4.0128956E1,6.607782E1,3.949527E1,3.2927124E1,2.3175049E1,4.295111E1,9.65957E1,6.4988525E1,4.1342773E1,8.058154E1,4.0811035E1,3.0021973E0,4.758539E0,3.8518066E0,5.037016E0,8.087585E0,3.1531982E0,6.063965E0,7.112835E0,1.7316025E1,7.963708E0,4.608639E0,3.3867077E1,2.5596336E1,2.8370514E1,8.556244E0,1.591375E1,1.0623234E1,2.9066101E1,9.921814E0,1.0687538E1,1.5010662E0,2.9781342E1,1.4723267E1,5.7728516E1,1.3952515E1,1.3596802E1,3.251831E1,1.4600372E1,7.378097E0,5.273584E1,1.6733643E1,1.661084E1,0E0,0E0,0E0,0E0,0E0,0E0,0E0,0E0,0E0,0E0,0E0,0E0,0E0,0E0,0E0,0E0,0E0,0E0,0E0,0E0,0E0,0E0,0E0,0E0,0E0,0E0,0E0,0E0,0E0,0E0,0E0,0E0,0E0,0E0,0E0,0E0,0E0,0E0,0E0,0E0,0E0,0E0,0E0,0E0,0E0,0E0,0E0,0E0,0E0,0E0,0E0,0E0,0E0,0E0,0E0,0E0,0E0,0E0,0E0,0E0,0E0,0E0,0E0,0E0],"parents":[2147483647,0,0,1,1,2,2,3,3,4,4,5,5,6,6,7,7,8,8,9,9,10,10,11,11,12,12,13,13,14,14,15,15,16,16,17,17,18,18,19,19,20,20,21,21,22,22,23,23,24,24,25,25,26,26,27,27,28,28,29,29,30,30,31,31,32,32,33,33,34,34,35,35,36,36,37,37,38,38,39,39,40,40,41,41,42,42,43,43,44,44,45,45,46,46,47,47,48,48,49,49,50,50,51,51,52,52,53,53,54,54,55,55,56,56,57,57,58,58,59,59,60,60,61,61,62,62],"right_children":[2,4,6,8,10,12,14,16,18,20,22,24,26,28,30,32,34,36,38,40,42,44,46,48,50,52,54,56,58,60,62,64,66,68,70,72,74,76,78,80,82,84,86,88,90,92,94,96,98,100,102,104,106,108,110,112,114,116,118,120,122,124,126,-1,-1,-1,-1,-1,-1,-1,-1,-1,-1,-1,-1,-1,-1,-1,-1,-1,-1,-1,-1,-1,-1,-1,-1,-1,-1,-1,-1,-1,-1,-1,-1,-1,-1,-1,-1,-1,-1,-1,-1,-1,-1,-1,-1,-1,-1,-1,-1,-1,-1,-1,-1,-1,-1,-1,-1,-1,-1,-1,-1,-1,-1,-1,-1],"split_conditions":[8.333333E-1,3.6E-1,1.7E0,2E-1,5.6E-1,1.16E0,2.2E0,8.695652E-2,2.777778E-1,1E0,1.5E0,1.2E0,1E0,2.25E0,3.1E0,2.5E-1,5E-1,3.3333334E-1,5E-1,4.7619048E-1,1.5E0,7.2E-1,2.2E0,3.3333334E-1,2.2E0,2.2222222E-1,1.36E0,1.88E0,2.9E0,1E0,4.01E2,3.1E1,1.592E3,3.06E1,7.875E0,3.3E1,4.2857143E-1,3.5E1,1.25E0,2.5E-1,3.27E1,1.1E0,2.85E1,5E-1,5E-1,3.33E1,1.3333334E0,3.4E0,2.06E1,1.04E0,2.3E1,1.103E3,1E0,1.28E1,2.5E-1,1.5E0,1E0,1.96E0,3.3333333E0,2.36E0,1E0,3.13E1,1.66E1,-1.5389489E-2,-1.3372338E-2,-1.2019132E-2,9.646082E-3,-1.3309143E-2,-1.1537573E-2,1.5122888E-2,-8.283806E-3,-1.1114296E-2,-7.456932E-3,-8.561033E-3,-5.0037913E-3,-8.198897E-3,-4.2962506E-3,-5.384809E-3,2.9134957E-2,-6.134359E-3,-3.3691486E-3,-1.9487931E-3,1.4053765E-3,3.6639913E-3,2.1690266E-2,1.6387962E-2,7.8401886E-2,9.601141E-4,4.7074216E-3,4.118174E-3,1.0063333E-2,1.791584E-2,3.3555392E-2,2.9187838E-2,7.249082E-2,8.055959E-2,-1.3345806E-3,1.0174139E-2,1.5830575E-2,1.836502E-2,2.2918807E-2,4.313235E-2,1.8017791E-2,-1.692114E-2,-4.331147E-3,1.2810123E-2,2.5560578E-2,4.6580555E-3,2.6939258E-2,-4.658987E-3,3.758813E-2,3.3861548E-2,4.1372918E-2,4.790936E-2,5.935902E-2,5.496223E-2,7.076559E-2,7.9792015E-2,1.2881975E-1,4.179235E-2,-9.122453E-3,6.469262E-2,8.056291E-2,3.2867525E-2,7.771676E-2,-3.0838052E-2,1.0053005E-1],"split_indices":[8,8,7,8,8,8,8,8,8,6,6,6,7,6,7,6,6,6,6,8,6,8,6,7,6,7,8,8,7,6,0,5,0,5,5,5,7,5,6,6,5,7,5,6,6,5,7,5,5,8,1,0,3,5,6,6,3,8,7,8,3,5,5,0,0,0,0,0,0,0,0,0,0,0,0,0,0,0,0,0,0,0,0,0,0,0,0,0,0,0,0,0,0,0,0,0,0,0,0,0,0,0,0,0,0,0,0,0,0,0,0,0,0,0,0,0,0,0,0,0,0,0,0,0,0,0,0],"split_type":[0,0,0,0,0,0,0,0,0,0,0,0,0,0,0,0,0,0,0,0,0,0,0,0,0,0,0,0,0,0,0,0,0,0,0,0,0,0,0,0,0,0,0,0,0,0,0,0,0,0,0,0,0,0,0,0,0,0,0,0,0,0,0,0,0,0,0,0,0,0,0,0,0,0,0,0,0,0,0,0,0,0,0,0,0,0,0,0,0,0,0,0,0,0,0,0,0,0,0,0,0,0,0,0,0,0,0,0,0,0,0,0,0,0,0,0,0,0,0,0,0,0,0,0,0,0,0],"sum_hessian":[2.03814E5,1.66766E5,3.7048E4,9.9657E4,6.7109E4,2.7897E4,9.151E3,5.4313E4,4.5344E4,3.7887E4,2.9222E4,1.6708E4,1.1189E4,6.17E3,2.981E3,2.7905E4,2.6408E4,2.4319E4,2.1025E4,3.5172E4,2.715E3,2.8437E4,7.85E2,1.1207E4,5.501E3,2.076E3,9.113E3,4.276E3,1.894E3,2.219E3,7.62E2,2.7387E4,5.18E2,2.5781E4,6.27E2,1.6896E4,7.423E3,1.6867E4,4.158E3,2.3217E4,1.1955E4,2.611E3,1.04E2,1.8872E4,9.565E3,6.93E2,9.2E1,3.98E2,1.0809E4,5.278E3,2.23E2,1.18E2,1.958E3,4.114E3,4.999E3,3.149E3,1.127E3,1.761E3,1.33E2,4.1E1,2.178E3,1.42E2,6.2E2,2.5332E4,2.055E3,4.92E2,2.6E1,2.2147E4,3.634E3,2.3E1,6.04E2,1.5208E4,1.688E3,6.731E3,6.92E2,1.5801E4,1.066E3,4.144E3,1.4E1,9.802E3,1.3415E4,9.796E3,2.159E3,2.576E3,3.5E1,7.3E1,3.1E1,7.694E3,1.1178E4,2.868E3,6.697E3,5.89E2,1.04E2,3.8E1,5.4E1,3E0,3.95E2,3.26E3,7.549E3,3.382E3,1.896E3,1.63E2,6E1,8.4E1,3.4E1,1.222E3,7.36E2,7.6E1,4.038E3,8.2E1,4.917E3,9.05E2,2.244E3,6.02E2,5.25E2,1.303E3,4.58E2,1.12E2,2.1E1,8E0,3.3E1,1.13E3,1.048E3,2.8E1,1.14E2,2E0,6.18E2],"tree_param":{"num_deleted":"0","num_feature":"9","num_nodes":"127","size_leaf_vector":"1"}},{"base_weights":[2.9594146E-4,-1.2051195E-1,5.960813E-1,-2.1142617E-1,4.112554E-2,4.508758E-1,1.1980788E0,-2.6791352E-1,-1.5670177E-1,-1.8550431E-2,1.5181269E-1,3.1704497E-1,5.9944063E-1,1.0635246E0,1.6782703E0,-2.8823277E-1,-2.4544944E-1,-1.788421E-1,-1.1362679E-1,-3.3871394E-2,1.06793985E-1,1.3159236E-1,3.1433916E-1,2.5387836E-1,4.0318668E-1,4.628439E-1,7.597924E-1,9.241334E-1,1.2782638E0,1.73012E0,5.3648597E-1,-2.997631E-1,-2.697714E-1,-2.587431E-1,-2.2901388E-1,-1.966632E-1,-1.5569675E-1,-1.1441887E-1,8.2085824E-1,-6.936201E-2,-7.3939883E-3,7.803536E-2,2.3891574E-1,6.9284864E-2,1.5524939E-1,2.8962845E-1,7.056999E-1,-1.1839361E-1,2.7234903E-1,3.118091E-1,5.404045E-1,4.270173E-1,5.5729896E-1,7.1968424E-1,9.6693826E-1,8.088276E-1,1.1119704E0,1.1208388E0,1.4433838E0,1.6703837E0,2.4217665E0,1.8688207E0,3.6931935E-1,-1.4497669E-2,-1.6020106E-2,-1.3690974E-2,-1.1251214E-2,-1.1439903E-2,-1.3222677E-2,-1.2015372E-2,-1.0145869E-2,-1.0226171E-2,-6.9269217E-3,-7.4287592E-3,-9.6860295E-3,-6.1199786E-3,-2.0430114E-3,1.0501229E-1,1.8202879E-2,-4.657207E-3,-1.5846373E-3,1.6739737E-4,-3.2592248E-3,4.391861E-3,-9.808724E-3,1.3628209E-2,-1.116689E-2,-5.1529277E-3,3.837245E-3,8.49688E-3,1.7136192E-3,1.6852893E-2,7.830391E-3,2.3319682E-2,5.5085536E-2,-1.4531873E-2,-1.2595777E-3,7.838579E-3,1.4760673E-2,1.0869744E-2,1.7336205E-2,1.8812042E-2,3.0051364E-2,1.9756338E-2,2.6106793E-2,-7.3367185E-3,2.8474748E-2,2.7786622E-2,3.8690794E-2,4.9292482E-2,5.8957015E-4,-1.4540962E-2,4.0757373E-2,4.918149E-2,6.482985E-2,4.8012488E-2,6.1035812E-2,6.965302E-2,1.027141E-1,7.507038E-2,9.0884E-2,1.2531023E-1,8.210824E-3,-2.4150765E-2,1.4530791E-1,2.6008457E-2,-1.3242823E-2],"categories":[],"categories_nodes":[],"categories_segments":[],"categories_sizes":[],"default_left":[0,0,0,0,0,0,0,0,0,0,0,0,0,0,0,0,0,0,0,0,0,0,0,0,0,0,0,0,0,0,0,0,0,0,0,0,0,0,0,0,0,0,0,0,0,0,0,0,0,0,0,0,0,0,0,0,0,0,0,0,0,0,0,0,0,0,0,0,0,0,0,0,0,0,0,0,0,0,0,0,0,0,0,0,0,0,0,0,0,0,0,0,0,0,0,0,0,0,0,0,0,0,0,0,0,0,0,0,0,0,0,0,0,0,0,0,0,0,0,0,0,0,0,0,0,0,0],"id":5,"left_children":[1,3,5,7,9,11,13,15,17,19,21,23,25,27,29,31,33,35,37,39,41,43,45,47,49,51,53,55,57,59,61,63,65,67,69,71,73,75,77,79,81,83,85,87,89,91,93,95,97,99,101,103,105,107,109,111,113,115,117,119,121,123,125,-1,-1,-1,-1,-1,-1,-1,-1,-1,-1,-1,-1,-1,-1,-1,-1,-1,-1,-1,-1,-1,-1,-1,-1,-1,-1,-1,-1,-1,-1,-1,-1,-1,-1,-1,-1,-1,-1,-1,-1,-1,-1,-1,-1,-1,-1,-1,-1,-1,-1,-1,-1,-1,-1,-1,-1,-1,-1,-1,-1,-1,-1,-1,-1],"loss_changes":[1.4703243E4,2.4958616E3,3.0098887E3,3.3598145E2,4.0386133E2,5.5151074E2,4.3059766E2,2.4343994E1,5.2637817E1,7.62914E1,7.034216E1,7.934033E1,2.876577E2,1.553667E2,8.5683105E1,5.895996E0,5.4925537E0,1.5011597E1,1.3971024E1,3.3263905E1,1.6422401E1,2.8067657E1,2.2705704E1,5.7970398E1,7.725757E1,2.3798706E1,4.954419E1,6.786719E1,5.182617E1,5.3756348E1,1.3786732E1,3.4047852E0,1.8956299E0,2.340332E0,3.3024902E0,9.38324E0,4.268341E0,1.0992203E1,8.586191E0,1.354686E1,1.2586572E1,9.572237E0,1.2084198E1,6.7500534E0,2.452655E1,1.4016495E1,1.275367E1,6.3980174E0,2.116858E1,1.2151245E1,2.4325562E1,1.5427673E1,1.6827087E1,4.4565918E1,1.7654114E1,1.3934814E1,2.7277222E1,1.5781128E1,2.7880615E1,2.9403564E1,2.0366333E1,1.8481253E1,5.7820225E0,0E0,0E0,0E0,0E0,0E0,0E0,0E0,0E0,0E0,0E0,0E0,0E0,0E0,0E0,0E0,0E0,0E0,0E0,0E0,0E0,0E0,0E0,0E0,0E0,0E0,0E0,0E0,0E0,0E0,0E0,0E0,0E0,0E0,0E0,0E0,0E0,0E0,0E0,0E0,0E0,0E0,0E0,0E0,0E0,0E0,0E0,0E0,0E0,0E0,0E0,0E0,0E0,0E0,0E0,0E0,0E0,0E0,0E0,0E0,0E0,0E0,0E0,0E0,0E0],"parents":[2147483647,0,0,1,1,2,2,3,3,4,4,5,5,6,6,7,7,8,8,9,9,10,10,11,11,12,12,13,13,14,14,15,15,16,16,17,17,18,18,19,19,20,20,21,21,22,22,23,23,24,24,25,25,26,26,27,27,28,28,29,29,30,30,31,31,32,32,33,33,34,34,35,35,36,36,37,37,38,38,39,39,40,40,41,41,42,42,43,43,44,44,45,45,46,46,47,47,48,48,49,49,50,50,51,51,52,52,53,53,54,54,55,55,56,56,57,57,58,58,59,59,60,60,61,61,62,62],"right_children":[2,4,6,8,10,12,14,16,18,20,22,24,26,28,30,32,34,36,38,40,42,44,46,48,50,52,54,56,58,60,62,64,66,68,70,72,74,76,78,80,82,84,86,88,90,92,94,96,98,100,102,104,106,108,110,112,114,116,118,120,122,124,126,-1,-1,-1,-1,-1,-1,-1,-1,-1,-1,-1,-1,-1,-1,-1,-1,-1,-1,-1,-1,-1,-1,-1,-1,-1,-1,-1,-1,-1,-1,-1,-1,-1,-1,-1,-1,-1,-1,-1,-1,-1,-1,-1,-1,-1,-1,-1,-1,-1,-1,-1,-1,-1,-1,-1,-1,-1,-1,-1,-1,-1,-1,-1,-1],"split_conditions":[8.8E-1,4E-1,1.8333334E0,1.6666667E-1,6.4E-1,1.1428572E0,2.75E0,8.695652E-2,3.2E-1,7.1428573E-1,1.1E0,1E0,1.36E0,2.08E0,1E1,1.9E1,1.1111111E-1,3E-1,8.333333E-1,4.7619048E-1,1E0,5.555556E-1,1.4285715E0,3.3333334E-1,1.08E0,1.24E0,1.88E0,2.1111112E0,1E0,4.1E0,1.96E0,4E0,1.1111111E-1,5E0,2.59E1,3.24E1,4E0,5.555556E-1,2.9E2,5E-1,4E0,1E1,7E0,1.1111111E-1,1.489E3,1.23E3,3.01E1,1.1111111E-1,6.25E-1,1.96E1,2.07E1,1.4285715E0,1.28E1,2.425E1,3.73E1,1.16E1,3.17E1,5.49E2,3.67E1,3.1E0,3E1,1.36E0,3.67E1,-1.4497669E-2,-1.6020106E-2,-1.3690974E-2,-1.1251214E-2,-1.1439903E-2,-1.3222677E-2,-1.2015372E-2,-1.0145869E-2,-1.0226171E-2,-6.9269217E-3,-7.4287592E-3,-9.6860295E-3,-6.1199786E-3,-2.0430114E-3,1.0501229E-1,1.8202879E-2,-4.657207E-3,-1.5846373E-3,1.6739737E-4,-3.2592248E-3,4.391861E-3,-9.808724E-3,1.3628209E-2,-1.116689E-2,-5.1529277E-3,3.837245E-3,8.49688E-3,1.7136192E-3,1.6852893E-2,7.830391E-3,2.3319682E-2,5.5085536E-2,-1.4531873E-2,-1.2595777E-3,7.838579E-3,1.4760673E-2,1.0869744E-2,1.7336205E-2,1.8812042E-2,3.0051364E-2,1.9756338E-2,2.6106793E-2,-7.3367185E-3,2.8474748E-2,2.7786622E-2,3.8690794E-2,4.9292482E-2,5.8957015E-4,-1.4540962E-2,4.0757373E-2,4.918149E-2,6.482985E-2,4.8012488E-2,6.1035812E-2,6.965302E-2,1.027141E-1,7.507038E-2,9.0884E-2,1.2531023E-1,8.210824E-3,-2.4150765E-2,1.4530791E-1,2.6008457E-2,-1.3242823E-2],"split_indices":[8,8,7,8,8,7,7,8,8,7,7,3,8,8,4,5,7,7,7,8,7,7,7,7,8,8,8,7,3,7,8,4,7,2,5,5,4,7,0,7,4,4,4,7,0,0,5,7,7,5,5,7,5,5,5,5,5,0,5,7,2,8,5,0,0,0,0,0,0,0,0,0,0,0,0,0,0,0,0,0,0,0,0,0,0,0,0,0,0,0,0,0,0,0,0,0,0,0,0,0,0,0,0,0,0,0,0,0,0,0,0,0,0,0,0,0,0,0,0,0,0,0,0,0,0,0,0],"split_type":[0,0,0,0,0,0,0,0,0,0,0,0,0,0,0,0,0,0,0,0,0,0,0,0,0,0,0,0,0,0,0,0,0,0,0,0,0,0,0,0,0,0,0,0,0,0,0,0,0,0,0,0,0,0,0,0,0,0,0,0,0,0,0,0,0,0,0,0,0,0,0,0,0,0,0,0,0,0,0,0,0,0,0,0,0,0,0,0,0,0,0,0,0,0,0,0,0,0,0,0,0,0,0,0,0,0,0,0,0,0,0,0,0,0,0,0,0,0,0,0,0,0,0,0,0,0,0],"sum_hessian":[2.04279E5,1.69841E5,3.4438E4,1.08701E5,6.114E4,2.7747E4,6.691E3,5.3487E4,5.5214E4,3.9724E4,2.1416E4,1.4599E4,1.3148E4,5.229E3,1.462E3,2.8078E4,2.5409E4,3.6467E4,1.8747E4,3.5398E4,4.326E3,1.9048E4,2.368E3,8.425E3,6.174E3,7.102E3,6.046E3,3.174E3,2.055E3,1.398E3,6.4E1,1.7274E4,1.0804E4,1.4039E4,1.137E4,2.0599E4,1.5868E4,1.8732E4,1.5E1,1.5124E4,2.0274E4,3.554E3,7.72E2,5.243E3,1.3805E4,2.229E3,1.39E2,3.98E2,8.027E3,3.708E3,2.466E3,5.153E3,1.949E3,5.069E3,9.77E2,1.97E3,1.204E3,1.056E3,9.99E2,1.29E3,1.08E2,6E0,5.8E1,1.1719E4,5.555E3,9.903E3,9.01E2,2.255E3,1.1784E4,7.93E3,3.44E3,1.8143E4,2.456E3,1.3369E4,2.499E3,1.6898E4,1.834E3,3E0,1.2E1,9.27E3,5.854E3,1.7097E4,3.177E3,3.432E3,1.22E2,7.2E2,5.2E1,2.17E2,5.026E3,1.231E4,1.495E3,1.642E3,5.87E2,8.8E1,5.1E1,1.39E2,2.59E2,1.327E3,6.7E3,1.003E3,2.705E3,6.67E2,1.799E3,3.863E3,1.29E3,3.3E1,1.916E3,1.261E3,3.808E3,9.58E2,1.9E1,1.1E1,1.959E3,7.14E2,4.9E2,4.09E2,6.47E2,9.26E2,7.3E1,6.06E2,6.84E2,1.04E2,4E0,2E0,4E0,4.7E1,1.1E1],"tree_param":{"num_deleted":"0","num_feature":"9","num_nodes":"127","size_leaf_vector":"1"}},{"base_weights":[1.5166979E-3,-1.2085905E-1,5.4416734E-1,-2.119178E-1,1.4674536E-2,3.8119438E-1,1.0458764E0,-2.5534326E-1,-1.6236341E-1,-3.9293233E-2,1.1380785E-1,2.8377077E-1,5.2545327E-1,8.728961E-1,1.4009444E0,-2.7457133E-1,-2.3415002E-1,-1.8457586E-1,-1.3546747E-1,-6.0310956E-2,4.6600256E-2,8.7803505E-2,2.6487613E-1,2.4238484E-1,3.6851662E-1,1.6550829E-1,5.623752E-1,8.0834424E-1,1.2703173E0,1.2874571E0,1.7991973E0,-2.8128746E-1,-2.50699E-1,-2.3623346E-1,-1.4400546E-1,-1.984336E-1,-1.5401138E-1,-1.466048E-1,-8.942379E-2,-8.627957E-2,-2.0805387E-2,3.596121E-2,5.6658334E-1,4.1769642E-2,1.1627882E-1,2.422233E-1,1.0937496E0,1.9666854E-1,3.030257E-1,8.6687386E-1,3.603422E-1,-2.2662155E-1,2.412051E-1,5.081294E-1,7.2965544E-1,7.473085E-1,9.357855E-1,9.6285087E-1,1.3339931E0,9.323764E-2,1.3049259E0,7.546801E-1,1.8628621E0,-1.3716117E-2,-1.4965947E-2,-1.420832E-2,-1.2141785E-2,-1.2058799E-2,-9.787276E-3,1.5856564E-2,-8.061272E-3,-1.02304155E-2,-6.9929915E-3,5.023002E-3,-7.838472E-3,-6.923273E-3,-9.391869E-3,1.3825062E-2,-4.732042E-3,-7.979406E-3,-4.027496E-3,-2.525429E-3,-1.9663596E-4,1.782078E-2,1.5468183E-3,1.19584305E-2,6.770717E-2,-1.4324254E-2,2.3522303E-3,4.098614E-3,8.278041E-3,3.5964109E-3,1.348611E-2,3.1367194E-2,6.781718E-2,2.2119163E-3,1.091704E-2,7.737425E-3,1.6347844E-2,3.5960548E-2,1.9124547E-1,1.6163548E-2,2.1297766E-2,-1.4189373E-2,-1.7826771E-3,7.209459E-3,2.360871E-2,2.0419441E-2,2.7202621E-2,2.208948E-2,3.822132E-2,2.1437557E-2,3.8837135E-2,8.3080366E-2,4.587846E-2,4.4706576E-3,5.2194804E-2,6.5600336E-2,1.1355465E-1,6.846837E-2,-5.7798694E-3,5.919484E-2,7.184112E-2,6.787934E-2,1.4808808E-2,6.994598E-2,9.8042585E-2],"categories":[],"categories_nodes":[],"categories_segments":[],"categories_sizes":[],"default_left":[0,0,0,0,0,0,0,0,0,0,0,0,0,0,0,0,0,0,0,0,0,0,0,0,0,0,0,0,0,0,0,0,0,0,0,0,0,0,0,0,0,0,0,0,0,0,0,0,0,0,0,0,0,0,0,0,0,0,0,0,0,0,0,0,0,0,0,0,0,0,0,0,0,0,0,0,0,0,0,0,0,0,0,0,0,0,0,0,0,0,0,0,0,0,0,0,0,0,0,0,0,0,0,0,0,0,0,0,0,0,0,0,0,0,0,0,0,0,0,0,0,0,0,0,0,0,0],"id":6,"left_children":[1,3,5,7,9,11,13,15,17,19,21,23,25,27,29,31,33,35,37,39,41,43,45,47,49,51,53,55,57,59,61,63,65,67,69,71,73,75,77,79,81,83,85,87,89,91,93,95,97,99,101,103,105,107,109,111,113,115,117,119,121,123,125,-1,-1,-1,-1,-1,-1,-1,-1,-1,-1,-1,-1,-1,-1,-1,-1,-1,-1,-1,-1,-1,-1,-1,-1,-1,-1,-1,-1,-1,-1,-1,-1,-1,-1,-1,-1,-1,-1,-1,-1,-1,-1,-1,-1,-1,-1,-1,-1,-1,-1,-1,-1,-1,-1,-1,-1,-1,-1,-1,-1,-1,-1,-1,-1],"loss_changes":[1.3572585E4,2.058248E3,3.0747832E3,2.146211E2,3.5856708E2,3.988501E2,5.651289E2,2.1600098E1,2.781018E1,7.8346794E1,9.278592E1,5.935205E1,1.5198291E2,1.5810645E2,1.3413232E2,4.397461E0,4.716675E0,1.0776367E1,1.0795776E1,3.576741E1,4.7179703E1,2.6417511E1,6.487015E1,3.1516663E1,2.2333862E1,3.1696722E1,9.380176E1,4.083008E1,1.5650757E1,4.8965576E1,4.294922E1,2.6483154E0,1.5437012E0,4.9002686E0,4.609127E0,6.31958E0,5.6052094E0,5.6695557E0,7.8685265E0,8.8233795E0,6.931011E0,1.3453745E1,4.376999E1,1.3354924E1,2.104065E1,1.579953E1,1.041684E1,2.1453232E1,1.731549E1,3.6123596E1,1.3169739E1,1.8784981E0,1.9964378E1,2.7868408E1,2.507605E1,3.3562744E1,2.1282837E1,1.0666412E1,1.1731201E1,9.485815E0,3.531787E1,1.0655321E1,2.580664E1,0E0,0E0,0E0,0E0,0E0,0E0,0E0,0E0,0E0,0E0,0E0,0E0,0E0,0E0,0E0,0E0,0E0,0E0,0E0,0E0,0E0,0E0,0E0,0E0,0E0,0E0,0E0,0E0,0E0,0E0,0E0,0E0,0E0,0E0,0E0,0E0,0E0,0E0,0E0,0E0,0E0,0E0,0E0,0E0,0E0,0E0,0E0,0E0,0E0,0E0,0E0,0E0,0E0,0E0,0E0,0E0,0E0,0E0,0E0,0E0,0E0,0E0,0E0,0E0],"parents":[2147483647,0,0,1,1,2,2,3,3,4,4,5,5,6,6,7,7,8,8,9,9,10,10,11,11,12,12,13,13,14,14,15,15,16,16,17,17,18,18,19,19,20,20,21,21,22,22,23,23,24,24,25,25,26,26,27,27,28,28,29,29,30,30,31,31,32,32,33,33,34,34,35,35,36,36,37,37,38,38,39,39,40,40,41,41,42,42,43,43,44,44,45,45,46,46,47,47,48,48,49,49,50,50,51,51,52,52,53,53,54,54,55,55,56,56,57,57,58,58,59,59,60,60,61,61,62,62],"right_children":[2,4,6,8,10,12,14,16,18,20,22,24,26,28,30,32,34,36,38,40,42,44,46,48,50,52,54,56,58,60,62,64,66,68,70,72,74,76,78,80,82,84,86,88,90,92,94,96,98,100,102,104,106,108,110,112,114,116,118,120,122,124,126,-1,-1,-1,-1,-1,-1,-1,-1,-1,-1,-1,-1,-1,-1,-1,-1,-1,-1,-1,-1,-1,-1,-1,-1,-1,-1,-1,-1,-1,-1,-1,-1,-1,-1,-1,-1,-1,-1,-1,-1,-1,-1,-1,-1,-1,-1,-1,-1,-1,-1,-1,-1,-1,-1,-1,-1,-1,-1,-1,-1,-1,-1,-1,-1],"split_conditions":[8.333333E-1,3.6E-1,1.7E0,1.6666667E-1,6E-1,1.16E0,2.2E0,8.695652E-2,2.777778E-1,6.666667E-1,1E0,1.2E0,5E-1,2.6666667E0,3.2E0,2.45E1,5E-1,2.5E-1,5E-1,4.7619048E-1,1.5E0,5E-1,2.2E0,1E0,1E0,3.3333334E-1,1.56E0,2.2E0,2.1E0,1E0,2.5E0,4E0,2E0,3.18E1,8.1E0,3.3E1,1E0,4E0,1E0,1.05E1,2.5E-1,1E0,2.85E1,1E0,7.2E-1,6.666667E-1,1.3333334E0,2.5E-1,1.56E1,2.25E0,1.04E0,2.2222222E-1,1E0,2.23E1,1.1E0,1.2E0,1E0,1.99E1,3.5E0,2.36E0,1E0,6.7E2,3.76E2,-1.3716117E-2,-1.4965947E-2,-1.420832E-2,-1.2141785E-2,-1.2058799E-2,-9.787276E-3,1.5856564E-2,-8.061272E-3,-1.02304155E-2,-6.9929915E-3,5.023002E-3,-7.838472E-3,-6.923273E-3,-9.391869E-3,1.3825062E-2,-4.732042E-3,-7.979406E-3,-4.027496E-3,-2.525429E-3,-1.9663596E-4,1.782078E-2,1.5468183E-3,1.19584305E-2,6.770717E-2,-1.4324254E-2,2.3522303E-3,4.098614E-3,8.278041E-3,3.5964109E-3,1.348611E-2,3.1367194E-2,6.781718E-2,2.2119163E-3,1.091704E-2,7.737425E-3,1.6347844E-2,3.5960548E-2,1.9124547E-1,1.6163548E-2,2.1297766E-2,-1.4189373E-2,-1.7826771E-3,7.209459E-3,2.360871E-2,2.0419441E-2,2.7202621E-2,2.208948E-2,3.822132E-2,2.1437557E-2,3.8837135E-2,8.3080366E-2,4.587846E-2,4.4706576E-3,5.2194804E-2,6.5600336E-2,1.1355465E-1,6.846837E-2,-5.7798694E-3,5.919484E-2,7.184112E-2,6.787934E-2,1.4808808E-2,6.994598E-2,9.8042585E-2],"split_indices":[8,8,7,8,8,8,8,8,8,6,7,6,6,6,7,5,6,6,6,8,6,6,6,3,4,7,8,6,7,6,6,4,4,5,5,5,4,4,4,5,6,4,5,4,8,6,7,6,5,6,8,7,3,5,7,8,4,5,7,8,3,0,0,0,0,0,0,0,0,0,0,0,0,0,0,0,0,0,0,0,0,0,0,0,0,0,0,0,0,0,0,0,0,0,0,0,0,0,0,0,0,0,0,0,0,0,0,0,0,0,0,0,0,0,0,0,0,0,0,0,0,0,0,0,0,0,0],"split_type":[0,0,0,0,0,0,0,0,0,0,0,0,0,0,0,0,0,0,0,0,0,0,0,0,0,0,0,0,0,0,0,0,0,0,0,0,0,0,0,0,0,0,0,0,0,0,0,0,0,0,0,0,0,0,0,0,0,0,0,0,0,0,0,0,0,0,0,0,0,0,0,0,0,0,0,0,0,0,0,0,0,0,0,0,0,0,0,0,0,0,0,0,0,0,0,0,0,0,0,0,0,0,0,0,0,0,0,0,0,0,0,0,0,0,0,0,0,0,0,0,0,0,0,0,0,0,0],"sum_hessian":[2.04382E5,1.66773E5,3.7609E4,9.9753E4,6.702E4,2.8389E4,9.22E3,5.3162E4,4.6591E4,4.3396E4,2.3624E4,1.6947E4,1.1442E4,6.202E3,3.018E3,2.7867E4,2.5295E4,2.5514E4,2.1077E4,3.4865E4,8.531E3,2.0156E4,3.468E3,1.1389E4,5.558E3,1.065E3,1.0377E4,5.338E3,8.64E2,2.352E3,6.66E2,2.174E4,6.127E3,2.4722E4,5.73E2,1.7551E4,7.963E3,1.697E4,4.107E3,2.1036E4,1.3829E4,8.361E3,1.7E2,7.704E3,1.2452E4,3.377E3,9.1E1,6.496E3,4.893E3,8.8E1,5.47E3,1.72E2,8.93E2,7.839E3,2.538E3,3.614E3,1.724E3,1.51E2,7.13E2,3.4E1,2.318E3,3.9E1,6.27E2,1.5694E4,6.046E3,1.159E3,4.968E3,2.2028E4,2.694E3,2E1,5.53E2,1.5875E4,1.676E3,8.5E1,7.878E3,1.4176E4,2.794E3,5.7E1,4.05E3,1.523E3,1.9513E4,5.009E3,8.82E3,1.28E2,8.233E3,1.21E2,4.9E1,1.21E2,7.583E3,7.343E3,5.109E3,4.7E2,2.907E3,3.4E1,5.7E1,8.09E2,5.687E3,6.81E2,4.212E3,8.5E1,3E0,3.499E3,1.971E3,1.32E2,4E1,6.3E2,2.63E2,2.079E3,5.76E3,2.75E2,2.263E3,3.07E2,3.307E3,4E1,1.684E3,1.3E1,1.38E2,6.99E2,1.4E1,4E0,3E1,1.214E3,1.104E3,1.6E1,2.3E1,1.12E2,5.15E2],"tree_param":{"num_deleted":"0","num_feature":"9","num_nodes":"127","size_leaf_vector":"1"}},{"base_weights":[1.8352232E-4,-1.0827193E-1,5.362763E-1,-1.8932155E-1,3.589302E-2,4.256231E-1,1.1199716E0,-2.4091524E-1,-1.3786083E-1,-1.7125769E-2,1.3428937E-1,3.2182223E-1,6.057749E-1,1.5910934E-1,1.1764076E0,-2.699972E-1,-2.2734615E-1,-1.6924769E-1,-1.12332664E-1,-2.0485312E-2,5.574885E-1,8.033864E-2,1.9109859E-1,3.141187E-1,1.1580098E0,2.6233634E-1,6.4709663E-1,-2.0903249E-1,4.7273895E-1,1.0375899E0,1.4840819E0,-2.743778E-1,-2.2661944E-1,-2.3366217E-1,-1.8125533E-1,-1.874868E-1,-1.4708377E-1,-1.1640386E-1,6.462955E-2,-5.2901037E-2,2.0357708E-2,1.18054554E-1,1.1319665E0,-4.865888E-3,9.2421375E-2,1.8575999E-1,1.1945786E0,2.588434E-1,3.9704552E-1,1.6483803E0,7.959288E-1,1.2136196E-1,5.469618E-1,6.096691E-1,9.3519586E-1,-2.6609978E-1,4.8958984E-1,8.255751E-1,1.1420715E-1,9.252864E-1,1.1441005E0,1.3536466E0,1.844508E0,-1.3463427E-2,-1.4363757E-2,-1.3954549E-2,-1.0630131E-2,-1.2058325E-2,-1.08649125E-2,6.8483255E-3,-9.255323E-3,-9.725659E-3,-6.033463E-3,-8.086053E-3,-5.876038E-3,-5.4500992E-3,-7.783869E-3,1.5968842E-2,9.1399526E-4,-4.0778974E-3,-1.4360207E-3,-9.836506E-4,2.9740275E-3,3.7925697E-3,9.537533E-2,3.8359135E-2,7.988378E-2,1.6903126E-3,-4.437446E-3,3.141405E-3,6.5603736E-3,8.611527E-3,1.7329331E-2,-6.1538815E-4,6.7130595E-2,7.904138E-3,1.4532814E-2,1.8925635E-2,2.719301E-2,3.8790114E-3,9.394329E-2,6.4424886E-3,5.113077E-2,-3.130244E-3,9.766752E-3,2.1215228E-2,4.6601243E-2,2.6192728E-2,3.3392772E-2,4.3414325E-2,6.971126E-2,-1.6778177E-2,6.810117E-3,1.0373553E-1,6.1803353E-3,4.593845E-2,-8.148183E-3,1.3219312E-2,-2.4219662E-2,4.148336E-2,5.8157306E-2,1.0643917E-1,5.5759817E-2,5.9559125E-2,7.682892E-2,7.9710044E-2,1.0483891E-1],"categories":[],"categories_nodes":[],"categories_segments":[],"categories_sizes":[],"default_left":[0,0,0,0,0,0,0,0,0,0,0,0,0,0,0,0,0,0,0,0,0,0,0,0,0,0,0,0,0,0,0,0,0,0,0,0,0,0,0,0,0,0,0,0,0,0,0,0,0,0,0,0,0,0,0,0,0,0,0,0,0,0,0,0,0,0,0,0,0,0,0,0,0,0,0,0,0,0,0,0,0,0,0,0,0,0,0,0,0,0,0,0,0,0,0,0,0,0,0,0,0,0,0,0,0,0,0,0,0,0,0,0,0,0,0,0,0,0,0,0,0,0,0,0,0,0,0],"id":7,"left_children":[1,3,5,7,9,11,13,15,17,19,21,23,25,27,29,31,33,35,37,39,41,43,45,47,49,51,53,55,57,59,61,63,65,67,69,71,73,75,77,79,81,83,85,87,89,91,93,95,97,99,101,103,105,107,109,111,113,115,117,119,121,123,125,-1,-1,-1,-1,-1,-1,-1,-1,-1,-1,-1,-1,-1,-1,-1,-1,-1,-1,-1,-1,-1,-1,-1,-1,-1,-1,-1,-1,-1,-1,-1,-1,-1,-1,-1,-1,-1,-1,-1,-1,-1,-1,-1,-1,-1,-1,-1,-1,-1,-1,-1,-1,-1,-1,-1,-1,-1,-1,-1,-1,-1,-1,-1,-1],"loss_changes":[1.1876819E4,1.985206E3,2.2195352E3,2.8872168E2,3.189817E2,5.401577E2,2.9681445E2,2.136914E1,4.360974E1,7.671753E1,6.5604095E1,1.17742676E2,1.4972095E2,3.531417E1,2.1940234E2,3.2197266E0,1.073938E1,9.8446045E0,2.164331E1,5.230397E1,5.8181183E1,1.13074875E1,5.564261E1,8.318042E1,2.8339508E1,4.5515503E1,1.01079346E2,5.7517347E0,2.077871E1,4.1620117E1,7.300488E1,9.5617676E-1,1.1100769E0,3.9470215E0,5.5009613E0,6.2643433E0,4.7535095E0,8.516754E0,7.9759946E0,1.5259701E1,2.7378435E1,9.824023E0,1.5762604E1,4.430973E0,1.1032509E1,2.2513031E1,9.842789E0,3.490985E1,1.956128E1,2.5197495E1,1.4687588E1,1.0368367E1,1.7363312E1,4.132373E1,3.20213E1,3.7065554E0,6.124954E0,7.7961617E0,7.589539E0,3.865503E1,4.9625244E1,3.3328125E1,2.3430786E1,0E0,0E0,0E0,0E0,0E0,0E0,0E0,0E0,0E0,0E0,0E0,0E0,0E0,0E0,0E0,0E0,0E0,0E0,0E0,0E0,0E0,0E0,0E0,0E0,0E0,0E0,0E0,0E0,0E0,0E0,0E0,0E0,0E0,0E0,0E0,0E0,0E0,0E0,0E0,0E0,0E0,0E0,0E0,0E0,0E0,0E0,0E0,0E0,0E0,0E0,0E0,0E0,0E0,0E0,0E0,0E0,0E0,0E0,0E0,0E0,0E0,0E0,0E0,0E0],"parents":[2147483647,0,0,1,1,2,2,3,3,4,4,5,5,6,6,7,7,8,8,9,9,10,10,11,11,12,12,13,13,14,14,15,15,16,16,17,17,18,18,19,19,20,20,21,21,22,22,23,23,24,24,25,25,26,26,27,27,28,28,29,29,30,30,31,31,32,32,33,33,34,34,35,35,36,36,37,37,38,38,39,39,40,40,41,41,42,42,43,43,44,44,45,45,46,46,47,47,48,48,49,49,50,50,51,51,52,52,53,53,54,54,55,55,56,56,57,57,58,58,59,59,60,60,61,61,62,62],"right_children":[2,4,6,8,10,12,14,16,18,20,22,24,26,28,30,32,34,36,38,40,42,44,46,48,50,52,54,56,58,60,62,64,66,68,70,72,74,76,78,80,82,84,86,88,90,92,94,96,98,100,102,104,106,108,110,112,114,116,118,120,122,124,126,-1,-1,-1,-1,-1,-1,-1,-1,-1,-1,-1,-1,-1,-1,-1,-1,-1,-1,-1,-1,-1,-1,-1,-1,-1,-1,-1,-1,-1,-1,-1,-1,-1,-1,-1,-1,-1,-1,-1,-1,-1,-1,-1,-1,-1,-1,-1,-1,-1,-1,-1,-1,-1,-1,-1,-1,-1,-1,-1,-1,-1,-1,-1,-1],"split_conditions":[8.8E-1,4E-1,1.88E0,2E-1,6.4E-1,1.28E0,1E0,6.666667E-2,2.777778E-1,1.5E0,8E-1,2.5E0,6.666667E-1,5E-1,2.52E0,2.9E1,2.5E-1,2.31E1,1E0,6E-1,2.65E1,1.33E1,2.25E0,1.2E0,1.3E1,1E0,2.25E0,1E0,3.12E1,2.2E0,3.6E0,4E0,2E0,1.6E-1,4.75E0,5E-1,2.5E-1,4E0,5E0,4.7619048E-1,5.2E-1,3.1E1,1.6666666E0,4E0,1E0,1.5E0,2E0,5E-1,2E0,1.87E1,1.1E1,2.5E-1,1.56E0,2.73E1,3.48E1,2.7E1,1E0,5E0,3.67E1,2.2E0,1E0,1E0,1E0,-1.3463427E-2,-1.4363757E-2,-1.3954549E-2,-1.0630131E-2,-1.2058325E-2,-1.08649125E-2,6.8483255E-3,-9.255323E-3,-9.725659E-3,-6.033463E-3,-8.086053E-3,-5.876038E-3,-5.4500992E-3,-7.783869E-3,1.5968842E-2,9.1399526E-4,-4.0778974E-3,-1.4360207E-3,-9.836506E-4,2.9740275E-3,3.7925697E-3,9.537533E-2,3.8359135E-2,7.988378E-2,1.6903126E-3,-4.437446E-3,3.141405E-3,6.5603736E-3,8.611527E-3,1.7329331E-2,-6.1538815E-4,6.7130595E-2,7.904138E-3,1.4532814E-2,1.8925635E-2,2.719301E-2,3.8790114E-3,9.394329E-2,6.4424886E-3,5.113077E-2,-3.130244E-3,9.766752E-3,2.1215228E-2,4.6601243E-2,2.6192728E-2,3.3392772E-2,4.3414325E-2,6.971126E-2,-1.6778177E-2,6.810117E-3,1.0373553E-1,6.1803353E-3,4.593845E-2,-8.148183E-3,1.3219312E-2,-2.4219662E-2,4.148336E-2,5.8157306E-2,1.0643917E-1,5.5759817E-2,5.9559125E-2,7.682892E-2,7.9710044E-2,1.0483891E-1],"split_indices":[8,8,8,8,8,8,6,8,8,6,6,6,6,6,8,5,6,5,6,6,5,5,6,6,2,3,6,3,5,6,6,4,4,8,5,6,6,4,2,8,8,1,6,4,3,6,2,6,6,5,1,6,8,5,5,2,2,4,5,8,4,3,3,0,0,0,0,0,0,0,0,0,0,0,0,0,0,0,0,0,0,0,0,0,0,0,0,0,0,0,0,0,0,0,0,0,0,0,0,0,0,0,0,0,0,0,0,0,0,0,0,0,0,0,0,0,0,0,0,0,0,0,0,0,0,0,0],"split_type":[0,0,0,0,0,0,0,0,0,0,0,0,0,0,0,0,0,0,0,0,0,0,0,0,0,0,0,0,0,0,0,0,0,0,0,0,0,0,0,0,0,0,0,0,0,0,0,0,0,0,0,0,0,0,0,0,0,0,0,0,0,0,0,0,0,0,0,0,0,0,0,0,0,0,0,0,0,0,0,0,0,0,0,0,0,0,0,0,0,0,0,0,0,0,0,0,0,0,0,0,0,0,0,0,0,0,0,0,0,0,0,0,0,0,0,0,0,0,0,0,0,0,0,0,0,0,0],"sum_hessian":[2.0427E5,1.69899E5,3.4371E4,1.08756E5,6.1143E4,2.8895E4,5.476E3,5.4306E4,5.445E4,3.9734E4,2.1409E4,1.8334E4,1.0561E4,3.04E2,5.172E3,1.7271E4,3.7035E4,2.442E4,3.003E4,3.9504E4,2.3E2,1.0982E4,1.0427E4,1.8168E4,1.66E2,1.135E3,9.426E3,1.4E2,1.64E2,3.567E3,1.605E3,1.5682E4,1.589E3,3.2568E4,4.467E3,1.3392E4,1.1028E4,2.9355E4,6.75E2,2.2024E4,1.748E4,1.31E2,9.9E1,1.364E3,9.618E3,1.0373E4,5.4E1,1.0904E4,7.264E3,6.9E1,9.7E1,7.6E2,3.75E2,8.345E3,1.081E3,1.3E2,1E1,8.2E1,8.2E1,1.741E3,1.826E3,1.182E3,4.23E2,1.1248E4,4.434E3,3.31E2,1.258E3,2.2319E4,1.0249E4,5.3E1,4.414E3,1.2116E4,1.276E3,7.373E3,3.655E3,2.4703E4,4.652E3,1.03E2,5.72E2,1.0078E4,1.1946E4,8.64E3,8.84E3,1.29E2,2E0,5.7E1,4.2E1,9.34E2,4.3E2,5.457E3,4.161E3,9.57E3,8.03E2,6E0,4.8E1,2.618E3,8.286E3,6.453E3,8.11E2,9E0,6E1,2.5E1,7.2E1,2.18E2,5.42E2,2.86E2,8.9E1,3.376E3,4.969E3,9.46E2,1.35E2,1.11E2,1.9E1,1E0,9E0,7.5E1,7E0,6.6E1,1.6E1,1.245E3,4.96E2,5E1,1.776E3,6.3E2,5.52E2,2.16E2,2.07E2],"tree_param":{"num_deleted":"0","num_feature":"9","num_nodes":"127","size_leaf_vector":"1"}},{"base_weights":[-2.3195712E-4,-1.0893803E-1,4.8754877E-1,-1.8975072E-1,1.1496099E-2,3.4066018E-1,9.393451E-1,-2.2939108E-1,-1.4446402E-1,-4.5259375E-2,8.505293E-2,2.6807323E-1,5.015098E-1,8.292927E-1,1.396051E0,-2.4654348E-1,-2.10466E-1,-1.6501206E-1,-1.2183503E-1,-6.5991245E-2,1.3601188E-2,6.6665076E-2,2.1270432E-1,2.2396299E-1,3.423795E-1,1.5485694E-1,5.444198E-1,7.350874E-1,1.0750126E0,1.4356033E0,4.9504215E-1,-2.537275E-1,-2.2660169E-1,-2.2316943E-1,-1.9739807E-1,-1.777433E-1,-1.4391929E-1,-1.1401032E-1,-1.6206653E-1,-8.827056E-2,-3.9199337E-2,6.438656E-3,3.1609568E-1,2.4183836E-2,9.4254084E-2,1.826103E-1,4.0892783E-1,3.735717E-2,2.3458025E-1,7.448385E-2,3.5641485E-1,4.840954E-2,4.486456E-1,3.7707752E-1,5.8994204E-1,6.829811E-1,9.3174624E-1,9.165692E-1,1.2518116E0,1.2534229E0,1.6400115E0,4.081491E-1,1.9570798E0,-1.2361678E-2,-1.3489338E-2,-1.3076511E-2,-1.0927101E-2,-7.0602125E-3,-1.1305048E-2,-1.0624057E-2,-9.1731455E-3,-9.173389E-3,-6.220628E-3,-8.359481E-3,-6.253908E-3,-3.6386196E-3,-6.095083E-3,-9.577296E-3,-5.2162553E-3,-4.8210905E-3,-2.225519E-3,-2.857783E-3,2.0510113E-4,1.0200359E-3,-3.909914E-3,4.7436893E-2,1.3031407E-2,1.8010878E-3,-2.0858801E-3,1.4623875E-3,5.416003E-3,1.0020309E-2,1.5955424E-3,1.6444504E-2,4.0650457E-2,-1.3486656E-2,3.7576824E-3,9.881281E-3,1.4016588E-2,-1.2711825E-2,7.388779E-3,1.4100039E-2,1.914793E-2,-7.622705E-3,5.9357625E-3,2.6959378E-2,1.179026E-3,1.7918635E-2,4.588815E-2,2.7063673E-2,3.6618453E-2,4.1250814E-2,3.2557994E-2,4.1733023E-2,5.3851206E-2,4.805254E-2,1.3115234E-2,6.7859344E-2,5.3255714E-2,-1.3884588E-2,6.345913E-2,7.7320755E-2,1.1273648E-1,9.833246E-2,1.5663063E-2,1.4766698E-1,3.202733E-2],"categories":[],"categories_nodes":[],"categories_segments":[],"categories_sizes":[],"default_left":[0,0,0,0,0,0,0,0,0,0,0,0,0,0,0,0,0,0,0,0,0,0,0,0,0,0,0,0,0,0,0,0,0,0,0,0,0,0,0,0,0,0,0,0,0,0,0,0,0,0,0,0,0,0,0,0,0,0,0,0,0,0,0,0,0,0,0,0,0,0,0,0,0,0,0,0,0,0,0,0,0,0,0,0,0,0,0,0,0,0,0,0,0,0,0,0,0,0,0,0,0,0,0,0,0,0,0,0,0,0,0,0,0,0,0,0,0,0,0,0,0,0,0,0,0,0,0],"id":8,"left_children":[1,3,5,7,9,11,13,15,17,19,21,23,25,27,29,31,33,35,37,39,41,43,45,47,49,51,53,55,57,59,61,63,65,67,69,71,73,75,77,79,81,83,85,87,89,91,93,95,97,99,101,103,105,107,109,111,113,115,117,119,121,123,125,-1,-1,-1,-1,-1,-1,-1,-1,-1,-1,-1,-1,-1,-1,-1,-1,-1,-1,-1,-1,-1,-1,-1,-1,-1,-1,-1,-1,-1,-1,-1,-1,-1,-1,-1,-1,-1,-1,-1,-1,-1,-1,-1,-1,-1,-1,-1,-1,-1,-1,-1,-1,-1,-1,-1,-1,-1,-1,-1,-1,-1,-1,-1,-1],"loss_changes":[1.0825265E4,1.6248508E3,2.4688076E3,1.7932153E2,2.7988342E2,3.277041E2,4.5762988E2,1.7241455E1,2.1664673E1,4.618032E1,6.8522736E1,6.3346313E1,1.2977368E2,1.695332E2,6.2402344E1,3.9451904E0,4.161743E0,6.5372314E0,6.969452E0,1.670153E1,2.135657E1,2.991224E1,2.163266E1,2.4053406E1,2.7068115E1,3.0094217E1,5.895215E1,5.3898926E1,5.591455E1,6.1102295E1,8.856329E0,2.074585E0,2.0285645E0,3.0531006E0,2.587677E0,4.62854E0,4.0144806E0,6.0397644E0,6.1283035E0,5.445732E0,9.881128E0,1.1382607E1,7.7535095E0,7.842648E0,1.4145905E1,8.545952E0,1.55153885E1,7.6228127E0,1.9372742E1,8.710862E0,1.3416382E1,1.0016376E1,9.839756E0,1.6499847E1,4.1921875E1,1.8495483E1,1.4785156E1,3.1120667E1,1.7440674E1,2.2093628E1,4.231128E1,1.0179364E1,3.3546839E0,0E0,0E0,0E0,0E0,0E0,0E0,0E0,0E0,0E0,0E0,0E0,0E0,0E0,0E0,0E0,0E0,0E0,0E0,0E0,0E0,0E0,0E0,0E0,0E0,0E0,0E0,0E0,0E0,0E0,0E0,0E0,0E0,0E0,0E0,0E0,0E0,0E0,0E0,0E0,0E0,0E0,0E0,0E0,0E0,0E0,0E0,0E0,0E0,0E0,0E0,0E0,0E0,0E0,0E0,0E0,0E0,0E0,0E0,0E0,0E0,0E0,0E0,0E0,0E0],"parents":[2147483647,0,0,1,1,2,2,3,3,4,4,5,5,6,6,7,7,8,8,9,9,10,10,11,11,12,12,13,13,14,14,15,15,16,16,17,17,18,18,19,19,20,20,21,21,22,22,23,23,24,24,25,25,26,26,27,27,28,28,29,29,30,30,31,31,32,32,33,33,34,34,35,35,36,36,37,37,38,38,39,39,40,40,41,41,42,42,43,43,44,44,45,45,46,46,47,47,48,48,49,49,50,50,51,51,52,52,53,53,54,54,55,55,56,56,57,57,58,58,59,59,60,60,61,61,62,62],"right_children":[2,4,6,8,10,12,14,16,18,20,22,24,26,28,30,32,34,36,38,40,42,44,46,48,50,52,54,56,58,60,62,64,66,68,70,72,74,76,78,80,82,84,86,88,90,92,94,96,98,100,102,104,106,108,110,112,114,116,118,120,122,124,126,-1,-1,-1,-1,-1,-1,-1,-1,-1,-1,-1,-1,-1,-1,-1,-1,-1,-1,-1,-1,-1,-1,-1,-1,-1,-1,-1,-1,-1,-1,-1,-1,-1,-1,-1,-1,-1,-1,-1,-1,-1,-1,-1,-1,-1,-1,-1,-1,-1,-1,-1,-1,-1,-1,-1,-1,-1,-1,-1,-1,-1,-1,-1,-1],"split_conditions":[8.333333E-1,3.6E-1,1.7E0,1.6666667E-1,5.6E-1,1.24E0,2.7E0,8.695652E-2,2.5E-1,5.555556E-1,1E0,1.04E0,8.333333E-1,2.08E0,1E1,2.29E1,2.03E1,2.2222222E-1,4E0,1E0,1E0,6.4E-1,1.2222222E0,4.2857143E-1,5.555556E-1,1E0,2.22E1,2.1111112E0,1E0,3.1E0,3E1,4E0,2E0,1E0,1.3636364E-1,3.3E1,2.14E1,5E0,2.35E1,3.3E1,4.7619048E-1,4E0,1.56E2,4E0,4.2857143E-1,1.514E3,3.3E1,1.1111111E-1,1E0,2.2222222E-1,2.08E1,4.2857143E-1,4E0,1.632E3,1.64E0,2.66E2,3.18E1,3.7E1,2.375E0,1.69E1,1.486E3,2.58E1,2.1E2,-1.2361678E-2,-1.3489338E-2,-1.3076511E-2,-1.0927101E-2,-7.0602125E-3,-1.1305048E-2,-1.0624057E-2,-9.1731455E-3,-9.173389E-3,-6.220628E-3,-8.359481E-3,-6.253908E-3,-3.6386196E-3,-6.095083E-3,-9.577296E-3,-5.2162553E-3,-4.8210905E-3,-2.225519E-3,-2.857783E-3,2.0510113E-4,1.0200359E-3,-3.909914E-3,4.7436893E-2,1.3031407E-2,1.8010878E-3,-2.0858801E-3,1.4623875E-3,5.416003E-3,1.0020309E-2,1.5955424E-3,1.6444504E-2,4.0650457E-2,-1.3486656E-2,3.7576824E-3,9.881281E-3,1.4016588E-2,-1.2711825E-2,7.388779E-3,1.4100039E-2,1.914793E-2,-7.622705E-3,5.9357625E-3,2.6959378E-2,1.179026E-3,1.7918635E-2,4.588815E-2,2.7063673E-2,3.6618453E-2,4.1250814E-2,3.2557994E-2,4.1733023E-2,5.3851206E-2,4.805254E-2,1.3115234E-2,6.7859344E-2,5.3255714E-2,-1.3884588E-2,6.345913E-2,7.7320755E-2,1.1273648E-1,9.833246E-2,1.5663063E-2,1.4766698E-1,3.202733E-2],"split_indices":[8,8,7,8,8,8,7,8,8,7,7,8,7,8,4,5,5,7,4,3,7,8,7,7,7,3,5,7,3,7,2,4,4,2,8,5,5,2,5,5,8,4,0,4,7,0,5,7,3,7,5,7,4,0,8,0,5,5,7,5,0,5,0,0,0,0,0,0,0,0,0,0,0,0,0,0,0,0,0,0,0,0,0,0,0,0,0,0,0,0,0,0,0,0,0,0,0,0,0,0,0,0,0,0,0,0,0,0,0,0,0,0,0,0,0,0,0,0,0,0,0,0,0,0,0,0,0],"split_type":[0,0,0,0,0,0,0,0,0,0,0,0,0,0,0,0,0,0,0,0,0,0,0,0,0,0,0,0,0,0,0,0,0,0,0,0,0,0,0,0,0,0,0,0,0,0,0,0,0,0,0,0,0,0,0,0,0,0,0,0,0,0,0,0,0,0,0,0,0,0,0,0,0,0,0,0,0,0,0,0,0,0,0,0,0,0,0,0,0,0,0,0,0,0,0,0,0,0,0,0,0,0,0,0,0,0,0,0,0,0,0,0,0,0,0,0,0,0,0,0,0,0,0,0,0,0,0],"sum_hessian":[2.04153E5,1.66948E5,3.7205E4,9.9908E4,6.704E4,2.8078E4,9.127E3,5.3273E4,4.6635E4,3.7842E4,2.9198E4,1.9349E4,8.729E3,7.357E3,1.77E3,2.7939E4,2.5334E4,2.4438E4,2.2197E4,2.7985E4,9.857E3,2.5523E4,3.675E3,1.2144E4,7.205E3,9.62E2,7.767E3,5.321E3,2.036E3,1.695E3,7.5E1,2.0531E4,7.408E3,1.2838E4,1.2496E4,1.5235E4,9.203E3,1.8586E4,3.611E3,1.5278E4,1.2707E4,9.63E3,2.27E2,1.005E4,1.5473E4,3.188E3,4.87E2,6.54E2,1.149E4,3.59E2,6.846E3,7.07E2,2.55E2,1.663E3,6.104E3,4.21E3,1.111E3,1.077E3,9.59E2,9E2,7.95E2,7.2E1,3E0,1.4631E4,5.9E3,1.383E3,6.025E3,4.45E2,1.2393E4,5.994E3,6.502E3,1.3756E4,1.479E3,4.114E3,5.089E3,2.987E3,1.5599E4,2.389E3,1.222E3,1.2878E4,2.4E3,8.982E3,3.725E3,8.267E3,1.363E3,1.7E1,2.1E2,8.52E3,1.53E3,2.753E3,1.272E4,2.851E3,3.37E2,4.08E2,7.9E1,7.1E1,5.83E2,6.359E3,5.131E3,6.5E1,2.94E2,1.803E3,5.043E3,1.83E2,5.24E2,2.1E2,4.5E1,1.609E3,5.4E1,4.553E3,1.551E3,7.66E2,3.444E3,6.7E2,4.41E2,1.008E3,6.9E1,6.09E2,3.5E2,9E0,8.91E2,6.93E2,1.02E2,3E0,6.9E1,1E0,2E0],"tree_param":{"num_deleted":"0","num_feature":"9","num_nodes":"127","size_leaf_vector":"1"}},{"base_weights":[1.6903774E-3,-1.0117283E-1,4.7077635E-1,-1.7129733E-1,1.5217097E-2,3.5262036E-1,9.943884E-1,-2.0977539E-1,-1.2979516E-1,-3.7718162E-2,7.674688E-2,2.413209E-1,4.705898E-1,8.8572544E-1,1.2984887E0,-2.2048675E-1,-1.8144448E-1,-1.48829E-1,-1.0664153E-1,-6.5293856E-2,-4.4325264E-3,3.6792137E-2,1.0508519E-1,1.5959314E-1,2.6281407E-1,3.9828768E-1,5.717661E-1,1.9103818E-1,8.9601064E-1,1.2103173E0,1.7504516E0,-2.2953382E-1,-1.9295311E-1,-3.36535E-1,-1.7805772E-1,-1.6059522E-1,-1.01696566E-1,-1.2449376E-1,-8.7733485E-2,-6.726673E-2,2.1863182E-1,8.5867405E-2,-1.1155064E-2,2.5695553E-2,1.1237863E-1,9.5062904E-2,1.779549E-1,3.486643E-1,1.4537999E-1,2.7070248E-1,3.1622626E-2,3.235665E-1,4.617937E-1,4.030148E-1,6.1103076E-1,5.9221745E-1,-1.119566E-1,7.69192E-1,9.490082E-1,1.2475874E0,3.3117664E-1,1.3377573E-1,1.8450583E0,-1.11110285E-2,-1.2471612E-2,-9.129153E-3,-1.1483458E-2,-1.9400591E-2,-1.1666256E-2,-9.450092E-3,-7.3848306E-3,-7.635443E-3,-9.694151E-3,-5.8238935E-3,-1.7495347E-3,-7.4928612E-3,-4.915926E-3,-6.1463933E-3,-3.962835E-3,-2.923453E-3,-4.3938393E-3,8.357636E-3,3.754933E-2,2.2795508E-3,1.2272124E-2,-1.258225E-3,1.4799611E-3,4.494494E-3,8.0601405E-4,6.936168E-3,-1.6190663E-3,5.3401603E-3,1.1278976E-3,3.183159E-2,8.462342E-3,1.588982E-2,8.185602E-2,1.893974E-2,6.8252324E-3,-7.222242E-4,1.3757153E-2,-2.0201428E-2,2.7682474E-3,1.8383173E-2,1.08117005E-2,-5.4917997E-4,2.3292558E-2,1.6516244E-2,2.9532705E-2,5.018066E-3,3.1189492E-2,3.914809E-2,-2.971969E-2,1.0234303E-2,-1.444484E-2,2.8199572E-2,4.580859E-2,4.3098632E-2,5.1863402E-2,6.085827E-2,8.796496E-2,9.735956E-2,1.080016E-2,-2.0102749E-2,3.9342105E-2,6.634329E-2,9.927289E-2],"categories":[],"categories_nodes":[],"categories_segments":[],"categories_sizes":[],"default_left":[0,0,0,0,0,0,0,0,0,0,0,0,0,0,0,0,0,0,0,0,0,0,0,0,0,0,0,0,0,0,0,0,0,0,0,0,0,0,0,0,0,0,0,0,0,0,0,0,0,0,0,0,0,0,0,0,0,0,0,0,0,0,0,0,0,0,0,0,0,0,0,0,0,0,0,0,0,0,0,0,0,0,0,0,0,0,0,0,0,0,0,0,0,0,0,0,0,0,0,0,0,0,0,0,0,0,0,0,0,0,0,0,0,0,0,0,0,0,0,0,0,0,0,0,0,0,0],"id":9,"left_children":[1,3,5,7,9,11,13,15,17,19,21,23,25,27,29,31,33,35,37,39,41,43,45,47,49,51,53,55,57,59,61,63,65,67,69,71,73,75,77,79,81,83,85,87,89,91,93,95,97,99,101,103,105,107,109,111,113,115,117,119,121,123,125,-1,-1,-1,-1,-1,-1,-1,-1,-1,-1,-1,-1,-1,-1,-1,-1,-1,-1,-1,-1,-1,-1,-1,-1,-1,-1,-1,-1,-1,-1,-1,-1,-1,-1,-1,-1,-1,-1,-1,-1,-1,-1,-1,-1,-1,-1,-1,-1,-1,-1,-1,-1,-1,-1,-1,-1,-1,-1,-1,-1,-1,-1,-1,-1],"loss_changes":[9.854683E3,1.3671343E3,2.2721187E3,1.6689453E2,2.0512823E2,3.9339014E2,2.2229688E2,1.641919E1,2.2147034E1,3.1073437E1,3.29729E1,2.7049927E1,1.06194824E2,3.5446777E1,6.873511E1,9.758545E0,7.7590027E0,1.5288757E1,7.649109E0,1.0385872E1,9.3130245E0,1.0135107E1,1.2427032E1,8.586288E0,2.2259216E1,4.0128174E1,3.9913696E1,9.06139E0,3.2283936E1,4.844043E1,4.380237E1,4.2541504E0,3.6661682E0,1.5936623E0,4.813324E0,5.767578E0,5.434696E0,7.73291E0,3.2791061E0,3.3289795E0,3.38233E0,6.820827E0,8.152691E0,6.4778724E0,5.9042263E0,1.2749863E1,8.116272E0,8.388651E0,6.144554E0,1.4954102E1,4.2010903E0,1.8393555E1,8.802307E0,1.5449371E1,3.1962036E1,7.7082424E0,2.4682863E0,4.3306335E1,2.568457E1,2.0120117E1,1.1118964E1,6.265215E0,1.7154602E1,0E0,0E0,0E0,0E0,0E0,0E0,0E0,0E0,0E0,0E0,0E0,0E0,0E0,0E0,0E0,0E0,0E0,0E0,0E0,0E0,0E0,0E0,0E0,0E0,0E0,0E0,0E0,0E0,0E0,0E0,0E0,0E0,0E0,0E0,0E0,0E0,0E0,0E0,0E0,0E0,0E0,0E0,0E0,0E0,0E0,0E0,0E0,0E0,0E0,0E0,0E0,0E0,0E0,0E0,0E0,0E0,0E0,0E0,0E0,0E0,0E0,0E0,0E0,0E0],"parents":[2147483647,0,0,1,1,2,2,3,3,4,4,5,5,6,6,7,7,8,8,9,9,10,10,11,11,12,12,13,13,14,14,15,15,16,16,17,17,18,18,19,19,20,20,21,21,22,22,23,23,24,24,25,25,26,26,27,27,28,28,29,29,30,30,31,31,32,32,33,33,34,34,35,35,36,36,37,37,38,38,39,39,40,40,41,41,42,42,43,43,44,44,45,45,46,46,47,47,48,48,49,49,50,50,51,51,52,52,53,53,54,54,55,55,56,56,57,57,58,58,59,59,60,60,61,61,62,62],"right_children":[2,4,6,8,10,12,14,16,18,20,22,24,26,28,30,32,34,36,38,40,42,44,46,48,50,52,54,56,58,60,62,64,66,68,70,72,74,76,78,80,82,84,86,88,90,92,94,96,98,100,102,104,106,108,110,112,114,116,118,120,122,124,126,-1,-1,-1,-1,-1,-1,-1,-1,-1,-1,-1,-1,-1,-1,-1,-1,-1,-1,-1,-1,-1,-1,-1,-1,-1,-1,-1,-1,-1,-1,-1,-1,-1,-1,-1,-1,-1,-1,-1,-1,-1,-1,-1,-1,-1,-1,-1,-1,-1,-1,-1,-1,-1,-1,-1,-1,-1,-1,-1,-1,-1,-1,-1,-1],"split_conditions":[8.75E-1,4E-1,1.9E0,1.6666667E-1,5.714286E-1,1.1428572E0,2.7E0,2.5E1,3E-1,5E-1,7E-1,6.666667E-1,1.4285715E0,1E0,3.6666667E0,2E-1,1E0,3.02E1,2.33E1,3.82E1,1.41E2,1E0,1.2E0,9.6E1,1E1,2.65E1,2.21E1,1.5E1,1.2E1,1E1,2.71E1,4E0,4E0,2E-1,3.26E1,4E0,3.55E1,4E-1,3.68E2,3E0,2.8E1,2.3E1,3.06E1,4E0,1.403E3,4E0,1E0,3E1,1E0,9.8E0,8.1E0,3E0,2.5E-1,2E0,6.666667E-1,1.311E3,2.89E1,3.04E1,2.1111112E0,1.622E3,3E0,1.7E1,5.39E2,-1.11110285E-2,-1.2471612E-2,-9.129153E-3,-1.1483458E-2,-1.9400591E-2,-1.1666256E-2,-9.450092E-3,-7.3848306E-3,-7.635443E-3,-9.694151E-3,-5.8238935E-3,-1.7495347E-3,-7.4928612E-3,-4.915926E-3,-6.1463933E-3,-3.962835E-3,-2.923453E-3,-4.3938393E-3,8.357636E-3,3.754933E-2,2.2795508E-3,1.2272124E-2,-1.258225E-3,1.4799611E-3,4.494494E-3,8.0601405E-4,6.936168E-3,-1.6190663E-3,5.3401603E-3,1.1278976E-3,3.183159E-2,8.462342E-3,1.588982E-2,8.185602E-2,1.893974E-2,6.8252324E-3,-7.222242E-4,1.3757153E-2,-2.0201428E-2,2.7682474E-3,1.8383173E-2,1.08117005E-2,-5.4917997E-4,2.3292558E-2,1.6516244E-2,2.9532705E-2,5.018066E-3,3.1189492E-2,3.914809E-2,-2.971969E-2,1.0234303E-2,-1.444484E-2,2.8199572E-2,4.580859E-2,4.3098632E-2,5.1863402E-2,6.085827E-2,8.796496E-2,9.735956E-2,1.080016E-2,-2.0102749E-2,3.9342105E-2,6.634329E-2,9.927289E-2],"split_indices":[7,7,7,7,7,7,7,5,7,7,7,6,7,6,7,6,4,5,5,5,0,6,6,0,4,5,5,1,1,4,5,4,4,6,5,4,5,6,0,4,2,1,5,2,0,4,4,1,1,5,5,4,6,6,6,0,5,5,7,0,1,2,0,0,0,0,0,0,0,0,0,0,0,0,0,0,0,0,0,0,0,0,0,0,0,0,0,0,0,0,0,0,0,0,0,0,0,0,0,0,0,0,0,0,0,0,0,0,0,0,0,0,0,0,0,0,0,0,0,0,0,0,0,0,0,0,0],"split_type":[0,0,0,0,0,0,0,0,0,0,0,0,0,0,0,0,0,0,0,0,0,0,0,0,0,0,0,0,0,0,0,0,0,0,0,0,0,0,0,0,0,0,0,0,0,0,0,0,0,0,0,0,0,0,0,0,0,0,0,0,0,0,0,0,0,0,0,0,0,0,0,0,0,0,0,0,0,0,0,0,0,0,0,0,0,0,0,0,0,0,0,0,0,0,0,0,0,0,0,0,0,0,0,0,0,0,0,0,0,0,0,0,0,0,0,0,0,0,0,0,0,0,0,0,0,0,0],"sum_hessian":[2.04233E5,1.67503E5,3.673E4,1.04526E5,6.2977E4,2.9969E4,6.761E3,5.4237E4,5.0289E4,3.3853E4,2.9124E4,1.5422E4,1.4547E4,4.984E3,1.777E3,3.9352E4,1.4885E4,2.7597E4,2.2692E4,1.8514E4,1.5339E4,1.2086E4,1.7038E4,3.213E3,1.2209E4,8.487E3,6.06E3,7.3E1,4.911E3,1.49E3,2.87E2,2.9614E4,9.738E3,3.16E2,1.4569E4,2.2082E4,5.515E3,1.1669E4,1.1023E4,1.8387E4,1.27E2,1.062E3,1.4277E4,1.054E4,1.546E3,1.498E4,2.058E3,2.23E2,2.99E3,1.1806E4,4.03E2,3.902E3,4.585E3,1.146E3,4.914E3,3.1E1,4.2E1,1.452E3,3.459E3,1.429E3,6.1E1,1.6E1,2.71E2,2.1664E4,7.95E3,7.598E3,2.14E3,2.09E2,1.07E2,1.0705E4,3.864E3,1.7857E4,4.225E3,4.514E3,1.001E3,5.924E3,5.745E3,2.137E3,8.886E3,1.2889E4,5.498E3,1.17E2,1E1,8.49E2,2.13E2,1.0625E4,3.652E3,1.367E3,9.173E3,1.308E3,2.38E2,1.2892E4,2.088E3,3.7E1,2.021E3,2.19E2,4E0,1.08E2,2.882E3,1.81E2,1.1625E4,2E1,3.83E2,2.764E3,1.138E3,3.9E1,4.546E3,8.28E2,3.18E2,1.2E2,4.794E3,2.7E1,4E0,1.5E1,2.7E1,6.08E2,8.44E2,1.747E3,1.712E3,1.352E3,7.7E1,3E0,5.8E1,9E0,7E0,6E1,2.11E2],"tree_param":{"num_deleted":"0","num_feature":"9","num_nodes":"127","size_leaf_vector":"1"}},{"base_weights":[8.394532E-4,-8.667449E-2,4.9874312E-1,-1.476616E-1,6.1182465E-2,3.7424344E-1,9.4106203E-1,-1.8086033E-1,-8.156482E-2,1.0086049E-2,1.2168186E-1,3.1491095E-1,5.5005723E-1,8.5239494E-1,1.3189517E0,-1.9938694E-1,-1.4554791E-1,-1.01174586E-1,-5.7507534E-2,-1.0067536E-2,3.5620954E-2,9.8252356E-2,1.8628184E-1,2.6457536E-1,3.7007016E-1,4.7361568E-1,6.5069604E-1,7.554407E-1,9.2924774E-1,1.3593137E0,2.829842E-1,-2.1646737E-1,-1.8353814E-1,-1.5594514E-1,-1.01610176E-1,-1.1672402E-1,-8.492301E-2,-5.9554037E-2,2.2952032E-1,-2.5402388E-2,3.0694053E-2,2.7030278E-2,9.266591E-2,8.7604955E-2,1.7448024E-1,1.1404866E-1,2.1307366E-1,2.7301082E-1,9.0750335E-3,3.1164703E-1,4.2618367E-1,3.257179E-1,5.1025534E-1,6.734035E-1,3.6799884E-1,6.477054E-1,8.871936E-1,1.6841812E0,9.0845287E-1,1.2289902E0,1.6116407E0,6.163669E-1,-4.4314057E-1,-1.1013115E-2,-8.223671E-3,-9.428291E-3,-6.7912675E-3,-7.44517E-3,-9.263331E-3,-2.3333044E-4,-5.459133E-3,-5.005966E-3,-7.3911347E-3,-3.0839904E-3,-5.0078477E-3,-3.7642983E-3,-2.0200233E-3,4.9485486E-2,9.255678E-3,-9.611977E-4,-7.0474944E-3,1.0291379E-3,6.353361E-3,4.1554353E-4,2.482783E-3,1.17033E-2,3.941649E-3,-8.158497E-4,4.6830834E-3,-7.962669E-3,9.272348E-3,1.5393287E-2,4.6688165E-3,1.1314422E-2,1.1076432E-3,1.1697007E-2,1.6019614E-2,-9.900281E-4,3.2293063E-2,1.5290852E-2,4.319715E-2,-1.1153622E-2,2.1637093E-2,1.4419228E-2,3.3783037E-2,2.185479E-2,2.9849196E-2,3.0446127E-2,3.9807063E-2,2.4275852E-2,-1.0077674E-4,-1.3591258E-3,3.384312E-2,3.407979E-2,4.85049E-2,1.02690496E-1,5.6184452E-2,4.3434873E-2,5.715775E-2,4.4055853E-2,6.482222E-2,4.095968E-2,8.61605E-2,-3.167622E-2,4.020683E-2,-3.0020444E-2,8.9383265E-3],"categories":[],"categories_nodes":[],"categories_segments":[],"categories_sizes":[],"default_left":[0,0,0,0,0,0,0,0,0,0,0,0,0,0,0,0,0,0,0,0,0,0,0,0,0,0,0,0,0,0,0,0,0,0,0,0,0,0,0,0,0,0,0,0,0,0,0,0,0,0,0,0,0,0,0,0,0,0,0,0,0,0,0,0,0,0,0,0,0,0,0,0,0,0,0,0,0,0,0,0,0,0,0,0,0,0,0,0,0,0,0,0,0,0,0,0,0,0,0,0,0,0,0,0,0,0,0,0,0,0,0,0,0,0,0,0,0,0,0,0,0,0,0,0,0,0,0],"id":10,"left_children":[1,3,5,7,9,11,13,15,17,19,21,23,25,27,29,31,33,35,37,39,41,43,45,47,49,51,53,55,57,59,61,63,65,67,69,71,73,75,77,79,81,83,85,87,89,91,93,95,97,99,101,103,105,107,109,111,113,115,117,119,121,123,125,-1,-1,-1,-1,-1,-1,-1,-1,-1,-1,-1,-1,-1,-1,-1,-1,-1,-1,-1,-1,-1,-1,-1,-1,-1,-1,-1,-1,-1,-1,-1,-1,-1,-1,-1,-1,-1,-1,-1,-1,-1,-1,-1,-1,-1,-1,-1,-1,-1,-1,-1,-1,-1,-1,-1,-1,-1,-1,-1,-1,-1,-1,-1,-1],"loss_changes":[8.902722E3,1.5669756E3,1.6816064E3,2.6994702E2,1.5686998E2,2.4847144E2,2.2363672E2,5.3546875E1,1.9399963E1,1.4158579E1,3.5148926E1,4.9389893E1,4.5949707E1,3.980249E1,5.284424E1,1.4499756E1,1.2859436E1,5.7165833E0,1.0865955E1,9.612526E0,5.9447985E0,1.3825409E1,1.1941406E1,2.0091003E1,2.7739502E1,1.8371887E1,1.639746E1,3.361963E1,4.600586E1,3.830249E1,1.21349325E1,5.0633545E0,6.6589966E0,4.6777344E0,3.9607086E0,5.9638977E0,3.9185104E0,5.524719E0,4.2390313E0,7.9744387E0,4.0940046E0,4.467445E0,3.0876398E0,9.420883E0,7.67519E0,6.682396E0,1.13710785E1,1.6632324E1,5.5106754E0,1.3159485E1,1.8550415E1,8.715164E0,1.712445E1,1.8501587E1,8.480246E0,2.6170105E1,1.7764404E1,1.4266098E1,2.652295E1,1.7911621E1,3.5191162E1,8.488956E0,1.6722336E0,0E0,0E0,0E0,0E0,0E0,0E0,0E0,0E0,0E0,0E0,0E0,0E0,0E0,0E0,0E0,0E0,0E0,0E0,0E0,0E0,0E0,0E0,0E0,0E0,0E0,0E0,0E0,0E0,0E0,0E0,0E0,0E0,0E0,0E0,0E0,0E0,0E0,0E0,0E0,0E0,0E0,0E0,0E0,0E0,0E0,0E0,0E0,0E0,0E0,0E0,0E0,0E0,0E0,0E0,0E0,0E0,0E0,0E0,0E0,0E0,0E0,0E0,0E0,0E0],"parents":[2147483647,0,0,1,1,2,2,3,3,4,4,5,5,6,6,7,7,8,8,9,9,10,10,11,11,12,12,13,13,14,14,15,15,16,16,17,17,18,18,19,19,20,20,21,21,22,22,23,23,24,24,25,25,26,26,27,27,28,28,29,29,30,30,31,31,32,32,33,33,34,34,35,35,36,36,37,37,38,38,39,39,40,40,41,41,42,42,43,43,44,44,45,45,46,46,47,47,48,48,49,49,50,50,51,51,52,52,53,53,54,54,55,55,56,56,57,57,58,58,59,59,60,60,61,61,62,62],"right_children":[2,4,6,8,10,12,14,16,18,20,22,24,26,28,30,32,34,36,38,40,42,44,46,48,50,52,54,56,58,60,62,64,66,68,70,72,74,76,78,80,82,84,86,88,90,92,94,96,98,100,102,104,106,108,110,112,114,116,118,120,122,124,126,-1,-1,-1,-1,-1,-1,-1,-1,-1,-1,-1,-1,-1,-1,-1,-1,-1,-1,-1,-1,-1,-1,-1,-1,-1,-1,-1,-1,-1,-1,-1,-1,-1,-1,-1,-1,-1,-1,-1,-1,-1,-1,-1,-1,-1,-1,-1,-1,-1,-1,-1,-1,-1,-1,-1,-1,-1,-1,-1,-1,-1,-1,-1,-1],"split_conditions":[1E0,5E-1,1.8571428E0,3E-1,7E-1,1.4285715E0,2.9E0,1.25E-1,3.75E-1,6E-1,8.5714287E-1,1.1428572E0,1.75E0,2.2E0,1E1,1E-1,3.03E1,2.33E1,3.82E1,3.01E1,1E0,1.2E0,6.666667E-1,1E1,2.7E1,2.21E1,5E0,1E0,1E0,3.5E0,2.2E1,3.2E1,3.24E1,4E0,2E0,3E0,1.2E1,1E0,3E0,1E1,2.9E1,1E0,1.09E1,1.16E1,1E1,1.47E1,6E0,1E0,3.73E1,2.25E0,2.5E-1,3E1,1E0,3.16E1,2.2E1,1E0,1.2E1,3.26E1,3.52E1,2.5E0,3.2E0,3E0,1E0,-1.1013115E-2,-8.223671E-3,-9.428291E-3,-6.7912675E-3,-7.44517E-3,-9.263331E-3,-2.3333044E-4,-5.459133E-3,-5.005966E-3,-7.3911347E-3,-3.0839904E-3,-5.0078477E-3,-3.7642983E-3,-2.0200233E-3,4.9485486E-2,9.255678E-3,-9.611977E-4,-7.0474944E-3,1.0291379E-3,6.353361E-3,4.1554353E-4,2.482783E-3,1.17033E-2,3.941649E-3,-8.158497E-4,4.6830834E-3,-7.962669E-3,9.272348E-3,1.5393287E-2,4.6688165E-3,1.1314422E-2,1.1076432E-3,1.1697007E-2,1.6019614E-2,-9.900281E-4,3.2293063E-2,1.5290852E-2,4.319715E-2,-1.1153622E-2,2.1637093E-2,1.4419228E-2,3.3783037E-2,2.185479E-2,2.9849196E-2,3.0446127E-2,3.9807063E-2,2.4275852E-2,-1.0077674E-4,-1.3591258E-3,3.384312E-2,3.407979E-2,4.85049E-2,1.02690496E-1,5.6184452E-2,4.3434873E-2,5.715775E-2,4.4055853E-2,6.482222E-2,4.095968E-2,8.61605E-2,-3.167622E-2,4.020683E-2,-3.0020444E-2,8.9383265E-3],"split_indices":[7,7,7,7,7,7,7,7,7,7,7,7,6,6,4,7,5,5,5,5,6,6,6,4,5,5,4,3,4,7,1,5,5,4,2,4,2,3,1,4,1,3,5,5,5,5,4,3,5,6,6,1,3,5,2,6,1,5,5,6,6,2,3,0,0,0,0,0,0,0,0,0,0,0,0,0,0,0,0,0,0,0,0,0,0,0,0,0,0,0,0,0,0,0,0,0,0,0,0,0,0,0,0,0,0,0,0,0,0,0,0,0,0,0,0,0,0,0,0,0,0,0,0,0,0,0,0],"split_type":[0,0,0,0,0,0,0,0,0,0,0,0,0,0,0,0,0,0,0,0,0,0,0,0,0,0,0,0,0,0,0,0,0,0,0,0,0,0,0,0,0,0,0,0,0,0,0,0,0,0,0,0,0,0,0,0,0,0,0,0,0,0,0,0,0,0,0,0,0,0,0,0,0,0,0,0,0,0,0,0,0,0,0,0,0,0,0,0,0,0,0,0,0,0,0,0,0,0,0,0,0,0,0,0,0,0,0,0,0,0,0,0,0,0,0,0,0,0,0,0,0,0,0,0,0,0,0],"sum_hessian":[2.04313E5,1.73771E5,3.0542E4,1.23026E5,5.0745E4,2.3835E4,6.707E3,8.1892E4,4.1134E4,2.7511E4,2.3234E4,1.7823E4,6.012E3,5.435E3,1.272E3,5.3709E4,2.8183E4,2.266E4,1.8474E4,1.5376E4,1.2135E4,1.7052E4,6.182E3,9.322E3,8.501E3,3.42E3,2.592E3,2.408E3,3.027E3,1.224E3,4.8E1,2.5844E4,2.7865E4,2.2788E4,5.395E3,1.1577E4,1.1083E4,1.8344E4,1.3E2,1.1173E4,4.203E3,1.0548E4,1.587E3,1.4964E4,2.088E3,1.674E3,4.508E3,9.024E3,2.98E2,4.168E3,4.333E3,6.81E2,2.739E3,2.398E3,1.94E2,1.328E3,1.08E3,7.9E1,2.948E3,8.11E2,4.13E2,3.3E1,1.5E1,2.4083E4,1.761E3,2.5206E4,2.659E3,1.838E4,4.408E3,3.91E2,5.004E3,7.55E3,4.027E3,4.39E3,6.693E3,1.007E4,8.274E3,6E0,1.24E2,1.0607E4,5.66E2,3.805E3,3.98E2,5.773E3,4.775E3,1.4E2,1.447E3,8.24E2,1.414E4,6.6E1,2.022E3,1.6E2,1.514E3,4.216E3,2.92E2,4.949E3,4.075E3,2.86E2,1.2E1,4.126E3,4.2E1,4.3E1,4.29E3,6.17E2,6.4E1,1.489E3,1.25E3,1.576E3,8.22E2,1.47E2,4.7E1,5.5E1,1.273E3,3.13E2,7.67E2,4.6E1,3.3E1,2.525E3,4.23E2,1.34E2,6.77E2,5.2E1,3.61E2,4E0,2.9E1,1.2E1,3E0],"tree_param":{"num_deleted":"0","num_feature":"9","num_nodes":"127","size_leaf_vector":"1"}},{"base_weights":[1.4064314E-3,-8.2004406E-2,4.7246578E-1,-1.3918032E-1,5.6580592E-2,3.5246602E-1,8.915803E-1,-1.8904345E-1,-9.979356E-2,9.135803E-3,1.12622365E-1,2.968614E-1,5.1757693E-1,7.790502E-1,1.1992904E0,-2.043319E-1,-1.7450641E-1,-1.1681201E-1,-5.346803E-2,-1.0134972E-2,3.2546952E-2,7.010268E-2,1.4117989E-1,2.4263944E-1,3.5699835E-1,4.694686E-1,6.4488995E-1,6.9695556E-1,8.706389E-1,1.1486262E0,1.6904417E0,-2.1747352E-1,-1.8839908E-1,-3.0143386E-1,-1.7252049E-1,-1.338792E-1,-9.712559E-2,-5.5231053E-2,1.9538026E-1,-2.6326103E-2,1.0314665E-2,2.3172608E-2,1.3026069E-1,7.780558E-2,-8.015634E-2,4.328128E-1,1.3628627E-1,2.0061244E-1,2.9474235E-1,2.786917E-1,4.237541E-1,-9.476075E-3,4.8137146E-1,7.864242E-1,5.9859526E-1,6.518412E-1,9.073487E-1,7.396349E-1,9.424465E-1,1.1815966E0,5.1518726E-1,9.0781003E-1,1.926081E0,-1.045933E-2,-1.1395708E-2,-8.985059E-3,-1.0491704E-2,-1.7997544E-2,-8.539814E-3,-8.944995E-3,-6.8122745E-3,-7.017169E-3,-3.8389582E-3,-4.5006094E-3,-6.6521093E-3,-3.2601748E-3,-1.7308834E-3,2.9243366E-3,2.0314213E-2,-1.5847161E-3,5.6519746E-3,-4.2245543E-4,1.99154E-3,1.6928014E-3,-1.6879417E-3,2.4563564E-2,5.653836E-3,4.172269E-3,-3.2535621E-3,-7.1818978E-3,7.665322E-4,-7.0181075E-3,2.5187144E-2,5.741333E-3,9.015516E-3,7.882439E-3,1.2797606E-2,1.5663179E-2,3.195646E-3,1.6154585E-2,8.465646E-3,1.8487085E-2,2.4552727E-2,2.2642722E-2,-4.197181E-3,2.131134E-2,2.7323142E-2,2.7703259E-3,4.3229766E-2,2.5340898E-2,3.5542306E-2,7.2416365E-3,3.3577546E-2,9.390103E-2,4.3763813E-2,5.6769904E-2,3.453799E-2,4.4826645E-2,5.7340365E-2,5.468699E-2,7.061664E-2,4.98744E-2,1.07133165E-2,-2.6927212E-2,8.388588E-2,1.0701014E-1,5.5696476E-2],"categories":[],"categories_nodes":[],"categories_segments":[],"categories_sizes":[],"default_left":[0,0,0,0,0,0,0,0,0,0,0,0,0,0,0,0,0,0,0,0,0,0,0,0,0,0,0,0,0,0,0,0,0,0,0,0,0,0,0,0,0,0,0,0,0,0,0,0,0,0,0,0,0,0,0,0,0,0,0,0,0,0,0,0,0,0,0,0,0,0,0,0,0,0,0,0,0,0,0,0,0,0,0,0,0,0,0,0,0,0,0,0,0,0,0,0,0,0,0,0,0,0,0,0,0,0,0,0,0,0,0,0,0,0,0,0,0,0,0,0,0,0,0,0,0,0,0],"id":11,"left_children":[1,3,5,7,9,11,13,15,17,19,21,23,25,27,29,31,33,35,37,39,41,43,45,47,49,51,53,55,57,59,61,63,65,67,69,71,73,75,77,79,81,83,85,87,89,91,93,95,97,99,101,103,105,107,109,111,113,115,117,119,121,123,125,-1,-1,-1,-1,-1,-1,-1,-1,-1,-1,-1,-1,-1,-1,-1,-1,-1,-1,-1,-1,-1,-1,-1,-1,-1,-1,-1,-1,-1,-1,-1,-1,-1,-1,-1,-1,-1,-1,-1,-1,-1,-1,-1,-1,-1,-1,-1,-1,-1,-1,-1,-1,-1,-1,-1,-1,-1,-1,-1,-1,-1,-1,-1,-1],"loss_changes":[8.0281475E3,1.3754553E3,1.545561E3,2.4132495E2,1.3480469E2,2.1924292E2,2.3594678E2,1.2016846E1,5.4122925E1,1.2387581E1,2.8214294E1,5.821228E1,3.6562622E1,3.707788E1,4.3595703E1,5.4921875E0,6.956726E0,1.6857483E1,8.104389E0,4.98701E0,1.135266E1,1.0817799E1,1.9783966E1,2.0535278E1,4.4184326E1,2.4928528E1,1.0327454E1,2.4542847E1,2.1550781E1,3.4101807E1,2.9418243E1,1.204773E0,2.1906128E0,3.202732E0,6.3115234E0,9.915222E0,5.9460297E0,3.763504E0,3.7295194E0,6.29249E0,3.6866562E0,6.881963E0,6.67535E0,7.1657257E0,2.7663221E0,9.380787E0,1.2899551E1,1.2344543E1,1.7923157E1,1.8899902E1,1.644159E1,3.7218766E0,1.507959E1,2.2981323E1,1.2476105E1,2.1727478E1,1.2832489E1,1.5502502E1,1.3271484E1,3.0464355E1,1.197756E1,4.655944E1,2.0049011E1,0E0,0E0,0E0,0E0,0E0,0E0,0E0,0E0,0E0,0E0,0E0,0E0,0E0,0E0,0E0,0E0,0E0,0E0,0E0,0E0,0E0,0E0,0E0,0E0,0E0,0E0,0E0,0E0,0E0,0E0,0E0,0E0,0E0,0E0,0E0,0E0,0E0,0E0,0E0,0E0,0E0,0E0,0E0,0E0,0E0,0E0,0E0,0E0,0E0,0E0,0E0,0E0,0E0,0E0,0E0,0E0,0E0,0E0,0E0,0E0,0E0,0E0,0E0,0E0],"parents":[2147483647,0,0,1,1,2,2,3,3,4,4,5,5,6,6,7,7,8,8,9,9,10,10,11,11,12,12,13,13,14,14,15,15,16,16,17,17,18,18,19,19,20,20,21,21,22,22,23,23,24,24,25,25,26,26,27,27,28,28,29,29,30,30,31,31,32,32,33,33,34,34,35,35,36,36,37,37,38,38,39,39,40,40,41,41,42,42,43,43,44,44,45,45,46,46,47,47,48,48,49,49,50,50,51,51,52,52,53,53,54,54,55,55,56,56,57,57,58,58,59,59,60,60,61,61,62,62],"right_children":[2,4,6,8,10,12,14,16,18,20,22,24,26,28,30,32,34,36,38,40,42,44,46,48,50,52,54,56,58,60,62,64,66,68,70,72,74,76,78,80,82,84,86,88,90,92,94,96,98,100,102,104,106,108,110,112,114,116,118,120,122,124,126,-1,-1,-1,-1,-1,-1,-1,-1,-1,-1,-1,-1,-1,-1,-1,-1,-1,-1,-1,-1,-1,-1,-1,-1,-1,-1,-1,-1,-1,-1,-1,-1,-1,-1,-1,-1,-1,-1,-1,-1,-1,-1,-1,-1,-1,-1,-1,-1,-1,-1,-1,-1,-1,-1,-1,-1,-1,-1,-1,-1,-1,-1,-1,-1],"split_conditions":[1E0,5E-1,1.8333334E0,1.6666667E-1,7E-1,1.4444444E0,2.7E0,1.75E1,3.75E-1,1E0,8E-1,1.1428572E0,2E0,1E0,1.533E3,1E-1,1E0,2.2222222E-1,3.82E1,6E-1,1E0,9E0,1E0,1E0,2.65E1,1.42E1,3.78E2,2.75E0,2.1E0,8E0,3E0,1.021E3,4E0,2E-1,3.24E1,3.31E1,4E0,5E-1,1E0,3.65E1,1.005E3,4E0,8.8E1,3.67E1,2.55E1,2.18E2,8.333333E-1,1.1E0,1.504E3,3E0,1E0,1.12E1,1E0,1.86E1,1E0,1.75E1,1E0,1.25E2,3.46E1,3.52E1,1.3E1,2E1,1.632E3,-1.045933E-2,-1.1395708E-2,-8.985059E-3,-1.0491704E-2,-1.7997544E-2,-8.539814E-3,-8.944995E-3,-6.8122745E-3,-7.017169E-3,-3.8389582E-3,-4.5006094E-3,-6.6521093E-3,-3.2601748E-3,-1.7308834E-3,2.9243366E-3,2.0314213E-2,-1.5847161E-3,5.6519746E-3,-4.2245543E-4,1.99154E-3,1.6928014E-3,-1.6879417E-3,2.4563564E-2,5.653836E-3,4.172269E-3,-3.2535621E-3,-7.1818978E-3,7.665322E-4,-7.0181075E-3,2.5187144E-2,5.741333E-3,9.015516E-3,7.882439E-3,1.2797606E-2,1.5663179E-2,3.195646E-3,1.6154585E-2,8.465646E-3,1.8487085E-2,2.4552727E-2,2.2642722E-2,-4.197181E-3,2.131134E-2,2.7323142E-2,2.7703259E-3,4.3229766E-2,2.5340898E-2,3.5542306E-2,7.2416365E-3,3.3577546E-2,9.390103E-2,4.3763813E-2,5.6769904E-2,3.453799E-2,4.4826645E-2,5.7340365E-2,5.468699E-2,7.061664E-2,4.98744E-2,1.07133165E-2,-2.6927212E-2,8.388588E-2,1.0701014E-1,5.5696476E-2],"split_indices":[7,7,7,7,7,7,7,5,7,3,6,7,6,3,0,7,4,7,5,7,6,4,4,3,5,5,0,6,7,4,6,0,4,6,5,5,4,6,3,5,0,4,0,5,5,0,7,7,0,4,3,5,3,5,3,5,4,0,5,5,1,1,0,0,0,0,0,0,0,0,0,0,0,0,0,0,0,0,0,0,0,0,0,0,0,0,0,0,0,0,0,0,0,0,0,0,0,0,0,0,0,0,0,0,0,0,0,0,0,0,0,0,0,0,0,0,0,0,0,0,0,0,0,0,0,0,0],"split_type":[0,0,0,0,0,0,0,0,0,0,0,0,0,0,0,0,0,0,0,0,0,0,0,0,0,0,0,0,0,0,0,0,0,0,0,0,0,0,0,0,0,0,0,0,0,0,0,0,0,0,0,0,0,0,0,0,0,0,0,0,0,0,0,0,0,0,0,0,0,0,0,0,0,0,0,0,0,0,0,0,0,0,0,0,0,0,0,0,0,0,0,0,0,0,0,0,0,0,0,0,0,0,0,0,0,0,0,0,0,0,0,0,0,0,0,0,0,0,0,0,0,0,0,0,0,0,0],"sum_hessian":[2.04321E5,1.73585E5,3.0736E4,1.22886E5,5.0699E4,2.3896E4,6.84E3,5.4229E4,6.8657E4,2.7456E4,2.3243E4,1.7878E4,6.018E3,5.011E3,1.829E3,2.6425E4,2.7804E4,5.021E4,1.8447E4,1.506E4,1.2396E4,9.34E3,1.3903E4,9.404E3,8.474E3,4.371E3,1.647E3,2.647E3,2.364E3,1.661E3,1.68E2,1.4474E4,1.1951E4,4.26E2,2.7378E4,2.6891E4,2.3319E4,1.8318E4,1.29E2,8.405E3,6.655E3,1.1312E4,1.084E3,8.885E3,4.55E2,2.28E2,1.3675E4,5.208E3,4.196E3,3.902E3,4.572E3,1.06E2,4.265E3,4.02E2,1.245E3,2.183E3,4.64E2,8.41E2,1.523E3,1.578E3,8.3E1,4E1,1.28E2,8.081E3,6.393E3,8.508E3,3.443E3,2.93E2,1.33E2,2.328E4,4.098E3,2.4155E4,2.736E3,1.9467E4,3.852E3,1.2344E4,5.974E3,7.9E1,5E1,8.094E3,3.11E2,4.069E3,2.586E3,9.525E3,1.787E3,4.8E1,1.036E3,8.548E3,3.37E2,2.73E2,1.82E2,2.5E1,2.03E2,9.196E3,4.479E3,2.934E3,2.274E3,3.884E3,3.12E2,2.774E3,1.128E3,2.54E3,2.032E3,1.4E1,9.2E1,2.313E3,1.952E3,3.9E1,3.63E2,6.88E2,5.57E2,8.2E1,2.101E3,1.3E1,4.51E2,9E1,7.51E2,1.248E3,2.75E2,1.147E3,4.31E2,3.1E1,5.2E1,1.4E1,2.6E1,1E2,2.8E1],"tree_param":{"num_deleted":"0","num_feature":"9","num_nodes":"127","size_leaf_vector":"1"}},{"base_weights":[-1.6080878E-4,-8.987808E-2,4.0177047E-1,-1.5109585E-1,2.4515634E-2,3.041859E-1,8.44754E-1,-1.8273267E-1,-1.01291984E-1,-1.7779171E-2,8.645932E-2,2.3419373E-1,4.5612475E-1,7.449608E-1,1.161894E0,-1.9880128E-1,-1.5728404E-1,-1.0368217E-1,3.7060518E-2,-1.9113598E-2,7.3860687E-1,7.7196896E-2,3.881149E-1,1.9708571E-1,3.081216E-1,1.7375948E-1,4.997997E-1,6.2995183E-1,8.5022527E-1,-2.396845E-1,1.1959268E0,-2.1242586E-1,-1.8947616E-1,-1.4733016E-1,-1.8561931E-1,-1.1162132E-1,-7.659905E-2,1.4092154E-2,4.3717322E-1,-5.97681E-2,-3.741554E-4,2.908435E-1,2.221038E0,5.192905E-2,1.1057272E-1,3.0455992E-1,8.3175045E-1,1.8973628E-1,4.6170783E-1,2.5176495E-1,3.79408E-1,4.5399416E-2,4.7084597E-1,4.1069815E-1,5.7065904E-1,5.7301867E-1,8.72124E-1,8.3714753E-1,1.712011E0,-5.268007E-1,6.4563245E-1,1.5816203E-1,1.2201464E0,-1.0782403E-2,-8.13871E-3,-9.188077E-3,-1.0664737E-2,-7.857812E-3,-5.6763105E-3,-1.0613294E-2,-8.962909E-3,-5.309246E-3,-6.975613E-3,-3.9989925E-3,2.2420536E-3,2.9402866E-3,-6.593699E-3,-8.627235E-3,3.7433427E-2,-1.3845763E-2,-2.8305692E-3,3.7379778E-4,-3.524885E-3,7.489462E-2,4.1371915E-3,1.2076358E-1,3.5187926E-2,7.1897134E-3,2.1082254E-3,4.0354026E-3,7.252872E-3,1.3870934E-2,6.047234E-2,2.6688173E-2,7.3177874E-2,3.1163914E-3,1.0019936E-2,1.5818866E-2,4.353718E-2,2.7418952E-3,1.358626E-2,1.4349162E-2,2.1658959E-2,-7.3415055E-3,6.8678344E-3,1.445464E-2,3.0795995E-2,1.9443998E-2,3.654657E-2,1.9181097E-2,3.0211369E-2,4.9205612E-2,2.778622E-2,3.6080357E-2,5.2572917E-2,6.780218E-2,4.1143686E-2,5.147744E-2,1.047826E-1,-3.115868E-2,1.2770844E-2,-4.7446997E-3,5.775662E-2,-5.4228522E-2,1.7083101E-2,5.297909E-2,6.970714E-2],"categories":[],"categories_nodes":[],"categories_segments":[],"categories_sizes":[],"default_left":[0,0,0,0,0,0,0,0,0,0,0,0,0,0,0,0,0,0,0,0,0,0,0,0,0,0,0,0,0,0,0,0,0,0,0,0,0,0,0,0,0,0,0,0,0,0,0,0,0,0,0,0,0,0,0,0,0,0,0,0,0,0,0,0,0,0,0,0,0,0,0,0,0,0,0,0,0,0,0,0,0,0,0,0,0,0,0,0,0,0,0,0,0,0,0,0,0,0,0,0,0,0,0,0,0,0,0,0,0,0,0,0,0,0,0,0,0,0,0,0,0,0,0,0,0,0,0],"id":12,"left_children":[1,3,5,7,9,11,13,15,17,19,21,23,25,27,29,31,33,35,37,39,41,43,45,47,49,51,53,55,57,59,61,63,65,67,69,71,73,75,77,79,81,83,85,87,89,91,93,95,97,99,101,103,105,107,109,111,113,115,117,119,121,123,125,-1,-1,-1,-1,-1,-1,-1,-1,-1,-1,-1,-1,-1,-1,-1,-1,-1,-1,-1,-1,-1,-1,-1,-1,-1,-1,-1,-1,-1,-1,-1,-1,-1,-1,-1,-1,-1,-1,-1,-1,-1,-1,-1,-1,-1,-1,-1,-1,-1,-1,-1,-1,-1,-1,-1,-1,-1,-1,-1,-1,-1,-1,-1,-1],"loss_changes":[7.3719985E3,1.170403E3,1.6124199E3,1.7151929E2,1.526419E2,3.250227E2,2.1225488E2,2.7193604E1,1.3989929E1,3.496054E1,6.602159E1,5.7365112E1,1.1880884E2,6.150952E1,7.708325E1,5.143921E0,7.241577E0,8.930969E0,6.601402E0,2.6331543E1,3.9844513E1,1.9337845E1,2.5842537E1,2.7023193E1,2.8002625E1,4.9285946E1,5.2478516E1,3.332129E1,2.8692139E1,1.0253483E1,3.9318115E1,2.616272E0,3.2593994E0,6.318756E0,1.0969238E0,4.859833E0,3.8743935E0,4.4524164E0,7.5362253E0,7.459404E0,1.3024276E1,1.1933008E1,2.426117E0,1.1705456E1,1.0165512E1,1.4252972E1,2.0116798E1,1.8415344E1,2.2075974E1,1.535025E1,1.5212433E1,1.6000088E1,1.0105316E1,2.5581299E1,2.8950806E1,1.3594055E1,1.1792969E1,1.8400635E1,8.053413E0,2.4207077E0,3.8825965E0,8.808087E0,4.143506E1,0E0,0E0,0E0,0E0,0E0,0E0,0E0,0E0,0E0,0E0,0E0,0E0,0E0,0E0,0E0,0E0,0E0,0E0,0E0,0E0,0E0,0E0,0E0,0E0,0E0,0E0,0E0,0E0,0E0,0E0,0E0,0E0,0E0,0E0,0E0,0E0,0E0,0E0,0E0,0E0,0E0,0E0,0E0,0E0,0E0,0E0,0E0,0E0,0E0,0E0,0E0,0E0,0E0,0E0,0E0,0E0,0E0,0E0,0E0,0E0,0E0,0E0,0E0,0E0],"parents":[2147483647,0,0,1,1,2,2,3,3,4,4,5,5,6,6,7,7,8,8,9,9,10,10,11,11,12,12,13,13,14,14,15,15,16,16,17,17,18,18,19,19,20,20,21,21,22,22,23,23,24,24,25,25,26,26,27,27,28,28,29,29,30,30,31,31,32,32,33,33,34,34,35,35,36,36,37,37,38,38,39,39,40,40,41,41,42,42,43,43,44,44,45,45,46,46,47,47,48,48,49,49,50,50,51,51,52,52,53,53,54,54,55,55,56,56,57,57,58,58,59,59,60,60,61,61,62,62],"right_children":[2,4,6,8,10,12,14,16,18,20,22,24,26,28,30,32,34,36,38,40,42,44,46,48,50,52,54,56,58,60,62,64,66,68,70,72,74,76,78,80,82,84,86,88,90,92,94,96,98,100,102,104,106,108,110,112,114,116,118,120,122,124,126,-1,-1,-1,-1,-1,-1,-1,-1,-1,-1,-1,-1,-1,-1,-1,-1,-1,-1,-1,-1,-1,-1,-1,-1,-1,-1,-1,-1,-1,-1,-1,-1,-1,-1,-1,-1,-1,-1,-1,-1,-1,-1,-1,-1,-1,-1,-1,-1,-1,-1,-1,-1,-1,-1,-1,-1,-1,-1,-1,-1,-1,-1,-1,-1],"split_conditions":[8.333333E-1,4E-1,1.8333334E0,2.2222222E-1,6E-1,1.28E0,2.52E0,1.3636364E-1,1E0,1.6666666E0,1.5E0,1.08E0,6.666667E-1,2.142857E0,1.25E0,4.347826E-2,1.305E3,3.3333334E-1,1.25E0,2.5E-1,2.9E1,8E-1,3.36E1,2E0,1E0,1E0,1.48E0,2.08E0,4.2E0,3E0,2.28E1,3.1E1,4E0,2.5E-1,1.377E3,4E0,6.25E-1,2.96E1,1.59E1,1E0,5E0,4.7619048E-1,5E0,1.5E2,1E0,2.5E0,2E0,2.5E-1,3.21E1,6.25E-1,2.33E1,2.5E-1,2.65E1,2.2E0,2.19E1,1.12E0,1E0,1E0,3.14E1,3.91E1,1.2E0,1.71E1,1E0,-1.0782403E-2,-8.13871E-3,-9.188077E-3,-1.0664737E-2,-7.857812E-3,-5.6763105E-3,-1.0613294E-2,-8.962909E-3,-5.309246E-3,-6.975613E-3,-3.9989925E-3,2.2420536E-3,2.9402866E-3,-6.593699E-3,-8.627235E-3,3.7433427E-2,-1.3845763E-2,-2.8305692E-3,3.7379778E-4,-3.524885E-3,7.489462E-2,4.1371915E-3,1.2076358E-1,3.5187926E-2,7.1897134E-3,2.1082254E-3,4.0354026E-3,7.252872E-3,1.3870934E-2,6.047234E-2,2.6688173E-2,7.3177874E-2,3.1163914E-3,1.0019936E-2,1.5818866E-2,4.353718E-2,2.7418952E-3,1.358626E-2,1.4349162E-2,2.1658959E-2,-7.3415055E-3,6.8678344E-3,1.445464E-2,3.0795995E-2,1.9443998E-2,3.654657E-2,1.9181097E-2,3.0211369E-2,4.9205612E-2,2.778622E-2,3.6080357E-2,5.2572917E-2,6.780218E-2,4.1143686E-2,5.147744E-2,1.047826E-1,-3.115868E-2,1.2770844E-2,-4.7446997E-3,5.775662E-2,-5.4228522E-2,1.7083101E-2,5.297909E-2,6.970714E-2],"split_indices":[8,8,7,8,8,8,8,8,6,6,6,8,6,7,6,8,0,8,6,6,5,6,5,6,3,3,8,8,6,4,5,5,4,6,0,4,7,5,5,4,4,8,4,0,3,6,6,6,5,7,5,6,5,6,5,8,3,4,5,5,6,5,3,0,0,0,0,0,0,0,0,0,0,0,0,0,0,0,0,0,0,0,0,0,0,0,0,0,0,0,0,0,0,0,0,0,0,0,0,0,0,0,0,0,0,0,0,0,0,0,0,0,0,0,0,0,0,0,0,0,0,0,0,0,0,0,0],"split_type":[0,0,0,0,0,0,0,0,0,0,0,0,0,0,0,0,0,0,0,0,0,0,0,0,0,0,0,0,0,0,0,0,0,0,0,0,0,0,0,0,0,0,0,0,0,0,0,0,0,0,0,0,0,0,0,0,0,0,0,0,0,0,0,0,0,0,0,0,0,0,0,0,0,0,0,0,0,0,0,0,0,0,0,0,0,0,0,0,0,0,0,0,0,0,0,0,0,0,0,0,0,0,0,0,0,0,0,0,0,0,0,0,0,0,0,0,0,0,0,0,0,0,0,0,0,0,0],"sum_hessian":[2.04434E5,1.67129E5,3.7305E4,1.08868E5,5.8261E4,3.0572E4,6.733E3,6.6575E4,4.2293E4,3.4622E4,2.3639E4,2.0932E4,9.64E3,5.124E3,1.609E3,4.0804E4,2.5771E4,4.1575E4,7.18E2,3.4562E4,6E1,2.2936E4,7.03E2,1.3939E4,6.993E3,1.292E3,8.348E3,2.452E3,2.672E3,3.8E1,1.571E3,1.6571E4,2.4233E4,1.9076E4,6.695E3,3.2148E4,9.427E3,6.8E2,3.8E1,1.0904E4,2.3658E4,4.7E1,1.3E1,1.3055E4,9.881E3,5.93E2,1.1E2,1.3564E4,3.75E2,3.908E3,3.085E3,9.03E2,3.89E2,3.701E3,4.647E3,1.988E3,4.64E2,2.634E3,3.8E1,2.9E1,9E0,3.6E1,1.535E3,1.5558E4,1.013E3,1.9551E4,4.682E3,1.4777E4,4.299E3,1.284E3,5.411E3,2.6908E4,5.24E3,9.172E3,2.55E2,5.21E2,1.59E2,1.3E1,2.5E1,1.55E2,1.0749E4,2.1277E4,2.381E3,6E0,4.1E1,1.1E1,2E0,1.253E3,1.1802E4,5.297E3,4.584E3,5.77E2,1.6E1,7.6E1,3.4E1,1.048E3,1.2516E4,2.78E2,9.7E1,3.6E2,3.548E3,1.137E3,1.948E3,2.92E2,6.11E2,1.74E2,2.15E2,3.467E3,2.34E2,7.09E2,3.938E3,7.8E1,1.91E3,2.55E2,2.09E2,6.8E1,2.566E3,1.5E1,2.3E1,2.6E1,3E0,4E0,5E0,4E0,3.2E1,8.02E2,7.33E2],"tree_param":{"num_deleted":"0","num_feature":"9","num_nodes":"127","size_leaf_vector":"1"}},{"base_weights":[-4.7739377E-4,-8.261219E-2,4.040668E-1,-1.3682356E-1,3.6922883E-2,3.0885166E-1,7.938007E-1,-1.7283614E-1,-8.906682E-2,-4.0168003E-3,9.724209E-2,2.4737053E-1,4.7078294E-1,6.383525E-1,1.012206E0,-1.8767087E-1,-1.4948504E-1,-9.075574E-2,2.0766565E-1,-6.5100202E-3,3.5340858E-1,9.278401E-2,5.9570587E-1,1.9984947E-1,3.0610642E-1,1.2121205E-1,5.1144624E-1,5.651264E-1,9.103349E-1,9.176655E-1,1.2687274E0,-1.8141848E-1,-2.0928454E-1,-1.5916401E-1,-1.297489E-1,-1.1106677E-1,-7.308146E-2,1.8339881E-1,1.8665617E0,-2.9239574E-2,1.9430516E-2,8.2514845E-2,9.053373E-1,6.3441485E-2,1.2373669E-1,-4.129271E-1,6.6602343E-1,1.9212201E-1,6.633325E-1,2.4551411E-1,3.8225663E-1,1.9450374E-2,2.6741552E-1,4.4150758E-1,6.00028E-1,5.890117E-1,2.3077069E-1,-7.3858425E-2,9.271259E-1,2.6962197E-1,9.35622E-1,1.3137313E0,4.303145E-1,-9.817335E-3,-8.608221E-3,-1.0577253E-2,-7.42259E-3,-8.116092E-3,-5.1840264E-3,-5.9973374E-3,-8.091913E-3,-5.853687E-3,-3.0577003E-3,-3.770098E-3,6.62605E-4,1.2057379E-2,-3.5334702E-3,1.0701865E-1,2.6128192E-2,-1.582905E-3,1.01225395E-2,6.6339583E-3,6.203986E-4,-5.2925455E-3,1.2418835E-2,7.485566E-2,2.793547E-2,8.37334E-3,2.6084974E-3,1.9780783E-2,5.9469617E-3,8.092123E-3,-2.660718E-2,2.6684618E-2,5.4090858E-2,5.608018E-3,1.1244798E-2,1.7675804E-1,2.9772593E-2,-2.2077665E-3,1.3104061E-2,9.747336E-3,2.004049E-2,3.0232629E-2,-2.568735E-4,1.7287588E-2,-1.4373026E-2,1.720096E-2,2.8912041E-2,1.696947E-2,3.2908715E-2,2.6311425E-2,3.4963068E-2,6.768744E-2,9.268931E-3,-2.4378536E-2,2.3430428E-2,8.433368E-2,4.5404714E-2,3.1402845E-2,-1.6458174E-2,4.1736584E-2,5.2400675E-2,4.688954E-2,7.066048E-2,1.940627E-3,5.4011513E-2],"categories":[],"categories_nodes":[],"categories_segments":[],"categories_sizes":[],"default_left":[0,0,0,0,0,0,0,0,0,0,0,0,0,0,0,0,0,0,0,0,0,0,0,0,0,0,0,0,0,0,0,0,0,0,0,0,0,0,0,0,0,0,0,0,0,0,0,0,0,0,0,0,0,0,0,0,0,0,0,0,0,0,0,0,0,0,0,0,0,0,0,0,0,0,0,0,0,0,0,0,0,0,0,0,0,0,0,0,0,0,0,0,0,0,0,0,0,0,0,0,0,0,0,0,0,0,0,0,0,0,0,0,0,0,0,0,0,0,0,0,0,0,0,0,0,0,0],"id":13,"left_children":[1,3,5,7,9,11,13,15,17,19,21,23,25,27,29,31,33,35,37,39,41,43,45,47,49,51,53,55,57,59,61,63,65,67,69,71,73,75,77,79,81,83,85,87,89,91,93,95,97,99,101,103,105,107,109,111,113,115,117,119,121,123,125,-1,-1,-1,-1,-1,-1,-1,-1,-1,-1,-1,-1,-1,-1,-1,-1,-1,-1,-1,-1,-1,-1,-1,-1,-1,-1,-1,-1,-1,-1,-1,-1,-1,-1,-1,-1,-1,-1,-1,-1,-1,-1,-1,-1,-1,-1,-1,-1,-1,-1,-1,-1,-1,-1,-1,-1,-1,-1,-1,-1,-1,-1,-1,-1],"loss_changes":[6.798375E3,1.1021053E3,1.2811138E3,2.0121997E2,1.3104419E2,2.761748E2,2.2950586E2,2.3079102E1,2.5229065E1,2.8173021E1,4.762175E1,5.6089233E1,1.0848157E2,7.841345E1,6.715283E1,5.473877E0,4.930542E0,1.7948181E1,1.1130682E1,1.8510998E1,3.2668865E1,1.9306564E1,1.3750687E1,3.9710114E1,4.1410156E1,1.1852492E1,4.2110718E1,2.4820984E1,1.393335E1,2.3742432E1,2.7960083E1,4.3375244E0,1.2261658E0,3.0293274E0,2.664917E0,6.9703674E0,5.3598175E0,4.154582E0,3.5352516E-1,9.382729E0,1.1658949E1,4.65021E0,1.3932621E1,1.2794067E1,1.3450104E1,9.769099E-1,9.216637E0,2.8650024E1,3.3374374E1,2.4064026E1,1.3767029E1,6.7802596E0,1.4313065E1,5.080133E1,4.5469482E1,1.981604E1,1.0453652E1,3.594859E0,1.0394165E1,1.24403925E1,2.1871704E1,2.5488892E1,1.0135806E1,0E0,0E0,0E0,0E0,0E0,0E0,0E0,0E0,0E0,0E0,0E0,0E0,0E0,0E0,0E0,0E0,0E0,0E0,0E0,0E0,0E0,0E0,0E0,0E0,0E0,0E0,0E0,0E0,0E0,0E0,0E0,0E0,0E0,0E0,0E0,0E0,0E0,0E0,0E0,0E0,0E0,0E0,0E0,0E0,0E0,0E0,0E0,0E0,0E0,0E0,0E0,0E0,0E0,0E0,0E0,0E0,0E0,0E0,0E0,0E0,0E0,0E0,0E0,0E0],"parents":[2147483647,0,0,1,1,2,2,3,3,4,4,5,5,6,6,7,7,8,8,9,9,10,10,11,11,12,12,13,13,14,14,15,15,16,16,17,17,18,18,19,19,20,20,21,21,22,22,23,23,24,24,25,25,26,26,27,27,28,28,29,29,30,30,31,31,32,32,33,33,34,34,35,35,36,36,37,37,38,38,39,39,40,40,41,41,42,42,43,43,44,44,45,45,46,46,47,47,48,48,49,49,50,50,51,51,52,52,53,53,54,54,55,55,56,56,57,57,58,58,59,59,60,60,61,61,62,62],"right_children":[2,4,6,8,10,12,14,16,18,20,22,24,26,28,30,32,34,36,38,40,42,44,46,48,50,52,54,56,58,60,62,64,66,68,70,72,74,76,78,80,82,84,86,88,90,92,94,96,98,100,102,104,106,108,110,112,114,116,118,120,122,124,126,-1,-1,-1,-1,-1,-1,-1,-1,-1,-1,-1,-1,-1,-1,-1,-1,-1,-1,-1,-1,-1,-1,-1,-1,-1,-1,-1,-1,-1,-1,-1,-1,-1,-1,-1,-1,-1,-1,-1,-1,-1,-1,-1,-1,-1,-1,-1,-1,-1,-1,-1,-1,-1,-1,-1,-1,-1,-1,-1,-1,-1,-1,-1,-1],"split_conditions":[8.8E-1,4.2857143E-1,1.9E0,2.2222222E-1,6.4E-1,1.36E0,2.2E0,1.3636364E-1,1.2E0,1.5E0,2E0,1.08E0,1E0,2.6666667E0,3.1E0,4E0,2.58E1,3.2E-1,1.6666666E0,6E-1,2.85E1,8E-1,1.3E1,2.2E0,1E0,6.666667E-1,1E0,6E0,1.68E1,2.26E1,8E0,4.347826E-2,2.5E-1,5E-1,1.345E3,3.32E1,1E0,2.94E1,1.19E2,3.82E1,1.29E2,6.78E2,5.6E-1,1.5E2,1E0,4.95E2,3.25E1,2.07E1,1E0,5.555556E-1,1.55E1,8.7E1,1.8E0,1.6E0,2.21E1,1.88E0,1.2E0,1E0,1.08E0,2.52E0,1E0,4.01E2,1E0,-9.817335E-3,-8.608221E-3,-1.0577253E-2,-7.42259E-3,-8.116092E-3,-5.1840264E-3,-5.9973374E-3,-8.091913E-3,-5.853687E-3,-3.0577003E-3,-3.770098E-3,6.62605E-4,1.2057379E-2,-3.5334702E-3,1.0701865E-1,2.6128192E-2,-1.582905E-3,1.01225395E-2,6.6339583E-3,6.203986E-4,-5.2925455E-3,1.2418835E-2,7.485566E-2,2.793547E-2,8.37334E-3,2.6084974E-3,1.9780783E-2,5.9469617E-3,8.092123E-3,-2.660718E-2,2.6684618E-2,5.4090858E-2,5.608018E-3,1.1244798E-2,1.7675804E-1,2.9772593E-2,-2.2077665E-3,1.3104061E-2,9.747336E-3,2.004049E-2,3.0232629E-2,-2.568735E-4,1.7287588E-2,-1.4373026E-2,1.720096E-2,2.8912041E-2,1.696947E-2,3.2908715E-2,2.6311425E-2,3.4963068E-2,6.768744E-2,9.268931E-3,-2.4378536E-2,2.3430428E-2,8.433368E-2,4.5404714E-2,3.1402845E-2,-1.6458174E-2,4.1736584E-2,5.2400675E-2,4.688954E-2,7.066048E-2,1.940627E-3,5.4011513E-2],"split_indices":[8,8,7,8,8,8,8,8,6,6,6,8,7,6,7,4,5,8,6,6,5,6,5,6,3,6,3,