{"learner":{"attributes":{"scikit_learn":"{\"_estimator_type\": \"regressor\"}"},"feature_names":[],"feature_types":[],"gradient_booster":{"model":{"cats":{"enc":[],"feature_segments":[],"sorted_idx":[]},"gbtree_model_param":{"num_parallel_tree":"1","num_trees":"300"},"iteration_indptr":[0,1,2,3,4,5,6,7,8,9,10,11,12,13,14,15,16,17,18,19,20,21,22,23,24,25,26,27,28,29,30,31,32,33,34,35,36,37,38,39,40,41,42,43,44,45,46,47,48,49,50,51,52,53,54,55,56,57,58,59,60,61,62,63,64,65,66,67,68,69,70,71,72,73,74,75,76,77,78,79,80,81,82,83,84,85,86,87,88,89,90,91,92,93,94,95,96,97,98,99,100,101,102,103,104,105,106,107,108,109,110,111,112,113,114,115,116,117,118,119,120,121,122,123,124,125,126,127,128,129,130,131,132,133,134,135,136,137,138,139,140,141,142,143,144,145,146,147,148,149,150,151,152,153,154,155,156,157,158,159,160,161,162,163,164,165,166,167,168,169,170,171,172,173,174,175,176,177,178,179,180,181,182,183,184,185,186,187,188,189,190,191,192,193,194,195,196,197,198,199,200,201,202,203,204,205,206,207,208,209,210,211,212,213,214,215,216,217,218,219,220,221,222,223,224,225,226,227,228,229,230,231,232,233,234,235,236,237,238,239,240,241,242,243,244,245,246,247,248,249,250,251,252,253,254,255,256,257,258,259,260,261,262,263,264,265,266,267,268,269,270,271,272,273,274,275,276,277,278,279,280,281,282,283,284,285,286,287,288,289,290,291,292,293,294,295,296,297,298,299,300],"tree_info":[0,0,0,0,0,0,0,0,0,0,0,0,0,0,0,0,0,0,0,0,0,0,0,0,0,0,0,0,0,0,0,0,0,0,0,0,0,0,0,0,0,0,0,0,0,0,0,0,0,0,0,0,0,0,0,0,0,0,0,0,0,0,0,0,0,0,0,0,0,0,0,0,0,0,0,0,0,0,0,0,0,0,0,0,0,0,0,0,0,0,0,0,0,0,0,0,0,0,0,0,0,0,0,0,0,0,0,0,0,0,0,0,0,0,0,0,0,0,0,0,0,0,0,0,0,0,0,0,0,0,0,0,0,0,0,0,0,0,0,0,0,0,0,0,0,0,0,0,0,0,0,0,0,0,0,0,0,0,0,0,0,0,0,0,0,0,0,0,0,0,0,0,0,0,0,0,0,0,0,0,0,0,0,0,0,0,0,0,0,0,0,0,0,0,0,0,0,0,0,0,0,0,0,0,0,0,0,0,0,0,0,0,0,0,0,0,0,0,0,0,0,0,0,0,0,0,0,0,0,0,0,0,0,0,0,0,0,0,0,0,0,0,0,0,0,0,0,0,0,0,0,0,0,0,0,0,0,0,0,0,0,0,0,0,0,0,0,0,0,0,0,0,0,0,0,0,0,0,0,0,0,0,0,0,0,0,0,0,0,0,0,0,0,0,0,0,0,0,0,0],"trees":[{"base_weights":[1.4381375E-2,-2.9993787E0,8.514255E0,-5.3147764E0,-3.1515396E-1,5.738478E0,1.3771721E1,-6.8088017E0,-4.2635107E0,-1.4525536E0,1.3451825E0,4.0952835E0,7.3594227E0,1.1452102E1,1.6319891E1,-7.540985E0,-6.2489514E0,-5.019141E0,-3.6581235E0,-2.1980588E0,-5.4459184E-1,7.296073E-1,2.46857E0,3.194553E0,4.918848E0,6.575424E0,8.731312E0,1.065478E1,1.2555061E1,1.5374036E1,1.885316E1,-7.9127545E0,-6.938964E0,-5.9351563E0,-7.086757E0,-5.4595914E0,-4.2868476E0,-4.123716E0,-2.974114E0,-3.0583746E0,-1.7441654E0,-1.6798385E0,-3.186002E-1,-7.3405206E-2,1.3345028E0,1.9595574E0,3.7112217E0,2.2980437E0,3.6699865E0,4.568954E0,5.979572E0,5.6528187E0,7.1931343E0,8.118608E0,9.534306E0,8.38664E0,1.0816705E1,1.169298E1,1.3411798E1,1.4673689E1,1.638364E1,1.8060568E1,2.0642736E1,-3.813055E-1,-4.1137725E-1,-3.293297E-1,-3.6425224E-1,-3.162684E-1,-2.7803293E-1,-3.7030068E-1,-3.216976E-1,-2.6176175E-1,-3.1641763E-1,-2.567075E-1,-2.0245026E-1,-1.9814533E-1,-2.7535915E-1,-1.5919141E-1,-1.0649117E-1,-1.7403783E-1,-1.190832E-1,-9.993632E-2,-4.0736593E-2,-1.4495058E-1,-7.483621E-2,-3.1693574E-2,1.7645147E-2,-2.8584732E-2,3.334511E-2,4.232922E-2,8.864677E-2,4.202971E-2,1.0925659E-1,1.68493E-1,2.6061407E-1,-1.637071E-1,1.1759625E-1,1.5589523E-1,2.1220875E-1,2.057799E-1,2.5529712E-1,2.61549E-1,3.2979974E-1,1.627299E-1,2.8882405E-1,3.4033015E-1,4.069863E-1,3.557702E-1,4.2481008E-1,4.4436693E-1,5.011264E-1,1.4809091E-1,4.2933002E-1,5.253816E-1,5.787977E-1,5.4565835E-1,6.149065E-1,6.572635E-1,7.3451275E-1,7.11971E-1,7.79782E-1,7.412946E-1,8.3179253E-1,8.7558854E-1,9.542474E-1,4.8987013E-1,1.0405644E0],"categories":[],"categories_nodes":[],"categories_segments":[],"categories_sizes":[],"default_left":[0,0,0,0,0,0,0,0,0,0,0,0,0,0,0,0,0,0,0,0,0,0,0,0,0,0,0,0,0,0,0,0,0,0,0,0,0,0,0,0,0,0,0,0,0,0,0,0,0,0,0,0,0,0,0,0,0,0,0,0,0,0,0,0,0,0,0,0,0,0,0,0,0,0,0,0,0,0,0,0,0,0,0,0,0,0,0,0,0,0,0,0,0,0,0,0,0,0,0,0,0,0,0,0,0,0,0,0,0,0,0,0,0,0,0,0,0,0,0,0,0,0,0,0,0,0,0],"id":0,"left_children":[1,3,5,7,9,11,13,15,17,19,21,23,25,27,29,31,33,35,37,39,41,43,45,47,49,51,53,55,57,59,61,63,65,67,69,71,73,75,77,79,81,83,85,87,89,91,93,95,97,99,101,103,105,107,109,111,113,115,117,119,121,123,125,-1,-1,-1,-1,-1,-1,-1,-1,-1,-1,-1,-1,-1,-1,-1,-1,-1,-1,-1,-1,-1,-1,-1,-1,-1,-1,-1,-1,-1,-1,-1,-1,-1,-1,-1,-1,-1,-1,-1,-1,-1,-1,-1,-1,-1,-1,-1,-1,-1,-1,-1,-1,-1,-1,-1,-1,-1,-1,-1,-1,-1,-1,-1,-1],"loss_changes":[5.23193E6,9.37097E5,7.8010675E5,1.27114E5,1.3187166E5,9.3166625E4,1.08997E5,1.3657375E4,2.1719125E4,2.804982E4,1.9630031E4,1.28754375E4,1.8886438E4,8.372875E3,2.0796E4,3.1864375E3,4.9404375E3,6.793125E3,8.390875E3,8.8806875E3,4.7934746E3,8.90903E3,6.3489766E3,3.5305703E3,3.3411562E3,6.3490938E3,3.072375E3,1.97375E3,2.836625E3,4.294E3,3.0143125E3,7.444375E2,6.2725E2,1.9805938E3,1.0275312E3,2.5383438E3,1.5797188E3,3.4703438E3,1.8859844E3,2.2377656E3,3.5234336E3,6.8817676E2,3.2996558E3,2.907582E3,2.2363105E3,1.7980977E3,1.4781445E3,8.723799E2,1.7061641E3,1.6414844E3,1.00283594E3,1.3160625E3,2.4004062E3,1.317625E3,7.842969E2,3.8568945E2,1.1086875E3,8.228125E2,4.9725E2,1.2976875E3,7.819375E2,6.0075E2,1.1232188E3,0E0,0E0,0E0,0E0,0E0,0E0,0E0,0E0,0E0,0E0,0E0,0E0,0E0,0E0,0E0,0E0,0E0,0E0,0E0,0E0,0E0,0E0,0E0,0E0,0E0,0E0,0E0,0E0,0E0,0E0,0E0,0E0,0E0,0E0,0E0,0E0,0E0,0E0,0E0,0E0,0E0,0E0,0E0,0E0,0E0,0E0,0E0,0E0,0E0,0E0,0E0,0E0,0E0,0E0,0E0,0E0,0E0,0E0,0E0,0E0,0E0,0E0,0E0,0E0],"parents":[2147483647,0,0,1,1,2,2,3,3,4,4,5,5,6,6,7,7,8,8,9,9,10,10,11,11,12,12,13,13,14,14,15,15,16,16,17,17,18,18,19,19,20,20,21,21,22,22,23,23,24,24,25,25,26,26,27,27,28,28,29,29,30,30,31,31,32,32,33,33,34,34,35,35,36,36,37,37,38,38,39,39,40,40,41,41,42,42,43,43,44,44,45,45,46,46,47,47,48,48,49,49,50,50,51,51,52,52,53,53,54,54,55,55,56,56,57,57,58,58,59,59,60,60,61,61,62,62],"right_children":[2,4,6,8,10,12,14,16,18,20,22,24,26,28,30,32,34,36,38,40,42,44,46,48,50,52,54,56,58,60,62,64,66,68,70,72,74,76,78,80,82,84,86,88,90,92,94,96,98,100,102,104,106,108,110,112,114,116,118,120,122,124,126,-1,-1,-1,-1,-1,-1,-1,-1,-1,-1,-1,-1,-1,-1,-1,-1,-1,-1,-1,-1,-1,-1,-1,-1,-1,-1,-1,-1,-1,-1,-1,-1,-1,-1,-1,-1,-1,-1,-1,-1,-1,-1,-1,-1,-1,-1,-1,-1,-1,-1,-1,-1,-1,-1,-1,-1,-1,-1,-1,-1,-1,-1,-1,-1],"split_conditions":[1.356E1,7.5E0,2.044E1,4.2E0,1.08E1,1.62E1,2.436E1,2.4E0,5.6E0,9.12E0,1.3E1,1.46E1,1.86E1,2.248E1,2.93E1,3E0,4E0,6.2E0,6.64E0,8E0,7.4E0,1.092E1,1.58E1,1.18E1,1.84E1,1.66E1,2E1,1.81E1,2.34E1,2.66E1,3.1E1,4E0,3E0,3.7E0,4.04E0,4E0,3.6E0,5E0,8.72E0,8E0,1.12E1,5.2E0,1.084E1,1.24E1,1.18E1,1.092E1,1.63E1,8E0,1.464E1,1.504E1,1.71E1,1.08E1,1.93E1,1.62E1,6.47E2,1.49E1,2.27E1,2.316E1,2.84E1,2.7E1,2.34E1,1.03E3,2.58E1,-3.813055E-1,-4.1137725E-1,-3.293297E-1,-3.6425224E-1,-3.162684E-1,-2.7803293E-1,-3.7030068E-1,-3.216976E-1,-2.6176175E-1,-3.1641763E-1,-2.567075E-1,-2.0245026E-1,-1.9814533E-1,-2.7535915E-1,-1.5919141E-1,-1.0649117E-1,-1.7403783E-1,-1.190832E-1,-9.993632E-2,-4.0736593E-2,-1.4495058E-1,-7.483621E-2,-3.1693574E-2,1.7645147E-2,-2.8584732E-2,3.334511E-2,4.232922E-2,8.864677E-2,4.202971E-2,1.0925659E-1,1.68493E-1,2.6061407E-1,-1.637071E-1,1.1759625E-1,1.5589523E-1,2.1220875E-1,2.057799E-1,2.5529712E-1,2.61549E-1,3.2979974E-1,1.627299E-1,2.8882405E-1,3.4033015E-1,4.069863E-1,3.557702E-1,4.2481008E-1,4.4436693E-1,5.011264E-1,1.4809091E-1,4.2933002E-1,5.253816E-1,5.787977E-1,5.4565835E-1,6.149065E-1,6.572635E-1,7.3451275E-1,7.11971E-1,7.79782E-1,7.412946E-1,8.3179253E-1,8.7558854E-1,9.542474E-1,4.8987013E-1,1.0405644E0],"split_indices":[8,7,8,7,7,8,8,6,6,8,7,6,8,8,7,8,4,8,8,6,6,8,6,6,6,6,6,7,6,8,8,4,4,8,8,4,6,4,8,8,6,6,8,6,6,8,7,7,8,8,7,6,7,6,0,7,7,8,6,6,6,0,6,0,0,0,0,0,0,0,0,0,0,0,0,0,0,0,0,0,0,0,0,0,0,0,0,0,0,0,0,0,0,0,0,0,0,0,0,0,0,0,0,0,0,0,0,0,0,0,0,0,0,0,0,0,0,0,0,0,0,0,0,0,0,0,0],"split_type":[0,0,0,0,0,0,0,0,0,0,0,0,0,0,0,0,0,0,0,0,0,0,0,0,0,0,0,0,0,0,0,0,0,0,0,0,0,0,0,0,0,0,0,0,0,0,0,0,0,0,0,0,0,0,0,0,0,0,0,0,0,0,0,0,0,0,0,0,0,0,0,0,0,0,0,0,0,0,0,0,0,0,0,0,0,0,0,0,0,0,0,0,0,0,0,0,0,0,0,0,0,0,0,0,0,0,0,0,0,0,0,0,0,0,0,0,0,0,0,0,0,0,0,0,0,0,0],"sum_hessian":[2.04238E5,1.50778E5,5.346E4,8.095E4,6.9828E4,3.4989E4,1.8471E4,3.3432E4,4.7518E4,4.144E4,2.8388E4,1.7377E4,1.7612E4,9.672E3,8.799E3,1.4481E4,1.8951E4,2.1133E4,2.6385E4,2.2755E4,1.8685E4,1.834E4,1.0048E4,8.302E3,9.075E3,1.1211E4,6.401E3,5.62E3,4.052E3,6.412E3,2.387E3,8.945E3,5.536E3,1.3793E4,5.158E3,1.3192E4,7.941E3,1.5696E4,1.0689E4,7.857E3,1.4898E4,3.101E3,1.5584E4,7.88E3,1.046E4,7.13E3,2.918E3,2.879E3,5.423E3,6.828E3,2.247E3,4.5E3,6.711E3,3.637E3,2.764E3,3.78E2,5.242E3,2.027E3,2.025E3,3.795E3,2.617E3,1.662E3,7.25E2,4.695E3,4.25E3,2.753E3,2.783E3,6.747E3,7.046E3,3.457E3,1.701E3,1.049E4,2.702E3,1.736E3,6.205E3,1.4065E4,1.631E3,8.56E3,2.129E3,4.835E3,3.022E3,1.1694E4,3.204E3,4.03E2,2.698E3,1.0605E4,4.979E3,4.71E3,3.17E3,4.952E3,5.508E3,1.197E3,5.933E3,2.38E3,5.38E2,2.7E1,2.852E3,2.768E3,2.655E3,3.707E3,3.121E3,1.019E3,1.228E3,2.22E2,4.278E3,4.771E3,1.94E3,1E3,2.637E3,1.197E3,1.567E3,1.4E1,3.64E2,3.736E3,1.506E3,8.94E2,1.133E3,1.685E3,3.4E2,2.591E3,1.204E3,3.73E2,2.244E3,1.094E3,5.68E2,1.2E1,7.13E2],"tree_param":{"num_deleted":"0","num_feature":"9","num_nodes":"127","size_leaf_vector":"1"}},{"base_weights":[-1.4739629E-2,-2.9602537E0,7.706821E0,-5.0731726E0,-3.9697123E-1,5.0093036E0,1.2602689E1,-6.443056E0,-4.0375166E0,-1.4924498E0,1.0112311E0,3.762559E0,6.9693418E0,1.0743035E1,1.5410517E1,-7.1711736E0,-5.91586E0,-4.782754E0,-3.4661105E0,-2.0668886E0,-8.080683E-1,2.639777E-1,1.5972933E0,3.1346915E0,4.6511965E0,6.327753E0,7.9662504E0,9.828475E0,1.21036825E1,1.4689639E1,1.8327684E1,-7.558839E0,-6.757979E0,-5.6028414E0,-6.750394E0,-5.155591E0,-4.288357E0,-3.936743E0,-3.0877342E0,-3.3647256E0,-1.9062767E0,-1.18009E0,-2.5359216E-1,-7.927787E-1,4.5508444E-1,1.3297163E0,2.3055694E0,1.9487659E0,3.2896602E0,2.022526E0,4.748766E0,5.367113E0,6.5373836E0,7.3925247E0,8.623428E0,9.117286E0,1.0222942E1,1.1563167E1,1.2672181E1,1.3681707E1,1.528852E1,1.8597654E1,1.3111973E1,-3.884236E-1,-3.6348513E-1,-3.2007432E-1,-3.5546887E-1,-3.0019125E-1,-2.6691148E-1,-3.5091445E-1,-3.2068792E-1,-2.4758399E-1,-2.972606E-1,-2.5289175E-1,-2.0094912E-1,-1.9052444E-1,-2.5005588E-1,-1.4646934E-1,-2.0622137E-1,-2.7819407E-1,-1.6124544E-1,-8.863035E-2,-1.4525524E-1,-1.1473455E-1,-5.183333E-2,-6.944861E-3,-1.111204E-1,-3.3680297E-2,-1.14321105E-1,2.6862431E-2,-4.259143E-2,1.3652943E-2,7.2569005E-2,1.1909461E-1,6.3264766E-3,3.4660425E-2,1.1122544E-1,1.4346969E-1,1.815809E-1,-3.6679436E-3,1.2823534E-1,2.125577E-1,2.541417E-1,2.7342448E-1,-1.6393278E-2,3.3155453E-1,2.520176E-1,3.6163E-1,4.3538728E-1,5.921031E-1,4.2590085E-1,4.5969272E-1,3.0048454E-1,3.149954E-1,5.1283026E-1,5.828779E-1,4.8788834E-1,6.434574E-1,5.73318E-1,5.848535E-1,6.987703E-1,7.233078E-1,7.8639066E-1,9.3755037E-1,7.340082E-1,3.474898E-1,6.941E-1],"categories":[],"categories_nodes":[],"categories_segments":[],"categories_sizes":[],"default_left":[0,0,0,0,0,0,0,0,0,0,0,0,0,0,0,0,0,0,0,0,0,0,0,0,0,0,0,0,0,0,0,0,0,0,0,0,0,0,0,0,0,0,0,0,0,0,0,0,0,0,0,0,0,0,0,0,0,0,0,0,0,0,0,0,0,0,0,0,0,0,0,0,0,0,0,0,0,0,0,0,0,0,0,0,0,0,0,0,0,0,0,0,0,0,0,0,0,0,0,0,0,0,0,0,0,0,0,0,0,0,0,0,0,0,0,0,0,0,0,0,0,0,0,0,0,0,0],"id":1,"left_children":[1,3,5,7,9,11,13,15,17,19,21,23,25,27,29,31,33,35,37,39,41,43,45,47,49,51,53,55,57,59,61,63,65,67,69,71,73,75,77,79,81,83,85,87,89,91,93,95,97,99,101,103,105,107,109,111,113,115,117,119,121,123,125,-1,-1,-1,-1,-1,-1,-1,-1,-1,-1,-1,-1,-1,-1,-1,-1,-1,-1,-1,-1,-1,-1,-1,-1,-1,-1,-1,-1,-1,-1,-1,-1,-1,-1,-1,-1,-1,-1,-1,-1,-1,-1,-1,-1,-1,-1,-1,-1,-1,-1,-1,-1,-1,-1,-1,-1,-1,-1,-1,-1,-1,-1,-1,-1],"loss_changes":[4.644727E6,8.006304E5,7.446755E5,1.1493625E5,1.0304472E5,8.882556E4,1.04433E5,1.3348625E4,1.9634812E4,1.4768422E4,1.2799164E4,1.23863125E4,8.9904375E3,1.4881E4,1.6510125E4,2.2949375E3,5.249375E3,3.6690625E3,4.6399062E3,4.2511406E3,3.5365283E3,2.5950564E3,3.101246E3,2.3877031E3,2.35E3,1.6977812E3,2.0216562E3,1.930625E3,1.3410625E3,3.655875E3,1.9766875E3,4.010625E2,8.4375E2,1.5303438E3,4.524375E2,1.807875E3,1.7653594E3,1.5450156E3,2.3659062E3,6.732715E2,2.4218516E3,1.6379443E3,1.5546414E3,3.4876697E2,1.1688748E3,1.5282754E3,7.464297E2,5.205449E2,1.6451641E3,3.7631946E2,1.4529219E3,8.949336E2,9.568125E2,5.596094E2,7.717656E2,5.5934375E2,5.4709375E2,3.1109375E2,4.1034375E2,1.2330938E3,1.220375E3,6.240625E2,2.8787207E2,0E0,0E0,0E0,0E0,0E0,0E0,0E0,0E0,0E0,0E0,0E0,0E0,0E0,0E0,0E0,0E0,0E0,0E0,0E0,0E0,0E0,0E0,0E0,0E0,0E0,0E0,0E0,0E0,0E0,0E0,0E0,0E0,0E0,0E0,0E0,0E0,0E0,0E0,0E0,0E0,0E0,0E0,0E0,0E0,0E0,0E0,0E0,0E0,0E0,0E0,0E0,0E0,0E0,0E0,0E0,0E0,0E0,0E0,0E0,0E0,0E0,0E0,0E0,0E0],"parents":[2147483647,0,0,1,1,2,2,3,3,4,4,5,5,6,6,7,7,8,8,9,9,10,10,11,11,12,12,13,13,14,14,15,15,16,16,17,17,18,18,19,19,20,20,21,21,22,22,23,23,24,24,25,25,26,26,27,27,28,28,29,29,30,30,31,31,32,32,33,33,34,34,35,35,36,36,37,37,38,38,39,39,40,40,41,41,42,42,43,43,44,44,45,45,46,46,47,47,48,48,49,49,50,50,51,51,52,52,53,53,54,54,55,55,56,56,57,57,58,58,59,59,60,60,61,61,62,62],"right_children":[2,4,6,8,10,12,14,16,18,20,22,24,26,28,30,32,34,36,38,40,42,44,46,48,50,52,54,56,58,60,62,64,66,68,70,72,74,76,78,80,82,84,86,88,90,92,94,96,98,100,102,104,106,108,110,112,114,116,118,120,122,124,126,-1,-1,-1,-1,-1,-1,-1,-1,-1,-1,-1,-1,-1,-1,-1,-1,-1,-1,-1,-1,-1,-1,-1,-1,-1,-1,-1,-1,-1,-1,-1,-1,-1,-1,-1,-1,-1,-1,-1,-1,-1,-1,-1,-1,-1,-1,-1,-1,-1,-1,-1,-1,-1,-1,-1,-1,-1,-1,-1,-1,-1,-1,-1,-1],"split_conditions":[1.34E1,7.5E0,2.02E1,4.3E0,1.04E1,1.68E1,2.5E1,2.4E0,5.6E0,9E0,1.16E1,1.52E1,1.87E1,2.27E1,3.05E1,2E0,4E0,5.5E0,6.2E0,6E0,1.02E1,9E0,1.38E1,1.16E1,1.18E1,1.56E1,1.96E1,2.1E1,2.38E1,2.65E1,8E0,1.4E0,3E0,3.4E0,3.6E0,4E0,4E0,5E0,4E0,3.4E0,4E0,6.8E0,6E0,6E0,6E0,9.4E0,9E0,9.6E0,1.42E1,1.02E1,1.56E1,1.632E3,6E0,2.9E1,1E0,1E1,7.7E1,8E0,2.8E1,2.82E2,2.7E1,1.486E3,2.76E1,-3.884236E-1,-3.6348513E-1,-3.2007432E-1,-3.5546887E-1,-3.0019125E-1,-2.6691148E-1,-3.5091445E-1,-3.2068792E-1,-2.4758399E-1,-2.972606E-1,-2.5289175E-1,-2.0094912E-1,-1.9052444E-1,-2.5005588E-1,-1.4646934E-1,-2.0622137E-1,-2.7819407E-1,-1.6124544E-1,-8.863035E-2,-1.4525524E-1,-1.1473455E-1,-5.183333E-2,-6.944861E-3,-1.111204E-1,-3.3680297E-2,-1.14321105E-1,2.6862431E-2,-4.259143E-2,1.3652943E-2,7.2569005E-2,1.1909461E-1,6.3264766E-3,3.4660425E-2,1.1122544E-1,1.4346969E-1,1.815809E-1,-3.6679436E-3,1.2823534E-1,2.125577E-1,2.541417E-1,2.7342448E-1,-1.6393278E-2,3.3155453E-1,2.520176E-1,3.6163E-1,4.3538728E-1,5.921031E-1,4.2590085E-1,4.5969272E-1,3.0048454E-1,3.149954E-1,5.1283026E-1,5.828779E-1,4.8788834E-1,6.434574E-1,5.73318E-1,5.848535E-1,6.987703E-1,7.233078E-1,7.8639066E-1,9.3755037E-1,7.340082E-1,3.474898E-1,6.941E-1],"split_indices":[7,7,7,7,7,7,7,6,6,7,7,7,7,7,7,7,4,7,7,6,6,6,6,6,6,6,6,7,7,7,4,7,4,6,6,4,6,4,4,6,4,6,4,4,4,6,4,6,7,6,6,0,4,1,4,4,0,4,1,0,6,0,6,0,0,0,0,0,0,0,0,0,0,0,0,0,0,0,0,0,0,0,0,0,0,0,0,0,0,0,0,0,0,0,0,0,0,0,0,0,0,0,0,0,0,0,0,0,0,0,0,0,0,0,0,0,0,0,0,0,0,0,0,0,0,0,0],"split_type":[0,0,0,0,0,0,0,0,0,0,0,0,0,0,0,0,0,0,0,0,0,0,0,0,0,0,0,0,0,0,0,0,0,0,0,0,0,0,0,0,0,0,0,0,0,0,0,0,0,0,0,0,0,0,0,0,0,0,0,0,0,0,0,0,0,0,0,0,0,0,0,0,0,0,0,0,0,0,0,0,0,0,0,0,0,0,0,0,0,0,0,0,0,0,0,0,0,0,0,0,0,0,0,0,0,0,0,0,0,0,0,0,0,0,0,0,0,0,0,0,0,0,0,0,0,0,0],"sum_hessian":[2.04216E5,1.47826E5,5.639E4,8.1031E4,6.6795E4,3.6359E4,2.0031E4,3.4884E4,4.6147E4,3.7569E4,2.9226E4,2.2225E4,1.4134E4,1.2053E4,7.978E3,1.4645E4,2.0239E4,2.0024E4,2.6123E4,2.0424E4,1.7145E4,1.2847E4,1.6379E4,1.3026E4,9.199E3,8.604E3,5.53E3,7.213E3,4.84E3,6.402E3,1.576E3,7.547E3,7.098E3,1.4724E4,5.515E3,1.141E4,8.614E3,1.1638E4,1.4485E4,2.247E3,1.8177E4,1.026E4,6.885E3,1.967E3,1.088E4,1.189E4,4.489E3,1.507E3,1.1519E4,3.3E2,8.869E3,1.546E3,7.058E3,2.959E3,2.571E3,2.582E3,4.631E3,2.492E3,2.348E3,2.395E3,4.007E3,1.496E3,8E1,4.36E3,3.187E3,3.533E3,3.565E3,5.845E3,8.879E3,3.06E3,2.455E3,9.074E3,2.336E3,2.229E3,6.385E3,1.0408E4,1.23E3,1.2569E4,1.916E3,1.32E2,2.115E3,1.6034E4,2.143E3,1.168E3,9.092E3,6.507E3,3.78E2,1.823E3,1.44E2,1.0237E4,6.43E2,1.228E3,1.0662E4,4.337E3,1.52E2,2.72E2,1.235E3,5.172E3,6.347E3,6.8E1,2.62E2,3.568E3,5.301E3,1.519E3,2.7E1,6.639E3,4.19E2,2.644E3,3.15E2,7.8E1,2.493E3,2.518E3,6.4E1,4.1E1,4.59E3,2.363E3,1.29E2,2.01E3,3.38E2,3.14E2,2.081E3,1.407E3,2.6E3,1.436E3,6E1,1E1,7E1],"tree_param":{"num_deleted":"0","num_feature":"9","num_nodes":"127","size_leaf_vector":"1"}},{"base_weights":[-5.5069765E-3,-2.7221475E0,7.682928E0,-4.8666596E0,-4.7902483E-1,5.1507115E0,1.2477452E1,-5.9344687E0,-3.6906374E0,-1.7367951E0,9.8889905E-1,3.9395778E0,6.899351E0,1.0585268E1,1.4964562E1,-6.6023464E0,-5.130508E0,-4.153014E0,-2.5841894E0,-2.4956198E0,-9.5931727E-1,3.4621784E-1,1.885959E0,2.9766612E0,4.619342E0,6.1134043E0,7.8791203E0,9.560076E0,1.1454449E1,1.4278463E1,1.7706017E1,-7.038693E0,-6.0940895E0,-4.9043565E0,-5.938015E0,-4.827631E0,-3.7083194E0,-3.661353E0,-2.221802E0,-2.8616672E0,-1.3662562E0,-1.4498637E0,-2.6512882E-1,-2.5043252E-1,8.820678E-1,1.5664898E0,2.952102E0,2.1640909E0,3.418354E0,3.9855654E0,5.2401037E0,4.7906265E0,6.475712E0,7.356862E0,8.614273E0,8.106268E0,9.75171E0,1.0044646E1,1.1832317E1,1.3697578E1,1.5237085E1,1.6239996E1,1.8567228E1,-3.3722338E-1,-3.6990273E-1,-2.9186356E-1,-3.307385E-1,-2.6293546E-1,-2.265632E-1,-3.1178653E-1,-2.6573604E-1,-2.2940885E-1,-2.8093344E-1,-2.0231436E-1,-1.6278027E-1,-2.2459717E-1,-1.6432618E-1,-1.2919398E-1,-6.495384E-2,-1.351948E-1,-1.9417177E-1,-6.1195172E-2,-2.4334028E-1,-9.787836E-2,-6.248483E-2,-2.6732808E-2,5.0832506E-2,-3.1761903E-2,1.4323671E-2,1.2875452E-2,5.8393158E-2,4.436056E-2,9.499468E-2,1.3369757E-1,2.3977128E-1,3.8465142E-1,1.0575875E-1,1.395474E-1,1.9793773E-1,1.855668E-1,2.537185E-1,2.5295982E-1,3.0035645E-1,1.0295905E-1,2.4751113E-1,3.101872E-1,3.7264696E-1,2.6212892E-1,3.7273818E-1,4.368434E-1,2.6241887E-1,4.4545522E-1,3.7982994E-1,4.786904E-1,5.392953E-1,2.4593978E-1,5.092509E-1,5.7167125E-1,6.251467E-1,6.5339416E-1,7.3539656E-1,6.0065186E-1,7.6810586E-1,8.293543E-1,6.333429E-1,9.369136E-1,5.594018E-1],"categories":[],"categories_nodes":[],"categories_segments":[],"categories_sizes":[],"default_left":[0,0,0,0,0,0,0,0,0,0,0,0,0,0,0,0,0,0,0,0,0,0,0,0,0,0,0,0,0,0,0,0,0,0,0,0,0,0,0,0,0,0,0,0,0,0,0,0,0,0,0,0,0,0,0,0,0,0,0,0,0,0,0,0,0,0,0,0,0,0,0,0,0,0,0,0,0,0,0,0,0,0,0,0,0,0,0,0,0,0,0,0,0,0,0,0,0,0,0,0,0,0,0,0,0,0,0,0,0,0,0,0,0,0,0,0,0,0,0,0,0,0,0,0,0,0,0],"id":2,"left_children":[1,3,5,7,9,11,13,15,17,19,21,23,25,27,29,31,33,35,37,39,41,43,45,47,49,51,53,55,57,59,61,63,65,67,69,71,73,75,77,79,81,83,85,87,89,91,93,95,97,99,101,103,105,107,109,111,113,115,117,119,121,123,125,-1,-1,-1,-1,-1,-1,-1,-1,-1,-1,-1,-1,-1,-1,-1,-1,-1,-1,-1,-1,-1,-1,-1,-1,-1,-1,-1,-1,-1,-1,-1,-1,-1,-1,-1,-1,-1,-1,-1,-1,-1,-1,-1,-1,-1,-1,-1,-1,-1,-1,-1,-1,-1,-1,-1,-1,-1,-1,-1,-1,-1,-1,-1,-1],"loss_changes":[4.2652135E6,7.258445E5,6.472335E5,9.6849125E4,1.36169E5,7.386619E4,8.655575E4,2.1674375E4,1.87715E4,2.3430594E4,1.9620176E4,1.3480594E4,1.09450625E4,9.218375E3,1.4717375E4,4.854E3,3.3219062E3,7.7493438E3,4.216625E3,8.305453E3,6.6808457E3,6.3398506E3,4.8335977E3,3.0555078E3,4.7328594E3,3.7675625E3,2.375E3,1.26075E3,2.8963125E3,3.339E3,1.7046562E3,1.2055625E3,1.32625E3,1.8721562E3,7.1096875E2,1.922E3,2.3750625E3,8.329922E2,2.7031719E3,2.4364375E3,2.4467412E3,1.1658418E3,2.807524E3,1.9387507E3,1.8644478E3,2.474125E3,1.6658281E3,7.9725195E2,1.8628828E3,1.7675859E3,8.161875E2,7.343711E2,1.6065938E3,7.309375E2,1.0402188E3,1.6391797E2,6.775625E2,8.154922E2,1.0495625E3,2.338E3,7.80875E2,5.290625E2,1.0449688E3,0E0,0E0,0E0,0E0,0E0,0E0,0E0,0E0,0E0,0E0,0E0,0E0,0E0,0E0,0E0,0E0,0E0,0E0,0E0,0E0,0E0,0E0,0E0,0E0,0E0,0E0,0E0,0E0,0E0,0E0,0E0,0E0,0E0,0E0,0E0,0E0,0E0,0E0,0E0,0E0,0E0,0E0,0E0,0E0,0E0,0E0,0E0,0E0,0E0,0E0,0E0,0E0,0E0,0E0,0E0,0E0,0E0,0E0,0E0,0E0,0E0,0E0,0E0,0E0],"parents":[2147483647,0,0,1,1,2,2,3,3,4,4,5,5,6,6,7,7,8,8,9,9,10,10,11,11,12,12,13,13,14,14,15,15,16,16,17,17,18,18,19,19,20,20,21,21,22,22,23,23,24,24,25,25,26,26,27,27,28,28,29,29,30,30,31,31,32,32,33,33,34,34,35,35,36,36,37,37,38,38,39,39,40,40,41,41,42,42,43,43,44,44,45,45,46,46,47,47,48,48,49,49,50,50,51,51,52,52,53,53,54,54,55,55,56,56,57,57,58,58,59,59,60,60,61,61,62,62],"right_children":[2,4,6,8,10,12,14,16,18,20,22,24,26,28,30,32,34,36,38,40,42,44,46,48,50,52,54,56,58,60,62,64,66,68,70,72,74,76,78,80,82,84,86,88,90,92,94,96,98,100,102,104,106,108,110,112,114,116,118,120,122,124,126,-1,-1,-1,-1,-1,-1,-1,-1,-1,-1,-1,-1,-1,-1,-1,-1,-1,-1,-1,-1,-1,-1,-1,-1,-1,-1,-1,-1,-1,-1,-1,-1,-1,-1,-1,-1,-1,-1,-1,-1,-1,-1,-1,-1,-1,-1,-1,-1,-1,-1,-1,-1,-1,-1,-1,-1,-1,-1,-1,-1,-1,-1,-1,-1],"split_conditions":[1.356E1,7.2E0,2.044E1,5.12E0,9.92E0,1.68E1,2.476E1,3.4E0,7.72E0,7.96E0,1.24E1,1.44E1,1.86E1,2.216E1,2.952E1,3E0,4E0,4.8E0,5E0,1E1,1.02E1,1.12E1,1.58E1,1.18E1,1.528E1,1.52E1,2.02E1,1.74E1,2.06E1,2.716E1,3.02E1,4E0,4E0,4.8E0,4.3333335E0,4E0,6.48E0,3.6E0,9.76E0,4E0,1E1,8.48E0,1.36E1,1.04E1,9.8E0,1.136E1,1.92E1,1.4E1,1.464E1,1.84E1,1.96E1,1.06E1,2.08E1,1.32E1,1E1,1.1E1,2.5E1,1E0,2.54E1,2.7E1,2.16E1,5E0,1.486E3,-3.3722338E-1,-3.6990273E-1,-2.9186356E-1,-3.307385E-1,-2.6293546E-1,-2.265632E-1,-3.1178653E-1,-2.6573604E-1,-2.2940885E-1,-2.8093344E-1,-2.0231436E-1,-1.6278027E-1,-2.2459717E-1,-1.6432618E-1,-1.2919398E-1,-6.495384E-2,-1.351948E-1,-1.9417177E-1,-6.1195172E-2,-2.4334028E-1,-9.787836E-2,-6.248483E-2,-2.6732808E-2,5.0832506E-2,-3.1761903E-2,1.4323671E-2,1.2875452E-2,5.8393158E-2,4.436056E-2,9.499468E-2,1.3369757E-1,2.3977128E-1,3.8465142E-1,1.0575875E-1,1.395474E-1,1.9793773E-1,1.855668E-1,2.537185E-1,2.5295982E-1,3.0035645E-1,1.0295905E-1,2.4751113E-1,3.101872E-1,3.7264696E-1,2.6212892E-1,3.7273818E-1,4.368434E-1,2.6241887E-1,4.4545522E-1,3.7982994E-1,4.786904E-1,5.392953E-1,2.4593978E-1,5.092509E-1,5.7167125E-1,6.251467E-1,6.5339416E-1,7.3539656E-1,6.0065186E-1,7.6810586E-1,8.293543E-1,6.333429E-1,9.369136E-1,5.594018E-1],"split_indices":[8,6,8,8,8,8,8,6,8,8,6,6,8,8,8,8,4,6,6,6,6,8,6,6,8,6,6,6,6,8,6,4,4,6,8,4,8,6,8,4,4,8,6,6,6,8,6,0,8,6,6,6,6,6,4,2,6,4,6,6,6,4,0,0,0,0,0,0,0,0,0,0,0,0,0,0,0,0,0,0,0,0,0,0,0,0,0,0,0,0,0,0,0,0,0,0,0,0,0,0,0,0,0,0,0,0,0,0,0,0,0,0,0,0,0,0,0,0,0,0,0,0,0,0,0,0,0],"split_type":[0,0,0,0,0,0,0,0,0,0,0,0,0,0,0,0,0,0,0,0,0,0,0,0,0,0,0,0,0,0,0,0,0,0,0,0,0,0,0,0,0,0,0,0,0,0,0,0,0,0,0,0,0,0,0,0,0,0,0,0,0,0,0,0,0,0,0,0,0,0,0,0,0,0,0,0,0,0,0,0,0,0,0,0,0,0,0,0,0,0,0,0,0,0,0,0,0,0,0,0,0,0,0,0,0,0,0,0,0,0,0,0,0,0,0,0,0,0,0,0,0,0,0,0,0,0,0],"sum_hessian":[2.04205E5,1.5089E5,5.3315E4,7.714E4,7.375E4,3.489E4,1.8425E4,4.0428E4,3.6712E4,3.9718E4,3.4032E4,2.0615E4,1.4275E4,1.0467E4,7.958E3,2.2079E4,1.8349E4,2.589E4,1.0822E4,2.0099E4,1.9619E4,1.9828E4,1.4204E4,8.533E3,1.2082E4,7.925E3,6.35E3,4.808E3,5.659E3,6.37E3,1.588E3,1.1873E4,1.0206E4,1.434E4,4.009E3,1.0282E4,1.5608E4,2.722E3,8.1E3,1.5178E4,4.921E3,1.1495E4,8.124E3,9.382E3,1.0446E4,1.0931E4,3.273E3,3.007E3,5.526E3,5.982E3,6.1E3,1.707E3,6.218E3,3.719E3,2.631E3,5.65E2,4.243E3,1.202E3,4.457E3,3.976E3,2.394E3,5.95E2,9.93E2,6.539E3,5.334E3,6.843E3,3.363E3,7.348E3,6.992E3,2.707E3,1.302E3,7.898E3,2.384E3,8.932E3,6.676E3,8.43E2,1.879E3,5.816E3,2.284E3,1.3151E4,2.027E3,4.73E3,1.91E2,3.248E3,8.247E3,6.713E3,1.411E3,5.465E3,3.917E3,3.28E3,7.166E3,3.6E3,7.331E3,2.846E3,4.27E2,2.5E1,2.982E3,2.56E3,2.966E3,4.782E3,1.2E3,4.942E3,1.158E3,9.5E1,1.612E3,4.87E3,1.348E3,1.67E2,3.552E3,2.537E3,9.4E1,2.13E2,3.52E2,3.629E3,6.14E2,3.3E1,1.169E3,2.806E3,1.651E3,2.458E3,1.518E3,9.3E1,2.301E3,5.39E2,5.6E1,9.69E2,2.4E1],"tree_param":{"num_deleted":"0","num_feature":"9","num_nodes":"127","size_leaf_vector":"1"}},{"base_weights":[3.0965912E-3,-2.7111259E0,6.951285E0,-4.569877E0,-4.4043887E-1,4.6273603E0,1.1878704E1,-5.843288E0,-3.6741352E0,-1.379483E0,8.384371E-1,3.29178E0,6.2444587E0,9.916087E0,1.4006491E1,-6.6289144E0,-5.444517E0,-4.279059E0,-3.1190171E0,-2.1632354E0,-8.0625707E-1,-8.502891E-3,1.4456042E0,2.3442688E0,3.8748188E0,5.4138813E0,7.2559004E0,9.081748E0,1.0733183E1,1.3203226E1,1.617718E1,-6.249292E0,-6.9187512E0,-5.1826653E0,-6.069963E0,-4.084627E0,-5.099601E0,-3.3833199E0,-2.438681E0,-1.9893135E0,-3.37815E0,-1.2333966E0,-4.1087636E-1,1.3352834E-1,-2.3032734E0,1.0758418E0,2.069268E0,1.7899586E0,2.9573324E0,3.4138122E0,4.493735E0,4.4890337E0,5.7218857E0,5.764136E0,7.48337E0,7.9582057E0,9.352822E0,1.032513E1,1.1783711E1,1.2741283E1,1.42493305E1,1.5159501E1,1.7106844E1,-3.484455E-1,-3.0136102E-1,-3.618544E-1,-3.3620206E-1,-2.7339578E-1,-2.4158047E-1,-3.2884443E-1,-2.8660294E-1,-2.1323244E-1,-1.7012219E-1,-2.7199814E-1,-2.2373247E-1,-1.6067566E-1,-2.1723048E-1,-1.5335713E-1,-1.0738035E-1,-1.1193708E-1,-7.940174E-2,-2.1764278E-1,-1.4546935E-1,-7.3470905E-2,-2.8310606E-2,-3.334758E-2,2.247801E-2,-9.229555E-4,1.1043131E-1,-2.0292604E-1,-1.0365851E-1,3.2629017E-2,6.418561E-2,5.1252127E-2,1.1152357E-1,5.116197E-2,1.06991366E-1,1.14907265E-1,1.6019575E-1,1.6724221E-1,2.8277898E-1,2.0727544E-1,2.5115892E-1,1.6190977E-1,2.4273458E-1,2.7565357E-1,3.2563925E-1,5.5542644E-2,2.926405E-1,3.501392E-1,3.9689025E-1,7.3339306E-2,4.0243658E-1,4.125733E-1,4.725794E-1,5.5937874E-1,5.0620526E-1,5.953943E-1,4.4629207E-1,6.073006E-1,6.582883E-1,7.1782655E-1,5.3619885E-1,7.8857183E-1,6.853387E-1,8.6477184E-1,5.1699907E-1],"categories":[],"categories_nodes":[],"categories_segments":[],"categories_sizes":[],"default_left":[0,0,0,0,0,0,0,0,0,0,0,0,0,0,0,0,0,0,0,0,0,0,0,0,0,0,0,0,0,0,0,0,0,0,0,0,0,0,0,0,0,0,0,0,0,0,0,0,0,0,0,0,0,0,0,0,0,0,0,0,0,0,0,0,0,0,0,0,0,0,0,0,0,0,0,0,0,0,0,0,0,0,0,0,0,0,0,0,0,0,0,0,0,0,0,0,0,0,0,0,0,0,0,0,0,0,0,0,0,0,0,0,0,0,0,0,0,0,0,0,0,0,0,0,0,0,0],"id":3,"left_children":[1,3,5,7,9,11,13,15,17,19,21,23,25,27,29,31,33,35,37,39,41,43,45,47,49,51,53,55,57,59,61,63,65,67,69,71,73,75,77,79,81,83,85,87,89,91,93,95,97,99,101,103,105,107,109,111,113,115,117,119,121,123,125,-1,-1,-1,-1,-1,-1,-1,-1,-1,-1,-1,-1,-1,-1,-1,-1,-1,-1,-1,-1,-1,-1,-1,-1,-1,-1,-1,-1,-1,-1,-1,-1,-1,-1,-1,-1,-1,-1,-1,-1,-1,-1,-1,-1,-1,-1,-1,-1,-1,-1,-1,-1,-1,-1,-1,-1,-1,-1,-1,-1,-1,-1,-1,-1],"loss_changes":[3.855501E6,6.2047875E5,6.5755E5,9.2186375E4,7.947091E4,8.426425E4,7.671675E4,1.042125E4,1.59235625E4,1.7140945E4,1.4407824E4,1.1799234E4,1.47889375E4,6.4315625E3,1.517925E4,1.1928125E3,3.5956875E3,3.6019688E3,4.4425156E3,3.3990156E3,3.721668E3,3.813678E3,3.7610547E3,2.7626016E3,3.7597812E3,2.7362812E3,2.6565625E3,1.37075E3,1.9500625E3,2.934875E3,1.992375E3,7.368906E2,3.45625E2,1.5375312E3,1.0808281E3,2.240625E3,9.0009375E2,2.8955156E3,1.2609297E3,1.407918E3,9.08916E2,1.6674033E3,2.5224917E3,3.4753103E3,2.6703784E2,9.0073047E2,1.02E3,1.1459238E3,6.2103125E2,1.1541172E3,1.0199219E3,1.0943359E3,1.16475E3,4.2964453E2,1.4513438E3,5.341133E2,3.3715625E2,4.9165625E2,3.71E2,9.72875E2,5.8940625E2,8.0171875E2,1.3985312E3,0E0,0E0,0E0,0E0,0E0,0E0,0E0,0E0,0E0,0E0,0E0,0E0,0E0,0E0,0E0,0E0,0E0,0E0,0E0,0E0,0E0,0E0,0E0,0E0,0E0,0E0,0E0,0E0,0E0,0E0,0E0,0E0,0E0,0E0,0E0,0E0,0E0,0E0,0E0,0E0,0E0,0E0,0E0,0E0,0E0,0E0,0E0,0E0,0E0,0E0,0E0,0E0,0E0,0E0,0E0,0E0,0E0,0E0,0E0,0E0,0E0,0E0,0E0,0E0],"parents":[2147483647,0,0,1,1,2,2,3,3,4,4,5,5,6,6,7,7,8,8,9,9,10,10,11,11,12,12,13,13,14,14,15,15,16,16,17,17,18,18,19,19,20,20,21,21,22,22,23,23,24,24,25,25,26,26,27,27,28,28,29,29,30,30,31,31,32,32,33,33,34,34,35,35,36,36,37,37,38,38,39,39,40,40,41,41,42,42,43,43,44,44,45,45,46,46,47,47,48,48,49,49,50,50,51,51,52,52,53,53,54,54,55,55,56,56,57,57,58,58,59,59,60,60,61,61,62,62],"right_children":[2,4,6,8,10,12,14,16,18,20,22,24,26,28,30,32,34,36,38,40,42,44,46,48,50,52,54,56,58,60,62,64,66,68,70,72,74,76,78,80,82,84,86,88,90,92,94,96,98,100,102,104,106,108,110,112,114,116,118,120,122,124,126,-1,-1,-1,-1,-1,-1,-1,-1,-1,-1,-1,-1,-1,-1,-1,-1,-1,-1,-1,-1,-1,-1,-1,-1,-1,-1,-1,-1,-1,-1,-1,-1,-1,-1,-1,-1,-1,-1,-1,-1,-1,-1,-1,-1,-1,-1,-1,-1,-1,-1,-1,-1,-1,-1,-1,-1,-1,-1,-1,-1,-1,-1,-1,-1],"split_conditions":[1.308E1,7.5E0,2.044E1,4.2E0,1.05E1,1.62E1,2.436E1,2.3E0,5.8E0,8.4E0,1.092E1,1.39E1,1.82E1,2.216E1,2.93E1,3E0,4E0,4E0,7.56E0,4E0,2.37E1,6E0,1.3E1,2.84E1,1.504E1,1.58E1,2.93E1,1.95E1,2.46E1,2.716E1,2.952E1,4.75E0,1.25E0,4E0,3.3E0,6.48E0,5.6666665E0,4E0,1.76E1,8.7E0,6.8E0,9.7E0,1.084E1,1.38E1,2.02E2,1.14E1,2.45E1,1.16E1,1.23E1,1.87E1,1.65E1,2.74E1,1.93E1,1.33E1,1.924E1,1.49E1,3.05E1,8E0,7E0,2.5E1,1E1,3.7E1,1.486E3,-3.484455E-1,-3.0136102E-1,-3.618544E-1,-3.3620206E-1,-2.7339578E-1,-2.4158047E-1,-3.2884443E-1,-2.8660294E-1,-2.1323244E-1,-1.7012219E-1,-2.7199814E-1,-2.2373247E-1,-1.6067566E-1,-2.1723048E-1,-1.5335713E-1,-1.0738035E-1,-1.1193708E-1,-7.940174E-2,-2.1764278E-1,-1.4546935E-1,-7.3470905E-2,-2.8310606E-2,-3.334758E-2,2.247801E-2,-9.229555E-4,1.1043131E-1,-2.0292604E-1,-1.0365851E-1,3.2629017E-2,6.418561E-2,5.1252127E-2,1.1152357E-1,5.116197E-2,1.06991366E-1,1.14907265E-1,1.6019575E-1,1.6724221E-1,2.8277898E-1,2.0727544E-1,2.5115892E-1,1.6190977E-1,2.4273458E-1,2.7565357E-1,3.2563925E-1,5.5542644E-2,2.926405E-1,3.501392E-1,3.9689025E-1,7.3339306E-2,4.0243658E-1,4.125733E-1,4.725794E-1,5.5937874E-1,5.0620526E-1,5.953943E-1,4.4629207E-1,6.073006E-1,6.582883E-1,7.1782655E-1,5.3619885E-1,7.8857183E-1,6.853387E-1,8.6477184E-1,5.1699907E-1],"split_indices":[8,7,8,7,7,8,8,7,7,8,8,7,8,8,7,4,4,4,8,4,5,4,7,5,8,7,5,7,7,8,8,5,7,8,8,8,8,4,5,7,8,7,8,7,0,7,5,7,7,7,7,5,7,7,8,7,5,1,4,7,4,5,0,0,0,0,0,0,0,0,0,0,0,0,0,0,0,0,0,0,0,0,0,0,0,0,0,0,0,0,0,0,0,0,0,0,0,0,0,0,0,0,0,0,0,0,0,0,0,0,0,0,0,0,0,0,0,0,0,0,0,0,0,0,0,0,0],"split_type":[0,0,0,0,0,0,0,0,0,0,0,0,0,0,0,0,0,0,0,0,0,0,0,0,0,0,0,0,0,0,0,0,0,0,0,0,0,0,0,0,0,0,0,0,0,0,0,0,0,0,0,0,0,0,0,0,0,0,0,0,0,0,0,0,0,0,0,0,0,0,0,0,0,0,0,0,0,0,0,0,0,0,0,0,0,0,0,0,0,0,0,0,0,0,0,0,0,0,0,0,0,0,0,0,0,0,0,0,0,0,0,0,0,0,0,0,0,0,0,0,0,0,0,0,0,0,0],"sum_hessian":[2.04437E5,1.4701E5,5.7427E4,8.0837E4,6.6173E4,3.9024E4,1.8403E4,3.3379E4,4.7458E4,3.8156E4,2.8017E4,2.1374E4,1.765E4,9.576E3,8.827E3,1.1233E4,2.2146E4,2.2707E4,2.4751E4,1.6117E4,2.2039E4,1.1699E4,1.6318E4,8.144E3,1.323E4,9.695E3,7.955E3,4.744E3,4.832E3,6.448E3,2.379E3,4.873E3,6.36E3,1.5617E4,6.529E3,1.8362E4,4.345E3,1.7823E4,6.928E3,1.4101E4,2.016E3,1.0593E4,1.1446E4,1.1018E4,6.81E2,1.0246E4,6.072E3,4.279E3,3.865E3,7.586E3,5.644E3,2.426E3,7.269E3,1.056E3,6.899E3,9.28E2,3.816E3,3.488E3,1.344E3,4.482E3,1.966E3,1.144E3,1.235E3,1.142E3,3.731E3,2.4E3,3.96E3,8.608E3,7.009E3,2.604E3,3.925E3,1.4524E4,3.838E3,2.808E3,1.537E3,1.5151E4,2.672E3,2.19E3,4.738E3,8.693E3,5.408E3,6.52E2,1.364E3,7.824E3,2.769E3,8.821E3,2.625E3,1.0267E4,7.51E2,7.7E1,6.04E2,3.376E3,6.87E3,8.13E2,5.259E3,1.342E3,2.937E3,1.055E3,2.81E3,7.362E3,2.24E2,3.41E3,2.234E3,5.51E2,1.875E3,5.757E3,1.512E3,2E1,1.036E3,3.361E3,3.538E3,1.3E1,9.15E2,3.21E2,3.495E3,6.49E2,2.839E3,1.285E3,5.9E1,1.878E3,2.604E3,1.905E3,6.1E1,7.98E2,3.46E2,1.2E3,3.5E1],"tree_param":{"num_deleted":"0","num_feature":"9","num_nodes":"127","size_leaf_vector":"1"}},{"base_weights":[7.0580177E-4,-2.4615288E0,6.9464946E0,-4.3572083E0,-2.6459926E-1,4.745656E0,1.1447283E1,-5.525848E0,-3.477096E0,-1.1911923E0,1.0889392E0,3.7129586E0,6.6012864E0,9.715676E0,1.3496108E1,-6.176311E0,-5.058745E0,-4.1157203E0,-2.9872017E0,-1.8134617E0,-4.110198E-1,5.9739226E-1,2.0384924E0,2.5691814E0,4.2240744E0,5.9767547E0,7.522794E0,8.8758135E0,1.052093E1,1.2713174E1,1.5388036E1,-6.4980073E0,-5.6651883E0,-5.3990307E0,-4.5965686E0,-4.4644523E0,-3.461995E0,-3.314606E0,-2.3182578E0,-2.540839E0,-1.4382787E0,-1.2812877E0,-1.6750783E-1,1.22809105E-1,1.3225886E0,1.7393656E0,3.3367796E0,2.0256665E0,3.0673091E0,3.8240757E0,4.9494257E0,4.812634E0,6.3642936E0,7.350421E0,9.05663E0,6.325382E0,8.970485E0,9.325627E0,1.0983553E1,1.2257174E1,1.3575521E1,1.4719717E1,1.6874096E1,-3.339524E-1,-3.1038418E-1,-2.8886282E-1,-2.5689432E-1,-2.8640464E-1,-2.5540325E-1,-2.3398446E-1,-1.9014132E-1,-2.5096786E-1,-2.0988046E-1,-1.9073229E-1,-1.3584457E-1,-1.7610608E-1,-1.3103299E-1,-1.2311276E-1,-6.799013E-2,-1.57278E-1,-1.0353886E-1,-8.1982546E-2,-2.874875E-2,-1.0504623E-1,-4.248212E-2,-2.1748196E-2,1.8716032E-2,-1.7312197E-2,3.2684702E-2,5.159698E-2,1.0543307E-1,4.3737583E-2,9.4704434E-2,1.546344E-1,2.3794721E-1,8.455675E-2,1.464204E-1,1.3653159E-1,2.0294979E-1,1.809632E-1,2.4254096E-1,2.2080779E-1,2.6684654E-1,1.6029309E-1,2.5846782E-1,2.8436515E-1,3.397761E-1,3.3274832E-1,3.7957686E-1,2.982728E-1,4.661952E-1,3.038563E-1,6.651211E-1,4.189659E-1,4.6250334E-1,3.9809337E-1,4.8623988E-1,5.636597E-1,5.036736E-1,5.9511536E-1,6.470573E-1,5.411235E-1,6.842843E-1,7.582115E-1,6.780971E-1,5.757324E-1,8.5614693E-1],"categories":[],"categories_nodes":[],"categories_segments":[],"categories_sizes":[],"default_left":[0,0,0,0,0,0,0,0,0,0,0,0,0,0,0,0,0,0,0,0,0,0,0,0,0,0,0,0,0,0,0,0,0,0,0,0,0,0,0,0,0,0,0,0,0,0,0,0,0,0,0,0,0,0,0,0,0,0,0,0,0,0,0,0,0,0,0,0,0,0,0,0,0,0,0,0,0,0,0,0,0,0,0,0,0,0,0,0,0,0,0,0,0,0,0,0,0,0,0,0,0,0,0,0,0,0,0,0,0,0,0,0,0,0,0,0,0,0,0,0,0,0,0,0,0,0,0],"id":4,"left_children":[1,3,5,7,9,11,13,15,17,19,21,23,25,27,29,31,33,35,37,39,41,43,45,47,49,51,53,55,57,59,61,63,65,67,69,71,73,75,77,79,81,83,85,87,89,91,93,95,97,99,101,103,105,107,109,111,113,115,117,119,121,123,125,-1,-1,-1,-1,-1,-1,-1,-1,-1,-1,-1,-1,-1,-1,-1,-1,-1,-1,-1,-1,-1,-1,-1,-1,-1,-1,-1,-1,-1,-1,-1,-1,-1,-1,-1,-1,-1,-1,-1,-1,-1,-1,-1,-1,-1,-1,-1,-1,-1,-1,-1,-1,-1,-1,-1,-1,-1,-1,-1,-1,-1,-1,-1,-1],"loss_changes":[3.4856942E6,6.2667406E5,5.2832525E5,8.30605E4,8.741759E4,6.8629E4,6.2015E4,1.051125E4,1.4403625E4,2.0086371E4,1.3219469E4,1.3446094E4,7.3261875E3,6.3295E3,1.16855E4,2.3470625E3,3.15225E3,4.5440625E3,5.7040156E3,6.277672E3,3.890648E3,6.423695E3,3.7460703E3,1.9192891E3,4.596625E3,3.415625E3,1.300375E3,1.06725E3,2.575625E3,2.0668125E3,2.0785625E3,4.2584375E2,3.0171875E2,1.0841562E3,5.478281E2,1.9096562E3,1.8189688E3,2.5118438E3,1.1798555E3,2.219496E3,2.639246E3,1.4183374E3,2.0792627E3,2.8098423E3,1.684627E3,1.0490156E3,6.129082E2,1.02303906E3,1.2272695E3,2.1395938E3,1.1441875E3,1.0793281E3,1.6335781E3,7.2971875E2,3.7234375E2,2.1361523E2,6.639375E2,6.618281E2,8.05375E2,7.50125E2,4.4478125E2,6.30125E2,7.630625E2,0E0,0E0,0E0,0E0,0E0,0E0,0E0,0E0,0E0,0E0,0E0,0E0,0E0,0E0,0E0,0E0,0E0,0E0,0E0,0E0,0E0,0E0,0E0,0E0,0E0,0E0,0E0,0E0,0E0,0E0,0E0,0E0,0E0,0E0,0E0,0E0,0E0,0E0,0E0,0E0,0E0,0E0,0E0,0E0,0E0,0E0,0E0,0E0,0E0,0E0,0E0,0E0,0E0,0E0,0E0,0E0,0E0,0E0,0E0,0E0,0E0,0E0,0E0,0E0],"parents":[2147483647,0,0,1,1,2,2,3,3,4,4,5,5,6,6,7,7,8,8,9,9,10,10,11,11,12,12,13,13,14,14,15,15,16,16,17,17,18,18,19,19,20,20,21,21,22,22,23,23,24,24,25,25,26,26,27,27,28,28,29,29,30,30,31,31,32,32,33,33,34,34,35,35,36,36,37,37,38,38,39,39,40,40,41,41,42,42,43,43,44,44,45,45,46,46,47,47,48,48,49,49,50,50,51,51,52,52,53,53,54,54,55,55,56,56,57,57,58,58,59,59,60,60,61,61,62,62],"right_children":[2,4,6,8,10,12,14,16,18,20,22,24,26,28,30,32,34,36,38,40,42,44,46,48,50,52,54,56,58,60,62,64,66,68,70,72,74,76,78,80,82,84,86,88,90,92,94,96,98,100,102,104,106,108,110,112,114,116,118,120,122,124,126,-1,-1,-1,-1,-1,-1,-1,-1,-1,-1,-1,-1,-1,-1,-1,-1,-1,-1,-1,-1,-1,-1,-1,-1,-1,-1,-1,-1,-1,-1,-1,-1,-1,-1,-1,-1,-1,-1,-1,-1,-1,-1,-1,-1,-1,-1,-1,-1,-1,-1,-1,-1,-1,-1,-1,-1,-1,-1,-1,-1,-1,-1,-1,-1],"split_conditions":[1.356E1,7.5E0,2.072E1,4.3E0,1.08E1,1.728E1,2.476E1,2.4E0,5.6E0,9.16E0,1.224E1,1.42E1,1.95E1,2.248E1,2.93E1,3E0,4E0,6.36E0,7E0,8E0,7.8E0,1.3E1,1.58E1,2.84E1,1.608E1,1.56E1,2.3E1,1.76E1,2.16E1,2.716E1,3.1E1,1.5E0,5.28E0,3.4E0,6.56E0,1.38E1,2E1,8E0,8.8E0,2.09E1,1.14E1,2.14E1,1.084E1,1.092E1,1.38E1,2.4E1,1.92E1,1.4E1,1.528E1,1.88E1,1.66E1,2.8E1,1.82E1,3.17E1,1.8E2,2.12E1,2.124E1,2.05E1,2.5E1,2.7E1,2.1E1,3.7E1,7E0,-3.339524E-1,-3.1038418E-1,-2.8886282E-1,-2.5689432E-1,-2.8640464E-1,-2.5540325E-1,-2.3398446E-1,-1.9014132E-1,-2.5096786E-1,-2.0988046E-1,-1.9073229E-1,-1.3584457E-1,-1.7610608E-1,-1.3103299E-1,-1.2311276E-1,-6.799013E-2,-1.57278E-1,-1.0353886E-1,-8.1982546E-2,-2.874875E-2,-1.0504623E-1,-4.248212E-2,-2.1748196E-2,1.8716032E-2,-1.7312197E-2,3.2684702E-2,5.159698E-2,1.0543307E-1,4.3737583E-2,9.4704434E-2,1.546344E-1,2.3794721E-1,8.455675E-2,1.464204E-1,1.3653159E-1,2.0294979E-1,1.809632E-1,2.4254096E-1,2.2080779E-1,2.6684654E-1,1.6029309E-1,2.5846782E-1,2.8436515E-1,3.397761E-1,3.3274832E-1,3.7957686E-1,2.982728E-1,4.661952E-1,3.038563E-1,6.651211E-1,4.189659E-1,4.6250334E-1,3.9809337E-1,4.8623988E-1,5.636597E-1,5.036736E-1,5.9511536E-1,6.470573E-1,5.411235E-1,6.842843E-1,7.582115E-1,6.780971E-1,5.757324E-1,8.5614693E-1],"split_indices":[8,7,8,7,7,8,8,6,6,8,8,7,7,8,7,8,8,8,8,6,6,6,6,5,8,6,7,7,6,8,8,6,8,6,8,5,5,6,6,5,6,5,8,8,7,5,6,6,8,6,6,5,8,5,0,6,8,7,1,6,6,5,1,0,0,0,0,0,0,0,0,0,0,0,0,0,0,0,0,0,0,0,0,0,0,0,0,0,0,0,0,0,0,0,0,0,0,0,0,0,0,0,0,0,0,0,0,0,0,0,0,0,0,0,0,0,0,0,0,0,0,0,0,0,0,0,0],"split_type":[0,0,0,0,0,0,0,0,0,0,0,0,0,0,0,0,0,0,0,0,0,0,0,0,0,0,0,0,0,0,0,0,0,0,0,0,0,0,0,0,0,0,0,0,0,0,0,0,0,0,0,0,0,0,0,0,0,0,0,0,0,0,0,0,0,0,0,0,0,0,0,0,0,0,0,0,0,0,0,0,0,0,0,0,0,0,0,0,0,0,0,0,0,0,0,0,0,0,0,0,0,0,0,0,0,0,0,0,0,0,0,0,0,0,0,0,0,0,0,0,0,0,0,0,0,0,0],"sum_hessian":[2.03814E5,1.50473E5,5.3341E4,8.0774E4,6.9699E4,3.5825E4,1.7516E4,3.4697E4,4.6077E4,4.1375E4,2.8324E4,2.3018E4,1.2807E4,9.496E3,8.02E3,1.4497E4,2.02E4,1.9999E4,2.6078E4,2.3016E4,1.8359E4,1.8664E4,9.66E3,7.111E3,1.5907E4,7.638E3,5.169E3,4.654E3,4.842E3,5.678E3,2.342E3,8.89E3,5.607E3,1.1628E4,8.572E3,1.3038E4,6.961E3,1.7506E4,8.572E3,7.83E3,1.5186E4,4.013E3,1.4346E4,1.1282E4,7.382E3,7.853E3,1.807E3,3.403E3,3.708E3,1.0257E4,5.65E3,1.911E3,5.727E3,4.652E3,5.17E2,1.69E2,4.485E3,1.357E3,3.485E3,3.724E3,1.954E3,1.623E3,7.19E2,5.462E3,3.428E3,4.616E3,9.91E2,5.448E3,6.18E3,7.755E3,8.17E2,4.228E3,8.81E3,4.722E3,2.239E3,1.3473E4,4.033E3,7.451E3,1.121E3,3.422E3,4.408E3,1.2313E4,2.873E3,1.383E3,2.63E3,9.605E3,4.741E3,5.99E3,5.292E3,5.391E3,1.991E3,1.193E3,6.66E3,1.545E3,2.62E2,2.485E3,9.18E2,2.771E3,9.37E2,8.555E3,1.702E3,2.383E3,3.267E3,3.49E2,1.562E3,2.234E3,3.493E3,1.205E3,3.447E3,4.3E1,4.74E2,1.65E2,4E0,1.45E3,3.035E3,3.12E2,1.045E3,2.635E3,8.5E2,2.464E3,1.26E3,7.9E1,1.875E3,1.164E3,4.59E2,3.4E1,6.85E2],"tree_param":{"num_deleted":"0","num_feature":"9","num_nodes":"127","size_leaf_vector":"1"}},{"base_weights":[6.1669685E-3,-2.4461148E0,6.294412E0,-4.1652226E0,-4.268742E-1,4.1195445E0,1.06027565E1,-5.327773E0,-3.3780913E0,-1.1976618E0,8.9618367E-1,2.9763231E0,5.5562363E0,8.852404E0,1.2647489E1,-5.9229217E0,-4.9196796E0,-3.9468365E0,-2.917531E0,-1.8410052E0,-5.701233E-1,1.5268049E-1,1.3557377E0,2.198895E0,3.5683312E0,5.0292697E0,6.620495E0,8.222619E0,9.848769E0,1.2051497E1,1.526186E1,-5.5296044E0,-6.2351007E0,-4.6544914E0,-5.5749207E0,-3.757102E0,-4.7253695E0,-3.150492E0,-2.277438E0,-1.688618E0,-2.891052E0,-1.2401685E0,-3.0409452E-1,-5.279424E-2,1.6122441E0,1.0545832E0,1.8098029E0,1.2157243E0,2.4196508E0,3.1018953E0,4.066372E0,4.449322E0,5.5002804E0,5.0283895E0,6.8527884E0,7.708871E0,8.741906E0,9.465161E0,1.0710504E1,1.1634309E1,1.3328517E1,1.542551E1,9.505922E0,-3.2409683E-1,-2.7016735E-1,-3.175041E-1,-2.9303476E-1,-2.4046277E-1,-2.0871714E-1,-3.072843E-1,-2.667441E-1,-2.1296059E-1,-1.7784035E-1,-2.78097E-1,-2.263238E-1,-1.5188186E-1,-2.2088502E-1,-1.3393228E-1,-9.0136014E-2,-1.059344E-1,-7.03842E-2,-1.7521432E-1,-1.1341261E-1,-4.8507065E-2,-9.361254E-2,-3.0516366E-2,1.3236403E-2,3.595594E-3,-1.0815151E-1,6.5338664E-2,1.8277633E-1,3.0716076E-2,6.304204E-2,4.088447E-2,9.855554E-2,3.201133E-2,1.0322442E-1,1.0997807E-1,1.5199623E-1,1.522346E-1,2.9226467E-1,1.8676743E-1,2.2679284E-1,1.5685642E-1,2.3591922E-1,2.7927518E-1,1.4247154E-1,-1.0122837E-1,2.5707337E-1,3.4632516E-1,2.1921916E-1,3.6295614E-1,4.109563E-1,2.9320464E-1,4.4113094E-1,3.83921E-1,4.8059097E-1,5.8124095E-1,5.1647013E-1,5.520404E-1,6.0212296E-1,8.700263E-1,6.5976465E-1,7.1731156E-1,8.0140543E-1,2.2145283E-1,5.132339E-1],"categories":[],"categories_nodes":[],"categories_segments":[],"categories_sizes":[],"default_left":[0,0,0,0,0,0,0,0,0,0,0,0,0,0,0,0,0,0,0,0,0,0,0,0,0,0,0,0,0,0,0,0,0,0,0,0,0,0,0,0,0,0,0,0,0,0,0,0,0,0,0,0,0,0,0,0,0,0,0,0,0,0,0,0,0,0,0,0,0,0,0,0,0,0,0,0,0,0,0,0,0,0,0,0,0,0,0,0,0,0,0,0,0,0,0,0,0,0,0,0,0,0,0,0,0,0,0,0,0,0,0,0,0,0,0,0,0,0,0,0,0,0,0,0,0,0,0],"id":5,"left_children":[1,3,5,7,9,11,13,15,17,19,21,23,25,27,29,31,33,35,37,39,41,43,45,47,49,51,53,55,57,59,61,63,65,67,69,71,73,75,77,79,81,83,85,87,89,91,93,95,97,99,101,103,105,107,109,111,113,115,117,119,121,123,125,-1,-1,-1,-1,-1,-1,-1,-1,-1,-1,-1,-1,-1,-1,-1,-1,-1,-1,-1,-1,-1,-1,-1,-1,-1,-1,-1,-1,-1,-1,-1,-1,-1,-1,-1,-1,-1,-1,-1,-1,-1,-1,-1,-1,-1,-1,-1,-1,-1,-1,-1,-1,-1,-1,-1,-1,-1,-1,-1,-1,-1,-1,-1,-1],"loss_changes":[3.150125E6,5.101637E5,5.36993E5,7.262375E4,6.892402E4,6.2543E4,6.8698E4,7.7543125E3,1.2388E4,1.7240332E4,8.500787E3,9.7553125E3,9.4318125E3,6.4211875E3,1.3628875E4,1.5655312E3,3.2785312E3,3.1105625E3,3.8937188E3,3.3693281E3,3.8534155E3,2.8506675E3,2.100664E3,1.9879727E3,2.7845625E3,3.0600938E3,2.0314375E3,1.628E3,1.2235312E3,3.693625E3,1.4000938E3,6.593594E2,2.7521875E2,9.86375E2,7.171875E2,1.6978594E3,6.646719E2,2.7290781E3,1.3253477E3,2.2221836E3,1.012166E3,1.0468379E3,2.6961328E3,2.193062E3,7.2736646E2,8.389209E2,9.7941016E2,8.212478E2,1.0158203E3,9.586328E2,8.875469E2,1.7738047E3,1.3908438E3,5.8064844E2,8.561406E2,6.753906E2,6.80625E2,6.552031E2,3.0746875E2,1.1879375E3,7.316875E2,8.07375E2,1.3943799E2,0E0,0E0,0E0,0E0,0E0,0E0,0E0,0E0,0E0,0E0,0E0,0E0,0E0,0E0,0E0,0E0,0E0,0E0,0E0,0E0,0E0,0E0,0E0,0E0,0E0,0E0,0E0,0E0,0E0,0E0,0E0,0E0,0E0,0E0,0E0,0E0,0E0,0E0,0E0,0E0,0E0,0E0,0E0,0E0,0E0,0E0,0E0,0E0,0E0,0E0,0E0,0E0,0E0,0E0,0E0,0E0,0E0,0E0,0E0,0E0,0E0,0E0,0E0,0E0],"parents":[2147483647,0,0,1,1,2,2,3,3,4,4,5,5,6,6,7,7,8,8,9,9,10,10,11,11,12,12,13,13,14,14,15,15,16,16,17,17,18,18,19,19,20,20,21,21,22,22,23,23,24,24,25,25,26,26,27,27,28,28,29,29,30,30,31,31,32,32,33,33,34,34,35,35,36,36,37,37,38,38,39,39,40,40,41,41,42,42,43,43,44,44,45,45,46,46,47,47,48,48,49,49,50,50,51,51,52,52,53,53,54,54,55,55,56,56,57,57,58,58,59,59,60,60,61,61,62,62],"right_children":[2,4,6,8,10,12,14,16,18,20,22,24,26,28,30,32,34,36,38,40,42,44,46,48,50,52,54,56,58,60,62,64,66,68,70,72,74,76,78,80,82,84,86,88,90,92,94,96,98,100,102,104,106,108,110,112,114,116,118,120,122,124,126,-1,-1,-1,-1,-1,-1,-1,-1,-1,-1,-1,-1,-1,-1,-1,-1,-1,-1,-1,-1,-1,-1,-1,-1,-1,-1,-1,-1,-1,-1,-1,-1,-1,-1,-1,-1,-1,-1,-1,-1,-1,-1,-1,-1,-1,-1,-1,-1,-1,-1,-1,-1,-1,-1,-1,-1,-1,-1,-1,-1,-1,-1,-1,-1],"split_conditions":[1.308E1,7.4E0,2.02E1,4.1E0,1.08E1,1.62E1,2.436E1,2.5E0,5.6E0,8.8E0,1.092E1,1.42E1,1.86E1,2.248E1,2.952E1,3E0,4E0,4E0,7.48E0,4E0,2.15E1,1.34E1,1.3E1,1.15E1,1.492E1,1.71E1,2.93E1,2.124E1,2.46E1,2.84E1,1.486E3,3.9E0,2.96E0,4.76E0,3.08E0,4.5E0,4.04E0,6E0,6.8E0,8.2E0,2.12E1,3E0,1.056E1,6E0,1.56E1,2.52E1,2.46E1,2.68E1,1.476E1,1.91E1,1.65E1,2.74E1,1E1,1.33E1,1E1,1E0,1.76E1,1.98E1,3.39E1,2.564E1,1E0,3.05E1,4E0,-3.2409683E-1,-2.7016735E-1,-3.175041E-1,-2.9303476E-1,-2.4046277E-1,-2.0871714E-1,-3.072843E-1,-2.667441E-1,-2.1296059E-1,-1.7784035E-1,-2.78097E-1,-2.263238E-1,-1.5188186E-1,-2.2088502E-1,-1.3393228E-1,-9.0136014E-2,-1.059344E-1,-7.03842E-2,-1.7521432E-1,-1.1341261E-1,-4.8507065E-2,-9.361254E-2,-3.0516366E-2,1.3236403E-2,3.595594E-3,-1.0815151E-1,6.5338664E-2,1.8277633E-1,3.0716076E-2,6.304204E-2,4.088447E-2,9.855554E-2,3.201133E-2,1.0322442E-1,1.0997807E-1,1.5199623E-1,1.522346E-1,2.9226467E-1,1.8676743E-1,2.2679284E-1,1.5685642E-1,2.3591922E-1,2.7927518E-1,1.4247154E-1,-1.0122837E-1,2.5707337E-1,3.4632516E-1,2.1921916E-1,3.6295614E-1,4.109563E-1,2.9320464E-1,4.4113094E-1,3.83921E-1,4.8059097E-1,5.8124095E-1,5.1647013E-1,5.520404E-1,6.0212296E-1,8.700263E-1,6.5976465E-1,7.1731156E-1,8.0140543E-1,2.2145283E-1,5.132339E-1],"split_indices":[8,7,8,7,7,8,8,7,7,8,8,7,8,8,8,4,4,4,8,4,5,7,7,7,8,7,5,8,7,7,0,5,8,8,8,8,8,4,7,7,5,4,8,4,7,5,5,5,8,7,7,5,4,7,4,3,7,7,5,8,4,7,2,0,0,0,0,0,0,0,0,0,0,0,0,0,0,0,0,0,0,0,0,0,0,0,0,0,0,0,0,0,0,0,0,0,0,0,0,0,0,0,0,0,0,0,0,0,0,0,0,0,0,0,0,0,0,0,0,0,0,0,0,0,0,0,0],"split_type":[0,0,0,0,0,0,0,0,0,0,0,0,0,0,0,0,0,0,0,0,0,0,0,0,0,0,0,0,0,0,0,0,0,0,0,0,0,0,0,0,0,0,0,0,0,0,0,0,0,0,0,0,0,0,0,0,0,0,0,0,0,0,0,0,0,0,0,0,0,0,0,0,0,0,0,0,0,0,0,0,0,0,0,0,0,0,0,0,0,0,0,0,0,0,0,0,0,0,0,0,0,0,0,0,0,0,0,0,0,0,0,0,0,0,0,0,0,0,0,0,0,0,0,0,0,0,0],"sum_hessian":[2.04279E5,1.46966E5,5.7313E4,7.9382E4,6.7584E4,3.8088E4,1.9225E4,3.2046E4,4.7336E4,4.2705E4,2.4879E4,2.1212E4,1.6876E4,1.0361E4,8.864E3,1.303E4,1.9016E4,2.1177E4,2.6159E4,2.1086E4,2.1619E4,9.504E3,1.5375E4,9.172E3,1.204E4,1.1291E4,5.585E3,6.354E3,4.007E3,7.223E3,1.641E3,5.774E3,7.256E3,1.3543E4,5.473E3,1.7032E4,4.145E3,1.9176E4,6.983E3,1.8416E4,2.67E3,6.143E3,1.5476E4,8.332E3,1.172E3,9.246E3,6.129E3,1.683E3,7.489E3,6.221E3,5.819E3,5.065E3,6.226E3,7.14E2,4.871E3,3.202E3,3.152E3,2.781E3,1.226E3,5.452E3,1.771E3,1.594E3,4.7E1,6.7E2,5.104E3,5.539E3,1.717E3,1.0235E4,3.308E3,1.613E3,3.86E3,4.851E3,1.2181E4,7.91E2,3.354E3,1.7611E4,1.565E3,3.782E3,3.201E3,7.274E3,1.1142E4,1.343E3,1.327E3,4.306E3,1.837E3,1.006E4,5.416E3,7.868E3,4.64E2,1.021E3,1.51E2,2.951E3,6.295E3,8.58E2,5.271E3,1.004E3,6.79E2,5.531E3,1.958E3,6.096E3,1.25E2,3.418E3,2.401E3,8.64E2,4.201E3,6.031E3,1.95E2,1.1E1,7.03E2,4.728E3,1.43E2,1.71E3,1.492E3,8.8E1,3.064E3,2.15E2,2.566E3,3.52E2,8.74E2,2.233E3,3.219E3,5.2E1,1.719E3,5.8E2,1.014E3,7E0,4E1],"tree_param":{"num_deleted":"0","num_feature":"9","num_nodes":"127","size_leaf_vector":"1"}},{"base_weights":[1.9080384E-2,-2.3203883E0,5.9819794E0,-4.0849547E0,-5.4747665E-1,3.9347055E0,1.0049038E1,-5.10603E0,-3.3388083E0,-1.5454402E0,4.9193102E-1,2.8322961E0,5.238317E0,8.789541E0,1.2589523E1,-5.734176E0,-4.685157E0,-3.820064E0,-2.807194E0,-2.1578898E0,-9.798309E-1,-1.7676596E-1,1.1025705E0,1.6919814E0,3.2436104E0,4.244844E0,5.7914367E0,8.037543E0,1.0036919E1,1.1758505E1,1.4061817E1,-6.0841074E0,-5.4582753E0,-4.4612784E0,-5.205833E0,-3.6571E0,-4.8006487E0,-3.1347213E0,-2.5303352E0,-2.4887888E0,-1.5153242E0,-1.3921545E0,-4.974876E-1,-5.8230585E-1,6.681588E-1,7.0917326E-1,1.7787458E0,1.1544156E0,2.1671324E0,2.9937308E0,4.318572E0,3.1602826E0,4.4732347E0,5.119005E0,6.2583747E0,7.311049E0,8.537112E0,8.760728E0,1.0376124E1,1.0438825E1,1.2043547E1,1.3473438E1,1.53112955E1,-3.0457172E-1,8.095636E-2,-2.5816414E-1,-2.95535E-1,-2.3392753E-1,-1.9860448E-1,-2.6860264E-1,-2.2602251E-1,-1.8984462E-1,-1.3657127E-1,-2.6145726E-1,-2.1747358E-1,-1.6789806E-1,-1.0893774E-1,-1.3940112E-1,-1.0537036E-1,-1.472842E-1,-1.078151E-1,1.551679E-1,-7.909492E-2,-9.676971E-2,-5.2126694E-2,-2.0562725E-2,-1.07654564E-1,-4.3490715E-2,-5.301377E-3,4.1366294E-2,-9.6865244E-2,1.8784326E-2,5.4843225E-2,7.478439E-2,1.2267704E-1,2.4918342E-2,7.644989E-2,9.976976E-2,1.5911046E-1,1.3088037E-1,1.7602263E-1,2.2188377E-1,1.7848577E-2,9.272253E-2,1.7266311E-1,2.0785001E-1,2.5339112E-1,2.5940248E-1,1.3458817E-1,2.905862E-1,3.4024307E-1,2.933919E-1,3.7648496E-1,4.1524005E-1,4.9194583E-1,1.5413313E-1,4.455703E-1,4.7023493E-1,5.2809745E-1,4.6546465E-1,5.432414E-1,5.9337443E-1,6.803354E-1,5.251539E-1,6.807619E-1,7.8084105E-1,5.4249656E-1],"categories":[],"categories_nodes":[],"categories_segments":[],"categories_sizes":[],"default_left":[0,0,0,0,0,0,0,0,0,0,0,0,0,0,0,0,0,0,0,0,0,0,0,0,0,0,0,0,0,0,0,0,0,0,0,0,0,0,0,0,0,0,0,0,0,0,0,0,0,0,0,0,0,0,0,0,0,0,0,0,0,0,0,0,0,0,0,0,0,0,0,0,0,0,0,0,0,0,0,0,0,0,0,0,0,0,0,0,0,0,0,0,0,0,0,0,0,0,0,0,0,0,0,0,0,0,0,0,0,0,0,0,0,0,0,0,0,0,0,0,0,0,0,0,0,0,0],"id":6,"left_children":[1,3,5,7,9,11,13,15,17,19,21,23,25,27,29,31,33,35,37,39,41,43,45,47,49,51,53,55,57,59,61,63,65,67,69,71,73,75,77,79,81,83,85,87,89,91,93,95,97,99,101,103,105,107,109,111,113,115,117,119,121,123,125,-1,-1,-1,-1,-1,-1,-1,-1,-1,-1,-1,-1,-1,-1,-1,-1,-1,-1,-1,-1,-1,-1,-1,-1,-1,-1,-1,-1,-1,-1,-1,-1,-1,-1,-1,-1,-1,-1,-1,-1,-1,-1,-1,-1,-1,-1,-1,-1,-1,-1,-1,-1,-1,-1,-1,-1,-1,-1,-1,-1,-1,-1,-1,-1],"loss_changes":[2.85116E6,4.5922475E5,4.794935E5,5.6033125E4,7.595534E4,5.5040938E4,6.1589625E4,8.1844375E3,1.0865125E4,1.2938633E4,1.4646274E4,9.7310625E3,9.620406E3,1.201525E4,7.651625E3,1.1694375E3,2.1454375E3,3.5474062E3,1.8239688E3,3.8096406E3,3.8621816E3,5.8669116E3,4.9858086E3,1.4036113E3,4.0847344E3,1.5416953E3,3.5071875E3,2.8591875E3,2.006875E3,1.41275E3,1.484625E3,3.193125E2,9.00375E2,1.3649531E3,6.123125E2,2.465625E3,5.912656E2,1.9667188E3,1.1878203E3,1.7918203E3,1.8802568E3,1.9867188E3,1.277315E3,1.5840979E3,2.3044531E3,1.53219E3,1.3133184E3,6.344866E2,5.028584E2,2.4436172E3,1.3549609E3,4.1290625E2,9.540469E2,7.61125E2,1.5831406E3,9.930625E2,1.3590312E3,8.486172E2,5.9078125E2,2.5203906E2,7.62375E2,5.1909375E2,8.2421875E2,0E0,0E0,0E0,0E0,0E0,0E0,0E0,0E0,0E0,0E0,0E0,0E0,0E0,0E0,0E0,0E0,0E0,0E0,0E0,0E0,0E0,0E0,0E0,0E0,0E0,0E0,0E0,0E0,0E0,0E0,0E0,0E0,0E0,0E0,0E0,0E0,0E0,0E0,0E0,0E0,0E0,0E0,0E0,0E0,0E0,0E0,0E0,0E0,0E0,0E0,0E0,0E0,0E0,0E0,0E0,0E0,0E0,0E0,0E0,0E0,0E0,0E0,0E0,0E0],"parents":[2147483647,0,0,1,1,2,2,3,3,4,4,5,5,6,6,7,7,8,8,9,9,10,10,11,11,12,12,13,13,14,14,15,15,16,16,17,17,18,18,19,19,20,20,21,21,22,22,23,23,24,24,25,25,26,26,27,27,28,28,29,29,30,30,31,31,32,32,33,33,34,34,35,35,36,36,37,37,38,38,39,39,40,40,41,41,42,42,43,43,44,44,45,45,46,46,47,47,48,48,49,49,50,50,51,51,52,52,53,53,54,54,55,55,56,56,57,57,58,58,59,59,60,60,61,61,62,62],"right_children":[2,4,6,8,10,12,14,16,18,20,22,24,26,28,30,32,34,36,38,40,42,44,46,48,50,52,54,56,58,60,62,64,66,68,70,72,74,76,78,80,82,84,86,88,90,92,94,96,98,100,102,104,106,108,110,112,114,116,118,120,122,124,126,-1,-1,-1,-1,-1,-1,-1,-1,-1,-1,-1,-1,-1,-1,-1,-1,-1,-1,-1,-1,-1,-1,-1,-1,-1,-1,-1,-1,-1,-1,-1,-1,-1,-1,-1,-1,-1,-1,-1,-1,-1,-1,-1,-1,-1,-1,-1,-1,-1,-1,-1,-1,-1,-1,-1,-1,-1,-1,-1,-1,-1,-1,-1,-1],"split_conditions":[1.308E1,7E0,2.02E1,3.8E0,9.8E0,1.608E1,2.564E1,3E0,5.5E0,8.12E0,1.084E1,1.26E1,1.71E1,2.316E1,2.93E1,1.5E0,4E0,5E0,6.16E0,9E0,8.8E0,1.24E1,1.32E1,2.78E1,1.8E1,2.74E1,1.8E1,2.124E1,2.16E1,2.34E1,3.1E1,2.26E1,4E0,5.28E0,1.46E1,6.48E0,4.5E0,8E0,2.02E1,1.96E1,1E0,2.14E1,7E0,9.96E0,6E0,2.76E1,1.58E1,1E1,1.528E1,1.476E1,1E1,1.2E1,1.66E1,1E1,2E1,1.72E1,2.58E1,1E0,3.06E2,3.78E2,2.952E1,9.6E1,6E0,-3.0457172E-1,8.095636E-2,-2.5816414E-1,-2.95535E-1,-2.3392753E-1,-1.9860448E-1,-2.6860264E-1,-2.2602251E-1,-1.8984462E-1,-1.3657127E-1,-2.6145726E-1,-2.1747358E-1,-1.6789806E-1,-1.0893774E-1,-1.3940112E-1,-1.0537036E-1,-1.472842E-1,-1.078151E-1,1.551679E-1,-7.909492E-2,-9.676971E-2,-5.2126694E-2,-2.0562725E-2,-1.07654564E-1,-4.3490715E-2,-5.301377E-3,4.1366294E-2,-9.6865244E-2,1.8784326E-2,5.4843225E-2,7.478439E-2,1.2267704E-1,2.4918342E-2,7.644989E-2,9.976976E-2,1.5911046E-1,1.3088037E-1,1.7602263E-1,2.2188377E-1,1.7848577E-2,9.272253E-2,1.7266311E-1,2.0785001E-1,2.5339112E-1,2.5940248E-1,1.3458817E-1,2.905862E-1,3.4024307E-1,2.933919E-1,3.7648496E-1,4.1524005E-1,4.9194583E-1,1.5413313E-1,4.455703E-1,4.7023493E-1,5.2809745E-1,4.6546465E-1,5.432414E-1,5.9337443E-1,6.803354E-1,5.251539E-1,6.807619E-1,7.8084105E-1,5.4249656E-1],"split_indices":[8,7,8,6,7,8,8,8,7,8,8,6,7,8,7,6,4,4,8,6,6,6,6,5,6,5,8,8,6,6,8,5,4,8,5,8,8,6,5,5,4,5,4,8,4,5,6,6,8,8,4,6,6,4,6,6,6,4,0,0,8,0,4,0,0,0,0,0,0,0,0,0,0,0,0,0,0,0,0,0,0,0,0,0,0,0,0,0,0,0,0,0,0,0,0,0,0,0,0,0,0,0,0,0,0,0,0,0,0,0,0,0,0,0,0,0,0,0,0,0,0,0,0,0,0,0,0],"split_type":[0,0,0,0,0,0,0,0,0,0,0,0,0,0,0,0,0,0,0,0,0,0,0,0,0,0,0,0,0,0,0,0,0,0,0,0,0,0,0,0,0,0,0,0,0,0,0,0,0,0,0,0,0,0,0,0,0,0,0,0,0,0,0,0,0,0,0,0,0,0,0,0,0,0,0,0,0,0,0,0,0,0,0,0,0,0,0,0,0,0,0,0,0,0,0,0,0,0,0,0,0,0,0,0,0,0,0,0,0,0,0,0,0,0,0,0,0,0,0,0,0,0,0,0,0,0,0],"sum_hessian":[2.04382E5,1.46791E5,5.7591E4,7.3568E4,7.3223E4,3.8309E4,1.9282E4,3.1059E4,4.2509E4,3.7356E4,3.5867E4,2.0758E4,1.7551E4,1.2894E4,6.388E3,1.2456E4,1.8603E4,2.2308E4,2.0201E4,1.7934E4,1.9422E4,1.712E4,1.8747E4,5.504E3,1.5254E4,6.28E3,1.1271E4,8.049E3,4.845E3,4.089E3,2.299E3,5.482E3,6.974E3,1.3016E4,5.587E3,1.9133E4,3.175E3,9.249E3,1.0952E4,1.1836E4,6.098E3,1.047E4,8.952E3,1.1568E4,5.552E3,1.1853E4,6.894E3,2.584E3,2.92E3,1.238E4,2.874E3,1.095E3,5.185E3,4.624E3,6.647E3,3.286E3,4.763E3,1.023E3,3.822E3,7.33E2,3.356E3,1.571E3,7.28E2,5.477E3,5E0,4.229E3,2.745E3,9.007E3,4.009E3,4.491E3,1.096E3,1.662E4,2.513E3,1.623E3,1.552E3,7.496E3,1.753E3,6.802E3,4.15E3,4.982E3,6.854E3,8.6E1,6.012E3,4.098E3,6.372E3,8.51E3,4.42E2,7.213E3,4.355E3,5.233E3,3.19E2,6.373E3,5.48E3,4.859E3,2.035E3,9.4E2,1.644E3,2.5E3,4.2E2,7.226E3,5.154E3,2.79E3,8.4E1,2.02E2,8.93E2,3.39E3,1.795E3,4.495E3,1.29E2,3.664E3,2.983E3,4.36E2,2.85E3,4.048E3,7.15E2,2.7E1,9.96E2,6.22E2,3.2E3,2.07E2,5.26E2,3.024E3,3.32E2,7.5E1,1.496E3,6.79E2,4.9E1],"tree_param":{"num_deleted":"0","num_feature":"9","num_nodes":"127","size_leaf_vector":"1"}},{"base_weights":[-4.850494E-3,-2.0599575E0,6.041334E0,-3.5577838E0,-2.593539E-2,4.1254873E0,9.803431E0,-4.579737E0,-2.6015391E0,-1.0746384E0,8.9557713E-1,3.3148942E0,5.8137007E0,8.526453E0,1.2021855E1,-5.144898E0,-4.0655065E0,-3.014451E0,-1.6794529E0,-1.9017192E0,-6.1315274E-1,2.0408913E-1,1.4981973E0,2.5301352E0,3.914671E0,5.2987776E0,6.604178E0,7.77155E0,9.515281E0,1.1317829E1,1.3193149E1,-5.493031E0,-4.7210255E0,-4.620637E0,-3.8461041E0,-3.4720519E0,-2.5318701E0,-1.8924055E0,-3.3346766E-1,-2.4712238E0,-1.4241838E0,-9.9381584E-1,3.0639997E-1,3.1542465E-1,-1.7719318E0,1.2585086E0,2.6905458E0,2.014358E0,3.168465E0,3.5069637E0,4.4915304E0,4.078215E0,5.5461235E0,6.731522E0,4.0633793E0,7.310974E0,8.417364E0,8.279228E0,9.714792E0,1.00798645E1,1.1687025E1,1.2318207E1,1.3959618E1,-2.6513883E-1,-2.858266E-1,-2.1932033E-1,-2.5769323E-1,-2.1675912E-1,-2.4751905E-1,-1.8413219E-1,-2.2144179E-1,-1.6725844E-1,-2.1994033E-1,-1.4114027E-1,-1.0219828E-1,-8.129525E-2,-1.2882143E-1,-7.6452154E-3,-1.8426135E-1,-1.8102019E-1,-1.1404365E-1,-6.371148E-2,-1.1818104E-1,-9.373806E-2,-4.3151017E-2,3.029719E-3,4.9599662E-2,3.021351E-3,6.1010238E-2,-1.10592686E-1,-3.1082607E-3,4.4244993E-2,7.84894E-2,1.24612294E-1,1.9243328E-1,6.502863E-2,1.2511776E-1,1.1196645E-1,1.7039332E-1,1.5886964E-1,2.1326838E-1,2.1613371E-1,2.768524E-1,1.6179179E-1,2.2887297E-1,2.57828E-1,3.0931368E-1,3.1529465E-1,3.5995123E-1,3.262111E-1,1.7085145E-1,2.4084222E-1,3.6867484E-1,4.064718E-1,4.6794802E-1,1.5473168E-1,4.2165232E-1,4.686891E-1,5.0894E-1,4.954825E-1,7.190268E-1,5.878447E-1,4.4984123E-1,6.426177E-1,5.693757E-1,4.1656896E-1,7.0284903E-1],"categories":[],"categories_nodes":[],"categories_segments":[],"categories_sizes":[],"default_left":[0,0,0,0,0,0,0,0,0,0,0,0,0,0,0,0,0,0,0,0,0,0,0,0,0,0,0,0,0,0,0,0,0,0,0,0,0,0,0,0,0,0,0,0,0,0,0,0,0,0,0,0,0,0,0,0,0,0,0,0,0,0,0,0,0,0,0,0,0,0,0,0,0,0,0,0,0,0,0,0,0,0,0,0,0,0,0,0,0,0,0,0,0,0,0,0,0,0,0,0,0,0,0,0,0,0,0,0,0,0,0,0,0,0,0,0,0,0,0,0,0,0,0,0,0,0,0],"id":7,"left_children":[1,3,5,7,9,11,13,15,17,19,21,23,25,27,29,31,33,35,37,39,41,43,45,47,49,51,53,55,57,59,61,63,65,67,69,71,73,75,77,79,81,83,85,87,89,91,93,95,97,99,101,103,105,107,109,111,113,115,117,119,121,123,125,-1,-1,-1,-1,-1,-1,-1,-1,-1,-1,-1,-1,-1,-1,-1,-1,-1,-1,-1,-1,-1,-1,-1,-1,-1,-1,-1,-1,-1,-1,-1,-1,-1,-1,-1,-1,-1,-1,-1,-1,-1,-1,-1,-1,-1,-1,-1,-1,-1,-1,-1,-1,-1,-1,-1,-1,-1,-1,-1,-1,-1,-1,-1,-1],"loss_changes":[2.5381935E6,4.6446506E5,3.7345012E5,8.57885E4,6.24831E4,4.6968E4,4.94275E4,1.2313125E4,1.7265312E4,1.1541398E4,1.4340586E4,1.0909859E4,4.4981875E3,8.2118125E3,5.116E3,2.9570625E3,2.6892812E3,6.9095938E3,4.021375E3,2.941789E3,6.795277E3,3.52652E3,5.252051E3,3.3034258E3,3.0765312E3,2.0149062E3,1.39275E3,1.812375E3,1.1035625E3,1.7080938E3,1.4314688E3,4.4140625E2,1.2987188E3,5.706875E2,1.5016562E3,1.875875E3,2.1592344E3,2.2042812E3,1.1602195E3,1.071918E3,8.271504E2,1.5802881E3,9.5782275E2,3.5005918E3,6.429629E2,1.7794609E3,6.9705664E2,1.9344785E3,9.913281E2,1.9130469E3,9.366328E2,4.650371E2,1.366875E3,7.859375E2,3.1490674E2,5.391094E2,6.3315625E2,5.1141016E2,5.5778125E2,5.34625E2,4.7146875E2,4.1290625E2,5.771875E2,0E0,0E0,0E0,0E0,0E0,0E0,0E0,0E0,0E0,0E0,0E0,0E0,0E0,0E0,0E0,0E0,0E0,0E0,0E0,0E0,0E0,0E0,0E0,0E0,0E0,0E0,0E0,0E0,0E0,0E0,0E0,0E0,0E0,0E0,0E0,0E0,0E0,0E0,0E0,0E0,0E0,0E0,0E0,0E0,0E0,0E0,0E0,0E0,0E0,0E0,0E0,0E0,0E0,0E0,0E0,0E0,0E0,0E0,0E0,0E0,0E0,0E0,0E0,0E0],"parents":[2147483647,0,0,1,1,2,2,3,3,4,4,5,5,6,6,7,7,8,8,9,9,10,10,11,11,12,12,13,13,14,14,15,15,16,16,17,17,18,18,19,19,20,20,21,21,22,22,23,23,24,24,25,25,26,26,27,27,28,28,29,29,30,30,31,31,32,32,33,33,34,34,35,35,36,36,37,37,38,38,39,39,40,40,41,41,42,42,43,43,44,44,45,45,46,46,47,47,48,48,49,49,50,50,51,51,52,52,53,53,54,54,55,55,56,56,57,57,58,58,59,59,60,60,61,61,62,62],"right_children":[2,4,6,8,10,12,14,16,18,20,22,24,26,28,30,32,34,36,38,40,42,44,46,48,50,52,54,56,58,60,62,64,66,68,70,72,74,76,78,80,82,84,86,88,90,92,94,96,98,100,102,104,106,108,110,112,114,116,118,120,122,124,126,-1,-1,-1,-1,-1,-1,-1,-1,-1,-1,-1,-1,-1,-1,-1,-1,-1,-1,-1,-1,-1,-1,-1,-1,-1,-1,-1,-1,-1,-1,-1,-1,-1,-1,-1,-1,-1,-1,-1,-1,-1,-1,-1,-1,-1,-1,-1,-1,-1,-1,-1,-1,-1,-1,-1,-1,-1,-1,-1,-1,-1,-1,-1,-1],"split_conditions":[1.376E1,7.96E0,2.072E1,4.8E0,1.02E1,1.764E1,2.564E1,3.7E0,8E0,2.14E1,1.116E1,1.5E1,2E1,2.316E1,2.86E1,2.4E0,2.8E0,5.92E0,1.16E1,7.2E0,1.072E1,6E0,1.58E1,1.516E1,1.62E1,2.93E1,7E0,2.26E1,2.06E1,2.42E1,3.02E1,4E0,3E0,3E0,4E0,5E0,2.06E1,3E0,1E1,3.8E0,4E0,6.2E0,1.24E1,1.36E1,1.064E1,1.224E1,1.92E1,2.83E1,2.69E1,1.82E1,2.1E1,1.56E1,1.924E1,1.948E1,2.06E1,1E0,2.64E1,1E0,1.7E1,3E1,1E1,3.58E1,1E0,-2.6513883E-1,-2.858266E-1,-2.1932033E-1,-2.5769323E-1,-2.1675912E-1,-2.4751905E-1,-1.8413219E-1,-2.2144179E-1,-1.6725844E-1,-2.1994033E-1,-1.4114027E-1,-1.0219828E-1,-8.129525E-2,-1.2882143E-1,-7.6452154E-3,-1.8426135E-1,-1.8102019E-1,-1.1404365E-1,-6.371148E-2,-1.1818104E-1,-9.373806E-2,-4.3151017E-2,3.029719E-3,4.9599662E-2,3.021351E-3,6.1010238E-2,-1.10592686E-1,-3.1082607E-3,4.4244993E-2,7.84894E-2,1.24612294E-1,1.9243328E-1,6.502863E-2,1.2511776E-1,1.1196645E-1,1.7039332E-1,1.5886964E-1,2.1326838E-1,2.1613371E-1,2.768524E-1,1.6179179E-1,2.2887297E-1,2.57828E-1,3.0931368E-1,3.1529465E-1,3.5995123E-1,3.262111E-1,1.7085145E-1,2.4084222E-1,3.6867484E-1,4.064718E-1,4.6794802E-1,1.5473168E-1,4.2165232E-1,4.686891E-1,5.0894E-1,4.954825E-1,7.190268E-1,5.878447E-1,4.4984123E-1,6.426177E-1,5.693757E-1,4.1656896E-1,7.0284903E-1],"split_indices":[8,8,8,6,6,8,8,8,6,5,8,6,6,8,8,6,6,8,6,6,8,4,6,8,8,5,4,6,6,6,6,4,4,4,4,4,5,4,4,6,4,6,8,6,8,8,6,5,5,6,6,6,8,8,6,4,6,4,2,2,4,5,1,0,0,0,0,0,0,0,0,0,0,0,0,0,0,0,0,0,0,0,0,0,0,0,0,0,0,0,0,0,0,0,0,0,0,0,0,0,0,0,0,0,0,0,0,0,0,0,0,0,0,0,0,0,0,0,0,0,0,0,0,0,0,0,0],"split_type":[0,0,0,0,0,0,0,0,0,0,0,0,0,0,0,0,0,0,0,0,0,0,0,0,0,0,0,0,0,0,0,0,0,0,0,0,0,0,0,0,0,0,0,0,0,0,0,0,0,0,0,0,0,0,0,0,0,0,0,0,0,0,0,0,0,0,0,0,0,0,0,0,0,0,0,0,0,0,0,0,0,0,0,0,0,0,0,0,0,0,0,0,0,0,0,0,0,0,0,0,0,0,0,0,0,0,0,0,0,0,0,0,0,0,0,0,0,0,0,0,0,0,0,0,0,0,0],"sum_hessian":[2.0427E5,1.52452E5,5.1818E4,8.7798E4,6.4654E4,3.4335E4,1.7483E4,4.2439E4,4.5359E4,3.024E4,3.4414E4,2.3199E4,1.1136E4,1.1099E4,6.384E3,2.0214E4,2.2225E4,3.1328E4,1.4031E4,1.0829E4,1.9411E4,1.6026E4,1.8388E4,1.0052E4,1.3147E4,6.748E3,4.388E3,6.299E3,4.8E3,3.994E3,2.39E3,1.1092E4,9.122E3,6.29E3,1.5935E4,1.6077E4,1.5251E4,1.2114E4,1.917E3,4.937E3,5.892E3,1.3728E4,5.683E3,1.5172E4,8.54E2,1.5312E4,3.076E3,5.562E3,4.49E3,7.707E3,5.44E3,1.14E3,5.608E3,4.177E3,2.11E2,3.684E3,2.615E3,6.73E2,4.127E3,9.24E2,3.07E3,1.124E3,1.266E3,6.005E3,5.087E3,5.151E3,3.971E3,3.379E3,2.911E3,1.245E4,3.485E3,1.4145E4,1.932E3,9.551E3,5.7E3,8.72E3,3.394E3,1.82E3,9.7E1,6.99E2,4.238E3,5.083E3,8.09E2,1.773E3,1.1955E4,4.184E3,1.499E3,1.1837E4,3.335E3,6.79E2,1.75E2,6.961E3,8.351E3,2.629E3,4.47E2,2.26E3,3.302E3,9.22E2,3.568E3,5.376E3,2.331E3,4.688E3,7.52E2,4.27E2,7.13E2,3.492E3,2.116E3,2.194E3,1.983E3,4.2E1,1.69E2,9.2E1,3.592E3,2.01E3,6.05E2,2E1,6.53E2,2.391E3,1.736E3,8.92E2,3.2E1,2.989E3,8.1E1,7.06E2,4.18E2,2.3E1,1.243E3],"tree_param":{"num_deleted":"0","num_feature":"9","num_nodes":"127","size_leaf_vector":"1"}},{"base_weights":[5.7341075E-3,-2.0041611E0,5.672305E0,-3.4650574E0,-1.12892725E-1,3.7473285E0,9.122807E0,-4.3482203E0,-2.615359E0,-7.828167E-1,1.024538E0,2.7008429E0,4.8298297E0,7.6049147E0,1.0913532E1,-4.956031E0,-3.9293528E0,-3.0580826E0,-2.1598928E0,-1.3567927E0,-2.1994169E-1,6.0317636E-1,1.6164576E0,2.1498573E0,3.278026E0,4.203725E0,5.5165424E0,6.986744E0,8.320449E0,1.025879E1,1.2616114E1,-4.6098714E0,-5.255588E0,-4.2188196E0,-3.5370886E0,-2.8902018E0,-3.8972929E0,-2.4846327E0,-1.7477999E0,-1.2215139E0,-2.3054385E0,-7.385136E-1,3.2598846E-2,7.093872E-1,-1.1916767E0,1.5429726E0,3.892167E0,9.791603E-1,2.3213978E0,3.368936E0,1.8345734E0,3.429989E0,4.48838E0,4.5682735E0,5.8018036E0,5.3749104E0,7.1118517E0,7.9811425E0,9.207495E0,9.534687E0,1.0686853E1,1.199716E1,1.3846832E1,-2.7213198E-1,-2.2271895E-1,-2.7501127E-1,-2.5004593E-1,-1.966768E-1,-2.3166561E-1,-1.846764E-1,-1.512395E-1,-1.6328314E-1,-1.3473532E-1,-1.8154782E-1,-2.2860019E-1,-1.1503744E-1,-1.7113093E-1,-1.00849725E-1,-6.397729E-2,-7.12573E-2,-3.770555E-2,-1.4972691E-1,-8.874885E-2,-2.6705807E-2,-6.2404234E-2,-9.385088E-3,3.5431247E-2,2.5504429E-2,8.620931E-2,-1.1233481E-1,-1.4998326E-2,8.004854E-2,-7.4432786E-3,1.8721539E-1,4.9421006E-1,-6.7705624E-2,6.2581725E-2,1.0708179E-1,1.521735E-1,1.4755315E-1,1.8308719E-1,4.3484095E-2,1.3068594E-1,1.1158756E-1,1.834497E-1,2.1525867E-1,2.653947E-1,2.1949843E-1,3.8683045E-1,2.7108267E-1,3.1617054E-1,5.2660234E-2,2.757773E-1,3.3891898E-1,3.7691998E-1,3.9567629E-1,5.1045334E-1,1.16597645E-1,4.6238056E-1,4.8398677E-1,3.7954602E-1,5.1158226E-1,5.6805557E-1,5.639715E-1,6.3965654E-1,7.042249E-1,4.5884696E-1],"categories":[],"categories_nodes":[],"categories_segments":[],"categories_sizes":[],"default_left":[0,0,0,0,0,0,0,0,0,0,0,0,0,0,0,0,0,0,0,0,0,0,0,0,0,0,0,0,0,0,0,0,0,0,0,0,0,0,0,0,0,0,0,0,0,0,0,0,0,0,0,0,0,0,0,0,0,0,0,0,0,0,0,0,0,0,0,0,0,0,0,0,0,0,0,0,0,0,0,0,0,0,0,0,0,0,0,0,0,0,0,0,0,0,0,0,0,0,0,0,0,0,0,0,0,0,0,0,0,0,0,0,0,0,0,0,0,0,0,0,0,0,0,0,0,0,0],"id":8,"left_children":[1,3,5,7,9,11,13,15,17,19,21,23,25,27,29,31,33,35,37,39,41,43,45,47,49,51,53,55,57,59,61,63,65,67,69,71,73,75,77,79,81,83,85,87,89,91,93,95,97,99,101,103,105,107,109,111,113,115,117,119,121,123,125,-1,-1,-1,-1,-1,-1,-1,-1,-1,-1,-1,-1,-1,-1,-1,-1,-1,-1,-1,-1,-1,-1,-1,-1,-1,-1,-1,-1,-1,-1,-1,-1,-1,-1,-1,-1,-1,-1,-1,-1,-1,-1,-1,-1,-1,-1,-1,-1,-1,-1,-1,-1,-1,-1,-1,-1,-1,-1,-1,-1,-1,-1,-1,-1],"loss_changes":[2.3251648E6,4.163813E5,3.5500788E5,6.379325E4,5.0046918E4,3.88575E4,5.1944625E4,1.05944375E4,8.731906E3,1.3353756E4,6.070965E3,5.5420703E3,7.2279688E3,4.5256875E3,9.657E3,1.7390938E3,2.788125E3,3.0844375E3,2.8546562E3,2.623496E3,2.7331682E3,2.7122153E3,1.6868691E3,1.7910625E3,1.1118438E3,1.9285312E3,2.1483438E3,1.0841875E3,1.3705938E3,1.865125E3,1.688E3,9.9834375E2,5.4E2,1.6607656E3,8.29375E2,1.3354688E3,6.4110547E2,2.0525703E3,1.1846992E3,1.7038516E3,9.2791016E2,7.1123315E2,2.0905E3,2.7151094E3,7.472395E2,9.626328E2,2.4295947E2,7.283646E2,1.004375E3,9.697578E2,3.78885E2,6.72834E2,9.4539844E2,1.0190664E3,1.1905469E3,2.4034375E2,6.8315625E2,4.4315625E2,3.4278906E2,5.938594E2,1.1053125E3,7.851875E2,7.675156E2,0E0,0E0,0E0,0E0,0E0,0E0,0E0,0E0,0E0,0E0,0E0,0E0,0E0,0E0,0E0,0E0,0E0,0E0,0E0,0E0,0E0,0E0,0E0,0E0,0E0,0E0,0E0,0E0,0E0,0E0,0E0,0E0,0E0,0E0,0E0,0E0,0E0,0E0,0E0,0E0,0E0,0E0,0E0,0E0,0E0,0E0,0E0,0E0,0E0,0E0,0E0,0E0,0E0,0E0,0E0,0E0,0E0,0E0,0E0,0E0,0E0,0E0,0E0,0E0],"parents":[2147483647,0,0,1,1,2,2,3,3,4,4,5,5,6,6,7,7,8,8,9,9,10,10,11,11,12,12,13,13,14,14,15,15,16,16,17,17,18,18,19,19,20,20,21,21,22,22,23,23,24,24,25,25,26,26,27,27,28,28,29,29,30,30,31,31,32,32,33,33,34,34,35,35,36,36,37,37,38,38,39,39,40,40,41,41,42,42,43,43,44,44,45,45,46,46,47,47,48,48,49,49,50,50,51,51,52,52,53,53,54,54,55,55,56,56,57,57,58,58,59,59,60,60,61,61,62,62],"right_children":[2,4,6,8,10,12,14,16,18,20,22,24,26,28,30,32,34,36,38,40,42,44,46,48,50,52,54,56,58,60,62,64,66,68,70,72,74,76,78,80,82,84,86,88,90,92,94,96,98,100,102,104,106,108,110,112,114,116,118,120,122,124,126,-1,-1,-1,-1,-1,-1,-1,-1,-1,-1,-1,-1,-1,-1,-1,-1,-1,-1,-1,-1,-1,-1,-1,-1,-1,-1,-1,-1,-1,-1,-1,-1,-1,-1,-1,-1,-1,-1,-1,-1,-1,-1,-1,-1,-1,-1,-1,-1,-1,-1,-1,-1,-1,-1,-1,-1,-1,-1,-1,-1,-1,-1,-1,-1],"split_conditions":[1.356E1,7.8E0,2.02E1,4.8E0,1.12E1,1.62E1,2.436E1,2.9E0,6.4E0,9.16E0,1.208E1,1.49E1,1.8E1,2.216E1,2.86E1,3E0,4.5E0,4E0,2E1,4E0,2.27E1,6E0,1.69E1,2.4E1,6E0,2.95E1,3.04E1,1.8E1,2.46E1,2.564E1,3.1E1,4.75E0,2.3333333E0,3E0,6.24E0,5.5E0,1E1,4E0,8.12E0,9.4E0,2.12E1,3E0,1.144E1,1.37E1,1.072E1,9E0,1.611E3,1.92E1,1.528E1,1.492E1,3.06E1,2.52E1,1.93E1,2.15E1,1.924E1,2.49E1,2.124E1,3E1,2.8E1,6E0,2.76E1,1E0,8E0,-2.7213198E-1,-2.2271895E-1,-2.7501127E-1,-2.5004593E-1,-1.966768E-1,-2.3166561E-1,-1.846764E-1,-1.512395E-1,-1.6328314E-1,-1.3473532E-1,-1.8154782E-1,-2.2860019E-1,-1.1503744E-1,-1.7113093E-1,-1.00849725E-1,-6.397729E-2,-7.12573E-2,-3.770555E-2,-1.4972691E-1,-8.874885E-2,-2.6705807E-2,-6.2404234E-2,-9.385088E-3,3.5431247E-2,2.5504429E-2,8.620931E-2,-1.1233481E-1,-1.4998326E-2,8.004854E-2,-7.4432786E-3,1.8721539E-1,4.9421006E-1,-6.7705624E-2,6.2581725E-2,1.0708179E-1,1.521735E-1,1.4755315E-1,1.8308719E-1,4.3484095E-2,1.3068594E-1,1.1158756E-1,1.834497E-1,2.1525867E-1,2.653947E-1,2.1949843E-1,3.8683045E-1,2.7108267E-1,3.1617054E-1,5.2660234E-2,2.757773E-1,3.3891898E-1,3.7691998E-1,3.9567629E-1,5.1045334E-1,1.16597645E-1,4.6238056E-1,4.8398677E-1,3.7954602E-1,5.1158226E-1,5.6805557E-1,5.639715E-1,6.3965654E-1,7.042249E-1,4.5884696E-1],"split_indices":[8,7,8,7,7,8,8,7,8,8,8,7,8,8,8,4,8,4,5,4,5,4,7,5,4,5,5,7,7,8,8,5,8,4,8,7,4,4,8,7,5,4,8,7,8,4,0,5,8,8,5,5,7,7,8,5,8,2,5,4,7,3,4,0,0,0,0,0,0,0,0,0,0,0,0,0,0,0,0,0,0,0,0,0,0,0,0,0,0,0,0,0,0,0,0,0,0,0,0,0,0,0,0,0,0,0,0,0,0,0,0,0,0,0,0,0,0,0,0,0,0,0,0,0,0,0,0],"split_type":[0,0,0,0,0,0,0,0,0,0,0,0,0,0,0,0,0,0,0,0,0,0,0,0,0,0,0,0,0,0,0,0,0,0,0,0,0,0,0,0,0,0,0,0,0,0,0,0,0,0,0,0,0,0,0,0,0,0,0,0,0,0,0,0,0,0,0,0,0,0,0,0,0,0,0,0,0,0,0,0,0,0,0,0,0,0,0,0,0,0,0,0,0,0,0,0,0,0,0,0,0,0,0,0,0,0,0,0,0,0,0,0,0,0,0,0,0,0,0,0,0,0,0,0,0,0,0],"sum_hessian":[2.04153E5,1.50701E5,5.3452E4,8.5024E4,6.5677E4,3.4312E4,1.914E4,4.1689E4,4.3335E4,4.1333E4,2.4344E4,1.7448E4,1.6864E4,1.0362E4,8.778E3,1.7004E4,2.4685E4,2.1972E4,2.1363E4,2.0464E4,2.0869E4,1.4222E4,1.0122E4,8.929E3,8.519E3,8.825E3,8.039E3,5.565E3,4.797E3,6.345E3,2.433E3,7.896E3,9.108E3,1.4198E4,1.0487E4,1.8313E4,3.659E3,1.1945E4,9.418E3,1.7912E4,2.552E3,6.834E3,1.4035E4,1.3428E4,7.94E2,9.807E3,3.15E2,1.142E3,7.787E3,8.013E3,5.06E2,2.377E3,6.448E3,1.863E3,6.176E3,4.04E2,5.161E3,3.477E3,1.32E3,2.366E3,3.979E3,1.626E3,8.07E2,1.237E3,6.659E3,4.635E3,4.473E3,8.416E3,5.782E3,8.029E3,2.458E3,6.265E3,1.2048E4,2.628E3,1.031E3,9.99E3,1.955E3,5.978E3,3.44E3,1.2475E4,5.437E3,1.108E3,1.444E3,4.879E3,1.955E3,1.0586E4,3.449E3,1.1225E4,2.203E3,3.63E2,4.31E2,9.482E3,3.25E2,3.09E2,6E0,1.19E2,1.023E3,6.238E3,1.549E3,3.306E3,4.707E3,2.27E2,2.79E2,3.97E2,1.98E3,5.275E3,1.173E3,1.766E3,9.7E1,3.579E3,2.597E3,1.3E1,3.91E2,2.906E3,2.255E3,3.379E3,9.8E1,8E0,1.312E3,2.198E3,1.68E2,2.385E3,1.594E3,8.63E2,7.63E2,7.66E2,4.1E1],"tree_param":{"num_deleted":"0","num_feature":"9","num_nodes":"127","size_leaf_vector":"1"}},{"base_weights":[1.51305E-3,-1.9754126E0,5.147288E0,-3.3718224E0,-2.870807E-1,3.458966E0,8.623048E0,-4.251209E0,-2.6560068E0,-1.0678818E0,5.853308E-1,2.6399415E0,4.8954086E0,7.2847123E0,1.0377097E1,-4.7582083E0,-3.8686552E0,-3.2000473E0,-2.2790363E0,-1.6871672E0,-7.012465E-1,2.5638629E-2,9.844019E-1,2.1328287E0,3.2289696E0,4.4388294E0,5.5621657E0,6.690266E0,7.966357E0,9.716711E0,1.1911587E1,-4.9137077E0,-4.17566E0,-4.077744E0,-3.353065E0,-3.063561E0,-4.0773234E0,-2.4538624E0,-1.6747382E0,-2.34183E0,-1.2634274E0,-6.374642E-1,-2.7381034E0,1.1335879E-1,-1.3430943E0,3.4106332E-1,1.177861E0,6.463633E-1,2.2447467E0,2.7125506E0,3.5716496E0,3.7206652E0,4.613249E0,4.7851973E0,5.8944726E0,3.283701E0,6.722708E0,7.6871715E0,8.680858E0,9.176506E0,1.0117911E1,8.687342E0,1.2100764E1,-2.609469E-1,-2.3630889E-1,-2.003449E-1,-2.3112993E-1,-1.9279575E-1,-2.2849178E-1,-1.738303E-1,-1.1588649E-1,-1.5764245E-1,-9.8542236E-2,-2.1972254E-1,-1.8104152E-1,-1.1676259E-1,-1.5788345E-1,-7.794238E-2,-1.6897903E-1,-1.1099489E-1,-1.8340333E-1,-1.21645644E-1,-5.743621E-2,-5.299558E-2,-1.9106505E-2,-1.7448018E-1,-1.19208686E-1,-1.8040482E-2,1.3979146E-2,-1.0636356E-1,-2.5948688E-2,-4.829328E-2,3.0228246E-2,5.2283745E-2,9.546115E-2,1.2179213E-2,1.19360045E-1,6.3606784E-2,1.19939804E-1,-2.5048895E-2,1.3810514E-1,1.8205737E-1,7.8775816E-2,2.046027E-1,1.4293176E-1,2.1406841E-1,2.4650536E-1,1.9572018E-1,2.8080696E-1,4.1331202E-1,2.9114318E-1,1.944999E-1,-1.1580294E-1,3.221739E-1,3.5470733E-1,3.796661E-1,4.51536E-1,4.4596177E-1,3.702194E-1,3.6856595E-1,4.7277126E-1,4.7572613E-1,5.2469367E-1,4.902571E-1,2.6394626E-1,5.6415534E-1,6.417366E-1],"categories":[],"categories_nodes":[],"categories_segments":[],"categories_sizes":[],"default_left":[0,0,0,0,0,0,0,0,0,0,0,0,0,0,0,0,0,0,0,0,0,0,0,0,0,0,0,0,0,0,0,0,0,0,0,0,0,0,0,0,0,0,0,0,0,0,0,0,0,0,0,0,0,0,0,0,0,0,0,0,0,0,0,0,0,0,0,0,0,0,0,0,0,0,0,0,0,0,0,0,0,0,0,0,0,0,0,0,0,0,0,0,0,0,0,0,0,0,0,0,0,0,0,0,0,0,0,0,0,0,0,0,0,0,0,0,0,0,0,0,0,0,0,0,0,0,0],"id":9,"left_children":[1,3,5,7,9,11,13,15,17,19,21,23,25,27,29,31,33,35,37,39,41,43,45,47,49,51,53,55,57,59,61,63,65,67,69,71,73,75,77,79,81,83,85,87,89,91,93,95,97,99,101,103,105,107,109,111,113,115,117,119,121,123,125,-1,-1,-1,-1,-1,-1,-1,-1,-1,-1,-1,-1,-1,-1,-1,-1,-1,-1,-1,-1,-1,-1,-1,-1,-1,-1,-1,-1,-1,-1,-1,-1,-1,-1,-1,-1,-1,-1,-1,-1,-1,-1,-1,-1,-1,-1,-1,-1,-1,-1,-1,-1,-1,-1,-1,-1,-1,-1,-1,-1,-1,-1,-1,-1],"loss_changes":[2.0776448E6,3.4786106E5,3.3261512E5,5.0822812E4,4.5499355E4,4.487572E4,4.3428375E4,7.00975E3,9.123406E3,8.0019414E3,7.046218E3,7.252203E3,4.1928438E3,4.207375E3,8.0093125E3,1.3906875E3,2.2133438E3,2.1690938E3,2.774625E3,3.6330117E3,2.8748408E3,1.5768519E3,2.2916465E3,2.1715742E3,1.9796016E3,1.0135E3,1.4246406E3,5.993594E2,9.0934375E2,1.12325E3,1.3636562E3,6.78875E2,2.2955469E2,1.5862812E3,7.5503125E2,1.5325E3,3.3876953E2,1.6954219E3,1.1614121E3,8.245078E2,1.0648555E3,2.3155693E3,1.7041748E2,9.728754E2,5.1008472E2,1.4672892E3,1.3667422E3,6.416929E2,1.8169375E3,7.1604297E2,9.3121875E2,5.0470117E2,6.746094E2,1.2015898E3,6.2053125E2,1.9574097E2,5.318906E2,3.7615625E2,3.4990625E2,1.1397188E3,6.2834375E2,4.7019922E2,1.2186562E3,0E0,0E0,0E0,0E0,0E0,0E0,0E0,0E0,0E0,0E0,0E0,0E0,0E0,0E0,0E0,0E0,0E0,0E0,0E0,0E0,0E0,0E0,0E0,0E0,0E0,0E0,0E0,0E0,0E0,0E0,0E0,0E0,0E0,0E0,0E0,0E0,0E0,0E0,0E0,0E0,0E0,0E0,0E0,0E0,0E0,0E0,0E0,0E0,0E0,0E0,0E0,0E0,0E0,0E0,0E0,0E0,0E0,0E0,0E0,0E0,0E0,0E0,0E0,0E0],"parents":[2147483647,0,0,1,1,2,2,3,3,4,4,5,5,6,6,7,7,8,8,9,9,10,10,11,11,12,12,13,13,14,14,15,15,16,16,17,17,18,18,19,19,20,20,21,21,22,22,23,23,24,24,25,25,26,26,27,27,28,28,29,29,30,30,31,31,32,32,33,33,34,34,35,35,36,36,37,37,38,38,39,39,40,40,41,41,42,42,43,43,44,44,45,45,46,46,47,47,48,48,49,49,50,50,51,51,52,52,53,53,54,54,55,55,56,56,57,57,58,58,59,59,60,60,61,61,62,62],"right_children":[2,4,6,8,10,12,14,16,18,20,22,24,26,28,30,32,34,36,38,40,42,44,46,48,50,52,54,56,58,60,62,64,66,68,70,72,74,76,78,80,82,84,86,88,90,92,94,96,98,100,102,104,106,108,110,112,114,116,118,120,122,124,126,-1,-1,-1,-1,-1,-1,-1,-1,-1,-1,-1,-1,-1,-1,-1,-1,-1,-1,-1,-1,-1,-1,-1,-1,-1,-1,-1,-1,-1,-1,-1,-1,-1,-1,-1,-1,-1,-1,-1,-1,-1,-1,-1,-1,-1,-1,-1,-1,-1,-1,-1,-1,-1,-1,-1,-1,-1,-1,-1,-1,-1,-1,-1,-1],"split_conditions":[1.34E1,7.5E0,2.07E1,4.2E0,1.02E1,1.72E1,2.5E1,2.4E0,5.5E0,8.2E0,1.14E1,1.52E1,1.91E1,2.27E1,2.93E1,1.2E1,1.54E1,5E0,8E0,2.09E1,1E1,6E0,2.44E1,1.1E1,1.56E1,2.94E1,1.86E1,7.7E1,2.54E1,2.65E1,1.46E2,1.5E0,4E0,4E0,2.29E1,7.2E0,4.7E0,4E0,7E0,6E0,5.25E0,2.15E1,5.27E2,2.27E1,1.6E1,1.02E1,1.46E1,3.23E1,2.51E1,1.02E1,9E0,1.048E3,1.81E1,1.6E1,1E0,6.6E1,2.18E1,2.9E1,2.8E1,2.82E2,2.7E1,2.1E1,3.14E1,-2.609469E-1,-2.3630889E-1,-2.003449E-1,-2.3112993E-1,-1.9279575E-1,-2.2849178E-1,-1.738303E-1,-1.1588649E-1,-1.5764245E-1,-9.8542236E-2,-2.1972254E-1,-1.8104152E-1,-1.1676259E-1,-1.5788345E-1,-7.794238E-2,-1.6897903E-1,-1.1099489E-1,-1.8340333E-1,-1.21645644E-1,-5.743621E-2,-5.299558E-2,-1.9106505E-2,-1.7448018E-1,-1.19208686E-1,-1.8040482E-2,1.3979146E-2,-1.0636356E-1,-2.5948688E-2,-4.829328E-2,3.0228246E-2,5.2283745E-2,9.546115E-2,1.2179213E-2,1.19360045E-1,6.3606784E-2,1.19939804E-1,-2.5048895E-2,1.3810514E-1,1.8205737E-1,7.8775816E-2,2.046027E-1,1.4293176E-1,2.1406841E-1,2.4650536E-1,1.9572018E-1,2.8080696E-1,4.1331202E-1,2.9114318E-1,1.944999E-1,-1.1580294E-1,3.221739E-1,3.5470733E-1,3.796661E-1,4.51536E-1,4.4596177E-1,3.702194E-1,3.6856595E-1,4.7277126E-1,4.7572613E-1,5.2469367E-1,4.902571E-1,2.6394626E-1,5.6415534E-1,6.417366E-1],"split_indices":[7,7,7,6,7,7,7,6,7,6,7,7,7,7,7,5,5,4,6,5,4,4,5,6,6,5,6,0,6,7,0,7,4,4,5,6,7,4,4,4,6,5,0,5,1,6,6,5,5,6,4,0,7,1,4,0,7,2,1,0,6,2,6,0,0,0,0,0,0,0,0,0,0,0,0,0,0,0,0,0,0,0,0,0,0,0,0,0,0,0,0,0,0,0,0,0,0,0,0,0,0,0,0,0,0,0,0,0,0,0,0,0,0,0,0,0,0,0,0,0,0,0,0,0,0,0,0],"split_type":[0,0,0,0,0,0,0,0,0,0,0,0,0,0,0,0,0,0,0,0,0,0,0,0,0,0,0,0,0,0,0,0,0,0,0,0,0,0,0,0,0,0,0,0,0,0,0,0,0,0,0,0,0,0,0,0,0,0,0,0,0,0,0,0,0,0,0,0,0,0,0,0,0,0,0,0,0,0,0,0,0,0,0,0,0,0,0,0,0,0,0,0,0,0,0,0,0,0,0,0,0,0,0,0,0,0,0,0,0,0,0,0,0,0,0,0,0,0,0,0,0,0,0,0,0,0,0],"sum_hessian":[2.04233E5,1.47548E5,5.6685E4,8.0755E4,6.6793E4,3.8154E4,1.8531E4,3.6235E4,4.452E4,3.5247E4,3.1546E4,2.4301E4,1.3853E4,1.0514E4,8.017E3,1.5578E4,2.0657E4,1.8219E4,2.6301E4,1.3106E4,2.2141E4,1.3131E4,1.8415E4,1.3061E4,1.124E4,8.227E3,5.626E3,5.622E3,4.892E3,5.61E3,2.407E3,1.229E4,3.288E3,1.4692E4,5.965E3,1.577E4,2.449E3,2.0397E4,5.904E3,5.148E3,7.958E3,2.147E4,6.71E2,1.2341E4,7.9E2,4.258E3,1.4157E4,9.15E2,1.2146E4,4.487E3,6.753E3,1.612E3,6.615E3,1.69E3,3.936E3,5.4E1,5.568E3,3.526E3,1.366E3,2.401E3,3.209E3,1.36E2,2.271E3,4.667E3,7.623E3,2.394E3,8.94E2,1.0133E4,4.559E3,5.327E3,6.38E2,1.4577E4,1.193E3,1.44E3,1.009E3,1.7459E4,2.938E3,5.53E3,3.74E2,4.717E3,4.31E2,7.09E2,7.249E3,8.087E3,1.3383E4,2.12E2,4.59E2,3.203E3,9.138E3,4.04E2,3.86E2,7.14E2,3.544E3,1.1992E4,2.165E3,7.44E2,1.71E2,1.662E3,1.0484E4,6.8E1,4.419E3,6.525E3,2.28E2,1.124E3,4.88E2,3.238E3,3.377E3,8.28E2,8.62E2,1.12E2,3.824E3,4.9E1,5E0,3.189E3,2.379E3,3.302E3,2.24E2,1.146E3,2.2E2,3.25E2,2.076E3,1.242E3,1.967E3,1.01E2,3.5E1,1.082E3,1.189E3],"tree_param":{"num_deleted":"0","num_feature":"9","num_nodes":"127","size_leaf_vector":"1"}},{"base_weights":[3.2065883E-3,-1.8726777E0,4.905966E0,-3.332204E0,-4.2165408E-1,3.3462646E0,8.358128E0,-4.1623235E0,-2.7250936E0,-1.2656976E0,3.9724523E-1,2.3996096E0,4.6004915E0,7.144089E0,9.811321E0,-4.656896E0,-3.869561E0,-3.1968944E0,-2.396663E0,-1.7686718E0,-8.8509536E-1,-8.144797E-2,8.9534193E-1,1.9664034E0,2.8960023E0,4.1536927E0,5.452785E0,6.6277833E0,7.641674E0,9.197764E0,1.1233022E1,-4.9415617E0,-4.472183E0,-4.176748E0,-3.5719376E0,-3.0438657E0,-4.068489E0,-2.6918237E0,-2.117915E0,-2.3616722E0,-1.4217446E0,-7.5866234E-1,-1.7872119E0,-4.7736013E-1,2.1361145E-1,2.3664165E-1,1.0924062E0,9.216319E-1,2.1472294E0,2.5266058E0,3.3596346E0,3.4626987E0,4.307716E0,4.852075E0,5.69617E0,6.345117E0,7.0670247E0,7.3850164E0,8.301316E0,8.717864E0,9.709262E0,1.1362923E1,9.046535E0,-2.4745314E-1,-5.2347727E-2,-2.1382813E-1,-2.3782878E-1,-1.9837096E-1,-2.2873583E-1,-1.7124711E-1,-1.9956839E-1,-1.592051E-1,-1.3295588E-1,-2.1028133E-1,-1.676577E-1,-1.453015E-1,-1.0916328E-1,-9.911863E-2,-1.4748248E-1,-1.116144E-1,-1.8260081E-1,-8.232607E-2,-4.4393267E-2,-4.8489753E-2,-4.173295E-3,-7.3622465E-2,-1.3286297E-1,-6.141472E-2,-8.787425E-3,1.4372501E-2,-5.419568E-2,-5.753098E-2,2.5988469E-2,3.9011344E-2,7.002702E-2,-1.8858999E-2,6.409493E-2,3.7220076E-2,1.12778306E-1,7.366412E-2,1.3411528E-1,9.8564014E-2,1.7385826E-1,1.5701075E-1,2.0241427E-1,2.1864216E-1,1.125978E-1,1.8363276E-1,2.6187918E-1,3.9283255E-1,2.8178152E-1,2.8545544E-1,3.3307347E-1,3.4137473E-1,3.9331588E-1,2.6835796E-1,3.7300986E-1,4.1986576E-1,2.1580012E-1,3.3394247E-1,4.409473E-1,4.2348242E-1,4.9802992E-1,5.773115E-1,4.783175E-1,5.918996E-1,3.7307248E-1],"categories":[],"categories_nodes":[],"categories_segments":[],"categories_sizes":[],"default_left":[0,0,0,0,0,0,0,0,0,0,0,0,0,0,0,0,0,0,0,0,0,0,0,0,0,0,0,0,0,0,0,0,0,0,0,0,0,0,0,0,0,0,0,0,0,0,0,0,0,0,0,0,0,0,0,0,0,0,0,0,0,0,0,0,0,0,0,0,0,0,0,0,0,0,0,0,0,0,0,0,0,0,0,0,0,0,0,0,0,0,0,0,0,0,0,0,0,0,0,0,0,0,0,0,0,0,0,0,0,0,0,0,0,0,0,0,0,0,0,0,0,0,0,0,0,0,0],"id":10,"left_children":[1,3,5,7,9,11,13,15,17,19,21,23,25,27,29,31,33,35,37,39,41,43,45,47,49,51,53,55,57,59,61,63,65,67,69,71,73,75,77,79,81,83,85,87,89,91,93,95,97,99,101,103,105,107,109,111,113,115,117,119,121,123,125,-1,-1,-1,-1,-1,-1,-1,-1,-1,-1,-1,-1,-1,-1,-1,-1,-1,-1,-1,-1,-1,-1,-1,-1,-1,-1,-1,-1,-1,-1,-1,-1,-1,-1,-1,-1,-1,-1,-1,-1,-1,-1,-1,-1,-1,-1,-1,-1,-1,-1,-1,-1,-1,-1,-1,-1,-1,-1,-1,-1,-1,-1,-1,-1],"loss_changes":[1.879087E6,3.1295547E5,3.0440788E5,3.7116938E4,5.1220203E4,4.62315E4,3.0971625E4,4.487625E3,6.58625E3,6.984207E3,8.968348E3,4.7675547E3,6.3561875E3,2.4130938E3,6.8803125E3,5.860625E2,1.77275E3,2.3166875E3,2.0588438E3,3.2302773E3,2.3681855E3,2.2407805E3,2.392461E3,2.237879E3,1.7627266E3,1.1551875E3,8.142031E2,5.404531E2,7.6440625E2,1.2895E3,5.814375E2,1.27515625E2,3.7048438E2,7.829219E2,5.990547E2,7.932031E2,2.4144531E2,1.3209453E3,1.4495664E3,9.6016016E2,1.1888516E3,2.5977188E3,6.9524756E2,1.8549677E3,1.0533307E3,1.6683086E3,1.3636953E3,8.1980896E2,1.534207E3,9.4070703E2,7.4097266E2,3.6666992E2,1.19325E3,7.3870703E2,4.909375E2,5.410156E2,2.98E2,4.9395312E2,4.833125E2,5.3840625E2,7.5715625E2,6.3709375E2,5.311289E2,0E0,0E0,0E0,0E0,0E0,0E0,0E0,0E0,0E0,0E0,0E0,0E0,0E0,0E0,0E0,0E0,0E0,0E0,0E0,0E0,0E0,0E0,0E0,0E0,0E0,0E0,0E0,0E0,0E0,0E0,0E0,0E0,0E0,0E0,0E0,0E0,0E0,0E0,0E0,0E0,0E0,0E0,0E0,0E0,0E0,0E0,0E0,0E0,0E0,0E0,0E0,0E0,0E0,0E0,0E0,0E0,0E0,0E0,0E0,0E0,0E0,0E0,0E0,0E0],"parents":[2147483647,0,0,1,1,2,2,3,3,4,4,5,5,6,6,7,7,8,8,9,9,10,10,11,11,12,12,13,13,14,14,15,15,16,16,17,17,18,18,19,19,20,20,21,21,22,22,23,23,24,24,25,25,26,26,27,27,28,28,29,29,30,30,31,31,32,32,33,33,34,34,35,35,36,36,37,37,38,38,39,39,40,40,41,41,42,42,43,43,44,44,45,45,46,46,47,47,48,48,49,49,50,50,51,51,52,52,53,53,54,54,55,55,56,56,57,57,58,58,59,59,60,60,61,61,62,62],"right_children":[2,4,6,8,10,12,14,16,18,20,22,24,26,28,30,32,34,36,38,40,42,44,46,48,50,52,54,56,58,60,62,64,66,68,70,72,74,76,78,80,82,84,86,88,90,92,94,96,98,100,102,104,106,108,110,112,114,116,118,120,122,124,126,-1,-1,-1,-1,-1,-1,-1,-1,-1,-1,-1,-1,-1,-1,-1,-1,-1,-1,-1,-1,-1,-1,-1,-1,-1,-1,-1,-1,-1,-1,-1,-1,-1,-1,-1,-1,-1,-1,-1,-1,-1,-1,-1,-1,-1,-1,-1,-1,-1,-1,-1,-1,-1,-1,-1,-1,-1,-1,-1,-1,-1,-1,-1,-1],"split_conditions":[1.34E1,7E0,2.1E1,3.8E0,9.7E0,1.68E1,2.5E1,2E0,5.1E0,8E0,1.14E1,1.52E1,1.93E1,2.27E1,2.93E1,1.5E0,3.3E0,5E0,6.2E0,1.97E1,4E0,1.02E1,2.44E1,1.16E1,1.56E1,2.92E1,1.88E1,2.26E1,2.54E1,2.7E1,7E0,1.95E1,4E0,4E0,4E0,5.6E0,1.575E1,2.01E1,4E0,6E0,2.61E1,1.06E1,1E1,2.27E1,6E0,1.02E1,1.24E1,9.8E0,2.41E1,2.51E1,2.58E1,1.9E1,1E1,3.12E1,1E0,3.29E1,2.3E1,1E0,1E1,2.1E1,6E0,2.7E1,1.2E1,-2.4745314E-1,-5.2347727E-2,-2.1382813E-1,-2.3782878E-1,-1.9837096E-1,-2.2873583E-1,-1.7124711E-1,-1.9956839E-1,-1.592051E-1,-1.3295588E-1,-2.1028133E-1,-1.676577E-1,-1.453015E-1,-1.0916328E-1,-9.911863E-2,-1.4748248E-1,-1.116144E-1,-1.8260081E-1,-8.232607E-2,-4.4393267E-2,-4.8489753E-2,-4.173295E-3,-7.3622465E-2,-1.3286297E-1,-6.141472E-2,-8.787425E-3,1.4372501E-2,-5.419568E-2,-5.753098E-2,2.5988469E-2,3.9011344E-2,7.002702E-2,-1.8858999E-2,6.409493E-2,3.7220076E-2,1.12778306E-1,7.366412E-2,1.3411528E-1,9.8564014E-2,1.7385826E-1,1.5701075E-1,2.0241427E-1,2.1864216E-1,1.125978E-1,1.8363276E-1,2.6187918E-1,3.9283255E-1,2.8178152E-1,2.8545544E-1,3.3307347E-1,3.4137473E-1,3.9331588E-1,2.6835796E-1,3.7300986E-1,4.1986576E-1,2.1580012E-1,3.3394247E-1,4.409473E-1,4.2348242E-1,4.9802992E-1,5.773115E-1,4.783175E-1,5.918996E-1,3.7307248E-1],"split_indices":[7,7,7,6,7,7,7,6,7,6,7,6,7,7,7,7,7,4,6,5,4,6,5,6,7,5,6,6,6,6,4,5,4,4,4,6,5,5,4,4,5,6,4,5,4,6,7,6,5,5,5,6,4,5,4,5,2,4,4,6,1,1,2,0,0,0,0,0,0,0,0,0,0,0,0,0,0,0,0,0,0,0,0,0,0,0,0,0,0,0,0,0,0,0,0,0,0,0,0,0,0,0,0,0,0,0,0,0,0,0,0,0,0,0,0,0,0,0,0,0,0,0,0,0,0,0,0],"split_type":[0,0,0,0,0,0,0,0,0,0,0,0,0,0,0,0,0,0,0,0,0,0,0,0,0,0,0,0,0,0,0,0,0,0,0,0,0,0,0,0,0,0,0,0,0,0,0,0,0,0,0,0,0,0,0,0,0,0,0,0,0,0,0,0,0,0,0,0,0,0,0,0,0,0,0,0,0,0,0,0,0,0,0,0,0,0,0,0,0,0,0,0,0,0,0,0,0,0,0,0,0,0,0,0,0,0,0,0,0,0,0,0,0,0,0,0,0,0,0,0,0,0,0,0,0,0,0],"sum_hessian":[2.04313E5,1.47773E5,5.654E4,7.367E4,7.4103E4,3.8946E4,1.7594E4,3.1117E4,4.2553E4,3.6491E4,3.7612E4,2.2196E4,1.675E4,9.589E3,8.005E3,1.1565E4,1.9552E4,1.7461E4,2.5092E4,1.5717E4,2.0774E4,1.918E4,1.8432E4,1.1855E4,1.0341E4,1.0993E4,5.757E3,4.713E3,4.876E3,5.597E3,2.408E3,4.541E3,7.024E3,9.615E3,9.937E3,1.4857E4,2.604E3,1.2183E4,1.2909E4,5.799E3,9.918E3,1.8222E4,2.552E3,8.19E3,1.099E4,4.245E3,1.4187E4,1.75E3,1.0105E4,5.759E3,4.582E3,2.008E3,8.985E3,1.666E3,4.091E3,2.877E3,1.836E3,3.519E3,1.357E3,2.897E3,2.7E3,2.269E3,1.39E2,4.532E3,9E0,4.171E3,2.853E3,6.308E3,3.307E3,7.365E3,2.572E3,1.0883E4,3.974E3,2.181E3,4.23E2,8.569E3,3.614E3,1.1103E4,1.806E3,5.273E3,5.26E2,6.978E3,2.94E3,1.3881E4,4.341E3,1.876E3,6.76E2,2.346E3,5.844E3,1.0399E4,5.91E2,7.19E2,3.526E3,7.049E3,7.138E3,3.8E2,1.37E3,7.25E2,9.38E3,7.43E2,5.016E3,3.59E2,4.223E3,1.299E3,7.09E2,8.708E3,2.77E2,4.13E2,1.253E3,1.08E2,3.983E3,9.62E2,1.915E3,1.42E3,4.16E2,1.29E2,3.39E3,1.324E3,3.3E1,1.4E2,2.757E3,4.61E2,2.239E3,2.054E3,2.15E2,4.8E1,9.1E1],"tree_param":{"num_deleted":"0","num_feature":"9","num_nodes":"127","size_leaf_vector":"1"}},{"base_weights":[7.7657504E-3,-1.6910232E0,4.8903503E0,-2.9625854E0,-6.761266E-2,3.2411258E0,7.755887E0,-3.8416796E0,-2.3034663E0,-8.266219E-1,7.473291E-1,2.4535341E0,4.25244E0,6.5382543E0,9.453977E0,-4.270349E0,-3.4342175E0,-2.7672656E0,-1.8847144E0,-1.1368454E0,-2.9372844E-1,3.9476034E-1,1.2846184E0,2.0314708E0,2.8537138E0,3.9331887E0,5.0383177E0,6.1510205E0,7.477762E0,8.883847E0,1.075876E1,-4.582726E0,-3.9957287E0,-3.2435963E0,-3.9627995E0,-2.5570989E0,-3.1959133E0,-1.763622E0,-2.651358E0,-1.7208833E0,-7.9881394E-1,-1.9911885E-1,-1.8362514E0,6.47955E-2,7.069651E-1,6.2939745E-1,1.4890608E0,6.0638714E-1,2.0998523E0,1.4786448E0,2.9436545E0,3.6896293E0,4.4524636E0,4.2298727E0,5.2391787E0,5.825082E0,6.6477175E0,7.6673765E0,6.8324084E0,8.292993E0,9.323663E0,1.0073073E1,1.1098143E1,-2.3799513E-1,-2.1945803E-1,-1.9084476E-1,-2.17965E-1,-1.6895156E-1,-1.3877164E-1,-2.0783089E-1,-1.668615E-1,-1.3508843E-1,-9.095904E-2,-1.7438224E-1,-1.3253568E-1,-9.467923E-2,-5.934927E-2,-1.5646702E-1,-1.0265855E-1,-8.140472E-2,-1.4132981E-1,-1.2195182E-1,-3.7471447E-2,-1.486895E-2,4.5630492E-2,-1.1904605E-1,-4.7582764E-2,-2.537303E-2,1.698851E-2,3.82118E-2,-6.958008E-2,-7.230019E-2,4.091937E-2,7.823692E-2,2.5718385E-2,-9.88103E-3,7.8779936E-2,5.4850142E-2,1.1002141E-1,3.637835E-2,1.1809333E-1,1.5020084E-1,4.8689976E-2,1.5017231E-1,1.9325523E-1,3.44701E-1,2.1958351E-1,1.6719061E-1,2.3413947E-1,1.5207605E-1,2.6409885E-1,2.948496E-1,1.931782E-1,3.015368E-1,3.488401E-1,3.8689467E-1,2.8500408E-1,1.5705909E-1,3.5014135E-1,3.289199E-1,4.283018E-1,4.3570733E-1,4.8515233E-1,5.1763445E-1,4.0578514E-1,5.608809E-1,3.980833E-1],"categories":[],"categories_nodes":[],"categories_segments":[],"categories_sizes":[],"default_left":[0,0,0,0,0,0,0,0,0,0,0,0,0,0,0,0,0,0,0,0,0,0,0,0,0,0,0,0,0,0,0,0,0,0,0,0,0,0,0,0,0,0,0,0,0,0,0,0,0,0,0,0,0,0,0,0,0,0,0,0,0,0,0,0,0,0,0,0,0,0,0,0,0,0,0,0,0,0,0,0,0,0,0,0,0,0,0,0,0,0,0,0,0,0,0,0,0,0,0,0,0,0,0,0,0,0,0,0,0,0,0,0,0,0,0,0,0,0,0,0,0,0,0,0,0,0,0],"id":11,"left_children":[1,3,5,7,9,11,13,15,17,19,21,23,25,27,29,31,33,35,37,39,41,43,45,47,49,51,53,55,57,59,61,63,65,67,69,71,73,75,77,79,81,83,85,87,89,91,93,95,97,99,101,103,105,107,109,111,113,115,117,119,121,123,125,-1,-1,-1,-1,-1,-1,-1,-1,-1,-1,-1,-1,-1,-1,-1,-1,-1,-1,-1,-1,-1,-1,-1,-1,-1,-1,-1,-1,-1,-1,-1,-1,-1,-1,-1,-1,-1,-1,-1,-1,-1,-1,-1,-1,-1,-1,-1,-1,-1,-1,-1,-1,-1,-1,-1,-1,-1,-1,-1,-1,-1,-1,-1,-1],"loss_changes":[1.6947532E6,3.1290772E5,2.492195E5,4.9244188E4,4.118418E4,2.665325E4,3.9771375E4,6.3470625E3,9.430234E3,5.6987715E3,6.081758E3,3.1732578E3,3.6570312E3,4.0370312E3,5.8875E3,1.5039375E3,1.8691406E3,2.0682656E3,2.3657656E3,4.3002754E3,1.8509973E3,1.99724E3,1.7031035E3,8.917578E2,1.1902266E3,1.3021875E3,6.6472656E2,1.2488125E3,3.4789062E2,1.3787188E3,4.5625E2,2.6359375E2,5.9784375E2,8.613594E2,5.858125E2,1.6466875E3,1.1962031E3,1.6505078E3,9.888711E2,8.148457E2,1.116249E3,1.3061099E3,3.5090283E2,1.4835668E3,1.1983643E3,1.1884636E3,7.143203E2,3.2837714E2,8.7952344E2,3.9298572E2,1.0749531E3,8.436406E2,4.6310938E2,3.242539E2,3.0221094E2,6.556875E2,5.962656E2,3.0548438E2,4.510547E2,1.0672344E3,6.5634375E2,3.6423438E2,5.188594E2,0E0,0E0,0E0,0E0,0E0,0E0,0E0,0E0,0E0,0E0,0E0,0E0,0E0,0E0,0E0,0E0,0E0,0E0,0E0,0E0,0E0,0E0,0E0,0E0,0E0,0E0,0E0,0E0,0E0,0E0,0E0,0E0,0E0,0E0,0E0,0E0,0E0,0E0,0E0,0E0,0E0,0E0,0E0,0E0,0E0,0E0,0E0,0E0,0E0,0E0,0E0,0E0,0E0,0E0,0E0,0E0,0E0,0E0,0E0,0E0,0E0,0E0,0E0,0E0],"parents":[2147483647,0,0,1,1,2,2,3,3,4,4,5,5,6,6,7,7,8,8,9,9,10,10,11,11,12,12,13,13,14,14,15,15,16,16,17,17,18,18,19,19,20,20,21,21,22,22,23,23,24,24,25,25,26,26,27,27,28,28,29,29,30,30,31,31,32,32,33,33,34,34,35,35,36,36,37,37,38,38,39,39,40,40,41,41,42,42,43,43,44,44,45,45,46,46,47,47,48,48,49,49,50,50,51,51,52,52,53,53,54,54,55,55,56,56,57,57,58,58,59,59,60,60,61,61,62,62],"right_children":[2,4,6,8,10,12,14,16,18,20,22,24,26,28,30,32,34,36,38,40,42,44,46,48,50,52,54,56,58,60,62,64,66,68,70,72,74,76,78,80,82,84,86,88,90,92,94,96,98,100,102,104,106,108,110,112,114,116,118,120,122,124,126,-1,-1,-1,-1,-1,-1,-1,-1,-1,-1,-1,-1,-1,-1,-1,-1,-1,-1,-1,-1,-1,-1,-1,-1,-1,-1,-1,-1,-1,-1,-1,-1,-1,-1,-1,-1,-1,-1,-1,-1,-1,-1,-1,-1,-1,-1,-1,-1,-1,-1,-1,-1,-1,-1,-1,-1,-1,-1,-1,-1,-1,-1,-1,-1],"split_conditions":[1.39E1,7.8E0,2.05E1,4.2E0,1.05E1,1.69E1,2.5E1,2.6E0,5.9E0,9.8E0,1.24E1,1.52E1,1.93E1,2.34E1,2.93E1,7.875E0,4E0,3E0,4E0,2.14E1,6E0,1.14E1,2.53E1,1.08E1,2.51E1,1.92E1,1.78E1,2.26E1,2.5E1,2.65E1,3.05E1,1.4E0,4E0,1.72E1,1.45E1,6.8E0,1.575E1,8.5E0,1.88E1,6E0,5.2E0,1.32E1,2.41E1,2.425E1,1E1,1E1,5E0,1E0,2.45E1,1.62E1,1E1,2.95E1,1E0,1.2E1,7.7E1,9E0,2.18E1,9E0,3.05E1,2.96E2,2.7E1,3.82E1,9E0,-2.3799513E-1,-2.1945803E-1,-1.9084476E-1,-2.17965E-1,-1.6895156E-1,-1.3877164E-1,-2.0783089E-1,-1.668615E-1,-1.3508843E-1,-9.095904E-2,-1.7438224E-1,-1.3253568E-1,-9.467923E-2,-5.934927E-2,-1.5646702E-1,-1.0265855E-1,-8.140472E-2,-1.4132981E-1,-1.2195182E-1,-3.7471447E-2,-1.486895E-2,4.5630492E-2,-1.1904605E-1,-4.7582764E-2,-2.537303E-2,1.698851E-2,3.82118E-2,-6.958008E-2,-7.230019E-2,4.091937E-2,7.823692E-2,2.5718385E-2,-9.88103E-3,7.8779936E-2,5.4850142E-2,1.1002141E-1,3.637835E-2,1.1809333E-1,1.5020084E-1,4.8689976E-2,1.5017231E-1,1.9325523E-1,3.44701E-1,2.1958351E-1,1.6719061E-1,2.3413947E-1,1.5207605E-1,2.6409885E-1,2.948496E-1,1.931782E-1,3.015368E-1,3.488401E-1,3.8689467E-1,2.8500408E-1,1.5705909E-1,3.5014135E-1,3.289199E-1,4.283018E-1,4.3570733E-1,4.8515233E-1,5.1763445E-1,4.0578514E-1,5.608809E-1,3.980833E-1],"split_indices":[7,7,7,6,7,7,7,6,7,6,7,7,7,7,7,5,4,4,4,5,4,6,5,6,5,6,6,6,1,7,7,6,4,5,5,6,5,6,5,4,6,6,5,5,4,6,4,3,5,6,4,5,4,1,0,4,7,4,5,0,6,5,4,0,0,0,0,0,0,0,0,0,0,0,0,0,0,0,0,0,0,0,0,0,0,0,0,0,0,0,0,0,0,0,0,0,0,0,0,0,0,0,0,0,0,0,0,0,0,0,0,0,0,0,0,0,0,0,0,0,0,0,0,0,0,0,0],"split_type":[0,0,0,0,0,0,0,0,0,0,0,0,0,0,0,0,0,0,0,0,0,0,0,0,0,0,0,0,0,0,0,0,0,0,0,0,0,0,0,0,0,0,0,0,0,0,0,0,0,0,0,0,0,0,0,0,0,0,0,0,0,0,0,0,0,0,0,0,0,0,0,0,0,0,0,0,0,0,0,0,0,0,0,0,0,0,0,0,0,0,0,0,0,0,0,0,0,0,0,0,0,0,0,0,0,0,0,0,0,0,0,0,0,0,0,0,0,0,0,0,0,0,0,0,0,0,0],"sum_hessian":[2.04321E5,1.51582E5,5.2739E4,8.5002E4,6.658E4,3.3475E4,1.9264E4,3.6421E4,4.8581E4,3.4473E4,3.2107E4,1.8821E4,1.4654E4,1.1222E4,8.042E3,1.7744E4,1.8677E4,2.3048E4,2.5533E4,2.1788E4,1.2685E4,1.9387E4,1.272E4,9.163E3,9.658E3,1.0425E4,4.229E3,7.952E3,3.27E3,5.602E3,2.44E3,8.294E3,9.45E3,1.3732E4,4.945E3,1.547E4,7.578E3,2.2053E4,3.48E3,7.986E3,1.3802E4,1.1953E4,7.32E2,9.426E3,9.961E3,3.026E3,9.694E3,4.2E2,8.743E3,5.94E2,9.064E3,7.102E3,3.323E3,8.46E2,3.383E3,4.809E3,3.143E3,2.519E3,7.51E2,2.399E3,3.203E3,8.18E2,1.622E3,4.318E3,3.976E3,6.342E3,3.108E3,1.0646E4,3.086E3,3.771E3,1.174E3,1.2932E4,2.538E3,4.933E3,2.645E3,1.7995E4,4.058E3,1.932E3,1.548E3,7.37E3,6.16E2,4.02E2,1.34E4,1.0983E4,9.7E2,4.52E2,2.8E2,3.059E3,6.367E3,9.697E3,2.64E2,2.52E2,2.774E3,8.995E3,6.99E2,2.3E2,1.9E2,7.98E2,7.945E3,3.22E2,2.72E2,8.794E3,2.7E2,1.45E3,5.652E3,7.8E1,3.245E3,2.89E2,5.57E2,6.6E1,3.317E3,4.637E3,1.72E2,1.1E3,2.043E3,2.429E3,9E1,3.4E1,7.17E2,3.33E2,2.066E3,1.238E3,1.965E3,7.12E2,1.06E2,1.56E3,6.2E1],"tree_param":{"num_deleted":"0","num_feature":"9","num_nodes":"127","size_leaf_vector":"1"}},{"base_weights":[3.0064895E-3,-1.6403004E0,4.631422E0,-2.8886936E0,-1.931947E-1,3.1646304E0,7.640872E0,-3.7393022E0,-2.332326E0,-8.869141E-1,6.1771166E-1,2.2199917E0,4.049557E0,6.3825045E0,8.899946E0,-4.1581087E0,-3.4259644E0,-2.6904073E0,-1.8795922E0,-1.2989354E0,-2.4510778E-1,3.5170626E-2,1.0253932E0,1.2323209E0,2.4125903E0,3.571988E0,4.7929435E0,6.063206E0,7.210404E0,8.512164E0,1.0651335E1,-4.286811E0,-3.4151332E0,-3.1909118E0,-3.7368758E0,-2.8899822E0,-1.9477197E0,-2.1515493E0,-1.4874499E0,-1.7883418E0,-9.783034E-1,-4.5217487E-1,8.5719186E-1,-3.6760792E-1,4.1333696E-1,8.5074973E-1,1.8822862E0,1.02451906E-1,1.4796478E0,2.2588496E0,3.235288E0,3.408364E0,4.546601E0,3.1781578E0,4.9158416E0,5.8958054E0,7.151568E0,6.15306E0,7.426048E0,8.246395E0,9.333628E0,1.0776508E1,6.2264676E0,-2.2546934E-1,-2.0462136E-1,-1.1294296E-1,-1.8116267E-1,-1.7800064E-1,-1.5113752E-1,-1.939284E-1,-1.678954E-1,-1.3815705E-1,-1.7151165E-1,-8.9244865E-2,-1.4220369E-1,-1.3363631E-1,-9.3929134E-2,-7.885207E-2,-2.154321E-2,-1.3465859E-1,-8.307751E-2,-7.59479E-2,-4.015436E-2,-1.7422957E-2,-1.0439288E-1,5.000269E-2,-7.179488E-2,-5.1247913E-2,-5.2064536E-3,2.0155362E-4,3.394212E-2,6.9141607E-3,4.9807634E-2,1.0044856E-1,-1.14506535E-1,-2.4048865E-1,1.2510237E-2,-1.04637794E-1,7.7858545E-2,1.0080405E-1,1.3987903E-1,3.8230515E-1,1.571796E-1,1.7323324E-1,8.101231E-2,2.331306E-1,2.3151394E-2,3.19158E-2,1.8816103E-1,2.278354E-1,2.592937E-1,2.766829E-1,3.1573448E-1,4.2401338E-1,3.1719014E-1,2.3028007E-1,3.284172E-1,3.755553E-1,2.7361605E-1,3.8571104E-1,4.2389902E-1,3.9745858E-1,4.8079643E-1,4.7956845E-1,5.6724745E-1,3.740436E-1,-2.7779123E-1],"categories":[],"categories_nodes":[],"categories_segments":[],"categories_sizes":[],"default_left":[0,0,0,0,0,0,0,0,0,0,0,0,0,0,0,0,0,0,0,0,0,0,0,0,0,0,0,0,0,0,0,0,0,0,0,0,0,0,0,0,0,0,0,0,0,0,0,0,0,0,0,0,0,0,0,0,0,0,0,0,0,0,0,0,0,0,0,0,0,0,0,0,0,0,0,0,0,0,0,0,0,0,0,0,0,0,0,0,0,0,0,0,0,0,0,0,0,0,0,0,0,0,0,0,0,0,0,0,0,0,0,0,0,0,0,0,0,0,0,0,0,0,0,0,0,0,0],"id":12,"left_children":[1,3,5,7,9,11,13,15,17,19,21,23,25,27,29,31,33,35,37,39,41,43,45,47,49,51,53,55,57,59,61,63,65,67,69,71,73,75,77,79,81,83,85,87,89,91,93,95,97,99,101,103,105,107,109,111,113,115,117,119,121,123,125,-1,-1,-1,-1,-1,-1,-1,-1,-1,-1,-1,-1,-1,-1,-1,-1,-1,-1,-1,-1,-1,-1,-1,-1,-1,-1,-1,-1,-1,-1,-1,-1,-1,-1,-1,-1,-1,-1,-1,-1,-1,-1,-1,-1,-1,-1,-1,-1,-1,-1,-1,-1,-1,-1,-1,-1,-1,-1,-1,-1,-1,-1,-1,-1],"loss_changes":[1.5549211E6,2.7255466E5,2.3642875E5,3.832275E4,3.9308133E4,3.0097219E4,2.7752188E4,4.1885625E3,7.93375E3,9.958148E3,7.6512197E3,3.3111172E3,6.584125E3,2.27775E3,5.8661875E3,1.2955781E3,1.3273594E3,4.0469062E3,2.3035547E3,3.5971953E3,3.3613687E3,2.0206409E3,2.8347305E3,7.948745E2,1.8365469E3,1.7905E3,1.427125E3,1.1136562E3,5.1041406E2,1.4919062E3,8.113594E2,4.8665625E2,4.798418E2,6.374219E2,4.103203E2,1.467125E3,8.405371E2,1.8116836E3,8.381094E2,1.0368848E3,1.3116641E3,2.1023738E3,7.644048E2,1.1125166E3,7.4353735E2,1.6310654E3,1.7002949E3,3.7281058E2,6.49647E2,1.601207E3,9.0337695E2,9.710078E2,7.6766797E2,7.658423E2,6.313594E2,8.000156E2,8.488281E2,2.390127E2,2.947422E2,6.0478125E2,6.071406E2,9.293281E2,7.214314E2,0E0,0E0,0E0,0E0,0E0,0E0,0E0,0E0,0E0,0E0,0E0,0E0,0E0,0E0,0E0,0E0,0E0,0E0,0E0,0E0,0E0,0E0,0E0,0E0,0E0,0E0,0E0,0E0,0E0,0E0,0E0,0E0,0E0,0E0,0E0,0E0,0E0,0E0,0E0,0E0,0E0,0E0,0E0,0E0,0E0,0E0,0E0,0E0,0E0,0E0,0E0,0E0,0E0,0E0,0E0,0E0,0E0,0E0,0E0,0E0,0E0,0E0,0E0,0E0],"parents":[2147483647,0,0,1,1,2,2,3,3,4,4,5,5,6,6,7,7,8,8,9,9,10,10,11,11,12,12,13,13,14,14,15,15,16,16,17,17,18,18,19,19,20,20,21,21,22,22,23,23,24,24,25,25,26,26,27,27,28,28,29,29,30,30,31,31,32,32,33,33,34,34,35,35,36,36,37,37,38,38,39,39,40,40,41,41,42,42,43,43,44,44,45,45,46,46,47,47,48,48,49,49,50,50,51,51,52,52,53,53,54,54,55,55,56,56,57,57,58,58,59,59,60,60,61,61,62,62],"right_children":[2,4,6,8,10,12,14,16,18,20,22,24,26,28,30,32,34,36,38,40,42,44,46,48,50,52,54,56,58,60,62,64,66,68,70,72,74,76,78,80,82,84,86,88,90,92,94,96,98,100,102,104,106,108,110,112,114,116,118,120,122,124,126,-1,-1,-1,-1,-1,-1,-1,-1,-1,-1,-1,-1,-1,-1,-1,-1,-1,-1,-1,-1,-1,-1,-1,-1,-1,-1,-1,-1,-1,-1,-1,-1,-1,-1,-1,-1,-1,-1,-1,-1,-1,-1,-1,-1,-1,-1,-1,-1,-1,-1,-1,-1,-1,-1,-1,-1,-1,-1,-1,-1,-1,-1,-1,-1],"split_conditions":[1.356E1,7.5E0,2.072E1,4.1E0,1.02E1,1.62E1,2.436E1,3E0,6.2E0,1E1,1.12E1,1.18E1,1.86E1,2.316E1,2.952E1,3.4E0,3E0,7E0,1.96E1,7.92E0,1.36E1,2.56E1,1.58E1,2.4E1,1.84E1,2.08E1,2.82E1,2.58E1,3.22E1,2.84E1,1.486E3,1.5E0,2E0,2.6E0,4.72E0,4E0,4E0,5.2E0,9.52E0,6E0,7.2E0,6E0,6E0,8.2E0,1.12E1,1.084E1,1E1,7.5E0,1E0,1.528E1,1E0,1E1,1E1,1.42E1,1.948E1,1E0,3.4E1,4.09E2,8E0,2.38E1,3.71E2,6.7E2,3.91E1,-2.2546934E-1,-2.0462136E-1,-1.1294296E-1,-1.8116267E-1,-1.7800064E-1,-1.5113752E-1,-1.939284E-1,-1.678954E-1,-1.3815705E-1,-1.7151165E-1,-8.9244865E-2,-1.4220369E-1,-1.3363631E-1,-9.3929134E-2,-7.885207E-2,-2.154321E-2,-1.3465859E-1,-8.307751E-2,-7.59479E-2,-4.015436E-2,-1.7422957E-2,-1.0439288E-1,5.000269E-2,-7.179488E-2,-5.1247913E-2,-5.2064536E-3,2.0155362E-4,3.394212E-2,6.9141607E-3,4.9807634E-2,1.0044856E-1,-1.14506535E-1,-2.4048865E-1,1.2510237E-2,-1.04637794E-1,7.7858545E-2,1.0080405E-1,1.3987903E-1,3.8230515E-1,1.571796E-1,1.7323324E-1,8.101231E-2,2.331306E-1,2.3151394E-2,3.19158E-2,1.8816103E-1,2.278354E-1,2.592937E-1,2.766829E-1,3.1573448E-1,4.2401338E-1,3.1719014E-1,2.3028007E-1,3.284172E-1,3.755553E-1,2.7361605E-1,3.8571104E-1,4.2389902E-1,3.9745858E-1,4.8079643E-1,4.7956845E-1,5.6724745E-1,3.740436E-1,-2.7779123E-1],"split_indices":[8,7,8,7,8,8,8,8,8,6,6,6,8,8,8,6,4,6,5,8,6,5,6,5,6,6,5,6,5,7,0,6,4,6,8,4,4,6,8,6,6,4,4,6,8,8,4,7,4,8,4,4,4,6,8,3,5,0,4,6,0,0,5,0,0,0,0,0,0,0,0,0,0,0,0,0,0,0,0,0,0,0,0,0,0,0,0,0,0,0,0,0,0,0,0,0,0,0,0,0,0,0,0,0,0,0,0,0,0,0,0,0,0,0,0,0,0,0,0,0,0,0,0,0,0,0,0],"split_type":[0,0,0,0,0,0,0,0,0,0,0,0,0,0,0,0,0,0,0,0,0,0,0,0,0,0,0,0,0,0,0,0,0,0,0,0,0,0,0,0,0,0,0,0,0,0,0,0,0,0,0,0,0,0,0,0,0,0,0,0,0,0,0,0,0,0,0,0,0,0,0,0,0,0,0,0,0,0,0,0,0,0,0,0,0,0,0,0,0,0,0,0,0,0,0,0,0,0,0,0,0,0,0,0,0,0,0,0,0,0,0,0,0,0,0,0,0,0,0,0,0,0,0,0,0,0,0],"sum_hessian":[2.04434E5,1.50869E5,5.3565E4,8.0995E4,6.9874E4,3.6014E4,1.7551E4,3.2026E4,4.8969E4,3.7658E4,3.2216E4,1.7421E4,1.8593E4,8.781E3,8.77E3,1.3701E4,1.8325E4,2.734E4,2.1629E4,2.2934E4,1.4724E4,1.3264E4,1.8952E4,2.844E3,1.4577E4,1.1324E4,7.269E3,6.343E3,2.438E3,7.185E3,1.585E3,1.1674E4,2.027E3,1.0442E4,7.883E3,2.1547E4,5.793E3,1.2769E4,8.86E3,9.076E3,1.3858E4,1.2396E4,2.328E3,6.423E3,6.841E3,1.5745E4,3.207E3,5.11E2,2.333E3,1.2285E4,2.292E3,9.7E3,1.624E3,5.16E2,6.753E3,5.503E3,8.4E2,4.18E2,2.02E3,5.437E3,1.748E3,1.54E3,4.5E1,5.432E3,6.242E3,3.11E2,1.716E3,3.262E3,7.18E3,5.731E3,2.152E3,1.7455E4,4.092E3,4.905E3,8.88E2,4.386E3,8.383E3,8.167E3,6.93E2,1.113E3,7.963E3,3.39E3,1.0468E4,1.1658E4,7.38E2,2.192E3,1.36E2,1.837E3,4.586E3,2.692E3,4.149E3,2.669E3,1.3076E4,3.113E3,9.4E1,1.4E1,4.97E2,4.9E1,2.284E3,8.472E3,3.813E3,4.5E1,2.247E3,9.403E3,2.97E2,1.579E3,4.5E1,9.7E1,4.19E2,2.906E3,3.847E3,2.959E3,2.544E3,3.14E2,5.26E2,9.1E1,3.27E2,1.933E3,8.7E1,1.659E3,3.778E3,3.01E2,1.447E3,5.05E2,1.035E3,4.1E1,4E0],"tree_param":{"num_deleted":"0","num_feature":"9","num_nodes":"127","size_leaf_vector":"1"}},{"base_weights":[-7.8950245E-3,-1.7031198E0,3.9967432E0,-2.867806E0,-4.7697252E-1,2.4686894E0,6.7784305E0,-3.6378458E0,-2.373717E0,-1.0860064E0,2.888162E-1,1.7416303E0,3.3543081E0,5.5748467E0,8.287673E0,-3.9834502E0,-3.2238126E0,-2.8228111E0,-2.05091E0,-1.6531801E0,-6.204413E-1,-3.2970887E-1,6.933682E-1,1.4968687E0,2.553414E0,2.9742932E0,4.018209E0,5.05104E0,6.1751494E0,7.9183683E0,1.0108635E1,-4.2091084E0,-3.7293894E0,-3.0747173E0,-3.5816405E0,-2.9544752E0,-1.8833059E0,-2.2642376E0,-1.7076912E0,-1.5724736E0,-2.776865E0,-9.767906E-1,-3.0895153E-1,-2.5131878E-1,-2.6252408E0,7.548631E-1,-1.3824581E0,1.0592366E0,1.8292545E0,5.549507E0,2.484199E0,2.510431E0,3.2124333E0,3.532151E0,4.3972335E0,3.4889302E0,5.1238737E0,5.968669E0,6.9075546E0,7.403077E0,8.43452E0,1.0249607E1,5.598338E0,-2.1131125E-1,-1.4023723E-1,-1.7590646E-1,-2.0592456E-1,-1.5845685E-1,-1.2555316E-1,-2.0320137E-1,-1.7288981E-1,-1.3598551E-1,-1.6848572E-1,-1.0809497E-1,-5.278751E-2,-1.24999225E-1,-9.5583566E-2,-1.0063002E-1,-7.220924E-2,-9.850898E-2,-6.7992255E-2,-1.4646739E-1,-3.246632E-2,-1.1952143E-1,-4.426327E-2,-2.8320316E-2,8.351921E-3,-2.6906237E-2,1.7108303E-2,-1.3432907E-1,2.09788E-1,2.93113E-2,7.666677E-2,-5.6210797E-2,-2.2911897E-1,-6.0527015E-2,5.5300426E-2,7.5302325E-2,1.0845172E-1,2.2266777E-1,5.184569E-1,1.0912607E-1,1.469153E-1,5.9201594E-2,1.3193123E-1,1.636081E-1,5.0564345E-2,1.9540153E-2,1.8023735E-1,2.283175E-1,1.5514742E-1,1.1265011E-1,2.7850536E-1,2.596308E-1,1.9421469E-1,2.919518E-1,3.2583314E-1,6.0015935E-1,3.3714497E-1,3.4574172E-1,3.8673267E-1,4.2514905E-1,3.063797E-1,5.235777E-1,3.8947684E-1,5.7393676E-1,1.9420628E-1],"categories":[],"categories_nodes":[],"categories_segments":[],"categories_sizes":[],"default_left":[0,0,0,0,0,0,0,0,0,0,0,0,0,0,0,0,0,0,0,0,0,0,0,0,0,0,0,0,0,0,0,0,0,0,0,0,0,0,0,0,0,0,0,0,0,0,0,0,0,0,0,0,0,0,0,0,0,0,0,0,0,0,0,0,0,0,0,0,0,0,0,0,0,0,0,0,0,0,0,0,0,0,0,0,0,0,0,0,0,0,0,0,0,0,0,0,0,0,0,0,0,0,0,0,0,0,0,0,0,0,0,0,0,0,0,0,0,0,0,0,0,0,0,0,0,0,0],"id":13,"left_children":[1,3,5,7,9,11,13,15,17,19,21,23,25,27,29,31,33,35,37,39,41,43,45,47,49,51,53,55,57,59,61,63,65,67,69,71,73,75,77,79,81,83,85,87,89,91,93,95,97,99,101,103,105,107,109,111,113,115,117,119,121,123,125,-1,-1,-1,-1,-1,-1,-1,-1,-1,-1,-1,-1,-1,-1,-1,-1,-1,-1,-1,-1,-1,-1,-1,-1,-1,-1,-1,-1,-1,-1,-1,-1,-1,-1,-1,-1,-1,-1,-1,-1,-1,-1,-1,-1,-1,-1,-1,-1,-1,-1,-1,-1,-1,-1,-1,-1,-1,-1,-1,-1,-1,-1,-1,-1],"loss_changes":[1.389001E6,2.0528606E5,2.5863881E5,2.8040625E4,3.2661232E4,2.5285125E4,3.9144938E4,4.1100938E3,6.5049844E3,1.0299016E4,7.7629746E3,4.2823984E3,4.4553906E3,3.7439688E3,6.355625E3,8.8440625E2,6.886094E2,2.3173594E3,1.9095469E3,1.5903047E3,2.377745E3,2.2069297E3,2.3952998E3,2.4093945E3,1.02225977E3,1.2363281E3,1.1714453E3,7.1221875E2,8.04125E2,2.0549375E3,9.662969E2,1.8784375E2,5.933047E2,4.850703E2,2.1600781E2,1.5963125E3,5.3052246E2,1.3344688E3,8.022344E2,1.3848398E3,3.7993164E2,1.2906836E3,1.4011621E3,2.0196147E3,1.807251E2,2.3906162E3,4.4107996E2,7.612456E2,1.0312344E3,5.455237E2,6.6280273E2,6.4743164E2,9.7483594E2,6.435156E2,7.773203E2,7.3081177E2,5.0209375E2,2.7225E2,9.451953E2,5.9275E2,5.7490625E2,7.702031E2,4.6950757E2,0E0,0E0,0E0,0E0,0E0,0E0,0E0,0E0,0E0,0E0,0E0,0E0,0E0,0E0,0E0,0E0,0E0,0E0,0E0,0E0,0E0,0E0,0E0,0E0,0E0,0E0,0E0,0E0,0E0,0E0,0E0,0E0,0E0,0E0,0E0,0E0,0E0,0E0,0E0,0E0,0E0,0E0,0E0,0E0,0E0,0E0,0E0,0E0,0E0,0E0,0E0,0E0,0E0,0E0,0E0,0E0,0E0,0E0,0E0,0E0,0E0,0E0,0E0,0E0],"parents":[2147483647,0,0,1,1,2,2,3,3,4,4,5,5,6,6,7,7,8,8,9,9,10,10,11,11,12,12,13,13,14,14,15,15,16,16,17,17,18,18,19,19,20,20,21,21,22,22,23,23,24,24,25,25,26,26,27,27,28,28,29,29,30,30,31,31,32,32,33,33,34,34,35,35,36,36,37,37,38,38,39,39,40,40,41,41,42,42,43,43,44,44,45,45,46,46,47,47,48,48,49,49,50,50,51,51,52,52,53,53,54,54,55,55,56,56,57,57,58,58,59,59,60,60,61,61,62,62],"right_children":[2,4,6,8,10,12,14,16,18,20,22,24,26,28,30,32,34,36,38,40,42,44,46,48,50,52,54,56,58,60,62,64,66,68,70,72,74,76,78,80,82,84,86,88,90,92,94,96,98,100,102,104,106,108,110,112,114,116,118,120,122,124,126,-1,-1,-1,-1,-1,-1,-1,-1,-1,-1,-1,-1,-1,-1,-1,-1,-1,-1,-1,-1,-1,-1,-1,-1,-1,-1,-1,-1,-1,-1,-1,-1,-1,-1,-1,-1,-1,-1,-1,-1,-1,-1,-1,-1,-1,-1,-1,-1,-1,-1,-1,-1,-1,-1,-1,-1,-1,-1,-1,-1,-1,-1,-1,-1],"split_conditions":[1.268E1,7E0,1.948E1,3.6E0,1.02E1,1.564E1,2.392E1,3.5E0,5.12E0,8.36E0,9.92E0,1.64E1,1.78E1,2.156E1,2.952E1,2E0,4E0,7E0,1.86E1,6E0,2.37E1,1E1,1E1,2.83E1,1E0,1.54E1,1.82E1,2.81E1,2.54E1,2.612E1,1.486E3,1.71E1,4E0,6.6E0,1.5E0,3E0,8.5E0,6.2E0,6.56E0,7.2E0,2.8E1,5.2E0,1.056E1,1.24E1,1.649E3,1.48E1,1.48E1,6.6E0,1.408E1,1.94E1,1.84E1,1.08E1,1E1,2.46E1,4E0,2.02E1,7E0,1.264E3,1E0,2.42E1,1E1,5E0,2.93E1,-2.1131125E-1,-1.4023723E-1,-1.7590646E-1,-2.0592456E-1,-1.5845685E-1,-1.2555316E-1,-2.0320137E-1,-1.7288981E-1,-1.3598551E-1,-1.6848572E-1,-1.0809497E-1,-5.278751E-2,-1.24999225E-1,-9.5583566E-2,-1.0063002E-1,-7.220924E-2,-9.850898E-2,-6.7992255E-2,-1.4646739E-1,-3.246632E-2,-1.1952143E-1,-4.426327E-2,-2.8320316E-2,8.351921E-3,-2.6906237E-2,1.7108303E-2,-1.3432907E-1,2.09788E-1,2.93113E-2,7.666677E-2,-5.6210797E-2,-2.2911897E-1,-6.0527015E-2,5.5300426E-2,7.5302325E-2,1.0845172E-1,2.2266777E-1,5.184569E-1,1.0912607E-1,1.469153E-1,5.9201594E-2,1.3193123E-1,1.636081E-1,5.0564345E-2,1.9540153E-2,1.8023735E-1,2.283175E-1,1.5514742E-1,1.1265011E-1,2.7850536E-1,2.596308E-1,1.9421469E-1,2.919518E-1,3.2583314E-1,6.0015935E-1,3.3714497E-1,3.4574172E-1,3.8673267E-1,4.2514905E-1,3.063797E-1,5.235777E-1,3.8947684E-1,5.7393676E-1,1.9420628E-1],"split_indices":[8,7,8,6,6,8,8,8,8,8,8,6,8,8,8,6,4,6,5,4,5,4,4,5,4,6,6,5,6,8,0,5,4,8,6,4,6,6,8,6,5,6,8,6,0,6,7,6,8,6,6,6,4,5,4,6,4,0,4,6,4,4,7,0,0,0,0,0,0,0,0,0,0,0,0,0,0,0,0,0,0,0,0,0,0,0,0,0,0,0,0,0,0,0,0,0,0,0,0,0,0,0,0,0,0,0,0,0,0,0,0,0,0,0,0,0,0,0,0,0,0,0,0,0,0,0,0],"split_type":[0,0,0,0,0,0,0,0,0,0,0,0,0,0,0,0,0,0,0,0,0,0,0,0,0,0,0,0,0,0,0,0,0,0,0,0,0,0,0,0,0,0,0,0,0,0,0,0,0,0,0,0,0,0,0,0,0,0,0,0,0,0,0,0,0,