{"learner":{"attributes":{"scikit_learn":"{\"_estimator_type\": \"regressor\"}"},"feature_names":[],"feature_types":[],"gradient_booster":{"model":{"cats":{"enc":[],"feature_segments":[],"sorted_idx":[]},"gbtree_model_param":{"num_parallel_tree":"1","num_trees":"300"},"iteration_indptr":[0,1,2,3,4,5,6,7,8,9,10,11,12,13,14,15,16,17,18,19,20,21,22,23,24,25,26,27,28,29,30,31,32,33,34,35,36,37,38,39,40,41,42,43,44,45,46,47,48,49,50,51,52,53,54,55,56,57,58,59,60,61,62,63,64,65,66,67,68,69,70,71,72,73,74,75,76,77,78,79,80,81,82,83,84,85,86,87,88,89,90,91,92,93,94,95,96,97,98,99,100,101,102,103,104,105,106,107,108,109,110,111,112,113,114,115,116,117,118,119,120,121,122,123,124,125,126,127,128,129,130,131,132,133,134,135,136,137,138,139,140,141,142,143,144,145,146,147,148,149,150,151,152,153,154,155,156,157,158,159,160,161,162,163,164,165,166,167,168,169,170,171,172,173,174,175,176,177,178,179,180,181,182,183,184,185,186,187,188,189,190,191,192,193,194,195,196,197,198,199,200,201,202,203,204,205,206,207,208,209,210,211,212,213,214,215,216,217,218,219,220,221,222,223,224,225,226,227,228,229,230,231,232,233,234,235,236,237,238,239,240,241,242,243,244,245,246,247,248,249,250,251,252,253,254,255,256,257,258,259,260,261,262,263,264,265,266,267,268,269,270,271,272,273,274,275,276,277,278,279,280,281,282,283,284,285,286,287,288,289,290,291,292,293,294,295,296,297,298,299,300],"tree_info":[0,0,0,0,0,0,0,0,0,0,0,0,0,0,0,0,0,0,0,0,0,0,0,0,0,0,0,0,0,0,0,0,0,0,0,0,0,0,0,0,0,0,0,0,0,0,0,0,0,0,0,0,0,0,0,0,0,0,0,0,0,0,0,0,0,0,0,0,0,0,0,0,0,0,0,0,0,0,0,0,0,0,0,0,0,0,0,0,0,0,0,0,0,0,0,0,0,0,0,0,0,0,0,0,0,0,0,0,0,0,0,0,0,0,0,0,0,0,0,0,0,0,0,0,0,0,0,0,0,0,0,0,0,0,0,0,0,0,0,0,0,0,0,0,0,0,0,0,0,0,0,0,0,0,0,0,0,0,0,0,0,0,0,0,0,0,0,0,0,0,0,0,0,0,0,0,0,0,0,0,0,0,0,0,0,0,0,0,0,0,0,0,0,0,0,0,0,0,0,0,0,0,0,0,0,0,0,0,0,0,0,0,0,0,0,0,0,0,0,0,0,0,0,0,0,0,0,0,0,0,0,0,0,0,0,0,0,0,0,0,0,0,0,0,0,0,0,0,0,0,0,0,0,0,0,0,0,0,0,0,0,0,0,0,0,0,0,0,0,0,0,0,0,0,0,0,0,0,0,0,0,0,0,0,0,0,0,0,0,0,0,0,0,0,0,0,0,0,0,0],"trees":[{"base_weights":[2.2929795E-2,-4.6093874E0,1.1735166E1,-8.088767E0,-4.6985734E-1,7.925646E0,1.943672E1,-1.0613901E1,-6.3217454E0,-2.2887807E0,1.6016349E0,5.7757173E0,1.0781787E1,1.6157799E1,2.4022888E1,-1.1794573E1,-9.53303E0,-7.513402E0,-5.271154E0,-3.8404214E0,-1.574122E0,4.016565E-1,2.8952675E0,4.698676E0,7.407479E0,9.511636E0,1.2254997E1,1.5066007E1,1.8061708E1,2.210297E1,2.851542E1,-1.2369999E1,-1.0885709E1,-9.022132E0,-1.0843588E1,-7.1189237E0,-9.276531E0,-6.0630865E0,-4.617072E0,-4.7529206E0,-2.6388428E0,-2.2235298E0,-2.7295133E-1,-1.0806404E0,1.0034353E0,2.0295005E0,3.691788E0,3.822226E0,5.7819285E0,6.3250413E0,8.355139E0,7.624735E0,9.914021E0,1.105537E1,1.2778231E1,1.4316294E1,1.627065E1,1.8196669E1,1.4674451E1,2.0600779E1,2.3574429E1,2.6088654E1,3.0146784E1,-6.403534E-1,-5.905368E-1,-5.189884E-1,-5.829603E-1,-4.7811872E-1,-3.9598474E-1,-5.8806396E-1,-4.9554715E-1,-3.7505648E-1,-2.823499E-1,-5.1632583E-1,-4.1899404E-1,-3.567061E-1,-2.690502E-1,-2.2103982E-1,-3.3947137E-1,-3.0920866E-1,-2.1926105E-1,-2.7049398E-1,-1.1890457E-1,-1.3377611E-1,-4.383711E-2,-3.3508513E-2,2.9850457E-2,-1.2840286E-1,-1.690073E-2,3.3241842E-2,1.3138293E-1,7.533034E-2,1.5428069E-1,1.4814195E-1,2.119041E-1,1.9825523E-1,-3.1305272E-2,2.6554886E-1,3.5143778E-1,2.3824655E-1,3.4176466E-1,4.273717E-1,2.4636035E-1,6.7914836E-2,3.885218E-1,4.7176567E-1,5.634881E-1,5.0314814E-1,6.158492E-1,6.450833E-1,4.6102586E-1,6.124827E-1,7.305514E-1,7.95423E-1,9.2324513E-1,8.775415E-1,9.413983E-1,7.786853E-1,5.4287094E-1,9.839832E-1,1.0826303E0,1.1403292E0,1.253971E0,1.2451897E0,1.3815469E0,1.4368677E0,1.5634102E0],"categories":[],"categories_nodes":[],"categories_segments":[],"categories_sizes":[],"default_left":[0,0,0,0,0,0,0,0,0,0,0,0,0,0,0,0,0,0,0,0,0,0,0,0,0,0,0,0,0,0,0,0,0,0,0,0,0,0,0,0,0,0,0,0,0,0,0,0,0,0,0,0,0,0,0,0,0,0,0,0,0,0,0,0,0,0,0,0,0,0,0,0,0,0,0,0,0,0,0,0,0,0,0,0,0,0,0,0,0,0,0,0,0,0,0,0,0,0,0,0,0,0,0,0,0,0,0,0,0,0,0,0,0,0,0,0,0,0,0,0,0,0,0,0,0,0,0],"id":0,"left_children":[1,3,5,7,9,11,13,15,17,19,21,23,25,27,29,31,33,35,37,39,41,43,45,47,49,51,53,55,57,59,61,63,65,67,69,71,73,75,77,79,81,83,85,87,89,91,93,95,97,99,101,103,105,107,109,111,113,115,117,119,121,123,125,-1,-1,-1,-1,-1,-1,-1,-1,-1,-1,-1,-1,-1,-1,-1,-1,-1,-1,-1,-1,-1,-1,-1,-1,-1,-1,-1,-1,-1,-1,-1,-1,-1,-1,-1,-1,-1,-1,-1,-1,-1,-1,-1,-1,-1,-1,-1,-1,-1,-1,-1,-1,-1,-1,-1,-1,-1,-1,-1,-1,-1,-1,-1,-1],"loss_changes":[1.1081E7,2.1079468E6,1.698147E6,3.547395E5,2.5184158E5,2.3775925E5,2.87673E5,4.16625E4,5.8531375E4,3.9458375E4,4.8509188E4,3.8803625E4,3.1005125E4,2.295275E4,6.8234E4,8.04525E3,1.134825E4,1.5178375E4,1.28528125E4,1.2291703E4,2.0590117E4,1.446332E4,1.0362734E4,1.2619375E4,8.9586875E3,6.7091875E3,4.69E3,6.185625E3,1.59225E3,1.18885E4,8.66325E3,2.188E3,2.2553125E3,7.2535E3,3.983125E3,1.003625E4,3.6830938E3,8.1764688E3,5.7785625E3,3.3289062E3,3.488625E3,9.892695E3,2.8043123E3,5.170841E3,6.3403867E3,3.9758574E3,3.1059062E3,4.6821953E3,3.4582344E3,3.2351875E3,3.0434688E3,1.4274609E3,4.671625E3,2.8120938E3,2.231875E3,2.494375E3,1.8671875E3,1.262375E3,3.8353906E2,2.265375E3,2.68775E3,1.0790625E3,1.347375E3,0E0,0E0,0E0,0E0,0E0,0E0,0E0,0E0,0E0,0E0,0E0,0E0,0E0,0E0,0E0,0E0,0E0,0E0,0E0,0E0,0E0,0E0,0E0,0E0,0E0,0E0,0E0,0E0,0E0,0E0,0E0,0E0,0E0,0E0,0E0,0E0,0E0,0E0,0E0,0E0,0E0,0E0,0E0,0E0,0E0,0E0,0E0,0E0,0E0,0E0,0E0,0E0,0E0,0E0,0E0,0E0,0E0,0E0,0E0,0E0,0E0,0E0,0E0,0E0],"parents":[2147483647,0,0,1,1,2,2,3,3,4,4,5,5,6,6,7,7,8,8,9,9,10,10,11,11,12,12,13,13,14,14,15,15,16,16,17,17,18,18,19,19,20,20,21,21,22,22,23,23,24,24,25,25,26,26,27,27,28,28,29,29,30,30,31,31,32,32,33,33,34,34,35,35,36,36,37,37,38,38,39,39,40,40,41,41,42,42,43,43,44,44,45,45,46,46,47,47,48,48,49,49,50,50,51,51,52,52,53,53,54,54,55,55,56,56,57,57,58,58,59,59,60,60,61,61,62,62],"right_children":[2,4,6,8,10,12,14,16,18,20,22,24,26,28,30,32,34,36,38,40,42,44,46,48,50,52,54,56,58,60,62,64,66,68,70,72,74,76,78,80,82,84,86,88,90,92,94,96,98,100,102,104,106,108,110,112,114,116,118,120,122,124,126,-1,-1,-1,-1,-1,-1,-1,-1,-1,-1,-1,-1,-1,-1,-1,-1,-1,-1,-1,-1,-1,-1,-1,-1,-1,-1,-1,-1,-1,-1,-1,-1,-1,-1,-1,-1,-1,-1,-1,-1,-1,-1,-1,-1,-1,-1,-1,-1,-1,-1,-1,-1,-1,-1,-1,-1,-1,-1,-1,-1,-1,-1,-1,-1],"split_conditions":[2.13E1,1.27E1,3.084E1,7.2E0,1.68E1,2.556E1,3.68E1,4.6E0,9.9E0,1.34E1,1.868E1,2.42E1,2.84E1,3.416E1,4.38E1,5.631579E0,4E0,4E0,1.12E1,1.452E1,1.58E1,1.7E1,1.92E1,2.2E1,2.6E1,2.28E1,2.808E1,3.33E1,9E0,3.93E1,4.48E1,3E0,4E0,8.72E0,6.96E0,1.08E1,8.12E0,1.08E1,5E0,1.04E1,9.4E0,1.74E1,1.8E1,1.58E1,2.22E1,2.104E1,2.028E1,1E1,2.44E1,2.216E1,6E0,1.66E1,2.832E1,3.08E1,9E0,2.66E1,3.92E1,3.54E1,2.3E1,3.72E1,4.168E1,4.66E1,4.764E1,-6.403534E-1,-5.905368E-1,-5.189884E-1,-5.829603E-1,-4.7811872E-1,-3.9598474E-1,-5.8806396E-1,-4.9554715E-1,-3.7505648E-1,-2.823499E-1,-5.1632583E-1,-4.1899404E-1,-3.567061E-1,-2.690502E-1,-2.2103982E-1,-3.3947137E-1,-3.0920866E-1,-2.1926105E-1,-2.7049398E-1,-1.1890457E-1,-1.3377611E-1,-4.383711E-2,-3.3508513E-2,2.9850457E-2,-1.2840286E-1,-1.690073E-2,3.3241842E-2,1.3138293E-1,7.533034E-2,1.5428069E-1,1.4814195E-1,2.119041E-1,1.9825523E-1,-3.1305272E-2,2.6554886E-1,3.5143778E-1,2.3824655E-1,3.4176466E-1,4.273717E-1,2.4636035E-1,6.7914836E-2,3.885218E-1,4.7176567E-1,5.634881E-1,5.0314814E-1,6.158492E-1,6.450833E-1,4.6102586E-1,6.124827E-1,7.305514E-1,7.95423E-1,9.2324513E-1,8.775415E-1,9.413983E-1,7.786853E-1,5.4287094E-1,9.839832E-1,1.0826303E0,1.1403292E0,1.253971E0,1.2451897E0,1.3815469E0,1.4368677E0,1.5634102E0],"split_indices":[7,7,8,6,7,8,8,6,7,6,8,7,7,8,7,8,4,4,6,8,8,6,6,8,6,6,8,7,4,7,8,6,4,8,8,6,8,8,4,6,6,6,8,8,6,8,8,4,6,8,4,6,8,6,4,6,6,6,2,6,8,6,8,0,0,0,0,0,0,0,0,0,0,0,0,0,0,0,0,0,0,0,0,0,0,0,0,0,0,0,0,0,0,0,0,0,0,0,0,0,0,0,0,0,0,0,0,0,0,0,0,0,0,0,0,0,0,0,0,0,0,0,0,0,0,0,0],"split_type":[0,0,0,0,0,0,0,0,0,0,0,0,0,0,0,0,0,0,0,0,0,0,0,0,0,0,0,0,0,0,0,0,0,0,0,0,0,0,0,0,0,0,0,0,0,0,0,0,0,0,0,0,0,0,0,0,0,0,0,0,0,0,0,0,0,0,0,0,0,0,0,0,0,0,0,0,0,0,0,0,0,0,0,0,0,0,0,0,0,0,0,0,0,0,0,0,0,0,0,0,0,0,0,0,0,0,0,0,0,0,0,0,0,0,0,0,0,0,0,0,0,0,0,0,0,0,0],"sum_hessian":[2.04238E5,1.46354E5,5.7884E4,7.9517E4,6.6837E4,3.8729E4,1.9155E4,3.2734E4,4.6783E4,3.5588E4,3.1249E4,2.2098E4,1.6631E4,1.1172E4,7.983E3,1.564E4,1.7094E4,2.1917E4,2.4866E4,1.1221E4,2.4367E4,1.6212E4,1.5037E4,1.3314E4,8.784E3,8.935E3,7.696E3,7.106E3,4.066E3,5.597E3,2.386E3,9.569E3,6.071E3,1.2305E4,4.789E3,1.7914E4,4.003E3,1.1244E4,1.3622E4,6.376E3,4.845E3,1.6254E4,8.113E3,4.681E3,1.1531E4,7.207E3,7.83E3,7.362E3,5.952E3,4.104E3,4.68E3,1.574E3,7.361E3,2.344E3,5.352E3,4.388E3,2.718E3,3.906E3,1.6E2,2.777E3,2.82E3,9.66E2,1.42E3,5.359E3,4.21E3,3.679E3,2.392E3,8.253E3,4.052E3,2.408E3,2.381E3,1.4218E4,3.696E3,1.839E3,2.164E3,4.371E3,6.873E3,1.2496E4,1.126E3,1.3E3,5.076E3,4.15E2,4.43E3,1.2169E4,4.085E3,5.57E3,2.543E3,1.558E3,3.123E3,9.543E3,1.988E3,4.822E3,2.385E3,3.357E3,4.473E3,7.133E3,2.29E2,4.324E3,1.628E3,1.014E3,3.09E3,4.43E3,2.5E2,3.6E1,1.538E3,5.446E3,1.915E3,1.317E3,1.027E3,5.17E3,1.82E2,5.53E2,3.835E3,2.34E3,3.78E2,1.945E3,1.961E3,1.27E2,3.3E1,1.491E3,1.286E3,1.878E3,9.42E2,5.56E2,4.1E2,6.41E2,7.79E2],"tree_param":{"num_deleted":"0","num_feature":"9","num_nodes":"127","size_leaf_vector":"1"}},{"base_weights":[-2.5009222E-2,-4.904539E0,9.9458065E0,-7.985844E0,-1.2911178E0,6.137286E0,1.7183935E1,-1.0126658E1,-6.2876062E0,-3.044645E0,3.4873027E-1,4.1126833E0,8.797225E0,1.4803088E1,2.3393372E1,-1.1236988E1,-9.10687E0,-7.238832E0,-5.2177167E0,-4.7518115E0,-2.6184106E0,-1.3432789E0,8.946495E-1,3.1271174E0,5.054009E0,7.451034E0,9.954006E0,1.3134121E1,1.705491E1,2.12908E1,2.6897547E1,-1.2276262E1,-1.0788213E1,-8.609556E0,-1.036453E1,-6.890897E0,-8.796958E0,-4.9535856E0,-6.8300815E0,-4.517115E0,-6.797521E0,-3.1067138E0,-1.6999259E0,-3.1103024E0,-8.733394E-1,2.5650802E-1,1.8218718E0,5.381442E-1,3.3165514E0,4.256965E0,5.7392898E0,6.856971E0,8.243297E0,9.123954E0,1.0846509E1,1.217571E1,1.4026073E1,1.6161987E1,1.8127832E1,1.9831757E1,2.2237858E1,2.4553604E1,2.803243E1,-6.353091E-1,-6.00191E-1,-5.1657856E-1,-5.7159907E-1,-4.5002457E-1,-3.900488E-1,-5.3952163E-1,-4.7462973E-1,-3.7102953E-1,-3.061836E-1,-4.8170048E-1,-3.9581332E-1,-2.7024102E-1,-1.9588524E-1,-4.342177E-1,-3.2522807E-1,-3.8916594E-1,-2.1945296E-1,-3.712906E-1,-2.1740313E-1,-1.9255438E-1,-1.3252854E-1,-7.952552E-2,-2.548278E-1,-2.355115E-1,-1.3329054E-1,-6.486131E-2,-1.646172E-2,2.0035334E-2,-1.1623313E-1,6.716578E-2,1.2849073E-1,-4.0697437E-2,5.276088E-2,1.524491E-1,2.3916948E-1,1.132077E-1,2.2417574E-1,2.9374027E-1,6.4348854E-2,3.4838352E-1,1.7659888E-1,5.5252653E-1,4.0829706E-1,2.6499078E-1,4.6129605E-1,5.477935E-1,3.7301847E-1,3.6241442E-1,6.1193395E-1,6.351064E-1,7.2311056E-1,8.1421405E-1,6.396155E-1,8.823635E-1,9.5055974E-1,9.373828E-1,1.0215135E0,1.1209654E0,8.391022E-1,1.2428938E0,8.935051E-1,1.3423822E0,1.4590484E0],"categories":[],"categories_nodes":[],"categories_segments":[],"categories_sizes":[],"default_left":[0,0,0,0,0,0,0,0,0,0,0,0,0,0,0,0,0,0,0,0,0,0,0,0,0,0,0,0,0,0,0,0,0,0,0,0,0,0,0,0,0,0,0,0,0,0,0,0,0,0,0,0,0,0,0,0,0,0,0,0,0,0,0,0,0,0,0,0,0,0,0,0,0,0,0,0,0,0,0,0,0,0,0,0,0,0,0,0,0,0,0,0,0,0,0,0,0,0,0,0,0,0,0,0,0,0,0,0,0,0,0,0,0,0,0,0,0,0,0,0,0,0,0,0,0,0,0],"id":1,"left_children":[1,3,5,7,9,11,13,15,17,19,21,23,25,27,29,31,33,35,37,39,41,43,45,47,49,51,53,55,57,59,61,63,65,67,69,71,73,75,77,79,81,83,85,87,89,91,93,95,97,99,101,103,105,107,109,111,113,115,117,119,121,123,125,-1,-1,-1,-1,-1,-1,-1,-1,-1,-1,-1,-1,-1,-1,-1,-1,-1,-1,-1,-1,-1,-1,-1,-1,-1,-1,-1,-1,-1,-1,-1,-1,-1,-1,-1,-1,-1,-1,-1,-1,-1,-1,-1,-1,-1,-1,-1,-1,-1,-1,-1,-1,-1,-1,-1,-1,-1,-1,-1,-1,-1,-1,-1,-1],"loss_changes":[9.935796E6,1.5266465E6,1.849666E6,2.689975E5,1.8147503E5,2.36751E5,3.416605E5,3.696475E4,4.1964875E4,2.21795E4,3.0125842E4,2.3147938E4,2.9516625E4,6.263225E4,4.665475E4,7.175125E3,1.0586625E4,1.178225E4,8.2400625E3,2.8941875E3,1.0941219E4,6.6038994E3,1.4589645E4,5.981586E3,6.95E3,4.0786562E3,7.470125E3,8.044375E3,6.5245E3,5.10125E3,5.696125E3,4E2,3.101125E3,3.7983125E3,1.6919688E3,7.2135E3,2.8606875E3,7.7834375E3,1.5925547E3,2.2528672E3,9.295703E2,5.400047E3,3.141205E3,1.1757822E3,1.4493691E3,5.4376763E3,3.5944883E3,5.8323535E2,4.4471484E3,2.6566875E3,4.1332812E3,1.8256875E3,7.2625E2,2.01775E3,1.7394375E3,1.3509375E3,2.6866875E3,1.3959375E3,1.033E3,6.47375E2,2.0235E3,1.1643125E3,1.407375E3,0E0,0E0,0E0,0E0,0E0,0E0,0E0,0E0,0E0,0E0,0E0,0E0,0E0,0E0,0E0,0E0,0E0,0E0,0E0,0E0,0E0,0E0,0E0,0E0,0E0,0E0,0E0,0E0,0E0,0E0,0E0,0E0,0E0,0E0,0E0,0E0,0E0,0E0,0E0,0E0,0E0,0E0,0E0,0E0,0E0,0E0,0E0,0E0,0E0,0E0,0E0,0E0,0E0,0E0,0E0,0E0,0E0,0E0,0E0,0E0,0E0,0E0,0E0,0E0],"parents":[2147483647,0,0,1,1,2,2,3,3,4,4,5,5,6,6,7,7,8,8,9,9,10,10,11,11,12,12,13,13,14,14,15,15,16,16,17,17,18,18,19,19,20,20,21,21,22,22,23,23,24,24,25,25,26,26,27,27,28,28,29,29,30,30,31,31,32,32,33,33,34,34,35,35,36,36,37,37,38,38,39,39,40,40,41,41,42,42,43,43,44,44,45,45,46,46,47,47,48,48,49,49,50,50,51,51,52,52,53,53,54,54,55,55,56,56,57,57,58,58,59,59,60,60,61,61,62,62],"right_children":[2,4,6,8,10,12,14,16,18,20,22,24,26,28,30,32,34,36,38,40,42,44,46,48,50,52,54,56,58,60,62,64,66,68,70,72,74,76,78,80,82,84,86,88,90,92,94,96,98,100,102,104,106,108,110,112,114,116,118,120,122,124,126,-1,-1,-1,-1,-1,-1,-1,-1,-1,-1,-1,-1,-1,-1,-1,-1,-1,-1,-1,-1,-1,-1,-1,-1,-1,-1,-1,-1,-1,-1,-1,-1,-1,-1,-1,-1,-1,-1,-1,-1,-1,-1,-1,-1,-1,-1,-1,-1,-1,-1,-1,-1,-1,-1,-1,-1,-1,-1,-1,-1,-1,-1,-1,-1],"split_conditions":[1.98E1,1.21E1,2.97E1,7.2E0,1.55E1,2.44E1,3.85E1,4.6E0,1.02E1,1.16E1,1.56E1,2.18E1,2.66E1,3.37E1,4.38E1,2.9E0,4E0,4E0,4E0,5E0,1.54E1,1.28E1,1.82E1,1.66E1,2.28E1,2.6E1,2.81E1,3.14E1,3.6E1,4.01E1,4.56E1,1.875E0,4E0,7.5E0,7.1E0,9.3E0,8.6E0,1.28E1,8.6E0,7E0,1.41E1,1.33E1,1E1,1.06E1,1.69E1,6E0,2E1,1.48E1,2.38E1,1.82E1,1E1,1E1,1E0,2.16E1,9E0,5.5E1,3.06E1,9E0,3.84E1,6.92E2,1E1,1.486E3,4.83E1,-6.353091E-1,-6.00191E-1,-5.1657856E-1,-5.7159907E-1,-4.5002457E-1,-3.900488E-1,-5.3952163E-1,-4.7462973E-1,-3.7102953E-1,-3.061836E-1,-4.8170048E-1,-3.9581332E-1,-2.7024102E-1,-1.9588524E-1,-4.342177E-1,-3.2522807E-1,-3.8916594E-1,-2.1945296E-1,-3.712906E-1,-2.1740313E-1,-1.9255438E-1,-1.3252854E-1,-7.952552E-2,-2.548278E-1,-2.355115E-1,-1.3329054E-1,-6.486131E-2,-1.646172E-2,2.0035334E-2,-1.1623313E-1,6.716578E-2,1.2849073E-1,-4.0697437E-2,5.276088E-2,1.524491E-1,2.3916948E-1,1.132077E-1,2.2417574E-1,2.9374027E-1,6.4348854E-2,3.4838352E-1,1.7659888E-1,5.5252653E-1,4.0829706E-1,2.6499078E-1,4.6129605E-1,5.477935E-1,3.7301847E-1,3.6241442E-1,6.1193395E-1,6.351064E-1,7.2311056E-1,8.1421405E-1,6.396155E-1,8.823635E-1,9.5055974E-1,9.373828E-1,1.0215135E0,1.1209654E0,8.391022E-1,1.2428938E0,8.935051E-1,1.3423822E0,1.4590484E0],"split_indices":[7,7,7,6,7,7,7,6,6,6,6,7,7,7,7,7,4,4,4,4,6,6,7,6,6,6,7,7,7,7,7,7,4,7,7,7,7,6,7,6,7,7,4,6,7,4,6,6,6,6,4,4,4,6,4,0,6,4,6,0,4,0,7,0,0,0,0,0,0,0,0,0,0,0,0,0,0,0,0,0,0,0,0,0,0,0,0,0,0,0,0,0,0,0,0,0,0,0,0,0,0,0,0,0,0,0,0,0,0,0,0,0,0,0,0,0,0,0,0,0,0,0,0,0,0,0,0],"split_type":[0,0,0,0,0,0,0,0,0,0,0,0,0,0,0,0,0,0,0,0,0,0,0,0,0,0,0,0,0,0,0,0,0,0,0,0,0,0,0,0,0,0,0,0,0,0,0,0,0,0,0,0,0,0,0,0,0,0,0,0,0,0,0,0,0,0,0,0,0,0,0,0,0,0,0,0,0,0,0,0,0,0,0,0,0,0,0,0,0,0,0,0,0,0,0,0,0,0,0,0,0,0,0,0,0,0,0,0,0,0,0,0,0,0,0,0,0,0,0,0,0,0,0,0,0,0,0],"sum_hessian":[2.04216E5,1.37115E5,6.7101E4,7.4006E4,6.3109E4,4.3968E4,2.3133E4,3.2735E4,4.1271E4,3.0497E4,3.2612E4,2.4967E4,1.9001E4,1.6724E4,6.409E3,1.5667E4,1.7068E4,2.1844E4,1.9427E4,6.091E3,2.4406E4,7.955E3,2.4657E4,1.2199E4,1.2768E4,8.785E3,1.0216E4,9.609E3,7.115E3,4.01E3,2.399E3,4.717E3,1.095E4,1.2237E4,4.831E3,1.7861E4,3.983E3,1.6696E4,2.731E3,5.467E3,6.24E2,1.5933E4,8.473E3,1.67E3,6.285E3,1.4606E4,1.0051E4,8.32E2,1.1367E4,5.906E3,6.862E3,5.026E3,3.759E3,5.299E3,4.917E3,4.639E3,4.97E3,3.892E3,3.223E3,1.587E3,2.423E3,7.9E2,1.609E3,1.812E3,2.905E3,6.416E3,4.534E3,8.242E3,3.995E3,3.238E3,1.593E3,1.0561E4,7.3E3,2.037E3,1.946E3,1.1627E4,5.069E3,4.04E2,2.327E3,2.04E2,5.263E3,4.95E2,1.29E2,6.051E3,9.882E3,8.21E3,2.63E2,3.61E2,1.309E3,3.532E3,2.753E3,1.3834E4,7.72E2,6.131E3,3.92E3,2.3E2,6.02E2,9.616E3,1.751E3,6.04E2,5.302E3,6.659E3,2.03E2,4.863E3,1.63E2,9.7E1,3.662E3,1.39E2,5.16E3,4.761E3,1.56E2,6E1,4.579E3,1.239E3,3.731E3,3.752E3,1.4E2,2.101E3,1.122E3,5.76E2,1.011E3,2.342E3,8.1E1,7.53E2,3.7E1,8.04E2,8.05E2],"tree_param":{"num_deleted":"0","num_feature":"9","num_nodes":"127","size_leaf_vector":"1"}},{"base_weights":[-9.884702E-3,-4.24513E0,1.04059305E1,-7.4366927E0,-6.764689E-1,6.9859447E0,1.7533945E1,-9.581072E0,-5.825482E0,-2.3195527E0,1.3477528E0,5.058327E0,9.663825E0,1.478451E1,2.2069742E1,-1.0735472E1,-8.6798115E0,-6.8285594E0,-4.486468E0,-3.078802E0,-3.9979422E-1,5.367061E-1,2.9496005E0,3.4083426E0,6.033192E0,8.504842E0,1.0923786E1,1.3465285E1,1.6726728E1,2.0208925E1,2.5848585E1,-1.1149983E1,-9.50911E0,-9.459588E0,-8.028142E0,-6.481551E0,-8.422184E0,-4.910285E0,-3.3088815E0,-3.8095133E0,-2.169332E0,-8.525779E-1,1.5266734E0,-3.992125E-1,1.0609885E0,2.5009203E0,4.291549E0,1.4276699E0,3.7744334E0,5.3839254E0,7.225057E0,8.060211E0,1.0682953E1,9.272798E0,1.1426247E1,1.3082291E1,1.5471812E1,1.6197245E1,1.7812496E1,1.8274187E1,2.0929401E1,2.4461807E1,2.8570566E1,-5.3478575E-1,-5.81395E-1,-4.5176354E-1,-5.1132894E-1,-4.4672814E-1,-5.278621E-1,-3.8483724E-1,-4.487973E-1,-3.580698E-1,-2.952366E-1,-4.659985E-1,-3.885846E-1,-2.7958342E-1,-2.1886738E-1,-2.1269457E-1,-1.3898526E-1,-1.781301E-1,-3.2399008E-1,-1.2690786E-1,-7.6953314E-2,-3.2723006E-2,-2.1335356E-1,8.959184E-2,-3.280928E-1,-6.192983E-2,-1.2000179E-4,1.8736249E-2,8.04974E-2,1.0522105E-1,1.5459315E-1,2.2575362E-1,-7.753921E-2,-9.456657E-3,8.500541E-2,1.698257E-1,2.3543783E-1,2.1698117E-1,2.970413E-1,3.684804E-1,1.6123854E-1,2.6695997E-1,4.171171E-1,5.414238E-1,3.0700788E-1,3.6205876E-1,4.8988643E-1,5.5926526E-1,6.28426E-1,6.22583E-1,6.816489E-1,7.4704987E-1,8.2204646E-1,7.777367E-1,8.45581E-1,8.9606583E-1,6.8644404E-1,5.428843E-1,9.218996E-1,1.0102513E0,1.0996244E0,1.0621829E0,1.247332E0,-1.5850054E-1,1.4307212E0],"categories":[],"categories_nodes":[],"categories_segments":[],"categories_sizes":[],"default_left":[0,0,0,0,0,0,0,0,0,0,0,0,0,0,0,0,0,0,0,0,0,0,0,0,0,0,0,0,0,0,0,0,0,0,0,0,0,0,0,0,0,0,0,0,0,0,0,0,0,0,0,0,0,0,0,0,0,0,0,0,0,0,0,0,0,0,0,0,0,0,0,0,0,0,0,0,0,0,0,0,0,0,0,0,0,0,0,0,0,0,0,0,0,0,0,0,0,0,0,0,0,0,0,0,0,0,0,0,0,0,0,0,0,0,0,0,0,0,0,0,0,0,0,0,0,0,0],"id":2,"left_children":[1,3,5,7,9,11,13,15,17,19,21,23,25,27,29,31,33,35,37,39,41,43,45,47,49,51,53,55,57,59,61,63,65,67,69,71,73,75,77,79,81,83,85,87,89,91,93,95,97,99,101,103,105,107,109,111,113,115,117,119,121,123,125,-1,-1,-1,-1,-1,-1,-1,-1,-1,-1,-1,-1,-1,-1,-1,-1,-1,-1,-1,-1,-1,-1,-1,-1,-1,-1,-1,-1,-1,-1,-1,-1,-1,-1,-1,-1,-1,-1,-1,-1,-1,-1,-1,-1,-1,-1,-1,-1,-1,-1,-1,-1,-1,-1,-1,-1,-1,-1,-1,-1,-1,-1,-1,-1],"loss_changes":[9.008292E6,1.6534922E6,1.438918E6,2.647285E5,2.2796484E5,2.05876E5,2.383545E5,3.41125E4,5.8746375E4,5.5141766E4,3.989473E4,3.7293688E4,2.4287875E4,3.031375E4,5.025375E4,7.219125E3,9.30875E3,1.3779875E4,9.339031E3,1.8007984E4,9.354687E3,1.0004523E4,6.204203E3,6.243578E3,1.12445E4,8.3404375E3,6.5271875E3,5.256125E3,2.48075E3,6.36825E3,8.28125E3,2.2125E3,1.1474375E3,4.74775E3,3.092875E3,8.0155625E3,2.5380625E3,4.98025E3,2.4705547E3,9.887203E3,2.8041836E3,5.8710137E3,4.3892554E3,2.4384614E3,4.9225156E3,1.8065742E3,3.38275E3,5.932063E2,2.5520938E3,5.4659688E3,2.9478438E3,5.5057812E3,9.06625E2,1.9243906E3,1.5454375E3,1.9039375E3,3.371875E2,1.2281875E3,4.511875E2,1.405875E3,2.267875E3,1.9399375E3,1.2001875E3,0E0,0E0,0E0,0E0,0E0,0E0,0E0,0E0,0E0,0E0,0E0,0E0,0E0,0E0,0E0,0E0,0E0,0E0,0E0,0E0,0E0,0E0,0E0,0E0,0E0,0E0,0E0,0E0,0E0,0E0,0E0,0E0,0E0,0E0,0E0,0E0,0E0,0E0,0E0,0E0,0E0,0E0,0E0,0E0,0E0,0E0,0E0,0E0,0E0,0E0,0E0,0E0,0E0,0E0,0E0,0E0,0E0,0E0,0E0,0E0,0E0,0E0,0E0,0E0],"parents":[2147483647,0,0,1,1,2,2,3,3,4,4,5,5,6,6,7,7,8,8,9,9,10,10,11,11,12,12,13,13,14,14,15,15,16,16,17,17,18,18,19,19,20,20,21,21,22,22,23,23,24,24,25,25,26,26,27,27,28,28,29,29,30,30,31,31,32,32,33,33,34,34,35,35,36,36,37,37,38,38,39,39,40,40,41,41,42,42,43,43,44,44,45,45,46,46,47,47,48,48,49,49,50,50,51,51,52,52,53,53,54,54,55,55,56,56,57,57,58,58,59,59,60,60,61,61,62,62],"right_children":[2,4,6,8,10,12,14,16,18,20,22,24,26,28,30,32,34,36,38,40,42,44,46,48,50,52,54,56,58,60,62,64,66,68,70,72,74,76,78,80,82,84,86,88,90,92,94,96,98,100,102,104,106,108,110,112,114,116,118,120,122,124,126,-1,-1,-1,-1,-1,-1,-1,-1,-1,-1,-1,-1,-1,-1,-1,-1,-1,-1,-1,-1,-1,-1,-1,-1,-1,-1,-1,-1,-1,-1,-1,-1,-1,-1,-1,-1,-1,-1,-1,-1,-1,-1,-1,-1,-1,-1,-1,-1,-1,-1,-1,-1,-1,-1,-1,-1,-1,-1,-1,-1,-1,-1,-1,-1],"split_conditions":[2.076E1,1.24E1,3.084E1,7.2E0,1.624E1,2.556E1,3.744E1,4.4E0,1.104E1,1.7E1,2.02E1,2.16E1,2.808E1,3.416E1,4.308E1,6.64E0,6.96E0,4E0,1.452E1,1.336E1,2.12E1,1.62E1,2.42E1,1.64E1,2.62E1,3.06E1,2.66E1,3.66E1,3.62E1,3.72E1,4.764E1,4E0,4E0,4E0,4E0,9.2E0,8.12E0,1.02E1,1.04E1,5E0,1.52E1,6E0,1E1,1.716E1,1.812E1,1.936E1,1E1,1.28E1,2.328E1,2.232E1,9E0,2.12E1,9E0,2.26E1,3.4E1,3.216E1,3.328E1,3.54E1,1E1,2.8E1,4.06E1,4.27E2,3.26E1,-5.3478575E-1,-5.81395E-1,-4.5176354E-1,-5.1132894E-1,-4.4672814E-1,-5.278621E-1,-3.8483724E-1,-4.487973E-1,-3.580698E-1,-2.952366E-1,-4.659985E-1,-3.885846E-1,-2.7958342E-1,-2.1886738E-1,-2.1269457E-1,-1.3898526E-1,-1.781301E-1,-3.2399008E-1,-1.2690786E-1,-7.6953314E-2,-3.2723006E-2,-2.1335356E-1,8.959184E-2,-3.280928E-1,-6.192983E-2,-1.2000179E-4,1.8736249E-2,8.04974E-2,1.0522105E-1,1.5459315E-1,2.2575362E-1,-7.753921E-2,-9.456657E-3,8.500541E-2,1.698257E-1,2.3543783E-1,2.1698117E-1,2.970413E-1,3.684804E-1,1.6123854E-1,2.6695997E-1,4.171171E-1,5.414238E-1,3.0700788E-1,3.6205876E-1,4.8988643E-1,5.5926526E-1,6.28426E-1,6.22583E-1,6.816489E-1,7.4704987E-1,8.2204646E-1,7.777367E-1,8.45581E-1,8.9606583E-1,6.8644404E-1,5.428843E-1,9.218996E-1,1.0102513E0,1.0996244E0,1.0621829E0,1.247332E0,-1.5850054E-1,1.4307212E0],"split_indices":[8,6,8,6,8,8,8,6,8,6,6,6,8,8,8,8,8,4,8,8,6,6,6,6,6,6,6,6,8,6,8,4,4,4,4,6,8,6,6,4,6,4,4,8,8,8,4,6,8,8,4,6,4,6,6,8,8,6,4,6,8,0,6,0,0,0,0,0,0,0,0,0,0,0,0,0,0,0,0,0,0,0,0,0,0,0,0,0,0,0,0,0,0,0,0,0,0,0,0,0,0,0,0,0,0,0,0,0,0,0,0,0,0,0,0,0,0,0,0,0,0,0,0,0,0,0,0],"split_type":[0,0,0,0,0,0,0,0,0,0,0,0,0,0,0,0,0,0,0,0,0,0,0,0,0,0,0,0,0,0,0,0,0,0,0,0,0,0,0,0,0,0,0,0,0,0,0,0,0,0,0,0,0,0,0,0,0,0,0,0,0,0,0,0,0,0,0,0,0,0,0,0,0,0,0,0,0,0,0,0,0,0,0,0,0,0,0,0,0,0,0,0,0,0,0,0,0,0,0,0,0,0,0,0,0,0,0,0,0,0,0,0,0,0,0,0,0,0,0,0,0,0,0,0,0,0,0],"sum_hessian":[2.04205E5,1.45175E5,5.903E4,7.6636E4,6.8539E4,3.9892E4,1.9138E4,3.2876E4,4.376E4,3.7831E4,3.0708E4,2.3197E4,1.6695E4,1.1918E4,7.22E3,1.4409E4,1.8467E4,2.5016E4,1.8744E4,2.7109E4,1.0722E4,2.0387E4,1.0321E4,8.617E3,1.458E4,8.7E3,7.995E3,7.102E3,4.816E3,4.842E3,2.378E3,1.0763E4,3.646E3,8.401E3,1.0066E4,2.0547E4,4.469E3,1.3781E4,4.963E3,1.503E4,1.2079E4,8.682E3,2.04E3,7.32E3,1.3067E4,7.737E3,2.584E3,1.345E3,7.272E3,9.442E3,5.138E3,7.229E3,1.471E3,1.87E3,6.125E3,5.97E3,1.132E3,3.248E3,1.568E3,1.321E3,3.521E3,1.582E3,7.96E2,5.53E3,5.233E3,2.204E3,1.442E3,5.689E3,2.712E3,7.465E3,2.601E3,9.426E3,1.1121E4,1.872E3,2.597E3,6.044E3,7.737E3,1.779E3,3.184E3,1.376E4,1.27E3,7.618E3,4.461E3,8.207E3,4.75E2,1.976E3,6.4E1,2.349E3,4.971E3,5.808E3,7.259E3,4.633E3,3.104E3,2.489E3,9.5E1,1.94E2,1.151E3,5.181E3,2.091E3,3.287E3,6.155E3,4.958E3,1.8E2,6.81E2,6.548E3,1.424E3,4.7E1,3.87E2,1.483E3,5.067E3,1.058E3,2.794E3,3.176E3,7.42E2,3.9E2,1.722E3,1.526E3,1.524E3,4.4E1,3E1,1.291E3,2.106E3,1.415E3,2.13E2,1.369E3,1E0,7.95E2],"tree_param":{"num_deleted":"0","num_feature":"9","num_nodes":"127","size_leaf_vector":"1"}},{"base_weights":[3.644381E-3,-4.4143424E0,9.00151E0,-7.440863E0,-1.4357581E0,5.7746024E0,1.6223476E1,-9.320807E0,-6.0770016E0,-2.9942832E0,2.2381213E-1,3.9758074E0,8.5843935E0,1.3493378E1,2.0580675E1,-1.0501414E1,-8.656291E0,-6.9151797E0,-5.3510838E0,-3.6961586E0,-2.0472574E0,-8.2448316E-1,1.2713426E0,3.2267382E0,5.6794295E0,7.710144E0,1.0097032E1,1.2284742E1,1.5029163E1,1.8929224E1,2.4421833E1,-1.1207604E1,-1.0080841E1,-8.033545E0,-9.423615E0,-6.5456944E0,-8.298474E0,-5.0914803E0,-6.719953E0,-3.436513E0,-5.4519706E0,-2.8424668E0,-1.5772372E0,-6.5598494E-1,-3.6636167E0,8.201084E-1,2.3752437E0,2.4830732E0,4.149757E0,5.8248887E0,7.60559E-1,7.342373E0,9.453851E0,8.708723E0,1.0571032E1,1.1428621E1,1.3014932E1,1.4059399E1,1.5749409E1,1.7401434E1,1.9891043E1,2.322556E1,2.6700125E1,-5.690293E-1,-5.147285E-1,-4.6853215E-1,-5.3363335E-1,-4.2232823E-1,-3.813841E-1,-5.026476E-1,-4.487431E-1,-3.3691844E-1,-2.9601264E-1,-4.6963558E-1,-3.8956746E-1,-2.7176252E-1,-2.2690587E-1,-3.6751202E-1,-2.9832262E-1,-1.957441E-1,-1.3842598E-1,-3.3626172E-1,-2.3881896E-1,-1.620631E-1,-1.048579E-1,-9.280535E-2,-2.5042761E-2,-4.851423E-2,3.4830968E-3,-2.890049E-1,-1.3214979E-1,2.2823796E-2,8.710996E-2,6.81524E-2,1.3895147E-1,1.3048077E-1,-7.611561E-2,2.1277006E-1,1.2440046E-1,2.675085E-1,3.3747357E-1,-4.5132894E-2,1.3143782E-1,3.0353913E-1,3.826038E-1,3.6426604E-1,4.9600196E-1,4.157692E-1,5.2794164E-1,5.333605E-1,3.875709E-1,5.5504453E-1,6.312694E-1,6.5686655E-1,4.8838353E-1,6.556534E-1,7.347283E-1,7.955738E-1,6.3552463E-1,7.0638365E-1,8.776272E-1,9.310689E-1,1.020053E0,9.764447E-1,1.1802152E0,9.837637E-1,1.3443488E0],"categories":[],"categories_nodes":[],"categories_segments":[],"categories_sizes":[],"default_left":[0,0,0,0,0,0,0,0,0,0,0,0,0,0,0,0,0,0,0,0,0,0,0,0,0,0,0,0,0,0,0,0,0,0,0,0,0,0,0,0,0,0,0,0,0,0,0,0,0,0,0,0,0,0,0,0,0,0,0,0,0,0,0,0,0,0,0,0,0,0,0,0,0,0,0,0,0,0,0,0,0,0,0,0,0,0,0,0,0,0,0,0,0,0,0,0,0,0,0,0,0,0,0,0,0,0,0,0,0,0,0,0,0,0,0,0,0,0,0,0,0,0,0,0,0,0,0],"id":3,"left_children":[1,3,5,7,9,11,13,15,17,19,21,23,25,27,29,31,33,35,37,39,41,43,45,47,49,51,53,55,57,59,61,63,65,67,69,71,73,75,77,79,81,83,85,87,89,91,93,95,97,99,101,103,105,107,109,111,113,115,117,119,121,123,125,-1,-1,-1,-1,-1,-1,-1,-1,-1,-1,-1,-1,-1,-1,-1,-1,-1,-1,-1,-1,-1,-1,-1,-1,-1,-1,-1,-1,-1,-1,-1,-1,-1,-1,-1,-1,-1,-1,-1,-1,-1,-1,-1,-1,-1,-1,-1,-1,-1,-1,-1,-1,-1,-1,-1,-1,-1,-1,-1,-1,-1,-1,-1,-1],"loss_changes":[8.126952E6,1.2360465E6,1.568866E6,1.7431975E5,1.787421E5,2.3515975E5,2.47043E5,2.234125E4,2.3946875E4,2.3680844E4,3.675407E4,3.6189312E4,2.394E4,2.354675E4,5.033E4,2.944125E3,8.6695E3,9.294375E3,7.4739375E3,9.3119375E3,5.6662695E3,8.0005654E3,8.337041E3,1.3518969E4,6.194625E3,7.314375E3,4.2834375E3,4.32725E3,3.708125E3,7.888625E3,5.93175E3,4.8825E2,2.6156875E3,1.630125E3,2.223625E3,1.7001875E3,2.064375E3,3.3545625E3,1.5542656E3,5.6876406E3,2.2345156E3,1.6680703E3,2.8620938E3,3.6019849E3,2.0087607E3,3.9842715E3,1.9813184E3,5.537758E3,1.5330625E3,3.657375E3,7.7917725E2,3.699875E3,1.9516406E3,1.1478672E3,1.2601875E3,1.15575E3,1.40475E3,1.254125E3,1.383625E3,8.269375E2,1.842625E3,1.7568125E3,5.486875E2,0E0,0E0,0E0,0E0,0E0,0E0,0E0,0E0,0E0,0E0,0E0,0E0,0E0,0E0,0E0,0E0,0E0,0E0,0E0,0E0,0E0,0E0,0E0,0E0,0E0,0E0,0E0,0E0,0E0,0E0,0E0,0E0,0E0,0E0,0E0,0E0,0E0,0E0,0E0,0E0,0E0,0E0,0E0,0E0,0E0,0E0,0E0,0E0,0E0,0E0,0E0,0E0,0E0,0E0,0E0,0E0,0E0,0E0,0E0,0E0,0E0,0E0,0E0,0E0],"parents":[2147483647,0,0,1,1,2,2,3,3,4,4,5,5,6,6,7,7,8,8,9,9,10,10,11,11,12,12,13,13,14,14,15,15,16,16,17,17,18,18,19,19,20,20,21,21,22,22,23,23,24,24,25,25,26,26,27,27,28,28,29,29,30,30,31,31,32,32,33,33,34,34,35,35,36,36,37,37,38,38,39,39,40,40,41,41,42,42,43,43,44,44,45,45,46,46,47,47,48,48,49,49,50,50,51,51,52,52,53,53,54,54,55,55,56,56,57,57,58,58,59,59,60,60,61,61,62,62],"right_children":[2,4,6,8,10,12,14,16,18,20,22,24,26,28,30,32,34,36,38,40,42,44,46,48,50,52,54,56,58,60,62,64,66,68,70,72,74,76,78,80,82,84,86,88,90,92,94,96,98,100,102,104,106,108,110,112,114,116,118,120,122,124,126,-1,-1,-1,-1,-1,-1,-1,-1,-1,-1,-1,-1,-1,-1,-1,-1,-1,-1,-1,-1,-1,-1,-1,-1,-1,-1,-1,-1,-1,-1,-1,-1,-1,-1,-1,-1,-1,-1,-1,-1,-1,-1,-1,-1,-1,-1,-1,-1,-1,-1,-1,-1,-1,-1,-1,-1,-1,-1,-1,-1,-1,-1,-1,-1],"split_conditions":[1.98E1,1.15E1,3.024E1,7E0,1.54E1,2.476E1,3.68E1,4.2E0,9.2E0,1.376E1,1.716E1,2.36E1,2.84E1,3.328E1,4.308E1,4.75E0,3E0,4E0,4E0,4E0,1.36E1,6E0,2.004E1,2.104E1,1E1,2.832E1,2.732E1,3.14E1,3.45E1,3.85E1,4.764E1,3.1E0,3E0,5.8E0,5.88E0,1.016E1,7.56E0,1.12E1,1.072E1,1.32E1,1.104E1,2.27E1,1.708E1,1.76E1,1.42E1,1.87E1,1.78E1,1E1,6E0,2.59E1,1E0,2.38E1,2.53E1,3.11E1,9E0,3.216E1,9E0,3.416E1,7E0,3.29E1,3.888E1,5E0,4.38E1,-5.690293E-1,-5.147285E-1,-4.6853215E-1,-5.3363335E-1,-4.2232823E-1,-3.813841E-1,-5.026476E-1,-4.487431E-1,-3.3691844E-1,-2.9601264E-1,-4.6963558E-1,-3.8956746E-1,-2.7176252E-1,-2.2690587E-1,-3.6751202E-1,-2.9832262E-1,-1.957441E-1,-1.3842598E-1,-3.3626172E-1,-2.3881896E-1,-1.620631E-1,-1.048579E-1,-9.280535E-2,-2.5042761E-2,-4.851423E-2,3.4830968E-3,-2.890049E-1,-1.3214979E-1,2.2823796E-2,8.710996E-2,6.81524E-2,1.3895147E-1,1.3048077E-1,-7.611561E-2,2.1277006E-1,1.2440046E-1,2.675085E-1,3.3747357E-1,-4.5132894E-2,1.3143782E-1,3.0353913E-1,3.826038E-1,3.6426604E-1,4.9600196E-1,4.157692E-1,5.2794164E-1,5.333605E-1,3.875709E-1,5.5504453E-1,6.312694E-1,6.5686655E-1,4.8838353E-1,6.556534E-1,7.347283E-1,7.955738E-1,6.3552463E-1,7.0638365E-1,8.776272E-1,9.310689E-1,1.020053E0,9.764447E-1,1.1802152E0,9.837637E-1,1.3443488E0],"split_indices":[7,7,8,7,7,8,8,7,7,8,8,7,7,8,8,5,4,4,4,4,7,4,8,8,4,8,8,7,7,7,8,7,4,7,8,8,8,8,8,7,8,5,8,7,8,7,7,4,4,7,3,7,7,7,4,8,4,8,4,7,8,1,7,0,0,0,0,0,0,0,0,0,0,0,0,0,0,0,0,0,0,0,0,0,0,0,0,0,0,0,0,0,0,0,0,0,0,0,0,0,0,0,0,0,0,0,0,0,0,0,0,0,0,0,0,0,0,0,0,0,0,0,0,0,0,0,0],"split_type":[0,0,0,0,0,0,0,0,0,0,0,0,0,0,0,0,0,0,0,0,0,0,0,0,0,0,0,0,0,0,0,0,0,0,0,0,0,0,0,0,0,0,0,0,0,0,0,0,0,0,0,0,0,0,0,0,0,0,0,0,0,0,0,0,0,0,0,0,0,0,0,0,0,0,0,0,0,0,0,0,0,0,0,0,0,0,0,0,0,0,0,0,0,0,0,0,0,0,0,0,0,0,0,0,0,0,0,0,0,0,0,0,0,0,0,0,0,0,0,0,0,0,0,0,0,0,0],"sum_hessian":[2.04437E5,1.37114E5,6.7323E4,6.8009E4,6.9105E4,4.6533E4,2.079E4,2.8592E4,3.9417E4,3.5637E4,3.3468E4,2.8372E4,1.8161E4,1.2784E4,8.006E3,1.0292E4,1.83E4,1.829E4,2.1127E4,2.0466E4,1.5171E4,1.6728E4,1.674E4,1.9709E4,8.663E3,1.1513E4,6.648E3,7.159E3,5.625E3,5.603E3,2.403E3,3.832E3,6.46E3,1.0108E4,8.192E3,1.4439E4,3.851E3,1.7763E4,3.364E3,1.7832E4,2.634E3,5.634E3,9.537E3,1.5792E4,9.36E2,1.1884E4,4.856E3,1.0917E4,8.792E3,8.414E3,2.49E2,9.512E3,2.001E3,1.697E3,4.951E3,3.303E3,3.856E3,2.406E3,3.219E3,2.172E3,3.431E3,1.583E3,8.2E2,3.212E3,6.2E2,2.944E3,3.516E3,5E3,5.108E3,3.401E3,4.791E3,1.1031E4,3.408E3,1.214E3,2.637E3,1.0951E4,6.812E3,1.827E3,1.537E3,1.0388E4,7.444E3,9.1E2,1.724E3,3.668E3,1.966E3,7.574E3,1.963E3,1.1019E4,4.773E3,3.03E2,6.33E2,8.524E3,3.36E3,1.386E3,3.47E3,1.0583E4,3.34E2,8.265E3,5.27E2,5.564E3,2.85E3,1.32E2,1.17E2,1.867E3,7.645E3,3.57E2,1.644E3,1.404E3,2.93E2,4.785E3,1.66E2,2.601E3,7.02E2,3.713E3,1.43E2,9.75E2,1.431E3,3.052E3,1.67E2,1E2,2.072E3,9.94E2,2.437E3,1.52E2,1.431E3,2.4E1,7.96E2],"tree_param":{"num_deleted":"0","num_feature":"9","num_nodes":"127","size_leaf_vector":"1"}},{"base_weights":[3.7885502E-3,-3.8432996E0,9.420197E0,-6.6743107E0,-4.9285656E-1,6.3298054E0,1.5869666E1,-8.53495E0,-5.1267285E0,-1.9822444E0,1.2046728E0,4.492665E0,8.684874E0,1.38448105E1,2.079766E1,-9.53972E0,-7.5356665E0,-5.948393E0,-4.2210813E0,-2.8280349E0,-5.495738E-1,1.3949351E-1,2.2737021E0,3.6235142E0,6.0632687E0,7.6693325E0,9.953021E0,1.228591E1,1.5576924E1,1.9273022E1,2.45372E1,-1.0100834E1,-8.761651E0,-8.13254E0,-6.600926E0,-6.7226086E0,-5.224692E0,-4.832065E0,-3.650793E0,-4.376902E0,-2.5027587E0,-1.7891724E0,-1.4349482E-2,-6.363705E-1,7.5952077E-1,1.8313233E0,3.8557413E0,1.9784594E0,4.0649853E0,5.7548275E0,7.7316623E0,5.930759E0,8.048264E0,9.262544E0,1.0628659E1,1.1411543E1,1.3217188E1,1.440282E1,1.6321201E1,1.7478355E1,1.990681E1,1.9133736E1,2.4855639E1,-5.2806836E-1,-4.8056695E-1,-4.651637E-1,-4.2232534E-1,-4.271122E-1,-3.898433E-1,-3.6497745E-1,-3.1422544E-1,-3.55708E-1,-3.1759802E-1,-2.8584182E-1,-2.289346E-1,-2.6077488E-1,-1.9599925E-1,-1.985631E-1,-1.4833985E-1,-2.8758225E-1,-2.0438151E-1,-1.696355E-1,-1.1041575E-1,-1.2065812E-1,-4.390372E-2,-7.6556735E-2,8.187456E-3,-4.5054898E-2,6.0216326E-2,1.767951E-2,7.660866E-2,5.046154E-2,1.0552037E-1,1.8224959E-1,2.9018506E-1,5.309066E-2,1.3434188E-1,1.685168E-1,2.304921E-1,2.4979518E-1,3.0946398E-1,3.5281605E-1,4.3191892E-1,9.042855E-2,3.0795455E-1,3.837558E-1,4.594248E-1,3.9874136E-1,4.9062786E-1,5.1108646E-1,5.7781756E-1,5.578038E-1,6.415373E-1,6.4812243E-1,7.5390524E-1,6.5727085E-1,7.380568E-1,7.76467E-1,8.547789E-1,4.7191405E-1,8.785335E-1,9.837517E-1,1.1615372E0,4.9253336E-1,1.0385827E0,8.1396866E-1,1.2491257E0],"categories":[],"categories_nodes":[],"categories_segments":[],"categories_sizes":[],"default_left":[0,0,0,0,0,0,0,0,0,0,0,0,0,0,0,0,0,0,0,0,0,0,0,0,0,0,0,0,0,0,0,0,0,0,0,0,0,0,0,0,0,0,0,0,0,0,0,0,0,0,0,0,0,0,0,0,0,0,0,0,0,0,0,0,0,0,0,0,0,0,0,0,0,0,0,0,0,0,0,0,0,0,0,0,0,0,0,0,0,0,0,0,0,0,0,0,0,0,0,0,0,0,0,0,0,0,0,0,0,0,0,0,0,0,0,0,0,0,0,0,0,0,0,0,0,0,0],"id":4,"left_children":[1,3,5,7,9,11,13,15,17,19,21,23,25,27,29,31,33,35,37,39,41,43,45,47,49,51,53,55,57,59,61,63,65,67,69,71,73,75,77,79,81,83,85,87,89,91,93,95,97,99,101,103,105,107,109,111,113,115,117,119,121,123,125,-1,-1,-1,-1,-1,-1,-1,-1,-1,-1,-1,-1,-1,-1,-1,-1,-1,-1,-1,-1,-1,-1,-1,-1,-1,-1,-1,-1,-1,-1,-1,-1,-1,-1,-1,-1,-1,-1,-1,-1,-1,-1,-1,-1,-1,-1,-1,-1,-1,-1,-1,-1,-1,-1,-1,-1,-1,-1,-1,-1,-1,-1,-1,-1],"loss_changes":[7.383388E6,1.3724872E6,1.178183E6,2.257915E5,1.6755398E5,1.7288625E5,1.908005E5,3.56835E4,3.1838125E4,4.2772844E4,3.5267742E4,3.0631188E4,2.2479125E4,3.64665E4,3.131275E4,7.66225E3,9.91025E3,1.25425625E4,7.08075E3,1.1171609E4,8.694661E3,7.4640796E3,1.0811375E4,1.0492E4,4.0712812E3,6.362375E3,3.533375E3,5.67125E3,5.38125E3,4.162E3,2.296375E3,2.222125E3,1.192375E3,1.4318125E3,1.49375E3,1.5282812E3,3.6639688E3,3.418E3,2.2987969E3,1.5079297E3,4.7998984E3,2.2446572E3,2.473088E3,3.35944E3,2.7043174E3,2.769879E3,1.3652148E3,1.9847529E3,4.298422E3,2.1959844E3,7.0141406E2,1.6313008E3,3.3273438E3,2.6542188E3,1.36475E3,1.1965312E3,1.4428125E3,9.3321875E2,2.1419375E3,6.0828125E2,1.794875E3,1.2246445E3,1.2450625E3,0E0,0E0,0E0,0E0,0E0,0E0,0E0,0E0,0E0,0E0,0E0,0E0,0E0,0E0,0E0,0E0,0E0,0E0,0E0,0E0,0E0,0E0,0E0,0E0,0E0,0E0,0E0,0E0,0E0,0E0,0E0,0E0,0E0,0E0,0E0,0E0,0E0,0E0,0E0,0E0,0E0,0E0,0E0,0E0,0E0,0E0,0E0,0E0,0E0,0E0,0E0,0E0,0E0,0E0,0E0,0E0,0E0,0E0,0E0,0E0,0E0,0E0,0E0,0E0],"parents":[2147483647,0,0,1,1,2,2,3,3,4,4,5,5,6,6,7,7,8,8,9,9,10,10,11,11,12,12,13,13,14,14,15,15,16,16,17,17,18,18,19,19,20,20,21,21,22,22,23,23,24,24,25,25,26,26,27,27,28,28,29,29,30,30,31,31,32,32,33,33,34,34,35,35,36,36,37,37,38,38,39,39,40,40,41,41,42,42,43,43,44,44,45,45,46,46,47,47,48,48,49,49,50,50,51,51,52,52,53,53,54,54,55,55,56,56,57,57,58,58,59,59,60,60,61,61,62,62],"right_children":[2,4,6,8,10,12,14,16,18,20,22,24,26,28,30,32,34,36,38,40,42,44,46,48,50,52,54,56,58,60,62,64,66,68,70,72,74,76,78,80,82,84,86,88,90,92,94,96,98,100,102,104,106,108,110,112,114,116,118,120,122,124,126,-1,-1,-1,-1,-1,-1,-1,-1,-1,-1,-1,-1,-1,-1,-1,-1,-1,-1,-1,-1,-1,-1,-1,-1,-1,-1,-1,-1,-1,-1,-1,-1,-1,-1,-1,-1,-1,-1,-1,-1,-1,-1,-1,-1,-1,-1,-1,-1,-1,-1,-1,-1,-1,-1,-1,-1,-1,-1,-1,-1,-1,-1,-1,-1],"split_conditions":[2.076E1,1.26E1,3.084E1,7.6E0,1.7E1,2.536E1,3.888E1,5E0,1.06E1,1.58E1,1.87E1,2.44E1,2.84E1,3.416E1,4.48E1,5.631579E0,8.4E0,9.44E0,1.08E1,1.16E1,1.38E1,1.56E1,2.38E1,1.84E1,2.98E1,2.26E1,3.06E1,3.26E1,3.55E1,3.93E1,4E1,3E0,3.4E0,6.08E0,7.5E0,7.76E0,1.78E1,1.32E1,1.32E1,1.12E1,1.224E1,2.44E1,1.99E1,2.12E1,1.94E1,1.748E1,2.9E1,1.64E1,2.232E1,2.28E1,2.79E1,1.66E1,2.832E1,2.784E1,3.22E1,3.33E1,3.92E1,3.06E1,3.68E1,2.74E1,4.94E1,3.78E2,3E0,-5.2806836E-1,-4.8056695E-1,-4.651637E-1,-4.2232534E-1,-4.271122E-1,-3.898433E-1,-3.6497745E-1,-3.1422544E-1,-3.55708E-1,-3.1759802E-1,-2.8584182E-1,-2.289346E-1,-2.6077488E-1,-1.9599925E-1,-1.985631E-1,-1.4833985E-1,-2.8758225E-1,-2.0438151E-1,-1.696355E-1,-1.1041575E-1,-1.2065812E-1,-4.390372E-2,-7.6556735E-2,8.187456E-3,-4.5054898E-2,6.0216326E-2,1.767951E-2,7.660866E-2,5.046154E-2,1.0552037E-1,1.8224959E-1,2.9018506E-1,5.309066E-2,1.3434188E-1,1.685168E-1,2.304921E-1,2.4979518E-1,3.0946398E-1,3.5281605E-1,4.3191892E-1,9.042855E-2,3.0795455E-1,3.837558E-1,4.594248E-1,3.9874136E-1,4.9062786E-1,5.1108646E-1,5.7781756E-1,5.578038E-1,6.415373E-1,6.4812243E-1,7.5390524E-1,6.5727085E-1,7.380568E-1,7.76467E-1,8.547789E-1,4.7191405E-1,8.785335E-1,9.837517E-1,1.1615372E0,4.9253336E-1,1.0385827E0,8.1396866E-1,1.2491257E0],"split_indices":[8,7,8,6,6,8,8,6,6,8,7,6,7,8,8,8,8,8,8,6,6,8,6,6,6,6,6,6,7,7,6,6,6,8,7,8,5,6,6,8,8,5,5,6,6,8,6,6,8,8,7,6,8,8,7,7,6,6,8,5,6,0,1,0,0,0,0,0,0,0,0,0,0,0,0,0,0,0,0,0,0,0,0,0,0,0,0,0,0,0,0,0,0,0,0,0,0,0,0,0,0,0,0,0,0,0,0,0,0,0,0,0,0,0,0,0,0,0,0,0,0,0,0,0,0,0,0],"split_type":[0,0,0,0,0,0,0,0,0,0,0,0,0,0,0,0,0,0,0,0,0,0,0,0,0,0,0,0,0,0,0,0,0,0,0,0,0,0,0,0,0,0,0,0,0,0,0,0,0,0,0,0,0,0,0,0,0,0,0,0,0,0,0,0,0,0,0,0,0,0,0,0,0,0,0,0,0,0,0,0,0,0,0,0,0,0,0,0,0,0,0,0,0,0,0,0,0,0,0,0,0,0,0,0,0,0,0,0,0,0,0,0,0,0,0,0,0,0,0,0,0,0,0,0,0,0,0],"sum_hessian":[2.03814E5,1.44698E5,5.9116E4,7.8428E4,6.627E4,3.9967E4,1.9149E4,3.561E4,4.2818E4,3.5299E4,3.0971E4,2.2454E4,1.7513E4,1.3575E4,5.574E3,1.7752E4,1.7858E4,2.2447E4,2.0371E4,2.2195E4,1.3104E4,1.5514E4,1.5457E4,1.4457E4,7.997E3,9.729E3,7.784E3,7.149E3,6.426E3,3.964E3,1.61E3,1.0307E4,7.445E3,1.0894E4,6.964E3,1.0841E4,1.1606E4,9.831E3,1.054E4,3.85E3,1.8345E4,3.951E3,9.153E3,6.891E3,8.623E3,1.2081E4,3.376E3,3.06E3,1.1397E4,6.753E3,1.244E3,1.744E3,7.985E3,3.857E3,3.927E3,3.694E3,3.455E3,2.501E3,3.925E3,1.042E3,2.922E3,9.3E1,1.517E3,5.3E3,5.007E3,2.728E3,4.717E3,4.895E3,5.999E3,2.164E3,4.8E3,5.263E3,5.578E3,6.583E3,5.023E3,6.918E3,2.913E3,7.174E3,3.366E3,6.66E2,3.184E3,4.558E3,1.3787E4,2.344E3,1.607E3,9.61E2,8.192E3,6.025E3,8.66E2,5.654E3,2.969E3,3.063E3,9.018E3,3.049E3,3.27E2,1.335E3,1.725E3,5.013E3,6.384E3,2.463E3,4.29E3,7.18E2,5.26E2,9.2E1,1.652E3,6.022E3,1.963E3,1.159E3,2.698E3,2.738E3,1.189E3,3.138E3,5.56E2,3.046E3,4.09E2,5.63E2,1.938E3,1.951E3,1.974E3,1.3E1,1.029E3,2.738E3,1.84E2,1.5E1,7.8E1,2.4E1,1.493E3],"tree_param":{"num_deleted":"0","num_feature":"9","num_nodes":"127","size_leaf_vector":"1"}},{"base_weights":[8.016495E-3,-3.7033536E0,8.78388E0,-6.4584503E0,-7.1959776E-1,5.8063617E0,1.4846881E1,-8.189411E0,-5.072858E0,-2.06702E0,1.1197416E0,4.239518E0,8.22214E0,1.2314266E1,1.85881E1,-9.252871E0,-7.452631E0,-5.8354588E0,-4.369994E0,-2.7996638E0,-1.1027933E0,1.773257E-1,1.8691237E0,2.8163352E0,5.0632286E0,7.231681E0,9.303932E0,1.1466674E1,1.3987335E1,1.6980164E1,2.2260958E1,-8.567648E0,-9.765728E0,-7.0104365E0,-8.5779295E0,-5.500527E0,-7.2542467E0,-4.1778517E0,-6.146511E0,-3.3530385E0,-2.2491667E0,-1.8399804E0,-4.9290115E-1,-5.296847E-1,8.72902E-1,1.9897146E0,-1.9217905E0,2.4610822E0,3.7210429E0,4.4264293E0,5.934806E0,2.764831E0,7.35309E0,9.41153E0,5.5557146E0,1.1025838E1,1.268993E1,1.3539882E1,1.4607044E1,1.5833466E1,1.8055168E1,2.0497677E1,2.3521973E1,-4.6233806E-1,-4.0085936E-1,-5.052907E-1,-4.645322E-1,-3.6902815E-1,-3.2349074E-1,-4.6915826E-1,-4.1013336E-1,-2.9319295E-1,-2.5992683E-1,-4.2014343E-1,-3.4420824E-1,-2.34453E-1,-1.836576E-1,-3.5838696E-1,-2.5113168E-1,-1.5756136E-1,-2.7661085E-1,-1.377854E-1,-9.0177245E-2,-8.22172E-2,-2.379364E-1,-1.9307885E-2,-1.2043851E-1,-2.156668E-2,-1.7431211E-1,1.0770402E-2,6.552796E-2,9.203133E-2,2.0636848E-1,-1.9893019E-1,-3.0454284E-2,1.057052E-1,1.666364E-1,7.7517964E-2,1.9671802E-1,2.0409672E-1,2.568703E-1,3.0140457E-1,1.3860352E-1,2.372452E-1,8.440234E-2,3.518174E-1,4.212782E-1,4.438915E-1,5.0081563E-1,1.0459586E-1,3.5164496E-1,5.141252E-1,5.6792086E-1,6.424275E-1,5.1381445E-1,6.711332E-1,8.522912E-1,7.344486E-1,4.736521E-1,6.266294E-1,7.973296E-1,8.840205E-1,9.782006E-1,1.0345625E0,7.0083004E-1,1.1798488E0,5.278457E-1],"categories":[],"categories_nodes":[],"categories_segments":[],"categories_sizes":[],"default_left":[0,0,0,0,0,0,0,0,0,0,0,0,0,0,0,0,0,0,0,0,0,0,0,0,0,0,0,0,0,0,0,0,0,0,0,0,0,0,0,0,0,0,0,0,0,0,0,0,0,0,0,0,0,0,0,0,0,0,0,0,0,0,0,0,0,0,0,0,0,0,0,0,0,0,0,0,0,0,0,0,0,0,0,0,0,0,0,0,0,0,0,0,0,0,0,0,0,0,0,0,0,0,0,0,0,0,0,0,0,0,0,0,0,0,0,0,0,0,0,0,0,0,0,0,0,0,0],"id":5,"left_children":[1,3,5,7,9,11,13,15,17,19,21,23,25,27,29,31,33,35,37,39,41,43,45,47,49,51,53,55,57,59,61,63,65,67,69,71,73,75,77,79,81,83,85,87,89,91,93,95,97,99,101,103,105,107,109,111,113,115,117,119,121,123,125,-1,-1,-1,-1,-1,-1,-1,-1,-1,-1,-1,-1,-1,-1,-1,-1,-1,-1,-1,-1,-1,-1,-1,-1,-1,-1,-1,-1,-1,-1,-1,-1,-1,-1,-1,-1,-1,-1,-1,-1,-1,-1,-1,-1,-1,-1,-1,-1,-1,-1,-1,-1,-1,-1,-1,-1,-1,-1,-1,-1,-1,-1,-1,-1],"loss_changes":[6.6535295E6,1.1801848E6,1.0959835E6,1.7898275E5,1.7082125E5,1.5409638E5,1.892345E5,2.593175E4,2.219725E4,2.8100312E4,2.0581316E4,2.8943656E4,1.70965E4,1.6753E4,4.72815E4,4.687625E3,9.69675E3,9.408E3,7.3401562E3,6.8786406E3,7.7224004E3,6.349338E3,7.4251953E3,2.902086E3,8.657031E3,4.51725E3,3.034125E3,4.132E3,9.130625E2,6.638125E3,4.974375E3,2.1015312E3,1.1595625E3,2.77E3,1.5931875E3,1.7348125E3,1.5549219E3,5.0077188E3,2.378836E3,4.9393516E3,2.5536328E3,4.4329434E3,1.9218396E3,1.8603666E3,1.87244E3,5.0068125E3,1.3502711E3,1.9609492E3,1.1755859E3,2.1941406E3,1.9311406E3,4.6745142E2,2.7075625E3,2.311875E3,1.0904878E3,1.3248125E3,6.6890625E2,7.328125E2,5.62E2,8.180625E2,1.2894375E3,1.00340625E3,1.135625E3,0E0,0E0,0E0,0E0,0E0,0E0,0E0,0E0,0E0,0E0,0E0,0E0,0E0,0E0,0E0,0E0,0E0,0E0,0E0,0E0,0E0,0E0,0E0,0E0,0E0,0E0,0E0,0E0,0E0,0E0,0E0,0E0,0E0,0E0,0E0,0E0,0E0,0E0,0E0,0E0,0E0,0E0,0E0,0E0,0E0,0E0,0E0,0E0,0E0,0E0,0E0,0E0,0E0,0E0,0E0,0E0,0E0,0E0,0E0,0E0,0E0,0E0,0E0,0E0],"parents":[2147483647,0,0,1,1,2,2,3,3,4,4,5,5,6,6,7,7,8,8,9,9,10,10,11,11,12,12,13,13,14,14,15,15,16,16,17,17,18,18,19,19,20,20,21,21,22,22,23,23,24,24,25,25,26,26,27,27,28,28,29,29,30,30,31,31,32,32,33,33,34,34,35,35,36,36,37,37,38,38,39,39,40,40,41,41,42,42,43,43,44,44,45,45,46,46,47,47,48,48,49,49,50,50,51,51,52,52,53,53,54,54,55,55,56,56,57,57,58,58,59,59,60,60,61,61,62,62],"right_children":[2,4,6,8,10,12,14,16,18,20,22,24,26,28,30,32,34,36,38,40,42,44,46,48,50,52,54,56,58,60,62,64,66,68,70,72,74,76,78,80,82,84,86,88,90,92,94,96,98,100,102,104,106,108,110,112,114,116,118,120,122,124,126,-1,-1,-1,-1,-1,-1,-1,-1,-1,-1,-1,-1,-1,-1,-1,-1,-1,-1,-1,-1,-1,-1,-1,-1,-1,-1,-1,-1,-1,-1,-1,-1,-1,-1,-1,-1,-1,-1,-1,-1,-1,-1,-1,-1,-1,-1,-1,-1,-1,-1,-1,-1,-1,-1,-1,-1,-1,-1,-1,-1,-1,-1,-1,-1],"split_conditions":[2.052E1,1.22E1,3.052E1,7.6E0,1.68E1,2.556E1,3.68E1,4.8E0,9.9E0,1.47E1,1.87E1,2.18E1,2.81E1,3.416E1,4.308E1,3E0,4E0,4E0,5E0,1.328E1,1.516E1,1.708E1,1E1,2.264E1,2.47E1,2.13E1,1E1,3.41E1,3.6E1,3.93E1,4.56E1,3.5E0,4.28E0,6.6E0,5.88E0,8.7E0,7.76E0,1.12E1,1.112E1,5E0,2.16E1,6E0,7E0,1E1,2.51E1,2.38E1,1.792E1,3E1,1.8E1,2.36E1,1E1,4.84E2,2.832E1,2.888E1,2.784E1,3.02E1,6E0,3E1,4.24E1,3.29E1,4.38E1,1E1,1.486E3,-4.6233806E-1,-4.0085936E-1,-5.052907E-1,-4.645322E-1,-3.6902815E-1,-3.2349074E-1,-4.6915826E-1,-4.1013336E-1,-2.9319295E-1,-2.5992683E-1,-4.2014343E-1,-3.4420824E-1,-2.34453E-1,-1.836576E-1,-3.5838696E-1,-2.5113168E-1,-1.5756136E-1,-2.7661085E-1,-1.377854E-1,-9.0177245E-2,-8.22172E-2,-2.379364E-1,-1.9307885E-2,-1.2043851E-1,-2.156668E-2,-1.7431211E-1,1.0770402E-2,6.552796E-2,9.203133E-2,2.0636848E-1,-1.9893019E-1,-3.0454284E-2,1.057052E-1,1.666364E-1,7.7517964E-2,1.9671802E-1,2.0409672E-1,2.568703E-1,3.0140457E-1,1.3860352E-1,2.372452E-1,8.440234E-2,3.518174E-1,4.212782E-1,4.438915E-1,5.0081563E-1,1.0459586E-1,3.5164496E-1,5.141252E-1,5.6792086E-1,6.424275E-1,5.1381445E-1,6.711332E-1,8.522912E-1,7.344486E-1,4.736521E-1,6.266294E-1,7.973296E-1,8.840205E-1,9.782006E-1,1.0345625E0,7.0083004E-1,1.1798488E0,5.278457E-1],"split_indices":[8,7,8,7,7,8,8,7,7,7,7,7,7,8,8,4,4,4,4,8,8,8,4,8,7,7,4,7,7,7,7,7,8,7,8,7,8,8,8,4,5,4,4,4,5,7,8,5,7,8,4,0,8,8,8,7,4,2,7,7,7,4,0,0,0,0,0,0,0,0,0,0,0,0,0,0,0,0,0,0,0,0,0,0,0,0,0,0,0,0,0,0,0,0,0,0,0,0,0,0,0,0,0,0,0,0,0,0,0,0,0,0,0,0,0,0,0,0,0,0,0,0,0,0,0,0,0],"split_type":[0,0,0,0,0,0,0,0,0,0,0,0,0,0,0,0,0,0,0,0,0,0,0,0,0,0,0,0,0,0,0,0,0,0,0,0,0,0,0,0,0,0,0,0,0,0,0,0,0,0,0,0,0,0,0,0,0,0,0,0,0,0,0,0,0,0,0,0,0,0,0,0,0,0,0,0,0,0,0,0,0,0,0,0,0,0,0,0,0,0,0,0,0,0,0,0,0,0,0,0,0,0,0,0,0,0,0,0,0,0,0,0,0,0,0,0,0,0,0,0,0,0,0,0,0,0,0],"sum_hessian":[2.04279E5,1.43565E5,6.0714E4,7.4642E4,6.8923E4,4.0719E4,1.9995E4,3.3183E4,4.1459E4,3.9781E4,2.9142E4,2.4701E4,1.6018E4,1.1926E4,8.069E3,1.3576E4,1.9607E4,1.9881E4,2.1578E4,2.2604E4,1.7177E4,1.2909E4,1.6233E4,9.057E3,1.5644E4,8.366E3,7.652E3,7.921E3,4.005E3,5.616E3,2.453E3,5.819E3,7.757E3,1.4081E4,5.526E3,1.6088E4,3.793E3,1.9475E4,2.103E3,1.127E4,1.1334E4,7.776E3,9.401E3,6.402E3,6.507E3,1.5733E4,5E2,6.506E3,2.551E3,9.043E3,6.601E3,2.22E2,8.144E3,7.437E3,2.15E2,5.83E3,2.091E3,2.339E3,1.666E3,2.725E3,2.891E3,1.03E3,1.423E3,2.598E3,3.221E3,4.509E3,3.248E3,8.351E3,5.73E3,1.749E3,3.777E3,7.294E3,8.794E3,9.19E2,2.874E3,9.671E3,9.804E3,1.099E3,1.004E3,1.0317E4,9.53E2,5.302E3,6.032E3,7.289E3,4.87E2,8.906E3,4.95E2,6.197E3,2.05E2,2.601E3,3.906E3,1.4709E4,1.024E3,1.94E2,3.06E2,4.656E3,1.85E3,2.29E2,2.322E3,6.096E3,2.947E3,6.411E3,1.9E2,7.7E1,1.45E2,6.293E3,1.851E3,3.959E3,3.478E3,6.5E1,1.5E2,1.812E3,4.018E3,1.958E3,1.33E2,2.268E3,7.1E1,1.638E3,2.8E1,9.4E1,2.631E3,2.326E3,5.65E2,9.98E2,3.2E1,1.414E3,9E0],"tree_param":{"num_deleted":"0","num_feature":"9","num_nodes":"127","size_leaf_vector":"1"}},{"base_weights":[2.2252804E-2,-3.4481153E0,8.487932E0,-6.016402E0,-4.3662816E-1,5.794583E0,1.4439525E1,-7.7955165E0,-4.6277676E0,-2.1102152E0,8.7227863E-1,4.1361585E0,7.995831E0,1.2538828E1,1.8812246E1,-8.656603E0,-6.873025E0,-5.513961E0,-3.646244E0,-2.8542042E0,-1.2962834E0,1.4506717E-1,2.1231353E0,3.217771E0,5.4311123E0,6.6485844E0,8.881045E0,1.1131013E1,1.3942959E1,1.7495544E1,2.2022438E1,-9.398846E0,-8.180088E0,-6.465363E0,-7.981827E0,-5.2600074E0,-7.333913E0,-4.2797723E0,-2.9700356E0,-3.3358965E0,-1.8812268E0,-1.6323937E0,-5.643782E-1,-8.551012E-1,8.06736E-1,1.7695935E0,3.798256E0,1.7305009E0,3.663391E0,5.5413404E0,1.4935715E0,4.9792547E0,7.126289E0,8.045129E0,9.681347E0,1.0483805E1,1.207555E1,1.3135869E1,1.5034717E1,1.6653778E1,1.873259E1,1.6616337E1,2.2346827E1,-4.8677626E-1,-4.4367886E-1,-3.865828E-1,-4.298725E-1,-3.4018612E-1,-2.759089E-1,-4.3332258E-1,-3.6263096E-1,-2.7602062E-1,-2.1473113E-1,-4.2295933E-1,-3.3266592E-1,-2.4035995E-1,-1.9101106E-1,-1.6274421E-1,-9.246149E-2,-1.5791641E-1,-2.6238328E-1,-8.631366E-2,-3.004063E-1,-8.904662E-2,1.8573742E-3,-1.1925044E-2,-7.23038E-2,-7.506628E-2,-8.681697E-3,7.640838E-3,5.9217382E-2,4.3875378E-2,1.1170385E-1,2.028843E-1,-1.3018538E-1,2.8409986E-2,1.19020894E-1,1.6002584E-1,2.166268E-1,2.608023E-1,3.5274702E-1,-1.9483525E-2,1.5762599E-1,1.2416156E-1,2.6634756E-1,2.1492521E-1,3.616905E-1,3.714194E-1,4.3303353E-1,4.6718565E-1,5.3717303E-1,5.0263524E-1,5.737086E-1,5.834955E-1,6.427886E-1,5.46295E-1,6.6799587E-1,7.0160884E-1,8.021583E-1,7.857403E-1,8.71345E-1,-1.2447428E-1,9.38032E-1,9.035657E-1,4.1059995E-1,1.0535395E0,1.175624E0],"categories":[],"categories_nodes":[],"categories_segments":[],"categories_sizes":[],"default_left":[0,0,0,0,0,0,0,0,0,0,0,0,0,0,0,0,0,0,0,0,0,0,0,0,0,0,0,0,0,0,0,0,0,0,0,0,0,0,0,0,0,0,0,0,0,0,0,0,0,0,0,0,0,0,0,0,0,0,0,0,0,0,0,0,0,0,0,0,0,0,0,0,0,0,0,0,0,0,0,0,0,0,0,0,0,0,0,0,0,0,0,0,0,0,0,0,0,0,0,0,0,0,0,0,0,0,0,0,0,0,0,0,0,0,0,0,0,0,0,0,0,0,0,0,0,0,0],"id":6,"left_children":[1,3,5,7,9,11,13,15,17,19,21,23,25,27,29,31,33,35,37,39,41,43,45,47,49,51,53,55,57,59,61,63,65,67,69,71,73,75,77,79,81,83,85,87,89,91,93,95,97,99,101,103,105,107,109,111,113,115,117,119,121,123,125,-1,-1,-1,-1,-1,-1,-1,-1,-1,-1,-1,-1,-1,-1,-1,-1,-1,-1,-1,-1,-1,-1,-1,-1,-1,-1,-1,-1,-1,-1,-1,-1,-1,-1,-1,-1,-1,-1,-1,-1,-1,-1,-1,-1,-1,-1,-1,-1,-1,-1,-1,-1,-1,-1,-1,-1,-1,-1,-1,-1,-1,-1,-1,-1],"loss_changes":[6.004603E6,1.1211706E6,9.52466E5,1.932515E5,1.4616539E5,1.493205E5,1.5362975E5,2.71825E4,3.8202375E4,1.7728805E4,3.4058332E4,2.7734094E4,2.09045E4,2.5358875E4,2.331475E4,6.1955E3,7.43475E3,1.06336875E4,8.920625E3,7.163539E3,3.4396484E3,1.5670323E4,8.1452617E3,9.043594E3,4.1935625E3,5.525875E3,7.01675E3,3.8163125E3,5.493E3,3.8335E3,2.4818125E3,1.138625E3,1.9563125E3,3.8451562E3,2.1577188E3,5.07125E3,2.1072656E3,2.590625E3,3.2153125E3,3.456539E3,3.230504E3,2.3768145E3,1.2647485E3,4.1516494E3,3.5187832E3,4.7084727E3,3.9933086E3,2.3781553E3,3.2401719E3,4.5998125E3,8.291416E2,1.336293E3,1.6168438E3,1.9070625E3,1.8407188E3,1.522E3,6.779375E2,1.6965E3,2.5430625E3,1.4524375E3,1.0014375E3,1.0254941E3,1.7833125E3,0E0,0E0,0E0,0E0,0E0,0E0,0E0,0E0,0E0,0E0,0E0,0E0,0E0,0E0,0E0,0E0,0E0,0E0,0E0,0E0,0E0,0E0,0E0,0E0,0E0,0E0,0E0,0E0,0E0,0E0,0E0,0E0,0E0,0E0,0E0,0E0,0E0,0E0,0E0,0E0,0E0,0E0,0E0,0E0,0E0,0E0,0E0,0E0,0E0,0E0,0E0,0E0,0E0,0E0,0E0,0E0,0E0,0E0,0E0,0E0,0E0,0E0,0E0,0E0],"parents":[2147483647,0,0,1,1,2,2,3,3,4,4,5,5,6,6,7,7,8,8,9,9,10,10,11,11,12,12,13,13,14,14,15,15,16,16,17,17,18,18,19,19,20,20,21,21,22,22,23,23,24,24,25,25,26,26,27,27,28,28,29,29,30,30,31,31,32,32,33,33,34,34,35,35,36,36,37,37,38,38,39,39,40,40,41,41,42,42,43,43,44,44,45,45,46,46,47,47,48,48,49,49,50,50,51,51,52,52,53,53,54,54,55,55,56,56,57,57,58,58,59,59,60,60,61,61,62,62],"right_children":[2,4,6,8,10,12,14,16,18,20,22,24,26,28,30,32,34,36,38,40,42,44,46,48,50,52,54,56,58,60,62,64,66,68,70,72,74,76,78,80,82,84,86,88,90,92,94,96,98,100,102,104,106,108,110,112,114,116,118,120,122,124,126,-1,-1,-1,-1,-1,-1,-1,-1,-1,-1,-1,-1,-1,-1,-1,-1,-1,-1,-1,-1,-1,-1,-1,-1,-1,-1,-1,-1,-1,-1,-1,-1,-1,-1,-1,-1,-1,-1,-1,-1,-1,-1,-1,-1,-1,-1,-1,-1,-1,-1,-1,-1,-1,-1,-1,-1,-1,-1,-1,-1,-1,-1,-1,-1],"split_conditions":[2.076E1,1.26E1,3.112E1,7.4E0,1.58E1,2.556E1,3.888E1,5E0,1.08E1,1.336E1,2E1,2.38E1,2.74E1,3.416E1,4.48E1,4.28E0,4E0,5E0,1.97E1,1.54E1,1.6E1,1.668E1,2.48E1,1.84E1,1E1,2.26E1,2.888E1,3.33E1,3.72E1,4.168E1,4E1,3E0,3E0,9.52E0,7.25E0,1.1E1,7.76E0,1.02E1,1.56E1,5E0,1E1,1.8E1,3E0,1.7E1,2.52E1,1.736E1,1E1,1.6E1,2.296E1,2.92E1,3.04E1,2.13E1,2.27E1,2.91E1,3.32E1,3.26E1,3.66E1,2.92E1,3.68E1,4E1,2.74E1,5E0,4.764E1,-4.8677626E-1,-4.4367886E-1,-3.865828E-1,-4.298725E-1,-3.4018612E-1,-2.759089E-1,-4.3332258E-1,-3.6263096E-1,-2.7602062E-1,-2.1473113E-1,-4.2295933E-1,-3.3266592E-1,-2.4035995E-1,-1.9101106E-1,-1.6274421E-1,-9.246149E-2,-1.5791641E-1,-2.6238328E-1,-8.631366E-2,-3.004063E-1,-8.904662E-2,1.8573742E-3,-1.1925044E-2,-7.23038E-2,-7.506628E-2,-8.681697E-3,7.640838E-3,5.9217382E-2,4.3875378E-2,1.1170385E-1,2.028843E-1,-1.3018538E-1,2.8409986E-2,1.19020894E-1,1.6002584E-1,2.166268E-1,2.608023E-1,3.5274702E-1,-1.9483525E-2,1.5762599E-1,1.2416156E-1,2.6634756E-1,2.1492521E-1,3.616905E-1,3.714194E-1,4.3303353E-1,4.6718565E-1,5.3717303E-1,5.0263524E-1,5.737086E-1,5.834955E-1,6.427886E-1,5.46295E-1,6.6799587E-1,7.0160884E-1,8.021583E-1,7.857403E-1,8.71345E-1,-1.2447428E-1,9.38032E-1,9.035657E-1,4.1059995E-1,1.0535395E0,1.175624E0],"split_indices":[8,6,8,6,7,8,8,6,8,8,6,6,7,8,8,8,4,4,5,6,6,8,6,6,4,6,8,7,6,8,6,6,4,8,8,6,8,6,8,4,4,8,4,6,5,8,4,6,8,6,5,7,7,7,6,6,6,6,8,6,5,4,8,0,0,0,0,0,0,0,0,0,0,0,0,0,0,0,0,0,0,0,0,0,0,0,0,0,0,0,0,0,0,0,0,0,0,0,0,0,0,0,0,0,0,0,0,0,0,0,0,0,0,0,0,0,0,0,0,0,0,0,0,0,0,0,0],"split_type":[0,0,0,0,0,0,0,0,0,0,0,0,0,0,0,0,0,0,0,0,0,0,0,0,0,0,0,0,0,0,0,0,0,0,0,0,0,0,0,0,0,0,0,0,0,0,0,0,0,0,0,0,0,0,0,0,0,0,0,0,0,0,0,0,0,0,0,0,0,0,0,0,0,0,0,0,0,0,0,0,0,0,0,0,0,0,0,0,0,0,0,0,0,0,0,0,0,0,0,0,0,0,0,0,0,0,0,0,0,0,0,0,0,0,0,0,0,0,0,0,0,0,0,0,0,0,0],"sum_hessian":[2.04382E5,1.44959E5,5.9423E4,7.8236E4,6.6723E4,4.0911E4,1.8512E4,3.4294E4,4.3942E4,2.9282E4,3.7441E4,2.3334E4,1.7577E4,1.2906E4,5.606E3,1.7733E4,1.6561E4,2.309E4,2.0852E4,1.5297E4,1.3985E4,2.3677E4,1.3764E4,1.3654E4,9.68E3,6.973E3,1.0604E4,6.449E3,6.457E3,3.98E3,1.626E3,6.926E3,1.0807E4,1.2114E4,4.447E3,2.0266E4,2.824E3,1.0763E4,1.0089E4,1.023E4,5.067E3,9.583E3,4.402E3,9.427E3,1.425E4,1.1367E4,2.397E3,3.149E3,1.0505E4,9.416E3,2.64E2,1.554E3,5.419E3,5.192E3,5.412E3,3.834E3,2.615E3,3.72E3,2.737E3,2.377E3,1.603E3,9.5E1,1.531E3,4.21E3,2.716E3,5.219E3,5.588E3,8.921E3,3.193E3,2.288E3,2.159E3,1.5957E4,4.309E3,1.06E3,1.764E3,5.007E3,5.756E3,8.043E3,2.046E3,9.363E3,8.67E2,4.885E3,1.82E2,8.8E3,7.83E2,3.215E3,1.187E3,4.838E3,4.589E3,5.217E3,9.033E3,3.893E3,7.474E3,2.304E3,9.3E1,1.13E3,2.019E3,6.213E3,4.292E3,7.754E3,1.662E3,1.24E2,1.4E2,1.91E2,1.363E3,2E2,5.219E3,2.6E3,2.592E3,4.114E3,1.298E3,2.679E3,1.155E3,1.731E3,8.84E2,3.47E2,3.373E3,1.38E3,1.357E3,1.083E3,1.294E3,2E0,1.601E3,8E1,1.5E1,7.4E2,7.91E2],"tree_param":{"num_deleted":"0","num_feature":"9","num_nodes":"127","size_leaf_vector":"1"}},{"base_weights":[-4.0369006E-3,-3.282603E0,8.053777E0,-6.0304317E0,-7.547725E-1,5.4210706E0,1.3571095E1,-7.8060303E0,-4.9876924E0,-2.035735E0,1.0194261E0,3.914192E0,7.4976907E0,1.1256699E1,1.6803036E1,-8.6179905E0,-7.2719407E0,-5.772666E0,-4.004152E0,-2.8198867E0,-5.5669856E-1,-4.893279E-2,1.7908891E0,2.7023406E0,4.8331957E0,6.547088E0,8.495124E0,1.0479302E1,1.2629288E1,1.5446766E1,1.9942936E1,-8.788197E0,-7.5080767E0,-6.8441772E0,-8.144055E0,-5.4536786E0,-7.0329204E0,-4.4083586E0,-3.2066689E0,-3.314752E0,-2.1033213E0,-1.1050181E0,1.6981361E-2,1.4832969E-1,-3.4254408E0,1.3644265E0,3.11612E0,2.0477574E0,3.4763885E0,4.2271986E0,5.784939E0,5.092906E0,6.9189024E0,7.7525954E0,9.360209E0,9.936428E0,1.1676154E1,1.2748647E1,9.102623E0,1.4369461E1,1.6442167E1,1.8351864E1,2.1508173E1,-4.530265E-1,-4.2119956E-1,-3.6956376E-1,-4.8825595E-1,-3.6667165E-1,-3.1886327E-1,-4.231347E-1,-3.7611255E-1,-2.9520926E-1,-2.4915297E-1,-3.800806E-1,-3.2028598E-1,-2.105834E-1,-2.7103302E-1,-1.8078458E-1,-1.0543891E-1,-1.5293407E-1,-2.4606743E-1,-1.3725452E-1,-8.9700386E-2,-9.448821E-2,-3.8869932E-2,-2.9685033E-2,2.3484988E-2,-1.2500486E-2,8.4834926E-2,-9.596859E-2,-2.3153804E-1,3.9556753E-2,8.8861026E-2,1.631211E-1,-8.6495385E-2,1.0390416E-2,1.1616381E-1,1.5650913E-1,2.2339387E-1,1.6338758E-1,2.351065E-1,2.9420903E-1,1.2384514E-1,1.4477257E-1,2.7688175E-1,3.1921443E-1,3.8329002E-1,3.9336112E-1,1.734818E-1,4.7320768E-1,2.9498294E-1,4.1589767E-1,5.073456E-1,5.66173E-1,6.5947825E-1,5.854477E-1,6.548037E-1,5.1970917E-1,3.0487797E-1,6.850583E-1,7.6226634E-1,7.878931E-1,8.7296957E-1,9.506642E-1,8.152006E-1,6.8463063E-1,1.0868769E0],"categories":[],"categories_nodes":[],"categories_segments":[],"categories_sizes":[],"default_left":[0,0,0,0,0,0,0,0,0,0,0,0,0,0,0,0,0,0,0,0,0,0,0,0,0,0,0,0,0,0,0,0,0,0,0,0,0,0,0,0,0,0,0,0,0,0,0,0,0,0,0,0,0,0,0,0,0,0,0,0,0,0,0,0,0,0,0,0,0,0,0,0,0,0,0,0,0,0,0,0,0,0,0,0,0,0,0,0,0,0,0,0,0,0,0,0,0,0,0,0,0,0,0,0,0,0,0,0,0,0,0,0,0,0,0,0,0,0,0,0,0,0,0,0,0,0,0],"id":7,"left_children":[1,3,5,7,9,11,13,15,17,19,21,23,25,27,29,31,33,35,37,39,41,43,45,47,49,51,53,55,57,59,61,63,65,67,69,71,73,75,77,79,81,83,85,87,89,91,93,95,97,99,101,103,105,107,109,111,113,115,117,119,121,123,125,-1,-1,-1,-1,-1,-1,-1,-1,-1,-1,-1,-1,-1,-1,-1,-1,-1,-1,-1,-1,-1,-1,-1,-1,-1,-1,-1,-1,-1,-1,-1,-1,-1,-1,-1,-1,-1,-1,-1,-1,-1,-1,-1,-1,-1,-1,-1,-1,-1,-1,-1,-1,-1,-1,-1,-1,-1,-1,-1,-1,-1,-1,-1,-1],"loss_changes":[5.396473E6,1.0085264E6,8.58048E5,1.28769E5,1.7187589E5,1.25123625E5,1.425515E5,1.1098875E4,3.3818375E4,5.0934047E4,2.6134625E4,2.5801281E4,1.58896875E4,1.17365E4,3.359425E4,1.8623125E3,5.738625E3,9.7604375E3,6.2584375E3,1.0170484E4,4.7869907E3,8.857086E3,1.0402066E4,5.059164E3,7.5777812E3,4.6227812E3,5.1965625E3,4.5016875E3,1.574875E3,5.73025E3,5.57725E3,8.008125E2,2.8741406E2,2.3351562E3,9.48E2,4.0955625E3,1.7062031E3,2.5478906E3,2.933289E3,6.9685156E3,2.3229805E3,1.9990117E3,2.0566401E3,7.749602E3,1.3235391E3,3.2956191E3,3.1833047E3,2.7471348E3,1.5581445E3,3.6559688E3,1.6679375E3,1.7020078E3,2.6894688E3,2.1426875E3,1.3052812E3,1.5835E3,1.0313438E3,1.24925E3,4.605869E2,1.3598125E3,1.7330625E3,1.3099375E3,1.8588125E3,0E0,0E0,0E0,0E0,0E0,0E0,0E0,0E0,0E0,0E0,0E0,0E0,0E0,0E0,0E0,0E0,0E0,0E0,0E0,0E0,0E0,0E0,0E0,0E0,0E0,0E0,0E0,0E0,0E0,0E0,0E0,0E0,0E0,0E0,0E0,0E0,0E0,0E0,0E0,0E0,0E0,0E0,0E0,0E0,0E0,0E0,0E0,0E0,0E0,0E0,0E0,0E0,0E0,0E0,0E0,0E0,0E0,0E0,0E0,0E0,0E0,0E0,0E0,0E0],"parents":[2147483647,0,0,1,1,2,2,3,3,4,4,5,5,6,6,7,7,8,8,9,9,10,10,11,11,12,12,13,13,14,14,15,15,16,16,17,17,18,18,19,19,20,20,21,21,22,22,23,23,24,24,25,25,26,26,27,27,28,28,29,29,30,30,31,31,32,32,33,33,34,34,35,35,36,36,37,37,38,38,39,39,40,40,41,41,42,42,43,43,44,44,45,45,46,46,47,47,48,48,49,49,50,50,51,51,52,52,53,53,54,54,55,55,56,56,57,57,58,58,59,59,60,60,61,61,62,62],"right_children":[2,4,6,8,10,12,14,16,18,20,22,24,26,28,30,32,34,36,38,40,42,44,46,48,50,52,54,56,58,60,62,64,66,68,70,72,74,76,78,80,82,84,86,88,90,92,94,96,98,100,102,104,106,108,110,112,114,116,118,120,122,124,126,-1,-1,-1,-1,-1,-1,-1,-1,-1,-1,-1,-1,-1,-1,-1,-1,-1,-1,-1,-1,-1,-1,-1,-1,-1,-1,-1,-1,-1,-1,-1,-1,-1,-1,-1,-1,-1,-1,-1,-1,-1,-1,-1,-1,-1,-1,-1,-1,-1,-1,-1,-1,-1,-1,-1,-1,-1,-1,-1,-1,-1,-1,-1,-1],"split_conditions":[2.076E1,1.16E1,3.084E1,6.2E0,1.7E1,2.556E1,3.68E1,3.6E0,1.024E1,1.516E1,1.696E1,2.22E1,2.82E1,3.416E1,4.308E1,7.64E0,4E0,4E0,1.328E1,2.15E1,1.708E1,6E0,2.26E1,2.91E1,2.62E1,2.28E1,2.888E1,3.44E1,1E1,3.92E1,4.66E1,2.6E0,3.1E1,6.64E0,7.36E0,8.6E0,7.84E0,4E0,2.31E1,4E0,1.232E1,2.16E1,1.5E1,2.12E1,1E1,2.64E1,1E1,1.56E1,2.36E1,2.232E1,1E1,2.65E1,2.784E1,1E1,9E0,2.66E1,3.92E1,3.26E1,3.56E1,3.888E1,4.06E1,3.65E1,3E0,-4.530265E-1,-4.2119956E-1,-3.6956376E-1,-4.8825595E-1,-3.6667165E-1,-3.1886327E-1,-4.231347E-1,-3.7611255E-1,-2.9520926E-1,-2.4915297E-1,-3.800806E-1,-3.2028598E-1,-2.105834E-1,-2.7103302E-1,-1.8078458E-1,-1.0543891E-1,-1.5293407E-1,-2.4606743E-1,-1.3725452E-1,-8.9700386E-2,-9.448821E-2,-3.8869932E-2,-2.9685033E-2,2.3484988E-2,-1.2500486E-2,8.4834926E-2,-9.596859E-2,-2.3153804E-1,3.9556753E-2,8.8861026E-2,1.631211E-1,-8.6495385E-2,1.0390416E-2,1.1616381E-1,1.5650913E-1,2.2339387E-1,1.6338758E-1,2.351065E-1,2.9420903E-1,1.2384514E-1,1.4477257E-1,2.7688175E-1,3.1921443E-1,3.8329002E-1,3.9336112E-1,1.734818E-1,4.7320768E-1,2.9498294E-1,4.1589767E-1,5.073456E-1,5.66173E-1,6.5947825E-1,5.854477E-1,6.548037E-1,5.1970917E-1,3.0487797E-1,6.850583E-1,7.6226634E-1,7.878931E-1,8.7296957E-1,9.506642E-1,8.152006E-1,6.8463063E-1,1.0868769E0],"split_indices":[8,6,8,6,6,8,8,6,8,8,8,6,6,8,8,8,4,4,8,5,8,4,6,5,6,6,8,6,4,6,6,6,1,8,8,6,8,4,5,4,8,5,6,6,4,5,4,6,8,8,4,5,8,4,4,6,6,6,8,8,8,5,1,0,0,0,0,0,0,0,0,0,0,0,0,0,0,0,0,0,0,0,0,0,0,0,0,0,0,0,0,0,0,0,0,0,0,0,0,0,0,0,0,0,0,0,0,0,0,0,0,0,0,0,0,0,0,0,0,0,0,0,0,0,0,0,0],"split_type":[0,0,0,0,0,0,0,0,0,0,0,0,0,0,0,0,0,0,0,0,0,0,0,0,0,0,0,0,0,0,0,0,0,0,0,0,0,0,0,0,0,0,0,0,0,0,0,0,0,0,0,0,0,0,0,0,0,0,0,0,0,0,0,0,0,0,0,0,0,0,0,0,0,0,0,0,0,0,0,0,0,0,0,0,0,0,0,0,0,0,0,0,0,0,0,0,0,0,0,0,0,0,0,0,0,0,0,0,0,0,0,0,0,0,0,0,0,0,0,0,0,0,0,0,0,0,0],"sum_hessian":[2.0427E5,1.45194E5,5.9076E4,6.9569E4,7.5625E4,3.9994E4,1.9082E4,2.5737E4,4.3832E4,4.3917E4,3.1708E4,2.3178E4,1.6816E4,1.1122E4,7.96E3,1.0206E4,1.5531E4,2.4374E4,1.9458E4,2.87E4,1.5217E4,1.3296E4,1.8412E4,9.998E3,1.318E4,8.614E3,8.202E3,7.106E3,4.016E3,5.563E3,2.397E3,8.843E3,1.363E3,1.0426E4,5.105E3,1.9455E4,4.919E3,1.291E4,6.548E3,1.6974E4,1.1726E4,7.78E3,7.437E3,1.2563E4,7.33E2,1.3931E4,4.481E3,5.419E3,4.579E3,8.056E3,5.124E3,1.757E3,6.857E3,4.419E3,3.783E3,4.895E3,2.211E3,3.882E3,1.34E2,2.679E3,2.884E3,1.195E3,1.202E3,5.046E3,3.797E3,1.3E3,6.3E1,5.084E3,5.342E3,3.367E3,1.738E3,9.934E3,9.521E3,2.574E3,2.345E3,1.0814E4,2.096E3,4.769E3,1.779E3,1.4643E4,2.331E3,3.811E3,7.915E3,2.29E3,5.49E3,3.166E3,4.271E3,9.993E3,2.57E3,3.27E2,4.06E2,5.833E3,8.098E3,4.35E3,1.31E2,7.06E2,4.713E3,3.397E3,1.182E3,2.67E3,5.386E3,4.974E3,1.5E2,2.97E2,1.46E3,4.002E3,2.855E3,4.303E3,1.16E2,3.671E3,1.12E2,5.68E2,4.327E3,1.8E3,4.11E2,9.81E2,2.901E3,9.2E1,4.2E1,1.529E3,1.15E3,1.734E3,1.15E3,8.97E2,2.98E2,3.6E1,1.166E3],"tree_param":{"num_deleted":"0","num_feature":"9","num_nodes":"127","size_leaf_vector":"1"}},{"base_weights":[9.366673E-3,-2.9688396E0,8.071739E0,-5.3940196E0,-2.0156626E-1,5.877914E0,1.3841676E1,-6.990827E0,-4.1931343E0,-1.3835055E0,1.3267449E0,4.0484633E0,7.775725E0,1.2189106E1,1.7395275E1,-7.713051E0,-6.193331E0,-4.8253746E0,-3.4382439E0,-2.2640975E0,-6.26341E-1,4.625839E-1,2.0394084E0,3.0537922E0,4.683311E0,6.7676644E0,8.835681E0,1.1373923E1,1.4038152E1,1.601263E1,2.0115633E1,-7.124174E0,-8.201536E0,-5.834037E0,-7.186987E0,-4.5556917E0,-6.045205E0,-3.2159128E0,-4.837252E0,-2.1330838E0,-4.190362E0,-4.7726017E-1,-3.0868912E0,-3.8621783E-1,9.028991E-1,1.71082E0,3.0271356E0,2.8952463E0,5.9282503E0,4.132485E0,5.2282577E0,6.375737E0,7.922121E0,8.547818E0,1.0329554E1,1.0527267E1,1.2043556E1,1.3141014E1,1.4744133E1,1.4426648E1,1.642838E1,1.8907026E1,2.126588E1,-4.2281923E-1,-3.4348458E-1,-4.267252E-1,-3.841655E-1,-2.5493428E-1,-3.006922E-1,-3.7741205E-1,-3.280663E-1,-2.42028E-1,-2.0326577E-1,-3.3641154E-1,-2.7533168E-1,-1.730113E-1,-1.2127391E-1,-2.705651E-1,-1.8549243E-1,-1.2513529E-1,-8.8952325E-2,-2.657453E-1,-1.6057085E-1,-3.7568223E-2,2.8797204E-2,-2.5071254E-1,-1.22722976E-1,-1.2750086E-1,-1.2228197E-2,2.4881596E-2,8.105195E-2,8.961749E-2,-4.9360815E-2,1.2986891E-1,1.7904624E-1,1.5105276E-1,-1.2303538E-2,2.781076E-1,6.4219815E-1,2.1180776E-1,4.231082E-2,2.515423E-1,3.283834E-1,3.2396188E-1,1.5522501E-1,3.7439385E-1,4.266306E-1,3.1449246E-1,4.353839E-1,5.128152E-1,8.53908E-1,4.9566317E-1,5.5388254E-1,5.828536E-1,6.296057E-1,6.685889E-1,5.232732E-1,1.15784265E-1,7.4032927E-1,4.7111225E-1,7.3229116E-1,7.991118E-1,8.7465805E-1,9.622437E-1,7.2153836E-1,7.2432727E-1,1.0721561E0],"categories":[],"categories_nodes":[],"categories_segments":[],"categories_sizes":[],"default_left":[0,0,0,0,0,0,0,0,0,0,0,0,0,0,0,0,0,0,0,0,0,0,0,0,0,0,0,0,0,0,0,0,0,0,0,0,0,0,0,0,0,0,0,0,0,0,0,0,0,0,0,0,0,0,0,0,0,0,0,0,0,0,0,0,0,0,0,0,0,0,0,0,0,0,0,0,0,0,0,0,0,0,0,0,0,0,0,0,0,0,0,0,0,0,0,0,0,0,0,0,0,0,0,0,0,0,0,0,0,0,0,0,0,0,0,0,0,0,0,0,0,0,0,0,0,0,0],"id":8,"left_children":[1,3,5,7,9,11,13,15,17,19,21,23,25,27,29,31,33,35,37,39,41,43,45,47,49,51,53,55,57,59,61,63,65,67,69,71,73,75,77,79,81,83,85,87,89,91,93,95,97,99,101,103,105,107,109,111,113,115,117,119,121,123,125,-1,-1,-1,-1,-1,-1,-1,-1,-1,-1,-1,-1,-1,-1,-1,-1,-1,-1,-1,-1,-1,-1,-1,-1,-1,-1,-1,-1,-1,-1,-1,-1,-1,-1,-1,-1,-1,-1,-1,-1,-1,-1,-1,-1,-1,-1,-1,-1,-1,-1,-1,-1,-1,-1,-1,-1,-1,-1,-1,-1,-1,-1,-1,-1],"loss_changes":[4.902049E6,1.00052175E6,6.9701975E5,1.523285E5,1.2578305E5,1.3850625E5,8.8875E4,1.95945E4,2.1628125E4,2.6179305E4,1.8700754E4,1.2816469E4,2.086575E4,1.5453E4,1.7780875E4,5.088375E3,5.746E3,8.0906875E3,6.4149375E3,4.5722734E3,7.74358E3,5.1303086E3,5.396078E3,3.591789E3,3.7007812E3,4.493125E3,4.0155E3,3.951875E3,1.8108125E3,1.8703125E3,1.8473125E3,2.6947812E3,1.6208125E3,1.5443438E3,9.226094E2,2.8040625E3,1.6054531E3,3.4371562E3,1.8134062E3,2.220039E3,1.2544336E3,5.7479175E3,1.4577139E3,1.4366046E3,2.629599E3,2.7492031E3,9.7909375E2,2.9675469E3,9.742041E2,2.0991406E3,1.6142656E3,2.519875E3,6.097344E2,2.835375E3,5.84625E2,9.6653125E2,7.03375E2,7.262969E2,1.334125E3,5.990781E2,9.199375E2,9.2909375E2,6.758125E2,0E0,0E0,0E0,0E0,0E0,0E0,0E0,0E0,0E0,0E0,0E0,0E0,0E0,0E0,0E0,0E0,0E0,0E0,0E0,0E0,0E0,0E0,0E0,0E0,0E0,0E0,0E0,0E0,0E0,0E0,0E0,0E0,0E0,0E0,0E0,0E0,0E0,0E0,0E0,0E0,0E0,0E0,0E0,0E0,0E0,0E0,0E0,0E0,0E0,0E0,0E0,0E0,0E0,0E0,0E0,0E0,0E0,0E0,0E0,0E0,0E0,0E0,0E0,0E0],"parents":[2147483647,0,0,1,1,2,2,3,3,4,4,5,5,6,6,7,7,8,8,9,9,10,10,11,11,12,12,13,13,14,14,15,15,16,16,17,17,18,18,19,19,20,20,21,21,22,22,23,23,24,24,25,25,26,26,27,27,28,28,29,29,30,30,31,31,32,32,33,33,34,34,35,35,36,36,37,37,38,38,39,39,40,40,41,41,42,42,43,43,44,44,45,45,46,46,47,47,48,48,49,49,50,50,51,51,52,52,53,53,54,54,55,55,56,56,57,57,58,58,59,59,60,60,61,61,62,62],"right_children":[2,4,6,8,10,12,14,16,18,20,22,24,26,28,30,32,34,36,38,40,42,44,46,48,50,52,54,56,58,60,62,64,66,68,70,72,74,76,78,80,82,84,86,88,90,92,94,96,98,100,102,104,106,108,110,112,114,116,118,120,122,124,126,-1,-1,-1,-1,-1,-1,-1,-1,-1,-1,-1,-1,-1,-1,-1,-1,-1,-1,-1,-1,-1,-1,-1,-1,-1,-1,-1,-1,-1,-1,-1,-1,-1,-1,-1,-1,-1,-1,-1,-1,-1,-1,-1,-1,-1,-1,-1,-1,-1,-1,-1,-1,-1,-1,-1,-1,-1,-1,-1,-1,-1,-1,-1,-1],"split_conditions":[2.18E1,1.27E1,3.252E1,7.7E0,1.708E1,2.58E1,3.964E1,5.5E0,1.05E1,1.49E1,1.87E1,2.216E1,2.888E1,3.68E1,4.48E1,3E0,4E0,4E0,4E0,6E0,6E0,2.34E1,2.172E1,2.66E1,2.47E1,2.91E1,3.33E1,3.416E1,3.78E1,3.93E1,4.764E1,4.75E0,4.96E0,2E0,7.76E0,1.024E1,9.04E0,1.328E1,1.96E1,1.336E1,1.32E1,1.82E1,1.352E1,1.36E1,1.924E1,1E1,2.9E1,9E0,3.73E1,1E1,2.86E1,1E1,1.7E1,2.63E1,4.01E1,3.33E1,3.6E1,3.73E1,2.91E1,1E0,4.308E1,5E0,4.38E1,-4.2281923E-1,-3.4348458E-1,-4.267252E-1,-3.841655E-1,-2.5493428E-1,-3.006922E-1,-3.7741205E-1,-3.280663E-1,-2.42028E-1,-2.0326577E-1,-3.3641154E-1,-2.7533168E-1,-1.730113E-1,-1.2127391E-1,-2.705651E-1,-1.8549243E-1,-1.2513529E-1,-8.8952325E-2,-2.657453E-1,-1.6057085E-1,-3.7568223E-2,2.8797204E-2,-2.5071254E-1,-1.22722976E-1,-1.2750086E-1,-1.2228197E-2,2.4881596E-2,8.105195E-2,8.961749E-2,-4.9360815E-2,1.2986891E-1,1.7904624E-1,1.5105276E-1,-1.2303538E-2,2.781076E-1,6.4219815E-1,2.1180776E-1,4.231082E-2,2.515423E-1,3.283834E-1,3.2396188E-1,1.5522501E-1,3.7439385E-1,4.266306E-1,3.1449246E-1,4.353839E-1,5.128152E-1,8.53908E-1,4.9566317E-1,5.5388254E-1,5.828536E-1,6.296057E-1,6.685889E-1,5.232732E-1,1.15784265E-1,7.4032927E-1,4.7111225E-1,7.3229116E-1,7.991118E-1,8.7465805E-1,9.622437E-1,7.2153836E-1,7.2432727E-1,1.0721561E0],"split_indices":[7,7,8,7,8,8,8,7,7,7,7,8,8,8,8,4,4,4,4,4,4,5,8,7,7,7,7,8,7,7,8,5,8,4,8,8,8,8,5,8,8,7,8,7,8,4,5,4,5,4,7,4,2,7,7,7,7,5,5,4,8,4,7,0,0,0,0,0,0,0,0,0,0,0,0,0,0,0,0,0,0,0,0,0,0,0,0,0,0,0,0,0,0,0,0,0,0,0,0,0,0,0,0,0,0,0,0,0,0,0,0,0,0,0,0,0,0,0,0,0,0,0,0,0,0,0,0],"split_type":[0,0,0,0,0,0,0,0,0,0,0,0,0,0,0,0,0,0,0,0,0,0,0,0,0,0,0,0,0,0,0,0,0,0,0,0,0,0,0,0,0,0,0,0,0,0,0,0,0,0,0,0,0,0,0,0,0,0,0,0,0,0,0,0,0,0,0,0,0,0,0,0,0,0,0,0,0,0,0,0,0,0,0,0,0,0,0,0,0,0,0,0,0,0,0,0,0,0,0,0,0,0,0,0,0,0,0,0,0,0,0,0,0,0,0,0,0,0,0,0,0,0,0,0,0,0,0],"sum_hessian":[2.04153E5,1.49083E5,5.507E4,7.9452E4,6.9631E4,3.9901E4,1.5169E4,3.4102E4,4.535E4,3.9265E4,3.0366E4,2.0318E4,1.9583E4,1.0357E4,4.812E3,1.7891E4,1.6211E4,2.4677E4,2.0673E4,1.8152E4,2.1113E4,1.3725E4,1.6641E4,7.918E3,1.24E4,1.0041E4,9.542E3,7.193E3,3.164E3,3.195E3,1.617E3,8.119E3,9.772E3,1.1911E4,4.3E3,2.0213E4,4.464E3,1.7841E4,2.832E3,1.6998E4,1.154E3,1.9908E4,1.205E3,4.688E3,9.037E3,1.2489E4,4.152E3,7.506E3,4.12E2,6.171E3,6.229E3,7.501E3,2.54E3,8.006E3,1.536E3,3.184E3,4.009E3,1.402E3,1.762E3,6.71E2,2.524E3,7.97E2,8.2E2,1.297E3,6.822E3,5.94E3,3.832E3,2.346E3,9.565E3,2.719E3,1.581E3,1.278E4,7.433E3,1.963E3,2.501E3,1.3626E4,4.215E3,1.874E3,9.58E2,8.313E3,8.685E3,5.35E2,6.19E2,1.5797E4,4.111E3,2.96E2,9.09E2,2.87E2,4.401E3,5.778E3,3.259E3,1.2123E4,3.66E2,2.341E3,1.811E3,7.217E3,2.89E2,3.93E2,1.9E1,5.982E3,1.89E2,5.433E3,7.96E2,7.27E3,2.31E2,1.492E3,1.048E3,5.32E2,7.474E3,1.522E3,1.4E1,1.514E3,1.67E3,2.365E3,1.644E3,1.287E3,1.15E2,9E0,1.753E3,3E1,6.41E2,1.79E3,7.34E2,7.38E2,5.9E1,2.3E1,7.97E2],"tree_param":{"num_deleted":"0","num_feature":"9","num_nodes":"127","size_leaf_vector":"1"}},{"base_weights":[1.0971857E-3,-2.828164E0,7.6381397E0,-5.0758085E0,-8.396699E-2,5.274587E0,1.2289107E1,-6.572807E0,-3.819886E0,-1.3558313E0,1.2038062E0,3.6955438E0,6.7012076E0,1.08381195E1,1.6380527E1,-7.5151877E0,-5.901368E0,-4.48035E0,-3.000887E0,-2.2736056E0,-8.530612E-1,4.3063265E-1,1.7455776E0,3.0380867E0,4.4520817E0,5.8253093E0,7.5669904E0,9.666958E0,1.2179656E1,1.4712446E1,1.8056301E1,-8.048016E0,-7.117444E0,-5.5689273E0,-6.8027687E0,-4.3248672E0,-6.002501E0,-3.3259504E0,-2.004298E0,-1.9938537E0,-4.203167E0,-1.1434616E0,-4.5999903E-2,5.1387554E-1,-2.2768266E0,1.1910826E0,2.1736083E0,2.2152998E0,3.4131274E0,4.552468E0,1.3035718E0,5.1349955E0,6.3055115E0,7.1848016E0,8.175085E0,9.190467E0,1.0383929E1,1.1308403E1,1.270754E1,1.4009163E1,1.5897886E1,1.4423799E1,1.8576262E1,-4.1838726E-1,-3.850161E-1,-3.3793077E-1,-3.8186368E-1,-3.0128995E-1,-2.5468573E-1,-3.52108E-1,-2.813399E-1,-2.3774312E-1,-1.963874E-1,-3.3224344E-1,-2.7317485E-1,-1.5700956E-1,-2.2236602E-1,-1.2007345E-1,-5.4488756E-2,-1.11400045E-1,-5.7617653E-2,-1.635088E-1,-2.3704131E-1,-8.679858E-2,-3.821333E-2,2.411917E-1,-6.242082E-3,6.6493563E-3,5.245511E-2,-2.0790589E-1,-7.908737E-2,-2.7176527E-2,6.66643E-2,1.1306553E-1,-4.636241E-2,-8.144283E-2,1.1656679E-1,1.7554407E-1,9.44242E-3,1.8410145E-1,2.4255739E-1,9.026044E-2,-1.3780399E-1,2.4165468E-1,3.090827E-1,4.6681497E-1,3.1144354E-1,3.354899E-1,3.7559792E-1,4.1463265E-1,2.1896847E-1,4.642252E-1,3.315243E-1,5.2826685E-1,3.9892802E-1,5.834783E-1,5.058281E-1,4.1980624E-1,6.3952655E-1,7.1056217E-1,4.1418034E-1,7.0338935E-1,8.088277E-1,6.40135E-1,7.970691E-1,9.468172E-1,7.19715E-1],"categories":[],"categories_nodes":[],"categories_segments":[],"categories_sizes":[],"default_left":[0,0,0,0,0,0,0,0,0,0,0,0,0,0,0,0,0,0,0,0,0,0,0,0,0,0,0,0,0,0,0,0,0,0,0,0,0,0,0,0,0,0,0,0,0,0,0,0,0,0,0,0,0,0,0,0,0,0,0,0,0,0,0,0,0,0,0,0,0,0,0,0,0,0,0,0,0,0,0,0,0,0,0,0,0,0,0,0,0,0,0,0,0,0,0,0,0,0,0,0,0,0,0,0,0,0,0,0,0,0,0,0,0,0,0,0,0,0,0,0,0,0,0,0,0,0,0],"id":9,"left_children":[1,3,5,7,9,11,13,15,17,19,21,23,25,27,29,31,33,35,37,39,41,43,45,47,49,51,53,55,57,59,61,63,65,67,69,71,73,75,77,79,81,83,85,87,89,91,93,95,97,99,101,103,105,107,109,111,113,115,117,119,121,123,125,-1,-1,-1,-1,-1,-1,-1,-1,-1,-1,-1,-1,-1,-1,-1,-1,-1,-1,-1,-1,-1,-1,-1,-1,-1,-1,-1,-1,-1,-1,-1,-1,-1,-1,-1,-1,-1,-1,-1,-1,-1,-1,-1,-1,-1,-1,-1,-1,-1,-1,-1,-1,-1,-1,-1,-1,-1,-1,-1,-1,-1,-1,-1,-1],"loss_changes":[4.4129445E6,9.19189E5,6.06837E5,1.5400325E5,1.09906164E5,8.2441875E4,1.1025525E5,2.3604E4,2.4085625E4,1.5575914E4,1.396607E4,8.630141E3,1.45395625E4,2.1462125E4,1.3342E4,3.2373125E3,6.5035E3,5.8105312E3,6.437453E3,6.441133E3,5.1122803E3,3.0976208E3,4.6504805E3,2.8625312E3,2.5472656E3,3.1380312E3,2.188125E3,2.4115E3,2.7988125E3,1.8156875E3,4.3104375E3,6.7340625E2,1.610375E3,3.4328438E3,1.6148438E3,3.80275E3,7.5415625E2,3.1101875E3,1.7753535E3,2.0538867E3,7.429629E2,3.602713E3,2.2171233E3,2.717335E3,5.295581E2,2.1080088E3,3.0107031E3,1.3040654E3,2.0124219E3,2.0172812E3,5.161295E2,1.2116406E3,1.2509844E3,8.7346875E2,1.6255312E3,1.00175E3,1.1907188E3,9.2490625E2,1.3153125E3,1.6675625E3,2.3295312E2,5.536328E2,2.9153125E3,0E0,0E0,0E0,0E0,0E0,0E0,0E0,0E0,0E0,0E0,0E0,0E0,0E0,0E0,0E0,0E0,0E0,0E0,0E0,0E0,0E0,0E0,0E0,0E0,0E0,0E0,0E0,0E0,0E0,0E0,0E0,0E0,0E0,0E0,0E0,0E0,0E0,0E0,0E0,0E0,0E0,0E0,0E0,0E0,0E0,0E0,0E0,0E0,0E0,0E0,0E0,0E0,0E0,0E0,0E0,0E0,0E0,0E0,0E0,0E0,0E0,0E0,0E0,0E0],"parents":[2147483647,0,0,1,1,2,2,3,3,4,4,5,5,6,6,7,7,8,8,9,9,10,10,11,11,12,12,13,13,14,14,15,15,16,16,17,17,18,18,19,19,20,20,21,21,22,22,23,23,24,24,25,25,26,26,27,27,28,28,29,29,30,30,31,31,32,32,33,33,34,34,35,35,36,36,37,37,38,38,39,39,40,40,41,41,42,42,43,43,44,44,45,45,46,46,47,47,48,48,49,49,50,50,51,51,52,52,53,53,54,54,55,55,56,56,57,57,58,58,59,59,60,60,61,61,62,62],"right_children":[2,4,6,8,10,12,14,16,18,20,22,24,26,28,30,32,34,36,38,40,42,44,46,48,50,52,54,56,58,60,62,64,66,68,70,72,74,76,78,80,82,84,86,88,90,92,94,96,98,100,102,104,106,108,110,112,114,116,118,120,122,124,126,-1,-1,-1,-1,-1,-1,-1,-1,-1,-1,-1,-1,-1,-1,-1,-1,-1,-1,-1,-1,-1,-1,-1,-1,-1,-1,-1,-1,-1,-1,-1,-1,-1,-1,-1,-1,-1,-1,-1,-1,-1,-1,-1,-1,-1,-1,-1,-1,-1,-1,-1,-1,-1,-1,-1,-1,-1,-1,-1,-1,-1,-1,-1,-1],"split_conditions":[2.18E1,1.3E1,3.14E1,7.8E0,1.68E1,2.55E1,4.01E1,4.6E0,1.1E1,1.36E1,1.87E1,2.36E1,2.81E1,3.5E1,4.38E1,3.5E0,4E0,6E0,2.4E1,4E0,1.74E1,1E1,1.98E1,2.14E1,1E1,2.62E1,3.06E1,3.4E1,3.66E1,1.03E3,4.34E2,4.75E0,4E0,7E0,1.55E1,9.6E0,8.7E0,4E0,1.47E1,1.58E1,5E0,2.23E1,1E0,1.84E1,1.73E1,2.21E1,1E1,1.56E1,1E1,2.26E1,1.514E3,2.72E1,1E0,2.91E1,9E0,1E1,3.73E1,3.61E1,8.8E1,1E1,3.84E1,2.5E1,1.415E3,-4.1838726E-1,-3.850161E-1,-3.3793077E-1,-3.8186368E-1,-3.0128995E-1,-2.5468573E-1,-3.52108E-1,-2.813399E-1,-2.3774312E-1,-1.963874E-1,-3.3224344E-1,-2.7317485E-1,-1.5700956E-1,-2.2236602E-1,-1.2007345E-1,-5.4488756E-2,-1.11400045E-1,-5.7617653E-2,-1.635088E-1,-2.3704131E-1,-8.679858E-2,-3.821333E-2,2.411917E-1,-6.242082E-3,6.6493563E-3,5.245511E-2,-2.0790589E-1,-7.908737E-2,-2.7176527E-2,6.66643E-2,1.1306553E-1,-4.636241E-2,-8.144283E-2,1.1656679E-1,1.7554407E-1,9.44242E-3,1.8410145E-1,2.4255739E-1,9.026044E-2,-1.3780399E-1,2.4165468E-1,3.090827E-1,4.6681497E-1,3.1144354E-1,3.354899E-1,3.7559792E-1,4.1463265E-1,2.1896847E-1,4.642252E-1,3.315243E-1,5.2826685E-1,3.9892802E-1,5.834783E-1,5.058281E-1,4.1980624E-1,6.3952655E-1,7.1056217E-1,4.1418034E-1,7.0338935E-1,8.088277E-1,6.40135E-1,7.970691E-1,9.468172E-1,7.19715E-1],"split_indices":[7,6,7,6,7,7,7,6,7,7,7,7,7,7,7,7,4,4,5,4,6,4,6,6,4,6,6,6,7,0,0,5,4,7,5,6,7,4,7,6,4,5,4,6,7,5,4,6,4,6,0,7,4,7,4,4,5,5,0,4,6,1,0,0,0,0,0,0,0,0,0,0,0,0,0,0,0,0,0,0,0,0,0,0,0,0,0,0,0,0,0,0,0,0,0,0,0,0,0,0,0,0,0,0,0,0,0,0,0,0,0,0,0,0,0,0,0,0,0,0,0,0,0,0,0,0,0],"split_type":[0,0,0,0,0,0,0,0,0,0,0,0,0,0,0,0,0,0,0,0,0,0,0,0,0,0,0,0,0,0,0,0,0,0,0,0,0,0,0,0,0,0,0,0,0,0,0,0,0,0,0,0,0,0,0,0,0,0,0,0,0,0,0,0,0,0,0,0,0,0,0,0,0,0,0,0,0,0,0,0,0,0,0,0,0,0,0,0,0,0,0,0,0,0,0,0,0,0,0,0,0,0,0,0,0,0,0,0,0,0,0,0,0,0,0,0,0,0,0,0,0,0,0,0,0,0,0],"sum_hessian":[2.04233E5,1.49025E5,5.5208E4,8.1924E4,6.7101E4,3.6607E4,1.8601E4,3.7373E4,4.4551E4,3.3759E4,3.3342E4,1.7377E4,1.923E4,1.3734E4,4.867E3,1.5545E4,2.1828E4,2.466E4,1.9891E4,1.1947E4,2.1812E4,1.3738E4,1.9604E4,9.3E3,8.077E3,9.563E3,9.667E3,7.337E3,6.397E3,2.444E3,2.423E3,6.636E3,8.909E3,1.5952E4,5.876E3,2.2378E4,2.282E3,1.4997E4,4.894E3,1.0436E4,1.511E3,1.604E4,5.772E3,1.3329E4,4.09E2,8.542E3,1.1062E4,2.914E3,6.386E3,7.827E3,2.5E2,3.928E3,5.635E3,5.944E3,3.723E3,4.416E3,2.921E3,2.422E3,3.975E3,1.542E3,9.02E2,3.07E2,2.116E3,3.445E3,3.191E3,5.279E3,3.63E3,8.127E3,7.825E3,4.878E3,9.98E2,1.0739E4,1.1639E4,1.036E3,1.246E3,1.2869E4,2.128E3,3.411E3,1.483E3,8.163E3,2.273E3,5.55E2,9.56E2,6.258E3,9.782E3,9.1E1,5.681E3,7.788E3,5.541E3,1.09E2,3E2,6.47E2,7.895E3,1.0758E4,3.04E2,8.5E1,2.829E3,6.198E3,1.88E2,2.003E3,5.824E3,2.23E2,2.7E1,3.053E3,8.75E2,1.36E2,5.499E3,2.433E3,3.511E3,3.61E3,1.13E2,4.257E3,1.59E2,2.713E3,2.08E2,1.852E3,5.7E2,7.7E1,3.898E3,1.488E3,5.4E1,1.26E2,7.76E2,1.53E2,1.54E2,1.945E3,1.71E2],"tree_param":{"num_deleted":"0","num_feature":"9","num_nodes":"127","size_leaf_vector":"1"}},{"base_weights":[3.0383635E-3,-3.0870981E0,6.306341E0,-5.1719446E0,-9.237832E-1,3.8725605E0,1.08891535E1,-6.6919127E0,-4.2896147E0,-2.128374E0,1.7325671E-1,2.651322E0,5.683615E0,9.358448E0,1.4859755E1,-7.3136315E0,-6.1346836E0,-4.961577E0,-3.5501087E0,-2.653287E0,-1.4723136E0,-2.9284015E-1,1.1491663E0,1.9867499E0,3.2891207E0,5.0442724E0,6.575862E0,8.298024E0,1.08071785E1,1.3555639E1,1.7075285E1,-8.197293E0,-7.161232E0,-5.7847795E0,-6.869368E0,-4.578418E0,-5.66749E0,-3.861727E0,-2.7519553E0,-2.506616E0,-4.976281E0,-1.8337151E0,-9.453432E-1,-9.54242E-1,8.558427E-2,1.2640729E0,-1.2249861E0,-1.7094877E-1,2.173097E0,3.384144E0,7.322743E-2,4.5030146E0,5.5602365E0,6.647977E0,4.0707545E0,7.5373435E0,8.752716E0,9.907936E0,1.123658E1,1.2573346E1,1.4207506E1,1.5691794E1,1.8087229E1,-4.1073188E-1,-1.6697454E-1,-3.4164077E-1,-3.7760976E-1,-2.5863475E-1,-2.9618427E-1,-3.5064274E-1,-2.8364363E-1,-2.4922748E-1,-2.1116336E-1,-2.723294E-1,-3.3341518E-1,-1.8264681E-1,-2.4645172E-1,-1.56767E-1,-1.09615326E-1,-1.3503335E-1,-6.62215E-2,-2.8413275E-1,-1.8328564E-1,-8.347194E-2,-1.5148424E-1,-3.523697E-2,-8.0072396E-2,-9.300997E-2,-2.6847223E-2,-2.3244692E-2,1.9394848E-2,4.0862978E-2,8.252119E-2,-8.580647E-2,1.142377E-1,-7.965529E-2,2.9581765E-2,7.647798E-2,1.2451418E-1,1.5270089E-1,2.091228E-1,1.3164008E-2,-2.6927283E-1,2.0264311E-1,2.500449E-1,1.4167538E-1,2.8027257E-1,3.0984017E-1,3.5083923E-1,1.6706346E-2,2.7519014E-1,3.8132092E-1,2.535461E-1,4.128173E-1,4.7209E-1,4.680446E-1,5.81052E-1,5.4067665E-1,5.8261657E-1,4.5502096E-1,6.333959E-1,7.2153115E-1,5.9110254E-1,8.2445556E-1,6.728953E-1,6.679309E-1,9.149847E-1],"categories":[],"categories_nodes":[],"categories_segments":[],"categories_sizes":[],"default_left":[0,0,0,0,0,0,0,0,0,0,0,0,0,0,0,0,0,0,0,0,0,0,0,0,0,0,0,0,0,0,0,0,0,0,0,0,0,0,0,0,0,0,0,0,0,0,0,0,0,0,0,0,0,0,0,0,0,0,0,0,0,0,0,0,0,0,0,0,0,0,0,0,0,0,0,0,0,0,0,0,0,0,0,0,0,0,0,0,0,0,0,0,0,0,0,0,0,0,0,0,0,0,0,0,0,0,0,0,0,0,0,0,0,0,0,0,0,0,0,0,0,0,0,0,0,0,0],"id":10,"left_children":[1,3,5,7,9,11,13,15,17,19,21,23,25,27,29,31,33,35,37,39,41,43,45,47,49,51,53,55,57,59,61,63,65,67,69,71,73,75,77,79,81,83,85,87,89,91,93,95,97,99,101,103,105,107,109,111,113,115,117,119,121,123,125,-1,-1,-1,-1,-1,-1,-1,-1,-1,-1,-1,-1,-1,-1,-1,-1,-1,-1,-1,-1,-1,-1,-1,-1,-1,-1,-1,-1,-1,-1,-1,-1,-1,-1,-1,-1,-1,-1,-1,-1,-1,-1,-1,-1,-1,-1,-1,-1,-1,-1,-1,-1,-1,-1,-1,-1,-1,-1,-1,-1,-1,-1,-1,-1],"loss_changes":[3.979661E6,6.183499E5,7.49622E5,9.3603875E4,8.891775E4,9.7082125E4,1.41553E5,8.83825E3,2.1934812E4,1.1040531E4,1.6018981E4,1.1108016E4,1.00524375E4,2.576425E4,1.850575E4,1.5726875E3,3.4379062E3,6.2336875E3,5.2211875E3,6.057375E3,2.7134824E3,5.9655083E3,3.1068945E3,5.164699E3,4.0881719E3,2.8525625E3,1.3055938E3,3.29625E3,2.63375E3,2.438375E3,3.07475E3,1.22125E2,1.2760625E3,7.49E2,7.085625E2,2.143375E3,1.7628125E3,3.3527344E3,1.2611758E3,3.8410156E3,9.5768945E2,1.6562871E3,9.147827E2,3.2782388E3,2.5232207E3,1.8730312E3,9.1063184E2,1.1093162E3,2.4095195E3,3.4119844E3,4.008314E2,1.1079766E3,6.3396875E2,1.1494375E3,1.1173074E3,7.6190625E2,2.0009375E3,2.0522656E3,7.19E2,4.2301562E2,1.132875E3,1.596625E3,1.1409688E3,0E0,0E0,0E0,0E0,0E0,0E0,0E0,0E0,0E0,0E0,0E0,0E0,0E0,0E0,0E0,0E0,0E0,0E0,0E0,0E0,0E0,0E0,0E0,0E0,0E0,0E0,0E0,0E0,0E0,0E0,0E0,0E0,0E0,0E0,0E0,0E0,0E0,0E0,0E0,0E0,0E0,0E0,0E0,0E0,0E0,0E0,0E0,0E0,0E0,0E0,0E0,0E0,0E0,0E0,0E0,0E0,0E0,0E0,0E0,0E0,0E0,0E0,0E0,0E0],"parents":[2147483647,0,0,1,1,2,2,3,3,4,4,5,5,6,6,7,7,8,8,9,9,10,10,11,11,12,12,13,13,14,14,15,15,16,16,17,17,18,18,19,19,20,20,21,21,22,22,23,23,24,24,25,25,26,26,27,27,28,28,29,29,30,30,31,31,32,32,33,33,34,34,35,35,36,36,37,37,38,38,39,39,40,40,41,41,42,42,43,43,44,44,45,45,46,46,47,47,48,48,49,49,50,50,51,51,52,52,53,53,54,54,55,55,56,56,57,57,58,58,59,59,60,60,61,61,62,62],"right_children":[2,4,6,8,10,12,14,16,18,20,22,24,26,28,30,32,34,36,38,40,42,44,46,48,50,52,54,56,58,60,62,64,66,68,70,72,74,76,78,80,82,84,86,88,90,92,94,96,98,100,102,104,106,108,110,112,114,116,118,120,122,124,126,-1,-1,-1,-1,-1,-1,-1,-1,-1,-1,-1,-1,-1,-1,-1,-1,-1,-1,-1,-1,-1,-1,-1,-1,-1,-1,-1,-1,-1,-1,-1,-1,-1,-1,-1,-1,-1,-1,-1,-1,-1,-1,-1,-1,-1,-1,-1,-1,-1,-1,-1,-1,-1,-1,-1,-1,-1,-1,-1,-1,-1,-1,-1,-1],"split_conditions":[1.98E1,1.16E1,2.97E1,6.2E0,1.51E1,2.47E1,3.85E1,4E0,9.5E0,1.32E1,1.88E1,2.2E1,2.74E1,3.37E1,4.38E1,1.875E0,4E0,3E0,2.14E1,7E0,1.52E1,2.38E1,7E0,1.66E1,1E1,2.6E1,1E1,3.06E1,3.5E1,4.01E1,4.66E1,9.4E0,4E0,2E0,1.51E1,7.7E0,1E1,4E0,1.06E1,1.54E1,1.89E1,4E0,3E0,1.5E1,1.66E1,1.82E1,3.08E1,2.62E1,2.73E1,2.54E1,2.9E1,1E0,2.41E1,2.82E1,3.02E1,1E1,3.22E1,3.66E1,1.7E1,3.07E1,5E0,3.7E1,4E0,-4.1073188E-1,-1.6697454E-1,-3.4164077E-1,-3.7760976E-1,-2.5863475E-1,-2.9618427E-1,-3.5064274E-1,-2.8364363E-1,-2.4922748E-1,-2.1116336E-1,-2.723294E-1,-3.3341518E-1,-1.8264681E-1,-2.4645172E-1,-1.56767E-1,-1.09615326E-1,-1.3503335E-1,-6.62215E-2,-2.8413275E-1,-1.8328564E-1,-8.347194E-2,-1.5148424E-1,-3.523697E-2,-8.0072396E-2,-9.300997E-2,-2.6847223E-2,-2.3244692E-2,1.9394848E-2,4.0862978E-2,8.252119E-2,-8.580647E-2,1.142377E-1,-7.965529E-2,2.9581765E-2,7.647798E-2,1.2451418E-1,1.5270089E-1,2.091228E-1,1.3164008E-2,-2.6927283E-1,2.0264311E-1,2.500449E-1,1.4167538E-1,2.8027257E-1,3.0984017E-1,3.5083923E-1,1.6706346E-2,2.7519014E-1,3.8132092E-1,2.535461E-1,4.128173E-1,4.7209E-1,4.680446E-1,5.81052E-1,5.4067665E-1,5.8261657E-1,4.5502096E-1,6.333959E-1,7.2153115E-1,5.9110254E-1,8.2445556E-1,6.728953E-1,6.679309E-1,9.149847E-1],"split_indices":[7,6,7,6,7,7,7,6,7,7,6,6,7,7,7,7,4,4,5,4,6,5,4,6,4,6,4,6,7,7,6,5,4,4,5,7,4,4,6,6,5,4,4,6,7,7,5,5,5,6,6,3,5,6,5,4,7,6,1,5,4,5,1,0,0,0,0,0,0,0,0,0,0,0,0,0,0,0,0,0,0,0,0,0,0,0,0,0,0,0,0,0,0,0,0,0,0,0,0,0,0,0,0,0,0,0,0,0,0,0,0,0,0,0,0,0,0,0,0,0,0,0,0,0,0,0,0],"split_type":[0,0,0,0,0,0,0,0,0,0,0,0,0,0,0,0,0,0,0,0,0,0,0,0,0,0,0,0,0,0,0,0,0,0,0,0,0,0,0,0,0,0,0,0,0,0,0,0,0,0,0,0,0,0,0,0,0,0,0,0,0,0,0,0,0,0,0,0,0,0,0,0,0,0,0,0,0,0,0,0,0,0,0,0,0,0,0,0,0,0,0,0,0,0,0,0,0,0,0,0,0,0,0,0,0,0,0,0,0,0,0,0,0,0,0,0,0,0,0,0,0,0,0,0,0,0,0],"sum_hessian":[2.04313E5,1.37101E5,6.7212E4,6.9816E4,6.7285E4,4.39E4,2.3312E4,2.564E4,4.4176E4,3.207E4,3.5215E4,2.6221E4,1.7679E4,1.6828E4,6.484E3,1.2113E4,1.3527E4,2.3142E4,2.1034E4,1.7814E4,1.4256E4,2.3833E4,1.1382E4,1.2843E4,1.3378E4,1.0303E4,7.376E3,9.72E3,7.108E3,4.086E3,2.398E3,1.774E3,1.0339E4,9.169E3,4.358E3,1.5005E4,8.137E3,1.5125E4,5.909E3,1.6758E4,1.056E3,8.455E3,5.801E3,8.673E3,1.516E4,1.0857E4,5.25E2,1.021E3,1.1822E4,1.2994E4,3.84E2,5.033E3,5.27E3,7.168E3,2.08E2,3.643E3,6.077E3,2.305E3,4.803E3,1.638E3,2.448E3,1.02E3,1.378E3,1.767E3,7E0,5.629E3,4.71E3,1.703E3,7.466E3,3.887E3,4.71E2,6.994E3,8.011E3,6.671E3,1.466E3,1.2654E4,2.471E3,3.504E3,2.405E3,1.4394E4,2.364E3,6.84E2,3.72E2,7.436E3,1.019E3,4.246E3,1.555E3,2.734E3,5.939E3,5.374E3,9.786E3,5.036E3,5.821E3,4.61E2,6.4E1,3.56E2,6.65E2,3.905E3,7.917E3,9.196E3,3.798E3,3.72E2,1.2E1,2.648E3,2.385E3,8.7E1,5.183E3,3.232E3,3.936E3,5.8E1,1.5E2,3.514E3,1.29E2,3.54E3,2.537E3,1.752E3,5.53E2,2.394E3,2.409E3,4.6E1,1.592E3,2.234E3,2.14E2,7.47E2,2.73E2,6.2E1,1.316E3],"tree_param":{"num_deleted":"0","num_feature":"9","num_nodes":"127","size_leaf_vector":"1"}},{"base_weights":[9.280191E-3,-2.9383502E0,6.004685E0,-5.0293493E0,-9.927939E-1,4.0211945E0,1.1187958E1,-6.322714E0,-4.13033E0,-2.1176097E0,1.330331E-1,2.532745E0,5.765028E0,9.54539E0,1.4242953E1,-6.9816213E0,-5.7853045E0,-4.560606E0,-3.2844E0,-2.8596318E0,-1.6511104E0,-2.830821E-1,1.0235757E0,1.980247E0,3.333623E0,4.9529514E0,6.8393188E0,8.613846E0,1.0601768E1,1.29194145E1,1.6455322E1,-7.5711694E0,-6.736484E0,-5.478942E0,-6.4406414E0,-4.162191E0,-5.298877E0,-3.79263E0,-2.8270473E0,-2.5529454E0,-3.6390936E0,-1.9291658E0,-8.3683705E-1,-7.8261954E-1,2.0576566E-1,1.1236537E0,-1.1035212E0,-1.3119178E-1,2.1271942E0,3.4276822E0,1.828058E-1,4.4326997E0,5.521866E0,6.9269176E0,4.343538E0,8.121652E0,9.454514E0,1.033243E1,1.1309083E1,6.0515695E0,1.29721985E1,1.56281E1,1.8113989E1,-3.7976688E-1,-1.945082E-2,-3.1777307E-1,-3.518629E-1,-2.3971708E-1,-2.8160915E-1,-3.27211E-1,-2.8767714E-1,-1.7590542E-1,-2.1808258E-1,-2.4897408E-1,-2.955645E-1,-2.7612498E-1,-1.8708144E-1,-1.3287133E-1,-1.935964E-1,-1.4437066E-1,-9.7933754E-2,-1.6858412E-1,-2.2919826E-1,-8.7754995E-2,-1.6033575E-1,2.161554E-1,-4.5129206E-2,-7.579031E-2,-1.6810482E-2,-1.5927747E-2,2.7122948E-2,3.5497192E-2,7.4216194E-2,-7.4369185E-2,1.22120254E-1,-2.8408816E-2,1.7870967E-1,8.884414E-2,1.305582E-1,1.542512E-1,2.103387E-1,-1.6715258E-2,2.1424608E-1,1.6572101E-1,2.3170717E-1,4.244767E-1,2.7245945E-1,3.3000177E-1,3.8209584E-1,-1.4061187E-1,2.2764638E-1,4.119444E-1,2.7232987E-1,4.75579E-1,2.4163942E-1,5.2396697E-1,4.045511E-1,5.251095E-1,6.147504E-1,1.9397067E-1,5.021604E-1,5.989464E-1,6.636619E-1,8.15259E-1,6.7983645E-1,9.213571E-1,7.362883E-1],"categories":[],"categories_nodes":[],"categories_segments":[],"categories_sizes":[],"default_left":[0,0,0,0,0,0,0,0,0,0,0,0,0,0,0,0,0,0,0,0,0,0,0,0,0,0,0,0,0,0,0,0,0,0,0,0,0,0,0,0,0,0,0,0,0,0,0,0,0,0,0,0,0,0,0,0,0,0,0,0,0,0,0,0,0,0,0,0,0,0,0,0,0,0,0,0,0,0,0,0,0,0,0,0,0,0,0,0,0,0,0,0,0,0,0,0,0,0,0,0,0,0,0,0,0,0,0,0,0,0,0,0,0,0,0,0,0,0,0,0,0,0,0,0,0,0,0],"id":11,"left_children":[1,3,5,7,9,11,13,15,17,19,21,23,25,27,29,31,33,35,37,39,41,43,45,47,49,51,53,55,57,59,61,63,65,67,69,71,73,75,77,79,81,83,85,87,89,91,93,95,97,99,101,103,105,107,109,111,113,115,117,119,121,123,125,-1,-1,-1,-1,-1,-1,-1,-1,-1,-1,-1,-1,-1,-1,-1,-1,-1,-1,-1,-1,-1,-1,-1,-1,-1,-1,-1,-1,-1,-1,-1,-1,-1,-1,-1,-1,-1,-1,-1,-1,-1,-1,-1,-1,-1,-1,-1,-1,-1,-1,-1,-1,-1,-1,-1,-1,-1,-1,-1,-1,-1,-1,-1,-1],"loss_changes":[3.6108445E6,5.57243E5,6.9232725E5,7.6740375E4,8.985781E4,1.2641225E5,9.339025E4,9.545625E3,1.41625E4,1.2281969E4,1.3142124E4,1.1621859E4,1.9533312E4,1.1839375E4,1.8864375E4,1.7058125E3,2.9594062E3,7.5714375E3,3.0426094E3,3.2656953E3,4.933285E3,5.9026655E3,2.405458E3,4.8262305E3,3.1784688E3,3.75725E3,2.0802812E3,2.5911875E3,9.646875E2,1.400875E3,3.058E3,6.153281E2,9.4025E2,1.04E3,3.00125E2,2.1393125E3,1.7397812E3,5.280078E2,1.2158086E3,1.9491875E3,9.613633E2,3.6073438E3,1.8867439E3,3.9123818E3,2.1569036E3,1.6085049E3,6.950957E2,1.6422764E3,2.4608125E3,2.7677031E3,6.632622E2,1.4892188E3,1.2691875E3,2.1287812E3,5.0725928E2,1.2328125E3,5.804375E2,1.272875E3,1.1079219E3,2.4716345E2,1.0516875E3,2.0229375E3,5.816875E2,0E0,0E0,0E0,0E0,0E0,0E0,0E0,0E0,0E0,0E0,0E0,0E0,0E0,0E0,0E0,0E0,0E0,0E0,0E0,0E0,0E0,0E0,0E0,0E0,0E0,0E0,0E0,0E0,0E0,0E0,0E0,0E0,0E0,0E0,0E0,0E0,0E0,0E0,0E0,0E0,0E0,0E0,0E0,0E0,0E0,0E0,0E0,0E0,0E0,0E0,0E0,0E0,0E0,0E0,0E0,0E0,0E0,0E0,0E0,0E0,0E0,0E0,0E0,0E0],"parents":[2147483647,0,0,1,1,2,2,3,3,4,4,5,5,6,6,7,7,8,8,9,9,10,10,11,11,12,12,13,13,14,14,15,15,16,16,17,17,18,18,19,19,20,20,21,21,22,22,23,23,24,24,25,25,26,26,27,27,28,28,29,29,30,30,31,31,32,32,33,33,34,34,35,35,36,36,37,37,38,38,39,39,40,40,41,41,42,42,43,43,44,44,45,45,46,46,47,47,48,48,49,49,50,50,51,51,52,52,53,53,54,54,55,55,56,56,57,57,58,58,59,59,60,60,61,61,62,62],"right_children":[2,4,6,8,10,12,14,16,18,20,22,24,26,28,30,32,34,36,38,40,42,44,46,48,50,52,54,56,58,60,62,64,66,68,70,72,74,76,78,80,82,84,86,88,90,92,94,96,98,100,102,104,106,108,110,112,114,116,118,120,122,124,126,-1,-1,-1,-1,-1,-1,-1,-1,-1,-1,-1,-1,-1,-1,-1,-1,-1,-1,-1,-1,-1,-1,-1,-1,-1,-1,-1,-1,-1,-1,-1,-1,-1,-1,-1,-1,-1,-1,-1,-1,-1,-1,-1,-1,-1,-1,-1,-1,-1,-1,-1,-1,-1,-1,-1,-1,-1,-1,-1,-1,-1,-1,-1,-1],"split_conditions":[1.98E1,1.12E1,3.14E1,6.4E0,1.51E1,2.47E1,3.85E1,4E0,1.78E1,1.22E1,1.88E1,2.28E1,2.81E1,3.45E1,4.38E1,4.75E0,4E0,3E0,1.09E1,3E0,1.58E1,2.52E1,7E0,1.66E1,1E1,2.66E1,9E0,3.4E1,3.72E1,8.8E1,4.83E1,4.9E0,3E0,2E0,1.46E1,2E0,6E0,7E0,4E0,1.32E1,7E0,4E0,1E0,1.54E1,1.68E1,1.82E1,3.16E1,3.26E1,2.18E1,2.36E1,3.375E1,2.22E1,1E0,3.12E1,8.7E1,9E0,3.91E1,6E0,1E0,3.55E1,3.84E1,3.7E1,5E0,-3.7976688E-1,-1.945082E-2,-3.1777307E-1,-3.518629E-1,-2.3971708E-1,-2.8160915E-1,-3.27211E-1,-2.8767714E-1,-1.7590542E-1,-2.1808258E-1,-2.4897408E-1,-2.955645E-1,-2.7612498E-1,-1.8708144E-1,-1.3287133E-1,-1.935964E-1,-1.4437066E-1,-9.7933754E-2,-1.6858412E-1,-2.2919826E-1,-8.7754995E-2,-1.6033575E-1,2.161554E-1,-4.5129206E-2,-7.579031E-2,-1.6810482E-2,-1.5927747E-2,2.7122948E-2,3.5497192E-2,7.4216194E-2,-7.4369185E-2,1.22120254E-1,-2.8408816E-2,1.7870967E-1,8.884414E-2,1.305582E-1,1.542512E-1,2.103387E-1,-1.6715258E-2,2.1424608E-1,1.6572101E-1,2.3170717E-1,4.244767E-1,2.7245945E-1,3.3000177E-1,3.8209584E-1,-1.4061187E-1,2.2764638E-1,4.119444E-1,2.7232987E-1,4.75579E-1,2.4163942E-1,5.2396697E-1,4.045511E-1,5.251095E-1,6.147504E-1,1.9397067E-1,5.021604E-1,5.989464E-1,6.636619E-1,8.15259E-1,6.7983645E-1,9.213571E-1,7.362883E-1],"split_indices":[7,6,7,6,7,7,7,6,5,7,6,6,7,7,7,5,4,4,7,4,6,5,4,6,4,6,4,6,7,0,7,7,4,4,5,4,4,7,4,6,4,4,4,6,7,7,5,5,7,7,5,6,4,6,0,4,5,4,3,5,6,5,4,0,0,0,0,0,0,0,0,0,0,0,0,0,0,0,0,0,0,0,0,0,0,0,0,0,0,0,0,0,0,0,0,0,0,0,0,0,0,0,0,0,0,0,0,0,0,0,0,0,0,0,0,0,0,0,0,0,0,0,0,0,0,0,0],"split_type":[0,0,0,0,0,0,0,0,0,0,0,0,0,0,0,0,0,0,0,0,0,0,0,0,0,0,0,0,0,0,0,0,0,0,0,0,0,0,0,0,0,0,0,0,0,0,0,0,0,0,0,0,0,0,0,0,0,0,0,0,0,0,0,0,0,0,0,0,0,0,0,0,0,0,0,0,0,0,0,0,0,0,0,0,0,0,0,0,0,0,0,0,0,0,0,0,0,0,0,0,0,0,0,0,0,0,0,0,0,0,0,0,0,0,0,0,0,0,0,0,0,0,0,0,0,0,0],"sum_hessian":[2.04321E5,1.36977E5,6.7344E4,6.602E4,7.0957E4,4.8707E4,1.8637E4,2.707E4,3.895E4,3.5494E4,3.5463E4,2.6279E4,2.2428E4,1.2123E4,6.514E3,1.2155E4,1.4915E4,2.5815E4,1.3135E4,1.3699E4,2.1795E4,2.417E4,1.1293E4,1.5553E4,1.0726E4,1.2776E4,9.652E3,6.447E3,5.676E3,4.08E3,2.434E3,3.561E3,8.594E3,1.017E4,4.745E3,1.6771E4,9.044E3,6.218E3,6.917E3,9.834E3,3.865E3,1.6246E4,5.549E3,1.1954E4,1.2216E4,1.0786E4,5.07E2,1.012E3,1.4541E4,1.0415E4,3.11E2,6.678E3,6.098E3,9.323E3,3.29E2,4.073E3,2.374E3,4.122E3,1.554E3,3.2E1,4.048E3,1.631E3,8.03E2,3.549E3,1.2E1,3.801E3,4.793E3,1.866E3,8.304E3,4.116E3,6.29E2,3.97E3,1.2801E4,5.95E3,3.094E3,1.75E2,6.043E3,5.954E3,9.63E2,6.29E3,3.544E3,3.016E3,8.49E2,1.43E4,1.946E3,6.9E1,5.48E3,4.523E3,7.431E3,4.777E3,7.439E3,5.025E3,5.761E3,4.58E2,4.9E1,9.06E2,1.06E2,8.438E3,6.103E3,7.237E3,3.178E3,2.77E2,3.4E1,1.022E3,5.656E3,1.43E2,5.955E3,6.405E3,2.918E3,9E0,3.2E2,3.9E3,1.73E2,2.344E3,3E1,3.865E3,2.57E2,8.61E2,6.93E2,2.2E1,1E1,9.51E2,3.097E3,1.218E3,4.13E2,7.31E2,7.2E1],"tree_param":{"num_deleted":"0","num_feature":"9","num_nodes":"127","size_leaf_vector":"1"}},{"base_weights":[6.854605E-3,-2.5996656E0,6.154077E0,-4.692341E0,-6.2740415E-1,4.3101196E0,1.1011589E1,-5.9623027E0,-3.8115923E0,-1.6452574E0,6.300317E-1,3.115112E0,6.2433586E0,9.588223E0,1.387503E1,-6.5560203E0,-5.3866158E0,-4.3011746E0,-2.8358545E0,-2.260888E0,-6.6518307E-1,6.730332E-2,1.5478463E0,2.402596E0,4.055955E0,5.537189E0,7.0207844E0,8.502846E0,1.0391436E1,1.291671E1,1.6177069E1,-7.024607E0,-6.177389E0,-6.0231357E0,-5.159562E0,-4.105537E0,-5.5494475E0,-3.4141464E0,-2.4667296E0,-2.699377E0,-1.6970929E0,-1.0912131E0,4.0841296E-1,-7.670058E-1,3.4723195E-1,1.2903833E0,2.6285079E0,1.3798742E0,2.7978022E0,4.1573424E0,4.4442883E-1,5.1673994E0,6.1822243E0,5.8766103E0,7.2646294E0,8.299054E0,9.628843E0,9.418964E0,1.0881845E1,1.2431905E1,1.4365359E1,1.5188454E1,1.7339739E1,-3.7258112E-1,-3.418325E-1,-2.8555122E-1,-3.3175752E-1,-3.2079205E-1,-2.7827865E-1,-2.4671756E-1,-2.8594407E-1,-2.3177163E-1,-1.9111517E-1,-3.1121272E-1,-2.5235757E-1,-1.1866535E-1,-1.7991965E-1,-1.4388007E-1,-1.0505291E-1,-1.2755595E-1,-2.3404793E-1,-1.0574229E-1,-7.059439E-2,-4.5449715E-2,-1.6762967E-1,2.8542751E-2,-1.94766E-1,-5.648482E-2,-2.0271873E-3,2.1044848E-2,-1.0719835E-1,6.832176E-2,-2.098166E-2,4.1246554E-1,1.2348318E-1,-1.5842833E-2,8.025464E-2,1.2782331E-1,2.1410716E-1,1.8333063E-1,2.3462434E-1,5.430588E-3,4.209094E-1,1.6180941E-1,2.648463E-1,3.1415242E-1,1.1018175E-1,1.5996313E-1,3.1562445E-1,3.5004956E-1,3.9715967E-1,3.3890572E-1,4.2082754E-1,5.4903597E-1,4.437445E-1,2.4956758E-1,4.7714862E-1,5.123796E-1,5.838019E-1,5.8110094E-1,6.4078885E-1,5.717704E-1,7.374889E-1,7.0074075E-1,8.187855E-1,4.9869472E-1,8.738999E-1],"categories":[],"categories_nodes":[],"categories_segments":[],"categories_sizes":[],"default_left":[0,0,0,0,0,0,0,0,0,0,0,0,0,0,0,0,0,0,0,0,0,0,0,0,0,0,0,0,0,0,0,0,0,0,0,0,0,0,0,0,0,0,0,0,0,0,0,0,0,0,0,0,0,0,0,0,0,0,0,0,0,0,0,0,0,0,0,0,0,0,0,0,0,0,0,0,0,0,0,0,0,0,0,0,0,0,0,0,0,0,0,0,0,0,0,0,0,0,0,0,0,0,0,0,0,0,0,0,0,0,0,0,0,0,0,0,0,0,0,0,0,0,0,0,0,0,0],"id":12,"left_children":[1,3,5,7,9,11,13,15,17,19,21,23,25,27,29,31,33,35,37,39,41,43,45,47,49,51,53,55,57,59,61,63,65,67,69,71,73,75,77,79,81,83,85,87,89,91,93,95,97,99,101,103,105,107,109,111,113,115,117,119,121,123,125,-1,-1,-1,-1,-1,-1,-1,-1,-1,-1,-1,-1,-1,-1,-1,-1,-1,-1,-1,-1,-1,-1,-1,-1,-1,-1,-1,-1,-1,-1,-1,-1,-1,-1,-1,-1,-1,-1,-1,-1,-1,-1,-1,-1,-1,-1,-1,-1,-1,-1,-1,-1,-1,-1,-1,-1,-1,-1,-1,-1,-1,-1,-1,-1],"loss_changes":[3.2756492E6,5.9252506E5,5.45195E5,7.78875E4,9.459607E4,1.0191969E5,6.813125E4,9.7138125E3,1.963725E4,2.4643484E4,1.70768E4,1.8271812E4,9.2144375E3,9.6678125E3,1.2054875E4,2.4470625E3,2.0626562E3,6.665625E3,2.9258281E3,6.197375E3,7.2088203E3,4.787513E3,3.493127E3,6.2695E3,4.3009062E3,2.0759062E3,2.194625E3,1.0135E3,2.9625625E3,2.5814375E3,1.6101875E3,4.5196875E2,1.6213125E3,6.476406E2,1.3177188E3,3.5364375E3,1.2254219E3,1.0180078E3,1.2551016E3,4.133383E3,1.3049941E3,4.646296E3,3.1328264E3,1.3568806E3,2.8176616E3,1.320709E3,2.1375996E3,1.6543887E3,3.9990312E3,2.9844375E3,8.613129E2,1.3894062E3,1.2758047E3,1.6299414E3,1.1261562E3,6.6528125E2,6.404844E2,1.1394531E3,2.0292188E3,7.6884375E2,9.34E2,1.0092344E3,5.813125E2,0E0,0E0,0E0,0E0,0E0,0E0,0E0,0E0,0E0,0E0,0E0,0E0,0E0,0E0,0E0,0E0,0E0,0E0,0E0,0E0,0E0,0E0,0E0,0E0,0E0,0E0,0E0,0E0,0E0,0E0,0E0,0E0,0E0,0E0,0E0,0E0,0E0,0E0,0E0,0E0,0E0,0E0,0E0,0E0,0E0,0E0,0E0,0E0,0E0,0E0,0E0,0E0,0E0,0E0,0E0,0E0,0E0,0E0,0E0,0E0,0E0,0E0,0E0,0E0],"parents":[2147483647,0,0,1,1,2,2,3,3,4,4,5,5,6,6,7,7,8,8,9,9,10,10,11,11,12,12,13,13,14,14,15,15,16,16,17,17,18,18,19,19,20,20,21,21,22,22,23,23,24,24,25,25,26,26,27,27,28,28,29,29,30,30,31,31,32,32,33,33,34,34,35,35,36,36,37,37,38,38,39,39,40,40,41,41,42,42,43,43,44,44,45,45,46,46,47,47,48,48,49,49,50,50,51,51,52,52,53,53,54,54,55,55,56,56,57,57,58,58,59,59,60,60,61,61,62,62],"right_children":[2,4,6,8,10,12,14,16,18,20,22,24,26,28,30,32,34,36,38,40,42,44,46,48,50,52,54,56,58,60,62,64,66,68,70,72,74,76,78,80,82,84,86,88,90,92,94,96,98,100,102,104,106,108,110,112,114,116,118,120,122,124,126,-1,-1,-1,-1,-1,-1,-1,-1,-1,-1,-1,-1,-1,-1,-1,-1,-1,-1,-1,-1,-1,-1,-1,-1,-1,-1,-1,-1,-1,-1,-1,-1,-1,-1,-1,-1,-1,-1,-1,-1,-1,-1,-1,-1,-1,-1,-1,-1,-1,-1,-1,-1,-1,-1,-1,-1,-1,-1,-1,-1,-1,-1,-1,-1],"split_conditions":[2.052E1,1.16E1,3.18E1,6.6E0,1.58E1,2.624E1,3.888E1,5.88E0,1.128E1,1.54E1,1.94E1,2.38E1,2.888E1,3.416E1,4.56E1,3.2E0,4E0,5E0,1.78E1,1.276E1,1.9E1,1.48E1,2.42E1,1.88E1,1E1,2.84E1,2.66E1,3.72E1,3.44E1,4.308E1,4.764E1,1.6E0,3E0,7.76E0,4E0,7.92E0,7.84E0,2E0,1.328E1,6E0,2.12E1,5E0,9E0,2.59E1,1E1,8E0,1E0,1.42E1,2.476E1,2.396E1,1.642E3,2.28E1,1E1,2.83E1,3.32E1,2.66E1,3.375E1,1E0,3.68E1,6.7E2,4.09E2,1E0,3.26E2,-3.7258112E-1,-3.418325E-1,-2.8555122E-1,-3.3175752E-1,-3.2079205E-1,-2.7827865E-1,-2.4671756E-1,-2.8594407E-1,-2.3177163E-1,-1.9111517E-1,-3.1121272E-1,-2.5235757E-1,-1.1866535E-1,-1.7991965E-1,-1.4388007E-1,-1.0505291E-1,-1.2755595E-1,-2.3404793E-1,-1.0574229E-1,-7.059439E-2,-4.5449715E-2,-1.6762967E-1,2.8542751E-2,-1.94766E-1,-5.648482E-2,-2.0271873E-3,2.1044848E-2,-1.0719835E-1,6.832176E-2,-2.098166E-2,4.1246554E-1,1.2348318E-1,-1.5842833E-2,8.025464E-2,1.2782331E-1,2.1410716E-1,1.8333063E-1,2.3462434E-1,5.430588E-3,4.209094E-1,1.6180941E-1,2.648463E-1,3.1415242E-1,1.1018175E-1,1.5996313E-1,3.1562445E-1,3.5004956E-1,3.9715967E-1,3.3890572E-1,4.2082754E-1,5.4903597E-1,4.437445E-1,2.4956758E-1,4.7714862E-1,5.123796E-1,5.838019E-1,5.8110094E-1,6.4078885E-1,5.717704E-1,7.374889E-1,7.0074075E-1,8.187855E-1,4.9869472E-1,8.738999E-1],"split_indices":[8,6,8,6,8,8,8,8,8,6,6,6,8,8,7,6,6,4,5,8,6,6,6,6,4,7,6,6,6,8,8,6,4,8,4,8,8,4,8,4,5,4,4,5,4,4,4,6,8,8,0,7,4,5,6,6,5,4,8,0,0,3,0,0,0,0,0,0,0,0,0,0,0,0,0,0,0,0,0,0,0,0,0,0,0,0,0,0,0,0,0,0,0,0,0,0,0,0,0,0,0,0,0,0,0,0,0,0,0,0,0,0,0,0,0,0,0,0,0,0,0,0,0,0,0,0,0],"split_type":[0,0,0,0,0,0,0,0,0,0,0,0,0,0,0,0,0,0,0,0,0,0,0,0,0,0,0,0,0,0,0,0,0,0,0,0,0,0,0,0,0,0,0,0,0,0,0,0,0,0,0,0,0,0,0,0,0,0,0,0,0,0,0,0,0,0,0,0,0,0,0,0,0,0,0,0,0,0,0,0,0,0,0,0,0,0,0,0,0,0,0,0,0,0,0,0,0,0,0,0,0,0,0,0,0,0,0,0,0,0,0,0,0,0,0,0,0,0,0,0,0,0,0,0,0,0,0],"sum_hessian":[2.04434E5,1.43562E5,6.0872E4,6.9654E4,7.3908E4,4.4124E4,1.6748E4,2.8522E4,4.1132E4,4.0845E4,3.3063E4,2.727E4,1.6854E4,1.119E4,5.558E3,1.4036E4,1.4486E4,2.7387E4,1.3745E4,2.5086E4,1.5759E4,2.0497E4,1.2566E4,1.552E4,1.175E4,8.836E3,8.018E3,4.764E3,6.426E3,3.929E3,1.629E3,6.265E3,7.771E3,3.802E3,1.0684E4,2.368E4,3.707E3,5.352E3,8.393E3,1.4109E4,1.0977E4,1.1282E4,4.477E3,5.149E3,1.5348E4,1.015E4,2.416E3,4.327E3,1.1193E4,1.1429E4,3.21E2,5.622E3,3.214E3,1.413E3,6.605E3,4.041E3,7.23E2,2.161E3,4.265E3,2.951E3,9.78E2,8.88E2,7.41E2,1.903E3,4.362E3,3.856E3,3.915E3,2.039E3,1.763E3,7.624E3,3.06E3,8.243E3,1.5437E4,1.577E3,2.13E3,8.07E2,4.545E3,3.949E3,4.444E3,1.3129E4,9.8E2,4.451E3,6.526E3,1.0442E4,8.4E2,4.315E3,1.62E2,3.434E3,1.715E3,1.4908E4,4.4E2,9.718E3,4.32E2,6.5E1,2.351E3,5.07E2,3.82E3,9.63E3,1.563E3,5.966E3,5.463E3,3.09E2,1.2E1,3.55E2,5.267E3,3.134E3,8E1,1.99E2,1.214E3,4.765E3,1.84E3,2.94E2,3.747E3,2.54E2,4.69E2,6E1,2.101E3,2.379E3,1.886E3,9.59E2,1.992E3,1.17E2,8.61E2,4.53E2,4.35E2,1.5E1,7.26E2],"tree_param":{"num_deleted":"0","num_feature":"9","num_nodes":"127","size_leaf_vector":"1"}},{"base_weights":[-6.595969E-3,-2.472399E0,5.8249288E0,-4.235306E0,-3.5748792E-1,3.9071636E0,9.998048E0,-5.422467E0,-3.227466E0,-1.3666902E0,6.8311113E-1,2.6241915E0,5.296555E0,8.72498E0,1.3109158E1,-6.0787354E0,-4.779144E0,-3.9599059E0,-2.6436303E0,-1.8156724E0,-3.3914024E-1,2.060429E-3,1.3607424E0,2.1356394E0,3.671995E0,4.4393992E0,5.9703217E0,7.721621E0,9.840738E0,1.2150868E1,1.555014E1,-6.5644126E0,-5.6517773E0,-5.1805215E0,-4.055223E0,-3.771811E0,-5.304705E0,-3.0329258E0,-2.0896537E0,-2.3858967E0,-1.4012737E0,-5.8914244E-1,1.6423885E0,-1.039283E0,1.3520008E-1,1.0555577E0,2.2095182E0,1.16579E0,2.4296222E0,3.7582927E0,6.59381E-1,1.6534529E0,4.5473294E0,5.253216E0,6.500146E0,7.5041966E0,8.911134E0,9.475141E0,1.0880493E1,1.1600995E1,1.2956544E1,1.4695574E1,1.659355E1,-3.428998E-1,-3.0931038E-1,-2.6978686E-1,-3.0337903E-1,-2.3709552E-1,-2.8948402E-1,-2.092464E-1,-1.6111046E-1,-1.969024E-1,-1.5180598E-1,-2.726943E-1,-1.9179986E-1,-1.4320308E-1,-1.9692394E-1,-1.3746044E-1,-9.0077795E-2,-1.100464E-1,-2.1743341E-1,-8.903716E-2,-5.2830674E-2,-2.1403272E-2,-1.5730773E-1,9.507365E-2,-2.3262194E-1,-7.499253E-2,-6.274608E-3,1.0127306E-2,-1.07960545E-1,5.723056E-2,-3.913738E-2,3.4379837E-1,1.05079256E-1,4.0048774E-2,1.1161249E-1,9.7282894E-2,1.3730946E-1,1.6884792E-1,2.2609209E-1,1.0713916E-1,-7.090986E-2,2.4921809E-1,5.5501547E-2,2.144904E-1,2.7666855E-1,2.0191038E-1,2.7148718E-1,3.2986727E-1,1.4507781E-1,3.562039E-1,3.9878577E-1,3.905226E-1,4.8669195E-1,4.40488E-1,4.860592E-1,4.7762948E-1,5.7535505E-1,5.961609E-1,5.1983E-1,2.730892E-2,6.50905E-1,7.54584E-1,5.184573E-1,3.9797768E-1,8.4055156E-1],"categories":[],"categories_nodes":[],"categories_segments":[],"categories_sizes":[],"default_left":[0,0,0,0,0,0,0,0,0,0,0,0,0,0,0,0,0,0,0,0,0,0,0,0,0,0,0,0,0,0,0,0,0,0,0,0,0,0,0,0,0,0,0,0,0,0,0,0,0,0,0,0,0,0,0,0,0,0,0,0,0,0,0,0,0,0,0,0,0,0,0,0,0,0,0,0,0,0,0,0,0,0,0,0,0,0,0,0,0,0,0,0,0,0,0,0,0,0,0,0,0,0,0,0,0,0,0,0,0,0,0,0,0,0,0,0,0,0,0,0,0,0,0,0,0,0,0],"id":13,"left_children":[1,3,5,7,9,11,13,15,17,19,21,23,25,27,29,31,33,35,37,39,41,43,45,47,49,51,53,55,57,59,61,63,65,67,69,71,73,75,77,79,81,83,85,87,89,91,93,95,97,99,101,103,105,107,109,111,113,115,117,119,121,123,125,-1,-1,-1,-1,-1,-1,-1,-1,-1,-1,-1,-1,-1,-1,-1,-1,-1,-1,-1,-1,-1,-1,-1,-1,-1,-1,-1,-1,-1,-1,-1,-1,-1,-1,-1,-1,-1,-1,-1,-1,-1,-1,-1,-1,-1,-1,-1,-1,-1,-1,-1,-1,-1,-1,-1,-1,-1,-1,-1,-1,-1,-1,-1,-1],"loss_changes":[2.9420665E6,5.3613744E5,4.8657912E5,9.381675E4,6.865507E4,7.424894E4,7.57085E4,1.517325E4,1.8128938E4,1.5310723E4,1.485434E4,1.1081078E4,1.15239375E4,1.513575E4,1.28098125E4,3.6583125E3,5.2638125E3,4.73875E3,5.0847656E3,5.454242E3,5.0009043E3,2.2259329E3,4.176914E3,4.2100938E3,1.7880078E3,2.6403281E3,4.2193125E3,1.784625E3,2.3411875E3,1.6195E3,1.1498125E3,8.8259375E2,9.776875E2,3.0977812E3,6.8796094E2,2.0069375E3,4.8433203E2,2.1084297E3,1.8469453E3,3.5189336E3,1.7477988E3,3.6902969E3,1.8533855E3,7.6578174E2,2.200022E3,1.9439395E3,2.1341797E3,1.3361895E3,1.7317188E3,1.9340938E3,5.978425E2,5.9179663E2,2.1288125E3,9.994219E2,2.2313438E3,1.0291562E3,9.2097656E2,6.944375E2,1.2763281E3,8.0121875E2,1.224375E3,1.3310312E3,1.1730938E3,0E0,0E0,0E0,0E0,0E0,0E0,0E0,0E0,0E0,0E0,0E0,0E0,0E0,0E0,0E0,0E0,0E0,0E0,0E0,0E0,0E0,0E0,0E0,0E0,0E0,0E0,0E0,0E0,0E0,0E0,0E0,0E0,0E0,0E0,0E0,0E0,0E0,0E0,0E0,0E0,0E0,0E0,0E0,0E0,0E0,0E0,0E0,0E0,0E0,0E0,0E0,0E0,0E0,0E0,0E0,0E0,0E0,0E0,0E0,0E0,0E0,0E0,0E0,0E0],"parents":[2147483647,0,0,1,1,2,2,3,3,4,4,5,5,6,6,7,7,8,8,9,9,10,10,11,11,12,12,13,13,14,14,15,15,16,16,17,17,18,18,19,19,20,20,21,21,22,22,23,23,24,24,25,25,26,26,27,27,28,28,29,29,30,30,31,31,32,32,33,33,34,34,35,35,36,36,37,37,38,38,39,39,40,40,41,41,42,42,43,43,44,44,45,45,46,46,47,47,48,48,49,49,50,50,51,51,52,52,53,53,54,54,55,55,56,56,57,57,58,58,59,59,60,60,61,61,62,62],"right_children":[2,4,6,8,10,12,14,16,18,20,22,24,26,28,30,32,34,36,38,40,42,44,46,48,50,52,54,56,58,60,62,64,66,68,70,72,74,76,78,80,82,84,86,88,90,92,94,96,98,100,102,104,106,108,110,112,114,116,118,120,122,124,126,-1,-1,-1,-1,-1,-1,-1,-1,-1,-1,-1,-1,-1,-1,-1,-1,-1,-1,-1,-1,-1,-1,-1,-1,-1,-1,-1,-1,-1,-1,-1,-1,-1,-1,-1,-1,-1,-1,-1,-1,-1,-1,-1,-1,-1,-1,-1,-1,-1,-1,-1,-1,-1,-1,-1,-1,-1,-1,-1,-1,-1,-1,-1,-1],"split_conditions":[2.052E1,1.26E1,3.084E1,7.6E0,1.58E1,2.476E1,3.888E1,5E0,1.024E1,1.68E1,1.84E1,2.44E1,2.712E1,3.416E1,4.48E1,4.8E0,8.72E0,5E0,2.03E1,1.232E1,2.22E1,1.99E1,2.28E1,1.84E1,1E1,1.86E1,2.82E1,3.66E1,3.92E1,4.168E1,4.83E1,3E0,4E0,3E0,1.96E1,1.12E1,1.16E1,4E0,1.224E1,5E0,1.44E1,6E0,1E1,1.64E1,1E1,7E0,1E0,2.96E1,2.85E1,2.78E1,1.014E3,2.82E2,2.92E1,2.81E1,1E1,1E0,7.35E2,3.26E1,3.62E1,3.7E1,2.83E1,5E0,3.13E1,-3.428998E-1,-3.0931038E-1,-2.6978686E-1,-3.0337903E-1,-2.3709552E-1,-2.8948402E-1,-2.092464E-1,-1.6111046E-1,-1.969024E-1,-1.5180598E-1,-2.726943E-1,-1.9179986E-1,-1.4320308E-1,-1.9692394E-1,-1.3746044E-1,-9.0077795E-2,-1.100464E-1,-2.1743341E-1,-8.903716E-2,-5.2830674E-2,-2.1403272E-2,-1.5730773E-1,9.507365E-2,-2.3262194E-1,-7.499253E-2,-6.274608E-3,1.0127306E-2,-1.07960545E-1,5.723056E-2,-3.913738E-2,3.4379837E-1,1.05079256E-1,4.0048774E-2,1.1161249E-1,9.7282894E-2,1.3730946E-1,1.6884792E-1,2.2609209E-1,1.0713916E-1,-7.090986E-2,2.4921809E-1,5.5501547E-2,2.144904E-1,2.7666855E-1,2.0191038E-1,2.7148718E-1,3.2986727E-1,1.4507781E-1,3.562039E-1,3.9878577E-1,3.905226E-1,4.8669195E-1,4.40488E-1,4.860592E-1,4.7762948E-1,5.7535505E-1,5.961609E-1,5.1983E-1,2.730892E-2,6.50905E-1,7.54584E-1,5.184573E-1,3.9797768E-1,8.4055156E-1],"split_indices":[8,6,8,6,8,8,8,6,8,6,6,6,8,8,8,8,8,4,5,8,6,5,6,6,4,6,6,6,6,8,7,6,4,4,5,6,6,4,8,4,6,4,4,6,4,4,4,5,5,6,0,0,6,5,4,3,0,6,8,5,5,4,5,0,0,0,0,0,0,0,0,0,0,0,0,0,0,0,0,0,0,0,0,0,0,0,0,0,0,0,0,0,0,0,0,0,0,0,0,0,0,0,0,0,0,0,0,0,0,0,0,0,0,0,0,0,0,0,0,0,0,0,0,0,0,0,0],"split_type":[0,0,0,0,0,0,0,0,0,0,0,0,0,0,0,0,0,0,0,0,0,0,0,0,0,0,0,0,0,0,0,0,0,0,0,0,0,0,0,0,0,0,0,0,0,0,0,0,0,0,0,0,0,0,0,0,0,0,0,0,0,0,0,0,0,0,0,0,0,0,0,0,0,0,0,0,0,0,0,0,0,0,0,0,0,0,0,0,0,0,0,0,0,0,0,0,0,0,0,0,0,0,0,0,0,0,0,0,0,0,0,0,0,0,0,0,0,0,0,0,0,0,0,0,0,0,0],"sum_hessian":[2.04601E5,1.43798E5,