{"learner":{"attributes":{"scikit_learn":"{\"_estimator_type\": \"regressor\"}"},"feature_names":[],"feature_types":[],"gradient_booster":{"model":{"cats":{"enc":[],"feature_segments":[],"sorted_idx":[]},"gbtree_model_param":{"num_parallel_tree":"1","num_trees":"300"},"iteration_indptr":[0,1,2,3,4,5,6,7,8,9,10,11,12,13,14,15,16,17,18,19,20,21,22,23,24,25,26,27,28,29,30,31,32,33,34,35,36,37,38,39,40,41,42,43,44,45,46,47,48,49,50,51,52,53,54,55,56,57,58,59,60,61,62,63,64,65,66,67,68,69,70,71,72,73,74,75,76,77,78,79,80,81,82,83,84,85,86,87,88,89,90,91,92,93,94,95,96,97,98,99,100,101,102,103,104,105,106,107,108,109,110,111,112,113,114,115,116,117,118,119,120,121,122,123,124,125,126,127,128,129,130,131,132,133,134,135,136,137,138,139,140,141,142,143,144,145,146,147,148,149,150,151,152,153,154,155,156,157,158,159,160,161,162,163,164,165,166,167,168,169,170,171,172,173,174,175,176,177,178,179,180,181,182,183,184,185,186,187,188,189,190,191,192,193,194,195,196,197,198,199,200,201,202,203,204,205,206,207,208,209,210,211,212,213,214,215,216,217,218,219,220,221,222,223,224,225,226,227,228,229,230,231,232,233,234,235,236,237,238,239,240,241,242,243,244,245,246,247,248,249,250,251,252,253,254,255,256,257,258,259,260,261,262,263,264,265,266,267,268,269,270,271,272,273,274,275,276,277,278,279,280,281,282,283,284,285,286,287,288,289,290,291,292,293,294,295,296,297,298,299,300],"tree_info":[0,0,0,0,0,0,0,0,0,0,0,0,0,0,0,0,0,0,0,0,0,0,0,0,0,0,0,0,0,0,0,0,0,0,0,0,0,0,0,0,0,0,0,0,0,0,0,0,0,0,0,0,0,0,0,0,0,0,0,0,0,0,0,0,0,0,0,0,0,0,0,0,0,0,0,0,0,0,0,0,0,0,0,0,0,0,0,0,0,0,0,0,0,0,0,0,0,0,0,0,0,0,0,0,0,0,0,0,0,0,0,0,0,0,0,0,0,0,0,0,0,0,0,0,0,0,0,0,0,0,0,0,0,0,0,0,0,0,0,0,0,0,0,0,0,0,0,0,0,0,0,0,0,0,0,0,0,0,0,0,0,0,0,0,0,0,0,0,0,0,0,0,0,0,0,0,0,0,0,0,0,0,0,0,0,0,0,0,0,0,0,0,0,0,0,0,0,0,0,0,0,0,0,0,0,0,0,0,0,0,0,0,0,0,0,0,0,0,0,0,0,0,0,0,0,0,0,0,0,0,0,0,0,0,0,0,0,0,0,0,0,0,0,0,0,0,0,0,0,0,0,0,0,0,0,0,0,0,0,0,0,0,0,0,0,0,0,0,0,0,0,0,0,0,0,0,0,0,0,0,0,0,0,0,0,0,0,0,0,0,0,0,0,0,0,0,0,0,0,0],"trees":[{"base_weights":[3.4563171E-3,-1.864944E-1,3.892778E-1,-3.310353E-1,-4.553257E-2,2.6392025E-1,7.556147E-1,-4.1666266E-1,-2.630583E-1,-1.2536277E-1,2.8182825E-2,2.0711851E-1,4.3559688E-1,6.44257E-1,9.066055E-1,-3.8920903E-1,-4.8047015E-1,-2.4556388E-1,-3.7695336E-1,-1.068054E-1,-2.2799218E-1,1.0844312E-3,8.175032E-2,1.7192973E-1,2.941029E-1,3.9122367E-1,5.408685E-1,6.0328805E-1,7.292077E-1,8.474073E-1,1.0874565E0,-4.519459E-1,-3.6710492E-1,-5.1449823E-1,-4.4301218E-1,-2.638433E-1,-1.4333612E-1,-3.9961758E-1,-3.149568E-1,-1.4810553E-1,-7.737268E-2,-3.218435E-1,-2.1109873E-1,-3.4207087E-2,3.2355662E-2,4.7702813E-1,7.459466E-2,1.4450887E-1,2.2614142E-1,6.575385E-1,2.8565586E-1,3.993662E-1,1.8659893E-1,1.2719674E0,5.212387E-1,4.9799594E-1,6.203436E-1,6.4007765E-1,7.873636E-1,8.306187E-1,1.0656811E0,1.7207596E0,1.0679389E0,-2.1894176E-2,-2.5600005E-2,-1.9328993E-2,-1.7199038E-2,-2.469712E-2,-2.6895959E-2,-2.3256667E-2,-1.9619316E-2,-1.5848286E-2,-1.2535879E-2,1.7916588E-2,-7.4778604E-3,-2.1216638E-2,-1.8816017E-2,-1.3391452E-2,-1.8456621E-2,-8.321693E-3,-4.023192E-3,6.6259094E-3,-4.036899E-3,-1.9429414E-2,-1.0350011E-2,-1.3233647E-2,-9.416052E-3,-1.2399117E-3,-6.3084974E-3,-1.1307961E-2,1.8057924E-3,1.5726788E-2,4.364721E-2,1.1472347E-3,5.0485684E-3,6.5605813E-3,9.524395E-3,8.726069E-3,1.2486084E-2,1.1532567E-2,4.646043E-2,1.0280395E-2,1.5858863E-2,1.9596413E-2,2.838924E-2,-9.216788E-3,1.3529636E-2,2.488925E-2,7.0459455E-2,1.2508715E-3,2.6207043E-2,1.9969651E-2,2.9541833E-2,2.6922068E-2,3.1845838E-2,2.623256E-2,3.5759784E-2,3.5642475E-2,4.281319E-2,4.1992705E-2,2.8801927E-2,3.9670356E-2,5.7427313E-2,6.7460306E-2,1.6730241E-1,4.8414167E-2,5.7448238E-2],"categories":[],"categories_nodes":[],"categories_segments":[],"categories_sizes":[],"default_left":[0,0,0,0,0,0,0,0,0,0,0,0,0,0,0,0,0,0,0,0,0,0,0,0,0,0,0,0,0,0,0,0,0,0,0,0,0,0,0,0,0,0,0,0,0,0,0,0,0,0,0,0,0,0,0,0,0,0,0,0,0,0,0,0,0,0,0,0,0,0,0,0,0,0,0,0,0,0,0,0,0,0,0,0,0,0,0,0,0,0,0,0,0,0,0,0,0,0,0,0,0,0,0,0,0,0,0,0,0,0,0,0,0,0,0,0,0,0,0,0,0,0,0,0,0,0,0],"id":0,"left_children":[1,3,5,7,9,11,13,15,17,19,21,23,25,27,29,31,33,35,37,39,41,43,45,47,49,51,53,55,57,59,61,63,65,67,69,71,73,75,77,79,81,83,85,87,89,91,93,95,97,99,101,103,105,107,109,111,113,115,117,119,121,123,125,-1,-1,-1,-1,-1,-1,-1,-1,-1,-1,-1,-1,-1,-1,-1,-1,-1,-1,-1,-1,-1,-1,-1,-1,-1,-1,-1,-1,-1,-1,-1,-1,-1,-1,-1,-1,-1,-1,-1,-1,-1,-1,-1,-1,-1,-1,-1,-1,-1,-1,-1,-1,-1,-1,-1,-1,-1,-1,-1,-1,-1,-1,-1,-1],"loss_changes":[1.4968148E4,2.7884727E3,3.0940996E3,3.9320605E2,4.077495E2,4.8946582E2,2.882461E2,5.2193848E1,7.496777E1,6.3329956E1,5.2293552E1,1.1541785E2,5.808545E1,3.3980957E1,7.7115234E1,2.8833496E1,1.1232178E1,6.0989014E1,6.9193115E0,3.4234955E1,8.006866E0,2.6403852E1,3.4194603E1,3.9896973E1,3.3164185E1,1.4559448E1,5.2408447E1,1.168335E1,1.6150269E1,1.9254639E1,2.0337158E1,4.373291E0,6.833252E0,1.9993896E0,4.618469E0,1.923706E1,1.5520851E1,1.9523926E0,3.3402557E0,1.4519043E1,1.1631493E1,5.860077E0,5.2206116E0,9.722449E0,1.23387985E1,1.3557098E1,1.6193375E1,1.0882904E1,1.093689E1,2.8314903E1,2.6728943E1,1.0357666E1,1.058068E1,9.49704E0,5.175659E0,8.332504E0,7.4523926E0,1.0671082E1,9.349731E0,1.1526123E1,7.865326E0,2.688733E1,1.296167E1,0E0,0E0,0E0,0E0,0E0,0E0,0E0,0E0,0E0,0E0,0E0,0E0,0E0,0E0,0E0,0E0,0E0,0E0,0E0,0E0,0E0,0E0,0E0,0E0,0E0,0E0,0E0,0E0,0E0,0E0,0E0,0E0,0E0,0E0,0E0,0E0,0E0,0E0,0E0,0E0,0E0,0E0,0E0,0E0,0E0,0E0,0E0,0E0,0E0,0E0,0E0,0E0,0E0,0E0,0E0,0E0,0E0,0E0,0E0,0E0,0E0,0E0,0E0,0E0],"parents":[2147483647,0,0,1,1,2,2,3,3,4,4,5,5,6,6,7,7,8,8,9,9,10,10,11,11,12,12,13,13,14,14,15,15,16,16,17,17,18,18,19,19,20,20,21,21,22,22,23,23,24,24,25,25,26,26,27,27,28,28,29,29,30,30,31,31,32,32,33,33,34,34,35,35,36,36,37,37,38,38,39,39,40,40,41,41,42,42,43,43,44,44,45,45,46,46,47,47,48,48,49,49,50,50,51,51,52,52,53,53,54,54,55,55,56,56,57,57,58,58,59,59,60,60,61,61,62,62],"right_children":[2,4,6,8,10,12,14,16,18,20,22,24,26,28,30,32,34,36,38,40,42,44,46,48,50,52,54,56,58,60,62,64,66,68,70,72,74,76,78,80,82,84,86,88,90,92,94,96,98,100,102,104,106,108,110,112,114,116,118,120,122,124,126,-1,-1,-1,-1,-1,-1,-1,-1,-1,-1,-1,-1,-1,-1,-1,-1,-1,-1,-1,-1,-1,-1,-1,-1,-1,-1,-1,-1,-1,-1,-1,-1,-1,-1,-1,-1,-1,-1,-1,-1,-1,-1,-1,-1,-1,-1,-1,-1,-1,-1,-1,-1,-1,-1,-1,-1,-1,-1,-1,-1,-1,-1,-1,-1],"split_conditions":[8.8E-1,5E-1,1.4E0,3.181818E-1,6.8E-1,1.2E0,1.68E0,4E0,5E0,4E0,1E0,1.2E0,1.5E0,1.7E0,2.04E0,1.6E-1,2E-1,6.666667E-1,5E-1,5E-1,3.3333334E-1,7.6E-1,1E0,1.04E0,1E0,9E0,1E0,1.1E0,1.52E0,2.9E1,1E0,1.368E3,2.2222222E-1,1E0,3.3333334E-1,3.6E-1,1E0,1.4E1,1E0,6.363636E-1,1E0,2E1,5.6E-1,5E0,2.2222222E-1,1.25E0,7.5E-1,1.2E0,6.666667E-1,1.25E0,1E0,1.597E3,6.666667E-1,7E0,1E0,1.48E0,5E0,1.6666666E0,8.82E2,9E0,1.5555556E0,3E0,2.2E0,-2.1894176E-2,-2.5600005E-2,-1.9328993E-2,-1.7199038E-2,-2.469712E-2,-2.6895959E-2,-2.3256667E-2,-1.9619316E-2,-1.5848286E-2,-1.2535879E-2,1.7916588E-2,-7.4778604E-3,-2.1216638E-2,-1.8816017E-2,-1.3391452E-2,-1.8456621E-2,-8.321693E-3,-4.023192E-3,6.6259094E-3,-4.036899E-3,-1.9429414E-2,-1.0350011E-2,-1.3233647E-2,-9.416052E-3,-1.2399117E-3,-6.3084974E-3,-1.1307961E-2,1.8057924E-3,1.5726788E-2,4.364721E-2,1.1472347E-3,5.0485684E-3,6.5605813E-3,9.524395E-3,8.726069E-3,1.2486084E-2,1.1532567E-2,4.646043E-2,1.0280395E-2,1.5858863E-2,1.9596413E-2,2.838924E-2,-9.216788E-3,1.3529636E-2,2.488925E-2,7.0459455E-2,1.2508715E-3,2.6207043E-2,1.9969651E-2,2.9541833E-2,2.6922068E-2,3.1845838E-2,2.623256E-2,3.5759784E-2,3.5642475E-2,4.281319E-2,4.1992705E-2,2.8801927E-2,3.9670356E-2,5.7427313E-2,6.7460306E-2,1.6730241E-1,4.8414167E-2,5.7448238E-2],"split_indices":[8,8,8,8,8,8,8,4,4,4,6,7,6,7,8,8,8,6,6,6,7,8,4,8,4,4,4,7,8,2,4,0,7,3,6,8,4,2,3,8,4,2,8,4,7,6,8,6,6,6,8,0,6,2,7,8,2,6,0,4,7,6,6,0,0,0,0,0,0,0,0,0,0,0,0,0,0,0,0,0,0,0,0,0,0,0,0,0,0,0,0,0,0,0,0,0,0,0,0,0,0,0,0,0,0,0,0,0,0,0,0,0,0,0,0,0,0,0,0,0,0,0,0,0,0,0,0],"split_type":[0,0,0,0,0,0,0,0,0,0,0,0,0,0,0,0,0,0,0,0,0,0,0,0,0,0,0,0,0,0,0,0,0,0,0,0,0,0,0,0,0,0,0,0,0,0,0,0,0,0,0,0,0,0,0,0,0,0,0,0,0,0,0,0,0,0,0,0,0,0,0,0,0,0,0,0,0,0,0,0,0,0,0,0,0,0,0,0,0,0,0,0,0,0,0,0,0,0,0,0,0,0,0,0,0,0,0,0,0,0,0,0,0,0,0,0,0,0,0,0,0,0,0,0,0,0,0],"sum_hessian":[2.04238E5,1.36859E5,6.7379E4,6.7571E4,6.9288E4,5.0202E4,1.7177E4,2.9901E4,3.767E4,3.3264E4,3.6024E4,3.7723E4,1.2479E4,9.889E3,7.288E3,2.0911E4,8.99E3,3.2657E4,5.013E3,2.8172E4,5.092E3,2.3923E4,1.2101E4,2.686E4,1.0863E4,8.782E3,3.697E3,6.677E3,3.212E3,5.495E3,1.793E3,5.443E3,1.5468E4,4.704E3,4.286E3,2.7702E4,4.955E3,3.667E3,1.346E3,1.1721E4,1.6451E4,7.74E2,4.318E3,1.1239E4,1.2684E4,2.14E2,1.1887E4,1.784E4,9.02E3,2.45E2,1.0618E4,8.445E3,3.37E2,9.5E1,3.602E3,9.35E2,5.742E3,1.273E3,1.939E3,5.107E3,3.88E2,5.1E1,1.742E3,4.417E3,1.026E3,8.388E3,7.08E3,2.517E3,2.187E3,2.977E3,1.309E3,5.484E3,2.2218E4,6E1,4.895E3,1.771E3,1.896E3,7.23E2,6.23E2,9.221E3,2.5E3,2.59E2,1.6192E4,4.88E2,2.86E2,1.285E3,3.033E3,1.0197E4,1.042E3,1.81E2,1.2503E4,1.53E2,6.1E1,4.019E3,7.868E3,1.3841E4,3.999E3,2.831E3,6.189E3,9.6E1,1.49E2,3.002E3,7.616E3,8.091E3,3.54E2,6.2E1,2.75E2,1.5E1,8E1,2.1E1,3.581E3,4.56E2,4.79E2,9.72E2,4.77E3,5.05E2,7.68E2,9.37E2,1.002E3,4.926E3,1.81E2,9.3E1,2.95E2,4.3E1,8E0,7.87E2,9.55E2],"tree_param":{"num_deleted":"0","num_feature":"9","num_nodes":"127","size_leaf_vector":"1"}},{"base_weights":[-9.636445E-4,-2.0216282E-1,2.7904597E-1,-3.3699322E-1,-1.12229556E-1,1.431021E-1,5.449007E-1,-4.1234773E-1,-2.9657087E-1,-1.7000043E-1,-5.0829593E-2,9.850394E-2,2.4840921E-1,4.3399397E-1,7.363299E-1,-3.80702E-1,-4.7247952E-1,-2.7361497E-1,-3.7540823E-1,-1.5082327E-1,-2.6493576E-1,-3.934983E-2,-1.6343167E-1,7.580439E-2,1.5258713E-1,2.2536659E-1,2.9532412E-1,3.881514E-1,5.0340724E-1,6.923961E-1,9.659866E-1,-6.451809E-1,-3.7905276E-1,-5.834932E-1,-4.701175E-1,-3.1062004E-1,-2.4424726E-1,-4.1014713E-1,-3.4066135E-1,-1.8593714E-1,-1.1755459E-1,-2.789432E-1,-1.6588074E-1,-6.788332E-2,-8.452834E-3,-2.0707138E-1,-1.14355266E-1,8.520554E-2,-2.3623874E-2,1.6114567E-1,5.560687E-2,4.381898E-1,2.1792434E-1,6.1483765E-1,2.8776476E-1,4.0559477E-1,2.6496246E-1,3.987733E-1,5.4540986E-1,1.1578648E0,6.8145055E-1,1.7128032E0,9.4556034E-1,-3.2970842E-2,7.0038065E-3,-2.0174714E-2,-1.8205812E-2,-2.9452285E-2,-1.4107488E-2,-2.2063565E-2,-2.3897944E-2,-9.410263E-3,-1.572853E-2,-1.3255278E-2,-1.1211039E-2,-2.0736508E-2,-1.3551421E-2,-1.7288659E-2,-1.0595116E-2,-8.985671E-3,-1.3668018E-2,-6.367188E-3,-3.894391E-3,-6.193791E-3,-1.42315375E-2,-9.186454E-3,2.5497064E-2,-2.7459403E-3,-5.7563605E-3,-1.8573636E-3,1.0106129E-3,-1.0044902E-2,-2.3516262E-2,1.1503197E-3,-6.697559E-3,1.7177521E-3,4.65164E-3,-1.5292274E-2,-6.9139124E-4,6.8430044E-3,1.0449482E-2,2.358685E-3,6.893905E-2,2.5401054E-2,-1.6428499E-3,1.6323311E-2,1.0451811E-2,2.6121398E-2,7.284474E-2,9.7031845E-3,1.5233296E-2,3.3543784E-2,1.9929308E-2,2.5969753E-2,1.2386404E-2,1.5312336E-2,2.352344E-2,4.8169207E-2,2.6841814E-2,3.5719205E-2,7.0336334E-2,2.9168937E-2,3.5367113E-2,6.59209E-2,1.1936934E-1,7.1627416E-2,4.578338E-2],"categories":[],"categories_nodes":[],"categories_segments":[],"categories_sizes":[],"default_left":[0,0,0,0,0,0,0,0,0,0,0,0,0,0,0,0,0,0,0,0,0,0,0,0,0,0,0,0,0,0,0,0,0,0,0,0,0,0,0,0,0,0,0,0,0,0,0,0,0,0,0,0,0,0,0,0,0,0,0,0,0,0,0,0,0,0,0,0,0,0,0,0,0,0,0,0,0,0,0,0,0,0,0,0,0,0,0,0,0,0,0,0,0,0,0,0,0,0,0,0,0,0,0,0,0,0,0,0,0,0,0,0,0,0,0,0,0,0,0,0,0,0,0,0,0,0,0],"id":1,"left_children":[1,3,5,7,9,11,13,15,17,19,21,23,25,27,29,31,33,35,37,39,41,43,45,47,49,51,53,55,57,59,61,63,65,67,69,71,73,75,77,79,81,83,85,87,89,91,93,95,97,99,101,103,105,107,109,111,113,115,117,119,121,123,125,-1,-1,-1,-1,-1,-1,-1,-1,-1,-1,-1,-1,-1,-1,-1,-1,-1,-1,-1,-1,-1,-1,-1,-1,-1,-1,-1,-1,-1,-1,-1,-1,-1,-1,-1,-1,-1,-1,-1,-1,-1,-1,-1,-1,-1,-1,-1,-1,-1,-1,-1,-1,-1,-1,-1,-1,-1,-1,-1,-1,-1,-1,-1,-1],"loss_changes":[1.1505174E4,1.4408877E3,3.0858853E3,1.4470605E2,2.5285211E2,2.653186E2,6.130166E2,3.1404785E1,5.5910156E1,6.682666E1,4.4666077E1,4.8715607E1,1.8103516E1,5.801758E1,1.0624121E2,4.5010986E0,1.2253418E0,2.5978027E1,8.281982E0,3.567578E1,8.516052E0,2.7649029E1,6.823265E0,2.6136414E1,9.729553E0,1.7764404E1,1.3187073E1,2.3577026E1,3.1746582E1,4.454492E1,2.4298096E1,8.301697E-1,3.8013916E0,2.6218414E-2,1.0570068E0,5.0689087E0,5.525818E0,2.1089478E0,2.2264404E0,8.038818E0,6.0841064E0,4.731659E0,9.345478E0,9.980385E0,1.2387212E1,2.653656E0,4.059513E0,1.0163818E1,6.6751823E0,1.2498016E1,1.0569065E1,1.2516327E1,1.0444458E1,9.121281E0,8.503723E0,1.7679932E1,5.8787613E0,1.3700531E1,1.8070679E1,2.1399231E1,2.1668213E1,8.558441E0,2.279541E1,0E0,0E0,0E0,0E0,0E0,0E0,0E0,0E0,0E0,0E0,0E0,0E0,0E0,0E0,0E0,0E0,0E0,0E0,0E0,0E0,0E0,0E0,0E0,0E0,0E0,0E0,0E0,0E0,0E0,0E0,0E0,0E0,0E0,0E0,0E0,0E0,0E0,0E0,0E0,0E0,0E0,0E0,0E0,0E0,0E0,0E0,0E0,0E0,0E0,0E0,0E0,0E0,0E0,0E0,0E0,0E0,0E0,0E0,0E0,0E0,0E0,0E0,0E0,0E0],"parents":[2147483647,0,0,1,1,2,2,3,3,4,4,5,5,6,6,7,7,8,8,9,9,10,10,11,11,12,12,13,13,14,14,15,15,16,16,17,17,18,18,19,19,20,20,21,21,22,22,23,23,24,24,25,25,26,26,27,27,28,28,29,29,30,30,31,31,32,32,33,33,34,34,35,35,36,36,37,37,38,38,39,39,40,40,41,41,42,42,43,43,44,44,45,45,46,46,47,47,48,48,49,49,50,50,51,51,52,52,53,53,54,54,55,55,56,56,57,57,58,58,59,59,60,60,61,61,62,62],"right_children":[2,4,6,8,10,12,14,16,18,20,22,24,26,28,30,32,34,36,38,40,42,44,46,48,50,52,54,56,58,60,62,64,66,68,70,72,74,76,78,80,82,84,86,88,90,92,94,96,98,100,102,104,106,108,110,112,114,116,118,120,122,124,126,-1,-1,-1,-1,-1,-1,-1,-1,-1,-1,-1,-1,-1,-1,-1,-1,-1,-1,-1,-1,-1,-1,-1,-1,-1,-1,-1,-1,-1,-1,-1,-1,-1,-1,-1,-1,-1,-1,-1,-1,-1,-1,-1,-1,-1,-1,-1,-1,-1,-1,-1,-1,-1,-1,-1,-1,-1,-1,-1,-1,-1,-1,-1,-1],"split_conditions":[8E-1,4E-1,1.3E0,1.6666667E-1,6E-1,1.1E0,1.7E0,4E0,4E0,4E0,5E0,1E0,1.3333334E0,1.4444444E0,2.25E0,1E0,2.9E1,2.857143E-1,2.857143E-1,5E-1,6.666667E-1,7E-1,7E-1,5E0,5E0,1E0,1E0,4E0,1.25E0,1E0,1E0,3E1,1E-1,3E1,5E0,1E0,4E-1,1.622E3,3.1E1,1.551E3,6.666667E-1,1E0,1.642E3,1.316E3,8E-1,6.666667E-1,4E0,5E-1,1E0,2E1,1.684E3,1.403E3,1.41E2,3E1,2.9E2,1E0,1E2,7.66E2,1E0,1.6666666E0,9E0,1E0,1E0,-3.2970842E-2,7.0038065E-3,-2.0174714E-2,-1.8205812E-2,-2.9452285E-2,-1.4107488E-2,-2.2063565E-2,-2.3897944E-2,-9.410263E-3,-1.572853E-2,-1.3255278E-2,-1.1211039E-2,-2.0736508E-2,-1.3551421E-2,-1.7288659E-2,-1.0595116E-2,-8.985671E-3,-1.3668018E-2,-6.367188E-3,-3.894391E-3,-6.193791E-3,-1.42315375E-2,-9.186454E-3,2.5497064E-2,-2.7459403E-3,-5.7563605E-3,-1.8573636E-3,1.0106129E-3,-1.0044902E-2,-2.3516262E-2,1.1503197E-3,-6.697559E-3,1.7177521E-3,4.65164E-3,-1.5292274E-2,-6.9139124E-4,6.8430044E-3,1.0449482E-2,2.358685E-3,6.893905E-2,2.5401054E-2,-1.6428499E-3,1.6323311E-2,1.0451811E-2,2.6121398E-2,7.284474E-2,9.7031845E-3,1.5233296E-2,3.3543784E-2,1.9929308E-2,2.5969753E-2,1.2386404E-2,1.5312336E-2,2.352344E-2,4.8169207E-2,2.6841814E-2,3.5719205E-2,7.0336334E-2,2.9168937E-2,3.5367113E-2,6.59209E-2,1.1936934E-1,7.1627416E-2,4.578338E-2],"split_indices":[7,7,7,7,7,7,7,4,4,4,4,7,6,7,7,4,0,7,7,7,6,7,7,4,4,2,4,4,6,4,4,2,7,2,4,1,6,0,1,0,6,2,0,0,6,7,1,6,1,2,0,0,0,1,0,4,0,0,4,6,1,3,1,0,0,0,0,0,0,0,0,0,0,0,0,0,0,0,0,0,0,0,0,0,0,0,0,0,0,0,0,0,0,0,0,0,0,0,0,0,0,0,0,0,0,0,0,0,0,0,0,0,0,0,0,0,0,0,0,0,0,0,0,0,0,0,0],"split_type":[0,0,0,0,0,0,0,0,0,0,0,0,0,0,0,0,0,0,0,0,0,0,0,0,0,0,0,0,0,0,0,0,0,0,0,0,0,0,0,0,0,0,0,0,0,0,0,0,0,0,0,0,0,0,0,0,0,0,0,0,0,0,0,0,0,0,0,0,0,0,0,0,0,0,0,0,0,0,0,0,0,0,0,0,0,0,0,0,0,0,0,0,0,0,0,0,0,0,0,0,0,0,0,0,0,0,0,0,0,0,0,0,0,0,0,0,0,0,0,0,0,0,0,0,0,0,0],"sum_hessian":[2.04216E5,1.18831E5,8.5385E4,4.7546E4,7.1285E4,5.6497E4,2.8888E4,1.6597E4,3.0949E4,3.6727E4,3.4558E4,3.969E4,1.6807E4,1.8293E4,1.0595E4,1.0879E4,5.718E3,2.3973E4,6.976E3,3.0557E4,6.17E3,3.1362E4,3.196E3,2.7958E4,1.1732E4,1.1275E4,5.532E3,1.1021E4,7.272E3,8.897E3,1.698E3,6.5E1,1.0814E4,1.14E2,5.604E3,1.0603E4,1.337E4,3.483E3,3.493E3,1.4864E4,1.5693E4,5.404E3,7.66E2,1.6304E4,1.5058E4,1.69E3,1.506E3,2.5543E4,2.415E3,1.078E4,9.52E2,3.79E2,1.0896E4,1.26E2,5.406E3,9.652E3,1.369E3,2.086E3,5.186E3,2.02E2,8.695E3,4.3E1,1.655E3,6.4E1,1E0,4.092E3,6.722E3,1.11E2,3E0,1.21E3,4.394E3,3.33E2,1.027E4,6.543E3,6.827E3,3.37E3,1.13E2,3.358E3,1.35E2,1.3879E4,9.85E2,1.2585E4,3.108E3,1.92E2,5.212E3,7.47E2,1.9E1,1.2795E4,3.509E3,7.525E3,7.533E3,1.653E3,3.7E1,1.88E2,1.318E3,3.408E3,2.2135E4,8E1,2.335E3,7.153E3,3.627E3,9.47E2,5E0,3.3E2,4.9E1,8.22E2,1.0074E4,1.15E2,1.1E1,8.28E2,4.578E3,2.46E2,9.406E3,8.5E1,1.284E3,9.13E2,1.173E3,1.02E2,5.084E3,7.4E1,1.28E2,1.821E3,6.874E3,2.9E1,1.4E1,9.3E1,1.562E3],"tree_param":{"num_deleted":"0","num_feature":"9","num_nodes":"127","size_leaf_vector":"1"}},{"base_weights":[-3.310053E-4,-1.8323182E-1,3.2400852E-1,-3.1565538E-1,-7.0161104E-2,1.994136E-1,6.271105E-1,-3.8164476E-1,-2.539426E-1,-1.2910926E-1,1.0660584E-2,1.4574279E-1,3.341712E-1,4.9184784E-1,7.650786E-1,-3.5622984E-1,-4.40272E-1,-2.3418358E-1,-3.331162E-1,-1.6764018E-1,-9.618266E-2,-1.4084334E-2,6.479028E-2,1.26787E-1,2.2396258E-1,3.0484712E-1,4.2559537E-1,4.4956145E-1,5.541743E-1,6.8380815E-1,8.9095974E-1,-4.1093764E-1,-3.377431E-1,-4.8436132E-1,-4.2392415E-1,-2.4662806E-1,-1.5008225E-1,-3.5105214E-1,-2.7879095E-1,-1.528177E-1,-2.3878112E-1,-7.266141E-2,-1.53714E-1,-3.9594818E-2,1.7476428E-2,5.149221E-1,5.5969626E-2,1.3652691E-1,2.3053177E-2,7.765864E-1,2.1159196E-1,2.5826055E-1,3.4684715E-1,1.0194235E0,4.116647E-1,3.6679018E-1,4.7691706E-1,1.0886055E0,5.409059E-1,6.60712E-1,7.585683E-1,8.945874E-1,-5.59316E-1,-1.9927863E-2,-2.2420017E-2,-1.878821E-2,-1.613211E-2,-2.3516733E-2,-2.6880061E-2,-2.1730475E-2,-1.945652E-2,-1.45316245E-2,-1.1562572E-2,1.0091688E-2,-7.7688484E-3,-1.5852382E-2,-1.8843643E-2,-1.498312E-2,-5.576731E-3,-9.129504E-3,-6.308891E-3,-1.0287727E-2,-1.5311393E-2,7.839197E-3,-3.8471841E-3,-9.206717E-3,-5.8424147E-3,-3.6395402E-3,-7.31683E-4,-9.637906E-3,1.0651237E-3,1.9521331E-2,4.0176287E-2,1.8684035E-3,5.435715E-3,6.0644257E-3,9.781568E-3,-3.108351E-3,2.100798E-3,5.3628314E-2,2.3544963E-2,7.778833E-3,1.3542484E-2,1.0788513E-2,1.6758097E-2,1.4362951E-2,1.9022947E-2,7.075443E-2,3.4733545E-2,1.690877E-2,2.3041118E-2,9.64124E-3,2.0714775E-2,2.4085628E-2,7.3607224E-3,3.1489898E-2,5.945754E-2,2.4883052E-2,2.9426742E-2,3.3503965E-2,1.8262237E-2,3.6636874E-2,5.5123717E-2,4.2206515E-2,5.0044753E-2,-3.1697102E-2,4.6736035E-3],"categories":[],"categories_nodes":[],"categories_segments":[],"categories_sizes":[],"default_left":[0,0,0,0,0,0,0,0,0,0,0,0,0,0,0,0,0,0,0,0,0,0,0,0,0,0,0,0,0,0,0,0,0,0,0,0,0,0,0,0,0,0,0,0,0,0,0,0,0,0,0,0,0,0,0,0,0,0,0,0,0,0,0,0,0,0,0,0,0,0,0,0,0,0,0,0,0,0,0,0,0,0,0,0,0,0,0,0,0,0,0,0,0,0,0,0,0,0,0,0,0,0,0,0,0,0,0,0,0,0,0,0,0,0,0,0,0,0,0,0,0,0,0,0,0,0,0],"id":2,"left_children":[1,3,5,7,9,11,13,15,17,19,21,23,25,27,29,31,33,35,37,39,41,43,45,47,49,51,53,55,57,59,61,63,65,67,69,71,73,75,77,79,81,83,85,87,89,91,93,95,97,99,101,103,105,107,109,111,113,115,117,119,121,123,125,-1,-1,-1,-1,-1,-1,-1,-1,-1,-1,-1,-1,-1,-1,-1,-1,-1,-1,-1,-1,-1,-1,-1,-1,-1,-1,-1,-1,-1,-1,-1,-1,-1,-1,-1,-1,-1,-1,-1,-1,-1,-1,-1,-1,-1,-1,-1,-1,-1,-1,-1,-1,-1,-1,-1,-1,-1,-1,-1,-1,-1,-1,-1,-1],"loss_changes":[1.211396E4,1.9550923E3,2.780623E3,2.448164E2,3.3557416E2,3.773745E2,3.9992188E2,4.3144043E1,4.8543457E1,5.1656433E1,3.9791496E1,5.530951E1,3.9716797E1,2.8304443E1,1.08006836E2,2.0369629E1,6.1258545E0,2.5998169E1,5.94812E0,1.9751953E1,2.9710724E1,1.6415686E1,3.6975815E1,3.035205E1,4.9597107E1,2.1936401E1,2.9418884E1,1.44522705E1,3.043457E1,1.0645996E1,2.2397217E1,2.194641E0,8.584106E0,1.5162354E0,2.2161865E0,1.4594116E1,6.0106735E0,3.9729614E0,5.3600006E0,1.2296692E1,7.1408386E0,1.533194E1,7.125595E0,9.341515E0,7.335105E0,6.1177254E0,8.965456E0,2.47128E1,4.1719236E0,1.3880814E1,2.359488E1,1.73797E1,1.1741699E1,9.553436E0,1.2582092E1,1.3217331E1,7.600464E0,4.094818E0,8.50415E0,1.3427734E1,1.2668396E1,2.142627E1,5.9512043E-1,0E0,0E0,0E0,0E0,0E0,0E0,0E0,0E0,0E0,0E0,0E0,0E0,0E0,0E0,0E0,0E0,0E0,0E0,0E0,0E0,0E0,0E0,0E0,0E0,0E0,0E0,0E0,0E0,0E0,0E0,0E0,0E0,0E0,0E0,0E0,0E0,0E0,0E0,0E0,0E0,0E0,0E0,0E0,0E0,0E0,0E0,0E0,0E0,0E0,0E0,0E0,0E0,0E0,0E0,0E0,0E0,0E0,0E0,0E0,0E0,0E0,0E0,0E0,0E0],"parents":[2147483647,0,0,1,1,2,2,3,3,4,4,5,5,6,6,7,7,8,8,9,9,10,10,11,11,12,12,13,13,14,14,15,15,16,16,17,17,18,18,19,19,20,20,21,21,22,22,23,23,24,24,25,25,26,26,27,27,28,28,29,29,30,30,31,31,32,32,33,33,34,34,35,35,36,36,37,37,38,38,39,39,40,40,41,41,42,42,43,43,44,44,45,45,46,46,47,47,48,48,49,49,50,50,51,51,52,52,53,53,54,54,55,55,56,56,57,57,58,58,59,59,60,60,61,61,62,62],"right_children":[2,4,6,8,10,12,14,16,18,20,22,24,26,28,30,32,34,36,38,40,42,44,46,48,50,52,54,56,58,60,62,64,66,68,70,72,74,76,78,80,82,84,86,88,90,92,94,96,98,100,102,104,106,108,110,112,114,116,118,120,122,124,126,-1,-1,-1,-1,-1,-1,-1,-1,-1,-1,-1,-1,-1,-1,-1,-1,-1,-1,-1,-1,-1,-1,-1,-1,-1,-1,-1,-1,-1,-1,-1,-1,-1,-1,-1,-1,-1,-1,-1,-1,-1,-1,-1,-1,-1,-1,-1,-1,-1,-1,-1,-1,-1,-1,-1,-1,-1,-1,-1,-1,-1,-1,-1,-1],"split_conditions":[8.4E-1,4.8E-1,1.32E0,2.857143E-1,6.8E-1,1.12E0,1.56E0,4E0,4E0,6E-1,1E0,1.25E0,1.5E0,1.6E0,1.84E0,1.4285715E-1,9.090909E-2,6.666667E-1,5E-1,4E0,3E0,7.6E-1,1E0,5E0,1E0,1.2E0,1E0,4.27E2,1E0,1.305E3,1.632E3,1.282E3,2E-1,8E-2,3.3333334E-1,3.6E-1,1E0,6E0,2.9E1,5.6E-1,1.129E3,1E0,6E-1,5E-1,1E0,1.25E0,2.3E1,1.04E0,8.8E-1,1.5E1,1E0,1.9E1,1E0,1.4E1,1.2E0,9E0,1.5E0,1E1,1.44E0,1.264E3,2.9E1,2.25E0,2.3E1,-1.9927863E-2,-2.2420017E-2,-1.878821E-2,-1.613211E-2,-2.3516733E-2,-2.6880061E-2,-2.1730475E-2,-1.945652E-2,-1.45316245E-2,-1.1562572E-2,1.0091688E-2,-7.7688484E-3,-1.5852382E-2,-1.8843643E-2,-1.498312E-2,-5.576731E-3,-9.129504E-3,-6.308891E-3,-1.0287727E-2,-1.5311393E-2,7.839197E-3,-3.8471841E-3,-9.206717E-3,-5.8424147E-3,-3.6395402E-3,-7.31683E-4,-9.637906E-3,1.0651237E-3,1.9521331E-2,4.0176287E-2,1.8684035E-3,5.435715E-3,6.0644257E-3,9.781568E-3,-3.108351E-3,2.100798E-3,5.3628314E-2,2.3544963E-2,7.778833E-3,1.3542484E-2,1.0788513E-2,1.6758097E-2,1.4362951E-2,1.9022947E-2,7.075443E-2,3.4733545E-2,1.690877E-2,2.3041118E-2,9.64124E-3,2.0714775E-2,2.4085628E-2,7.3607224E-3,3.1489898E-2,5.945754E-2,2.4883052E-2,2.9426742E-2,3.3503965E-2,1.8262237E-2,3.6636874E-2,5.5123717E-2,4.2206515E-2,5.0044753E-2,-3.1697102E-2,4.6736035E-3],"split_indices":[8,8,8,8,8,8,8,4,4,6,6,6,6,6,8,8,8,6,6,4,4,8,4,4,4,8,4,0,4,0,0,0,6,8,6,8,4,4,1,8,0,4,8,6,4,6,1,8,8,2,8,2,6,1,8,1,6,1,8,0,2,6,1,0,0,0,0,0,0,0,0,0,0,0,0,0,0,0,0,0,0,0,0,0,0,0,0,0,0,0,0,0,0,0,0,0,0,0,0,0,0,0,0,0,0,0,0,0,0,0,0,0,0,0,0,0,0,0,0,0,0,0,0,0,0,0,0],"split_type":[0,0,0,0,0,0,0,0,0,0,0,0,0,0,0,0,0,0,0,0,0,0,0,0,0,0,0,0,0,0,0,0,0,0,0,0,0,0,0,0,0,0,0,0,0,0,0,0,0,0,0,0,0,0,0,0,0,0,0,0,0,0,0,0,0,0,0,0,0,0,0,0,0,0,0,0,0,0,0,0,0,0,0,0,0,0,0,0,0,0,0,0,0,0,0,0,0,0,0,0,0,0,0,0,0,0,0,0,0,0,0,0,0,0,0,0,0,0,0,0,0,0,0,0,0,0,0],"sum_hessian":[2.04205E5,1.30573E5,7.3632E4,6.0139E4,7.0434E4,5.2183E4,2.1449E4,2.906E4,3.1079E4,4.0728E4,2.9706E4,3.7321E4,1.4862E4,1.0833E4,1.0616E4,2.0277E4,8.783E3,2.4875E4,6.204E3,1.8765E4,2.1963E4,2.0387E4,9.319E3,3.0043E4,7.278E3,1.1256E4,3.606E3,6.459E3,4.374E3,6.455E3,4.161E3,5.116E3,1.5161E4,2.368E3,6.415E3,2.1667E4,3.208E3,4.66E3,1.544E3,1.5532E4,3.233E3,1.5591E4,6.372E3,1.1274E4,9.113E3,1.78E2,9.141E3,2.7464E4,2.579E3,1.58E2,7.12E3,5.34E3,5.916E3,8.1E1,3.525E3,1.608E3,4.851E3,1.04E2,4.27E3,4.939E3,1.516E3,4.151E3,1E1,3.854E3,1.262E3,4.303E3,1.0858E4,1.882E3,4.86E2,4.899E3,1.516E3,5.606E3,1.6061E4,4.7E1,3.161E3,2.017E3,2.643E3,1.372E3,1.72E2,7.332E3,8.2E3,2.173E3,1.06E3,2.85E2,1.5306E4,3.489E3,2.883E3,4.838E3,6.436E3,1.62E2,8.951E3,1.26E2,5.2E1,6.759E3,2.382E3,2.1837E4,5.627E3,4.69E2,2.11E3,7.9E1,7.9E1,3.662E3,3.458E3,3.442E3,1.898E3,2.137E3,3.779E3,3.5E1,4.6E1,1.416E3,2.109E3,3.46E2,1.262E3,4.781E3,7E1,2E1,8.4E1,2.244E3,2.026E3,4.786E3,1.53E2,1.413E3,1.03E2,2.821E3,1.33E3,9E0,1E0],"tree_param":{"num_deleted":"0","num_feature":"9","num_nodes":"127","size_leaf_vector":"1"}},{"base_weights":[-5.556513E-4,-1.631236E-1,3.309483E-1,-2.8544116E-1,-3.9278273E-2,2.2320347E-1,6.476825E-1,-3.5036317E-1,-1.9350944E-1,-1.4858626E-1,1.9343114E-2,1.7222947E-1,3.773993E-1,5.8100265E-1,8.5732883E-1,-4.0173736E-1,-2.9814437E-1,-2.299314E-1,-9.0861596E-2,-2.3611583E-1,-1.20462604E-1,-1.8038915E-3,1.13460496E-1,8.532757E-2,2.151848E-1,2.803428E-1,4.497414E-1,2.9068327E-1,5.987151E-1,5.479049E-1,8.9704406E-1,-4.5076475E-1,-3.800273E-1,-3.3595237E-1,-2.7631855E-1,-2.044343E-1,-3.2403728E-1,-6.810455E-2,-1.8814889E-1,-2.3844989E-1,5.2494055E-1,-1.4901032E-1,-4.1192017E-2,-3.111838E-2,4.9104124E-2,5.550667E-2,1.4976898E-1,4.890836E-2,2.0563225E-1,1.7905736E-1,2.6171637E-1,7.0405394E-1,2.744046E-1,4.0388834E-1,4.7689092E-1,1.404259E-1,3.4996206E-1,5.341523E-1,6.622985E-1,4.636146E-1,9.044811E-1,7.988734E-1,9.492006E-1,-2.3478728E-2,-2.131902E-2,-1.7676232E-2,-2.1140976E-2,-1.9952271E-2,-1.6208123E-2,-1.53908925E-2,-1.2245713E-2,-1.2821919E-2,-8.829745E-3,-1.8346973E-2,-1.2869763E-2,-4.7018677E-3,5.170449E-4,-1.54609755E-2,-6.0832566E-3,-1.32311955E-2,-9.649093E-3,6.359586E-2,6.990102E-3,-7.69191E-3,8.52065E-4,-2.9490693E-3,1.9423055E-3,-3.3657576E-3,-1.666982E-4,1.6277811E-3,5.404558E-3,2.6965183E-3,4.345434E-2,6.1957757E-3,1.1051028E-2,-1.8841362E-2,2.9662892E-3,1.1469686E-2,-2.6400296E-3,7.7548074E-3,1.1334761E-2,1.162634E-2,1.6647983E-2,6.568872E-2,2.3259677E-2,1.265184E-2,1.7722247E-2,2.0466711E-2,-1.3423525E-2,5.6515667E-3,2.4186602E-2,8.944509E-3,-2.9109037E-2,-2.05753E-3,1.9385751E-2,2.3981262E-2,2.9761592E-2,3.1644143E-2,3.7832834E-2,1.3107021E-2,3.5079155E-2,8.999542E-2,3.4932625E-2,5.6181908E-2,3.6933567E-2,4.5358855E-2,5.491317E-2],"categories":[],"categories_nodes":[],"categories_segments":[],"categories_sizes":[],"default_left":[0,0,0,0,0,0,0,0,0,0,0,0,0,0,0,0,0,0,0,0,0,0,0,0,0,0,0,0,0,0,0,0,0,0,0,0,0,0,0,0,0,0,0,0,0,0,0,0,0,0,0,0,0,0,0,0,0,0,0,0,0,0,0,0,0,0,0,0,0,0,0,0,0,0,0,0,0,0,0,0,0,0,0,0,0,0,0,0,0,0,0,0,0,0,0,0,0,0,0,0,0,0,0,0,0,0,0,0,0,0,0,0,0,0,0,0,0,0,0,0,0,0,0,0,0,0,0],"id":3,"left_children":[1,3,5,7,9,11,13,15,17,19,21,23,25,27,29,31,33,35,37,39,41,43,45,47,49,51,53,55,57,59,61,63,65,67,69,71,73,75,77,79,81,83,85,87,89,91,93,95,97,99,101,103,105,107,109,111,113,115,117,119,121,123,125,-1,-1,-1,-1,-1,-1,-1,-1,-1,-1,-1,-1,-1,-1,-1,-1,-1,-1,-1,-1,-1,-1,-1,-1,-1,-1,-1,-1,-1,-1,-1,-1,-1,-1,-1,-1,-1,-1,-1,-1,-1,-1,-1,-1,-1,-1,-1,-1,-1,-1,-1,-1,-1,-1,-1,-1,-1,-1,-1,-1,-1,-1,-1,-1],"loss_changes":[1.1017608E4,2.077918E3,2.2954746E3,4.118169E2,4.3676395E2,3.944668E2,2.3818213E2,1.0838428E2,1.06776855E2,5.8544067E1,8.830586E1,1.4080896E2,8.742908E1,6.645459E1,5.0114014E1,2.1526123E1,1.6462158E1,5.0523193E1,1.6554325E1,1.0401398E1,4.0750397E1,5.4067604E1,1.712001E1,5.4674217E1,4.2393433E1,1.3212555E1,8.699707E0,6.604439E0,4.9773926E1,1.3737015E1,1.7920166E1,2.66687E0,1.5880981E1,5.3290405E0,1.2512329E1,2.3976013E1,1.2751434E1,1.2341097E1,1.1376194E1,6.813324E0,5.000594E0,1.0617645E1,6.79395E0,2.3121967E1,1.2919691E1,3.9761763E0,9.190475E0,4.2519157E1,1.7820244E1,1.6190704E1,2.2864258E1,1.002042E1,8.899536E0,9.860718E0,1.1099487E1,6.024383E0,7.9155884E0,1.9910645E1,1.658545E1,1.8178825E1,1.5145599E1,2.403955E1,1.3893555E1,0E0,0E0,0E0,0E0,0E0,0E0,0E0,0E0,0E0,0E0,0E0,0E0,0E0,0E0,0E0,0E0,0E0,0E0,0E0,0E0,0E0,0E0,0E0,0E0,0E0,0E0,0E0,0E0,0E0,0E0,0E0,0E0,0E0,0E0,0E0,0E0,0E0,0E0,0E0,0E0,0E0,0E0,0E0,0E0,0E0,0E0,0E0,0E0,0E0,0E0,0E0,0E0,0E0,0E0,0E0,0E0,0E0,0E0,0E0,0E0,0E0,0E0,0E0,0E0],"parents":[2147483647,0,0,1,1,2,2,3,3,4,4,5,5,6,6,7,7,8,8,9,9,10,10,11,11,12,12,13,13,14,14,15,15,16,16,17,17,18,18,19,19,20,20,21,21,22,22,23,23,24,24,25,25,26,26,27,27,28,28,29,29,30,30,31,31,32,32,33,33,34,34,35,35,36,36,37,37,38,38,39,39,40,40,41,41,42,42,43,43,44,44,45,45,46,46,47,47,48,48,49,49,50,50,51,51,52,52,53,53,54,54,55,55,56,56,57,57,58,58,59,59,60,60,61,61,62,62],"right_children":[2,4,6,8,10,12,14,16,18,20,22,24,26,28,30,32,34,36,38,40,42,44,46,48,50,52,54,56,58,60,62,64,66,68,70,72,74,76,78,80,82,84,86,88,90,92,94,96,98,100,102,104,106,108,110,112,114,116,118,120,122,124,126,-1,-1,-1,-1,-1,-1,-1,-1,-1,-1,-1,-1,-1,-1,-1,-1,-1,-1,-1,-1,-1,-1,-1,-1,-1,-1,-1,-1,-1,-1,-1,-1,-1,-1,-1,-1,-1,-1,-1,-1,-1,-1,-1,-1,-1,-1,-1,-1,-1,-1,-1,-1,-1,-1,-1,-1,-1,-1,-1,-1,-1,-1,-1,-1],"split_conditions":[8.8E-1,1.92E1,1.4E0,4.2857143E-1,5.6E-1,1.2E0,1.84E0,1.14E1,6.8E-1,3.3333334E-1,3.21E1,2.55E1,2.98E1,2.1777779E1,2.72E1,1.4285715E-1,2.5E-1,4E0,4E0,3.73E1,2.8E1,7.5E-1,7.2E-1,1.2E0,1.04E0,1E0,3.27E1,1.75E1,1.56E0,2.2222223E0,3.29E1,6.5E0,4E0,1.95E2,1.51E1,1.37E1,1.44E1,8.75E-1,1.34E1,2.44E1,1.041E3,8.333333E-1,6.25E-1,2.46E1,2.94E1,1.3333334E0,3E0,1.02E1,5E0,3.27E1,3.375E1,2.44E1,1.328E3,1.632E3,6.25E-1,2E0,1E0,1.7E1,1.305E3,1.111E3,1E1,2.71E2,1.383E3,-2.3478728E-2,-2.131902E-2,-1.7676232E-2,-2.1140976E-2,-1.9952271E-2,-1.6208123E-2,-1.53908925E-2,-1.2245713E-2,-1.2821919E-2,-8.829745E-3,-1.8346973E-2,-1.2869763E-2,-4.7018677E-3,5.170449E-4,-1.54609755E-2,-6.0832566E-3,-1.32311955E-2,-9.649093E-3,6.359586E-2,6.990102E-3,-7.69191E-3,8.52065E-4,-2.9490693E-3,1.9423055E-3,-3.3657576E-3,-1.666982E-4,1.6277811E-3,5.404558E-3,2.6965183E-3,4.345434E-2,6.1957757E-3,1.1051028E-2,-1.8841362E-2,2.9662892E-3,1.1469686E-2,-2.6400296E-3,7.7548074E-3,1.1334761E-2,1.162634E-2,1.6647983E-2,6.568872E-2,2.3259677E-2,1.265184E-2,1.7722247E-2,2.0466711E-2,-1.3423525E-2,5.6515667E-3,2.4186602E-2,8.944509E-3,-2.9109037E-2,-2.05753E-3,1.9385751E-2,2.3981262E-2,2.9761592E-2,3.1644143E-2,3.7832834E-2,1.3107021E-2,3.5079155E-2,8.999542E-2,3.4932625E-2,5.6181908E-2,3.6933567E-2,4.5358855E-2,5.491317E-2],"split_indices":[8,5,8,8,8,8,8,5,8,8,5,5,5,5,5,8,8,4,4,5,5,8,8,7,8,4,5,5,8,7,5,5,4,0,5,5,5,7,5,5,0,7,7,5,5,7,4,5,4,5,5,5,0,0,7,7,7,1,0,0,1,0,0,0,0,0,0,0,0,0,0,0,0,0,0,0,0,0,0,0,0,0,0,0,0,0,0,0,0,0,0,0,0,0,0,0,0,0,0,0,0,0,0,0,0,0,0,0,0,0,0,0,0,0,0,0,0,0,0,0,0,0,0,0,0,0,0],"split_type":[0,0,0,0,0,0,0,0,0,0,0,0,0,0,0,0,0,0,0,0,0,0,0,0,0,0,0,0,0,0,0,0,0,0,0,0,0,0,0,0,0,0,0,0,0,0,0,0,0,0,0,0,0,0,0,0,0,0,0,0,0,0,0,0,0,0,0,0,0,0,0,0,0,0,0,0,0,0,0,0,0,0,0,0,0,0,0,0,0,0,0,0,0,0,0,0,0,0,0,0,0,0,0,0,0,0,0,0,0,0,0,0,0,0,0,0,0,0,0,0,0,0,0,0,0,0,0],"sum_hessian":[2.04437E5,1.3717E5,6.7267E4,6.901E4,6.816E4,5.0194E4,1.7073E4,4.0445E4,2.8565E4,2.3793E4,4.4367E4,3.7725E4,1.2469E4,1.2956E4,4.117E3,2.0384E4,2.0061E4,2.1083E4,7.482E3,5.784E3,1.8009E4,3.6228E4,8.139E3,1.248E4,2.5245E4,5.327E3,7.142E3,7.46E2,1.221E4,4.7E2,3.647E3,6.25E3,1.4134E4,7.337E3,1.2724E4,1.6591E4,4.492E3,6.065E3,1.417E3,5.767E3,1.7E1,1.324E4,4.769E3,2.299E4,1.3238E4,3.136E3,5.003E3,9.581E3,2.899E3,1.4214E4,1.1031E4,7.2E1,5.255E3,2.662E3,4.48E3,2.12E2,5.34E2,6.063E3,6.147E3,3.82E2,8.8E1,1.271E3,2.376E3,3.518E3,2.732E3,8.734E3,5.4E3,1.15E3,6.187E3,6.348E3,6.376E3,5.782E3,1.0809E4,2.73E3,1.762E3,4.558E3,1.507E3,5.01E2,9.16E2,3.657E3,2.11E3,5E0,1.2E1,1.2866E4,3.74E2,3.902E3,8.67E2,9.983E3,1.3007E4,1.0339E4,2.899E3,3.131E3,5E0,3.673E3,1.33E3,2.28E2,9.353E3,2.655E3,2.44E2,9.46E3,4.754E3,7.828E3,3.203E3,1.9E1,5.3E1,4.151E3,1.104E3,2.641E3,2.1E1,8.3E1,4.397E3,2.02E2,1E1,4.7E1,4.87E2,3.208E3,2.855E3,4.692E3,1.455E3,2.08E2,1.74E2,1.5E1,7.3E1,1.96E2,1.075E3,1.859E3,5.17E2],"tree_param":{"num_deleted":"0","num_feature":"9","num_nodes":"127","size_leaf_vector":"1"}},{"base_weights":[6.352152E-4,-1.5565535E-1,3.1905544E-1,-2.6979738E-1,-3.770836E-2,2.1650504E-1,6.177425E-1,-3.319333E-1,-1.823837E-1,-1.1146017E-1,3.4757197E-2,1.4647372E-1,3.2810393E-1,5.489628E-1,8.3048695E-1,-3.862919E-1,-2.8476354E-1,-2.2267385E-1,-1.07066266E-1,-1.6728179E-1,-6.626577E-2,-2.7254608E-3,9.749742E-2,6.0448937E-2,1.9179602E-1,2.4916989E-1,3.9653012E-1,4.7648588E-1,6.2200606E-1,6.9755244E-1,9.264665E-1,-4.255816E-1,-3.5401368E-1,-3.095988E-1,-2.5228873E-1,-2.4322096E-1,-1.5437154E-1,-1.4783418E-1,-3.35179E-2,-2.1559665E-1,-1.3731618E-1,-9.848824E-2,2.6375933E-3,-7.500362E-2,1.2457762E-2,7.528883E-2,1.5935403E-1,-3.518182E-1,6.9348395E-2,1.6877367E-1,2.358146E-1,2.2221433E-1,4.0404242E-1,3.183554E-1,4.3483716E-1,3.817019E-1,5.0375944E-1,4.757146E-1,6.600003E-1,6.0613734E-1,8.512206E-1,8.947665E-1,1.0998999E0,-2.2646023E-2,-2.064159E-2,-2.10149E-2,-1.6960278E-2,-1.6623346E-2,-1.4219065E-2,-1.4900411E-2,-1.134346E-2,-1.46080395E-2,-1.0616576E-2,-1.4052873E-2,-7.244453E-3,-1.0877187E-2,-5.2247434E-3,-3.1181423E-3,5.002211E-3,-8.931759E-4,-1.1274638E-2,-7.482145E-3,-3.0340338E-3,-6.371201E-3,-3.762283E-3,-1.670029E-3,1.4537371E-3,-6.0246866E-3,-6.083838E-4,2.2382328E-4,4.071167E-3,2.0374148E-3,5.302507E-3,9.492261E-3,4.9155466E-3,-3.0214632E-2,-1.359877E-2,2.4774435E-3,1.2033847E-2,6.2035923E-3,9.275935E-3,1.091614E-2,1.6290477E-2,-6.605187E-3,1.1414192E-2,1.4118144E-2,2.2642668E-2,1.1478162E-2,1.7337918E-2,1.860441E-2,2.3067895E-2,1.5246357E-2,2.4493825E-2,2.1078805E-2,2.6723037E-2,-7.201539E-4,2.5349677E-2,2.7193159E-2,3.470363E-2,-1.789641E-2,3.1210234E-2,1.7088307E-2,4.3588426E-2,6.046906E-2,4.3390088E-2,9.295984E-2,4.9734484E-2],"categories":[],"categories_nodes":[],"categories_segments":[],"categories_sizes":[],"default_left":[0,0,0,0,0,0,0,0,0,0,0,0,0,0,0,0,0,0,0,0,0,0,0,0,0,0,0,0,0,0,0,0,0,0,0,0,0,0,0,0,0,0,0,0,0,0,0,0,0,0,0,0,0,0,0,0,0,0,0,0,0,0,0,0,0,0,0,0,0,0,0,0,0,0,0,0,0,0,0,0,0,0,0,0,0,0,0,0,0,0,0,0,0,0,0,0,0,0,0,0,0,0,0,0,0,0,0,0,0,0,0,0,0,0,0,0,0,0,0,0,0,0,0,0,0,0,0],"id":4,"left_children":[1,3,5,7,9,11,13,15,17,19,21,23,25,27,29,31,33,35,37,39,41,43,45,47,49,51,53,55,57,59,61,63,65,67,69,71,73,75,77,79,81,83,85,87,89,91,93,95,97,99,101,103,105,107,109,111,113,115,117,119,121,123,125,-1,-1,-1,-1,-1,-1,-1,-1,-1,-1,-1,-1,-1,-1,-1,-1,-1,-1,-1,-1,-1,-1,-1,-1,-1,-1,-1,-1,-1,-1,-1,-1,-1,-1,-1,-1,-1,-1,-1,-1,-1,-1,-1,-1,-1,-1,-1,-1,-1,-1,-1,-1,-1,-1,-1,-1,-1,-1,-1,-1,-1,-1,-1,-1],"loss_changes":[1.0143123E4,1.8405173E3,2.0552637E3,3.7730566E2,3.5934973E2,3.9036328E2,2.504917E2,1.0401465E2,8.758069E1,8.405701E1,7.975716E1,1.1966333E2,1.0392749E2,6.832886E1,5.2788574E1,2.3772705E1,1.746045E1,2.6356445E1,3.0168076E1,2.1553955E1,4.0888138E1,2.3301254E1,1.7412636E1,3.888963E1,2.0332764E1,3.7256836E1,3.075122E1,1.663916E1,3.5553467E1,2.4207764E1,1.2369873E1,2.7768555E0,1.0028198E1,7.009033E0,1.0890442E1,2.1791382E1,5.187317E0,1.95363E1,1.3837042E1,1.1159485E1,8.685623E0,8.429474E0,5.59264E0,1.0534651E1,9.6581135E0,9.91423E0,6.216614E0,4.351095E0,3.5165443E1,9.859863E0,1.0792236E1,1.6421509E1,7.7417145E0,8.484985E0,1.134436E1,1.1967743E1,1.252417E1,2.0458038E1,1.9882812E1,1.950531E1,6.5482483E0,1.641809E1,2.778833E1,0E0,0E0,0E0,0E0,0E0,0E0,0E0,0E0,0E0,0E0,0E0,0E0,0E0,0E0,0E0,0E0,0E0,0E0,0E0,0E0,0E0,0E0,0E0,0E0,0E0,0E0,0E0,0E0,0E0,0E0,0E0,0E0,0E0,0E0,0E0,0E0,0E0,0E0,0E0,0E0,0E0,0E0,0E0,0E0,0E0,0E0,0E0,0E0,0E0,0E0,0E0,0E0,0E0,0E0,0E0,0E0,0E0,0E0,0E0,0E0,0E0,0E0,0E0,0E0],"parents":[2147483647,0,0,1,1,2,2,3,3,4,4,5,5,6,6,7,7,8,8,9,9,10,10,11,11,12,12,13,13,14,14,15,15,16,16,17,17,18,18,19,19,20,20,21,21,22,22,23,23,24,24,25,25,26,26,27,27,28,28,29,29,30,30,31,31,32,32,33,33,34,34,35,35,36,36,37,37,38,38,39,39,40,40,41,41,42,42,43,43,44,44,45,45,46,46,47,47,48,48,49,49,50,50,51,51,52,52,53,53,54,54,55,55,56,56,57,57,58,58,59,59,60,60,61,61,62,62],"right_children":[2,4,6,8,10,12,14,16,18,20,22,24,26,28,30,32,34,36,38,40,42,44,46,48,50,52,54,56,58,60,62,64,66,68,70,72,74,76,78,80,82,84,86,88,90,92,94,96,98,100,102,104,106,108,110,112,114,116,118,120,122,124,126,-1,-1,-1,-1,-1,-1,-1,-1,-1,-1,-1,-1,-1,-1,-1,-1,-1,-1,-1,-1,-1,-1,-1,-1,-1,-1,-1,-1,-1,-1,-1,-1,-1,-1,-1,-1,-1,-1,-1,-1,-1,-1,-1,-1,-1,-1,-1,-1,-1,-1,-1,-1,-1,-1,-1,-1,-1,-1,-1,-1,-1,-1,-1,-1],"split_conditions":[8.8E-1,1.93E1,1.4E0,4.2857143E-1,6.363636E-1,1.12E0,1.84E0,1.09E1,6.4E-1,4.8E-1,2.93E1,2.55E1,3E1,1.56E0,3.29E1,2E-1,4E-1,6.666667E-1,8E-1,3.3333334E-1,2.81E1,2.14E1,3.41E1,1.02E1,3.28E1,1.6666666E0,1.2E0,2.72E1,2.82E1,2.2E0,2.6E0,1E1,5.5E0,1.46E1,2.857143E-1,1.33E1,1.38E2,1.44E1,1.25E0,7.1428575E-2,3.01E1,5E-1,5E-1,7.5E-1,2.9E1,7.5E-1,1.003E3,6.1E0,1.5E0,6.666667E-1,1.08E0,1.36E1,1.2E0,8E0,3.23E1,1.6E0,1E1,1.81E1,4.37E2,1.31E1,2.01E1,3.33E1,1E0,-2.2646023E-2,-2.064159E-2,-2.10149E-2,-1.6960278E-2,-1.6623346E-2,-1.4219065E-2,-1.4900411E-2,-1.134346E-2,-1.46080395E-2,-1.0616576E-2,-1.4052873E-2,-7.244453E-3,-1.0877187E-2,-5.2247434E-3,-3.1181423E-3,5.002211E-3,-8.931759E-4,-1.1274638E-2,-7.482145E-3,-3.0340338E-3,-6.371201E-3,-3.762283E-3,-1.670029E-3,1.4537371E-3,-6.0246866E-3,-6.083838E-4,2.2382328E-4,4.071167E-3,2.0374148E-3,5.302507E-3,9.492261E-3,4.9155466E-3,-3.0214632E-2,-1.359877E-2,2.4774435E-3,1.2033847E-2,6.2035923E-3,9.275935E-3,1.091614E-2,1.6290477E-2,-6.605187E-3,1.1414192E-2,1.4118144E-2,2.2642668E-2,1.1478162E-2,1.7337918E-2,1.860441E-2,2.3067895E-2,1.5246357E-2,2.4493825E-2,2.1078805E-2,2.6723037E-2,-7.201539E-4,2.5349677E-2,2.7193159E-2,3.470363E-2,-1.789641E-2,3.1210234E-2,1.7088307E-2,4.3588426E-2,6.046906E-2,4.3390088E-2,9.295984E-2,4.9734484E-2],"split_indices":[8,5,8,8,8,8,8,5,8,8,5,5,5,8,5,6,6,6,7,8,5,5,5,5,5,6,8,5,5,6,7,1,5,5,8,5,0,5,6,8,5,6,6,8,1,8,0,5,6,6,8,5,8,1,5,6,1,5,0,5,5,5,1,0,0,0,0,0,0,0,0,0,0,0,0,0,0,0,0,0,0,0,0,0,0,0,0,0,0,0,0,0,0,0,0,0,0,0,0,0,0,0,0,0,0,0,0,0,0,0,0,0,0,0,0,0,0,0,0,0,0,0,0,0,0,0,0],"split_type":[0,0,0,0,0,0,0,0,0,0,0,0,0,0,0,0,0,0,0,0,0,0,0,0,0,0,0,0,0,0,0,0,0,0,0,0,0,0,0,0,0,0,0,0,0,0,0,0,0,0,0,0,0,0,0,0,0,0,0,0,0,0,0,0,0,0,0,0,0,0,0,0,0,0,0,0,0,0,0,0,0,0,0,0,0,0,0,0,0,0,0,0,0,0,0,0,0,0,0,0,0,0,0,0,0,0,0,0,0,0,0,0,0,0,0,0,0,0,0,0,0,0,0,0,0,0,0],"sum_hessian":[2.03814E5,1.36712E5,6.7102E4,6.9476E4,6.7236E4,4.9953E4,1.7149E4,4.0608E4,2.8868E4,3.3322E4,3.3914E4,3.0694E4,1.9259E4,1.2962E4,4.187E3,1.8863E4,2.1745E4,1.8806E4,1.0062E4,1.4907E4,1.8415E4,2.1231E4,1.2683E4,1.0592E4,2.0102E4,8.945E3,1.0314E4,6.51E3,6.452E3,1.759E3,2.428E3,8.502E3,1.0361E4,1.2317E4,9.428E3,1.4455E4,4.351E3,6.473E3,3.589E3,5.704E3,9.203E3,1.2547E4,5.868E3,3.685E3,1.7546E4,9.334E3,3.349E3,2.23E2,1.0369E4,1.3202E4,6.9E3,7.621E3,1.324E3,3.395E3,6.919E3,1.458E3,5.052E3,1.333E3,5.119E3,1.106E3,6.53E2,2.058E3,3.7E2,2.693E3,5.809E3,1.887E3,8.474E3,6.453E3,5.864E3,3.365E3,6.063E3,5.59E3,8.865E3,3.01E2,4.05E3,2.48E3,3.993E3,2.952E3,6.37E2,2.72E2,5.432E3,7.927E3,1.276E3,5.587E3,6.96E3,2.483E3,3.385E3,2.137E3,1.548E3,1.5727E4,1.819E3,4.398E3,4.936E3,2.232E3,1.117E3,5.2E1,1.71E2,9.296E3,1.073E3,3.6E3,9.602E3,5.78E3,1.12E3,1.28E2,7.493E3,3.81E2,9.43E2,8.25E2,2.57E3,2.06E3,4.859E3,8.55E2,6.03E2,1.378E3,3.674E3,8E1,1.253E3,1.165E3,3.954E3,2E1,1.086E3,2.6E1,6.27E2,1.59E2,1.899E3,4.3E1,3.27E2],"tree_param":{"num_deleted":"0","num_feature":"9","num_nodes":"127","size_leaf_vector":"1"}},{"base_weights":[1.249798E-3,-1.4659117E-1,3.0229557E-1,-2.5887027E-1,-3.7620552E-2,1.9546252E-1,5.6965727E-1,-3.3064052E-1,-1.8666777E-1,-1.2660587E-1,2.0313455E-2,1.4011665E-1,2.9398295E-1,4.5056552E-1,6.640305E-1,-3.6935255E-1,-2.9464006E-1,-2.196206E-1,-1.1971794E-1,-1.6778953E-1,-6.4178266E-2,-1.4900275E-2,7.643944E-2,6.385808E-2,1.8053983E-1,2.0021084E-1,3.411369E-1,3.5171366E-1,5.0265676E-1,4.4715998E-1,7.041973E-1,-3.9547783E-1,-3.3110702E-1,-2.6948223E-1,-3.517641E-1,-2.7467397E-1,-1.9458055E-1,-2.01622E-1,-1.01701915E-1,-2.4123564E-1,-1.3898367E-1,-4.9464058E-2,-1.747146E-1,-6.99447E-2,1.1119185E-2,3.8367745E-2,1.2915148E-1,-2.868994E-1,7.3480695E-2,1.497655E-1,2.1619979E-1,5.651661E-1,1.9525604E-1,2.7587372E-1,3.805038E-1,2.3717819E-1,3.8387007E-1,4.8295462E-1,5.5471826E-1,2.1115278E-1,5.0116223E-1,6.452599E-1,8.1649613E-1,-2.0754239E-2,-1.8603517E-2,-1.6010191E-2,-1.9568648E-2,-1.8558662E-2,-1.28893675E-2,-1.640225E-2,-1.8985437E-2,-1.4141624E-2,-1.0779601E-2,-1.0558161E-2,-8.248867E-3,3.3217773E-3,-1.1327991E-2,-5.7822573E-3,-4.060891E-4,-1.0196996E-2,-1.4573152E-2,-6.2512034E-3,-1.1018879E-2,-4.1185515E-3,-4.0638944E-4,-1.4082541E-2,-6.732058E-3,-4.219067E-3,1.0531232E-3,7.5206667E-4,-5.549125E-3,3.1053805E-4,3.523444E-3,5.7419525E-3,1.0285564E-2,-2.9646937E-2,-1.0802698E-2,2.4283952E-3,8.484509E-3,8.23786E-3,4.305179E-3,9.134035E-3,1.2455817E-2,1.8104423E-2,6.583846E-2,-3.637315E-3,1.00804465E-2,1.1621354E-2,1.7551277E-2,1.641374E-2,2.1461075E-2,6.468441E-3,1.7608745E-2,1.56199215E-2,2.2409517E-2,3.8367134E-2,2.3894766E-2,3.7980862E-2,2.613693E-2,1.6344901E-2,-2.7545278E-3,2.248372E-2,4.2768538E-2,2.6714996E-2,3.3808183E-2,3.9723963E-2,5.589909E-2],"categories":[],"categories_nodes":[],"categories_segments":[],"categories_sizes":[],"default_left":[0,0,0,0,0,0,0,0,0,0,0,0,0,0,0,0,0,0,0,0,0,0,0,0,0,0,0,0,0,0,0,0,0,0,0,0,0,0,0,0,0,0,0,0,0,0,0,0,0,0,0,0,0,0,0,0,0,0,0,0,0,0,0,0,0,0,0,0,0,0,0,0,0,0,0,0,0,0,0,0,0,0,0,0,0,0,0,0,0,0,0,0,0,0,0,0,0,0,0,0,0,0,0,0,0,0,0,0,0,0,0,0,0,0,0,0,0,0,0,0,0,0,0,0,0,0,0],"id":5,"left_children":[1,3,5,7,9,11,13,15,17,19,21,23,25,27,29,31,33,35,37,39,41,43,45,47,49,51,53,55,57,59,61,63,65,67,69,71,73,75,77,79,81,83,85,87,89,91,93,95,97,99,101,103,105,107,109,111,113,115,117,119,121,123,125,-1,-1,-1,-1,-1,-1,-1,-1,-1,-1,-1,-1,-1,-1,-1,-1,-1,-1,-1,-1,-1,-1,-1,-1,-1,-1,-1,-1,-1,-1,-1,-1,-1,-1,-1,-1,-1,-1,-1,-1,-1,-1,-1,-1,-1,-1,-1,-1,-1,-1,-1,-1,-1,-1,-1,-1,-1,-1,-1,-1,-1,-1,-1,-1],"loss_changes":[9.091913E3,1.6762139E3,1.9216118E3,3.4959863E2,3.5842825E2,2.620863E2,2.1558057E2,4.704956E1,7.418762E1,7.047571E1,8.322954E1,9.4880554E1,7.638794E1,4.356665E1,9.301465E1,1.6156494E1,2.5109375E1,3.1021484E1,1.6355545E1,3.491327E1,1.7718082E1,3.7062496E1,3.2576035E1,3.602102E1,2.204535E1,1.0355972E1,2.9451294E1,1.0718689E1,5.436157E0,2.1267456E1,5.9291992E1,4.288208E0,4.225891E0,1.4389526E1,3.4274902E0,3.3349E0,7.573181E0,1.338459E1,1.1871521E1,8.654999E0,1.3456024E1,1.3084948E1,5.4472656E0,1.0914509E1,8.416917E0,9.731859E0,7.4362946E0,6.051119E0,2.4875824E1,1.0295242E1,1.0234253E1,1.1276018E1,9.739838E0,1.4062805E1,1.8110596E1,7.9633675E0,1.0387299E1,5.4489746E0,9.562897E0,9.694358E0,2.449121E1,1.9980225E1,1.9735352E1,0E0,0E0,0E0,0E0,0E0,0E0,0E0,0E0,0E0,0E0,0E0,0E0,0E0,0E0,0E0,0E0,0E0,0E0,0E0,0E0,0E0,0E0,0E0,0E0,0E0,0E0,0E0,0E0,0E0,0E0,0E0,0E0,0E0,0E0,0E0,0E0,0E0,0E0,0E0,0E0,0E0,0E0,0E0,0E0,0E0,0E0,0E0,0E0,0E0,0E0,0E0,0E0,0E0,0E0,0E0,0E0,0E0,0E0,0E0,0E0,0E0,0E0,0E0,0E0],"parents":[2147483647,0,0,1,1,2,2,3,3,4,4,5,5,6,6,7,7,8,8,9,9,10,10,11,11,12,12,13,13,14,14,15,15,16,16,17,17,18,18,19,19,20,20,21,21,22,22,23,23,24,24,25,25,26,26,27,27,28,28,29,29,30,30,31,31,32,32,33,33,34,34,35,35,36,36,37,37,38,38,39,39,40,40,41,41,42,42,43,43,44,44,45,45,46,46,47,47,48,48,49,49,50,50,51,51,52,52,53,53,54,54,55,55,56,56,57,57,58,58,59,59,60,60,61,61,62,62],"right_children":[2,4,6,8,10,12,14,16,18,20,22,24,26,28,30,32,34,36,38,40,42,44,46,48,50,52,54,56,58,60,62,64,66,68,70,72,74,76,78,80,82,84,86,88,90,92,94,96,98,100,102,104,106,108,110,112,114,116,118,120,122,124,126,-1,-1,-1,-1,-1,-1,-1,-1,-1,-1,-1,-1,-1,-1,-1,-1,-1,-1,-1,-1,-1,-1,-1,-1,-1,-1,-1,-1,-1,-1,-1,-1,-1,-1,-1,-1,-1,-1,-1,-1,-1,-1,-1,-1,-1,-1,-1,-1,-1,-1,-1,-1,-1,-1,-1,-1,-1,-1,-1,-1,-1,-1,-1,-1],"split_conditions":[8.8E-1,5E-1,1.36E0,1.46E1,2.16E1,1.12E0,1.56E0,2.5E-1,2.28E1,6.8E-1,2.94E1,2.55E1,2.75E1,2.96E1,2.76E1,9.4E0,4E0,2.857143E-1,3.2E-1,1.37E1,5E0,6.363636E-1,7.5E-1,1.09E1,3.16E1,1E0,1.2E0,2.16E1,1.625E0,2.08E1,1.88E0,1.4285715E-1,6E0,6.8E0,1E0,1.45E3,1.93E1,7.1428575E-2,6.25E-1,3E0,4E0,7.5E-1,1.31E1,2.81E1,1E1,3.21E1,3.53E1,6.1E0,1.1111112E0,1.305E3,1E0,1.4285715E0,1.34E1,1.9E1,3.27E1,1.5E1,1.44E0,7.7E1,4E0,2E0,2.1111112E0,4.37E2,2.9E1,-2.0754239E-2,-1.8603517E-2,-1.6010191E-2,-1.9568648E-2,-1.8558662E-2,-1.28893675E-2,-1.640225E-2,-1.8985437E-2,-1.4141624E-2,-1.0779601E-2,-1.0558161E-2,-8.248867E-3,3.3217773E-3,-1.1327991E-2,-5.7822573E-3,-4.060891E-4,-1.0196996E-2,-1.4573152E-2,-6.2512034E-3,-1.1018879E-2,-4.1185515E-3,-4.0638944E-4,-1.4082541E-2,-6.732058E-3,-4.219067E-3,1.0531232E-3,7.5206667E-4,-5.549125E-3,3.1053805E-4,3.523444E-3,5.7419525E-3,1.0285564E-2,-2.9646937E-2,-1.0802698E-2,2.4283952E-3,8.484509E-3,8.23786E-3,4.305179E-3,9.134035E-3,1.2455817E-2,1.8104423E-2,6.583846E-2,-3.637315E-3,1.00804465E-2,1.1621354E-2,1.7551277E-2,1.641374E-2,2.1461075E-2,6.468441E-3,1.7608745E-2,1.56199215E-2,2.2409517E-2,3.8367134E-2,2.3894766E-2,3.7980862E-2,2.613693E-2,1.6344901E-2,-2.7545278E-3,2.248372E-2,4.2768538E-2,2.6714996E-2,3.3808183E-2,3.9723963E-2,5.589909E-2],"split_indices":[8,8,8,5,5,8,8,8,5,8,5,5,5,5,5,5,4,8,8,5,4,8,8,5,5,4,8,5,7,5,8,8,4,5,3,0,5,8,7,4,4,7,5,5,4,5,5,5,7,0,8,7,5,2,5,2,8,0,2,7,7,0,2,0,0,0,0,0,0,0,0,0,0,0,0,0,0,0,0,0,0,0,0,0,0,0,0,0,0,0,0,0,0,0,0,0,0,0,0,0,0,0,0,0,0,0,0,0,0,0,0,0,0,0,0,0,0,0,0,0,0,0,0,0,0,0,0],"split_type":[0,0,0,0,0,0,0,0,0,0,0,0,0,0,0,0,0,0,0,0,0,0,0,0,0,0,0,0,0,0,0,0,0,0,0,0,0,0,0,0,0,0,0,0,0,0,0,0,0,0,0,0,0,0,0,0,0,0,0,0,0,0,0,0,0,0,0,0,0,0,0,0,0,0,0,0,0,0,0,0,0,0,0,0,0,0,0,0,0,0,0,0,0,0,0,0,0,0,0,0,0,0,0,0,0,0,0,0,0,0,0,0,0,0,0,0,0,0,0,0,0,0,0,0,0,0,0],"sum_hessian":[2.04279E5,1.37E5,6.7279E4,6.7475E4,6.9525E4,4.8072E4,1.9207E4,3.3837E4,3.3638E4,2.7415E4,4.211E4,3.0782E4,1.729E4,8.494E3,1.0713E4,1.63E4,1.7537E4,2.2541E4,1.1097E4,1.6517E4,1.0898E4,2.5876E4,1.6234E4,1.0665E4,2.0117E4,5.787E3,1.1503E4,2.934E3,5.56E3,1.676E3,9.037E3,9.679E3,6.621E3,1.2179E4,5.358E3,7.044E3,1.5497E4,1.999E3,9.098E3,4.651E3,1.1866E4,9.619E3,1.279E3,8.305E3,1.7571E4,9.427E3,6.807E3,2.84E2,1.0381E4,1.0801E4,9.316E3,7.6E1,5.711E3,4.331E3,7.172E3,6.45E2,2.289E3,4.041E3,1.519E3,3.13E2,1.363E3,5.931E3,3.106E3,5.258E3,4.421E3,5.612E3,1.009E3,1.253E3,1.0926E4,2.905E3,2.453E3,6.186E3,8.58E2,9.929E3,5.568E3,1.7E2,1.829E3,7.918E3,1.18E3,2.672E3,1.979E3,1.0131E4,1.735E3,5.355E3,4.264E3,3.47E2,9.32E2,7.168E3,1.137E3,1.7025E4,5.46E2,4.71E3,4.717E3,5.737E3,1.07E3,5.2E1,2.32E2,8.247E3,2.134E3,8.741E3,2.06E3,4.619E3,4.697E3,6.1E1,1.5E1,1.32E2,5.579E3,2.747E3,1.584E3,3.465E3,3.707E3,3.34E2,3.11E2,1.087E3,1.202E3,6.8E1,3.973E3,2.02E2,1.317E3,2.18E2,9.5E1,1.192E3,1.71E2,1.296E3,4.635E3,2.898E3,2.08E2],"tree_param":{"num_deleted":"0","num_feature":"9","num_nodes":"127","size_leaf_vector":"1"}},{"base_weights":[1.2130319E-3,-1.3913521E-1,2.8729242E-1,-2.4639525E-1,-3.4937445E-2,1.8757859E-1,5.384004E-1,-3.2747483E-1,-1.8390906E-1,-1.3607112E-1,1.4877065E-2,1.5232731E-1,3.1407297E-1,4.5725238E-1,6.7216325E-1,-3.8081652E-1,-3.066697E-1,-2.4901241E-1,-1.578146E-1,-1.6550715E-1,-6.0355313E-2,-3.7605457E-2,5.167406E-2,2.3113943E-3,1.714014E-1,2.0324132E-1,3.607746E-1,3.4532803E-1,4.8762402E-1,5.180393E-1,7.153759E-1,-3.8314897E-1,-1.8696022E-1,-2.8372198E-1,-3.5846248E-1,-2.50432E-1,5.369826E-1,-1.9405954E-1,-1.1361883E-1,-1.4529034E-1,-2.4978906E-1,-9.798148E-2,1.9513112E-2,-5.2797686E-2,4.2329434E-2,1.6241465E-2,1.0396962E-1,-3.1443983E-1,2.2023654E-2,1.4148237E-1,2.2866426E-1,-2.4314906E-1,2.1224295E-1,2.7137893E-1,3.879086E-1,2.6599434E-1,4.5006642E-1,4.2424873E-1,5.4082066E-1,-2.0529869E-1,5.321354E-1,6.327965E-1,7.7244765E-1,-1.9949935E-2,-1.808869E-2,2.5360337E-2,-1.0682913E-2,-1.534009E-2,-1.1837491E-2,-1.9337468E-2,-1.7134292E-2,-1.2965192E-2,-1.0034591E-2,4.4818517E-2,-5.7072565E-3,-1.025396E-2,-6.7163357E-3,-5.9055975E-3,5.42321E-3,-7.3360703E-3,3.843903E-2,-1.4983946E-2,-1.0468748E-2,-8.231062E-3,-3.339965E-3,4.247522E-2,7.320177E-4,-4.2470363E-3,-1.5696703E-3,1.9386439E-3,2.912049E-2,2.4071804E-4,3.3221454E-3,3.2103758E-3,6.3590067E-3,-2.662975E-2,-1.2041125E-2,-9.2698366E-4,6.081324E-3,5.1624584E-3,7.9570785E-3,9.8594455E-3,1.442909E-2,-1.4483191E-2,3.8409807E-2,8.998173E-3,1.587489E-2,1.3945517E-2,-1.6163532E-2,1.7777115E-2,2.2601333E-2,1.430132E-2,-4.5015793E-3,2.3099251E-2,-9.074203E-3,1.9278994E-2,2.3871489E-2,2.3853896E-2,2.988998E-2,6.66178E-2,-2.0881578E-2,3.593755E-2,2.490037E-2,2.3757396E-2,3.346819E-2,3.795883E-2,5.0797164E-2],"categories":[],"categories_nodes":[],"categories_segments":[],"categories_sizes":[],"default_left":[0,0,0,0,0,0,0,0,0,0,0,0,0,0,0,0,0,0,0,0,0,0,0,0,0,0,0,0,0,0,0,0,0,0,0,0,0,0,0,0,0,0,0,0,0,0,0,0,0,0,0,0,0,0,0,0,0,0,0,0,0,0,0,0,0,0,0,0,0,0,0,0,0,0,0,0,0,0,0,0,0,0,0,0,0,0,0,0,0,0,0,0,0,0,0,0,0,0,0,0,0,0,0,0,0,0,0,0,0,0,0,0,0,0,0,0,0,0,0,0,0,0,0,0,0,0,0],"id":6,"left_children":[1,3,5,7,9,11,13,15,17,19,21,23,25,27,29,31,33,35,37,39,41,43,45,47,49,51,53,55,57,59,61,63,65,67,69,71,73,75,77,79,81,83,85,87,89,91,93,95,97,99,101,103,105,107,109,111,113,115,117,119,121,123,125,-1,-1,-1,-1,-1,-1,-1,-1,-1,-1,-1,-1,-1,-1,-1,-1,-1,-1,-1,-1,-1,-1,-1,-1,-1,-1,-1,-1,-1,-1,-1,-1,-1,-1,-1,-1,-1,-1,-1,-1,-1,-1,-1,-1,-1,-1,-1,-1,-1,-1,-1,-1,-1,-1,-1,-1,-1,-1,-1,-1,-1,-1,-1,-1],"loss_changes":[8.206169E3,1.5324348E3,1.6842183E3,3.4224805E2,3.5039972E2,2.1465723E2,2.0722119E2,3.251758E1,6.478845E1,5.1147064E1,8.999582E1,1.0775488E2,5.423877E1,4.02937E1,4.7695312E1,3.6573486E0,2.5047363E1,1.2315735E1,4.3619324E1,2.8124237E1,1.9315966E1,2.3327015E1,5.07585E1,2.6537182E1,5.7207275E1,1.2560379E1,1.7798584E1,2.1019073E1,3.132666E1,1.6260162E1,2.6064209E1,2.6160889E0,1.9616568E0,1.5829102E1,2.7650757E0,4.75708E0,4.782461E0,9.82428E0,1.2264343E1,1.7552185E1,6.381195E0,9.067673E0,8.314873E0,1.1101631E1,5.870511E0,9.368074E0,1.0202789E1,3.870678E0,1.6167183E1,1.4801483E1,2.1563354E1,3.139153E0,1.0312271E1,7.802223E0,1.1585327E1,1.0367058E1,8.326126E0,8.609253E0,1.8183472E1,1.0677768E1,9.539246E0,1.2987061E1,9.979614E0,0E0,0E0,0E0,0E0,0E0,0E0,0E0,0E0,0E0,0E0,0E0,0E0,0E0,0E0,0E0,0E0,0E0,0E0,0E0,0E0,0E0,0E0,0E0,0E0,0E0,0E0,0E0,0E0,0E0,0E0,0E0,0E0,0E0,0E0,0E0,0E0,0E0,0E0,0E0,0E0,0E0,0E0,0E0,0E0,0E0,0E0,0E0,0E0,0E0,0E0,0E0,0E0,0E0,0E0,0E0,0E0,0E0,0E0,0E0,0E0,0E0,0E0,0E0,0E0],"parents":[2147483647,0,0,1,1,2,2,3,3,4,4,5,5,6,6,7,7,8,8,9,9,10,10,11,11,12,12,13,13,14,14,15,15,16,16,17,17,18,18,19,19,20,20,21,21,22,22,23,23,24,24,25,25,26,26,27,27,28,28,29,29,30,30,31,31,32,32,33,33,34,34,35,35,36,36,37,37,38,38,39,39,40,40,41,41,42,42,43,43,44,44,45,45,46,46,47,47,48,48,49,49,50,50,51,51,52,52,53,53,54,54,55,55,56,56,57,57,58,58,59,59,60,60,61,61,62,62],"right_children":[2,4,6,8,10,12,14,16,18,20,22,24,26,28,30,32,34,36,38,40,42,44,46,48,50,52,54,56,58,60,62,64,66,68,70,72,74,76,78,80,82,84,86,88,90,92,94,96,98,100,102,104,106,108,110,112,114,116,118,120,122,124,126,-1,-1,-1,-1,-1,-1,-1,-1,-1,-1,-1,-1,-1,-1,-1,-1,-1,-1,-1,-1,-1,-1,-1,-1,-1,-1,-1,-1,-1,-1,-1,-1,-1,-1,-1,-1,-1,-1,-1,-1,-1,-1,-1,-1,-1,-1,-1,-1,-1,-1,-1,-1,-1,-1,-1,-1,-1,-1,-1,-1,-1,-1,-1,-1],"split_conditions":[8.8E-1,5E-1,1.36E0,1.34E1,2.01E1,1.2E0,1.68E0,6.8E0,2.857143E-1,7.2E-1,6.8E-1,1.94E1,2.72E1,2.71E1,2.96E1,6.666667E-1,4E0,3.73E1,2.07E1,4E0,1E0,3.17E1,2.93E1,1.02E1,3.18E1,1.34E1,1E0,1.6E0,1.48E0,1.42E1,1.84E0,2E-1,1.4E1,3.6E-1,2.3076923E-1,2.36E1,1E0,6.666667E-1,3.49E1,1.2222222E0,1.34E1,1.47E1,1E0,5E-1,1.1111112E0,1.2E0,7.5E-1,6.5E0,1.2E0,9.583333E-1,1.08E0,1.375E0,1.328E3,1.625E0,3.41E1,1.541E3,2.7E1,1.5E0,8.82E2,1.7142857E0,2.78E2,4.09E2,2.9E0,-1.9949935E-2,-1.808869E-2,2.5360337E-2,-1.0682913E-2,-1.534009E-2,-1.1837491E-2,-1.9337468E-2,-1.7134292E-2,-1.2965192E-2,-1.0034591E-2,4.4818517E-2,-5.7072565E-3,-1.025396E-2,-6.7163357E-3,-5.9055975E-3,5.42321E-3,-7.3360703E-3,3.843903E-2,-1.4983946E-2,-1.0468748E-2,-8.231062E-3,-3.339965E-3,4.247522E-2,7.320177E-4,-4.2470363E-3,-1.5696703E-3,1.9386439E-3,2.912049E-2,2.4071804E-4,3.3221454E-3,3.2103758E-3,6.3590067E-3,-2.662975E-2,-1.2041125E-2,-9.2698366E-4,6.081324E-3,5.1624584E-3,7.9570785E-3,9.8594455E-3,1.442909E-2,-1.4483191E-2,3.8409807E-2,8.998173E-3,1.587489E-2,1.3945517E-2,-1.6163532E-2,1.7777115E-2,2.2601333E-2,1.430132E-2,-4.5015793E-3,2.3099251E-2,-9.074203E-3,1.9278994E-2,2.3871489E-2,2.3853896E-2,2.988998E-2,6.66178E-2,-2.0881578E-2,3.593755E-2,2.490037E-2,2.3757396E-2,3.346819E-2,3.795883E-2,5.0797164E-2],"split_indices":[8,8,8,5,5,8,8,5,8,8,8,5,5,5,5,6,4,5,5,4,6,5,5,5,5,5,6,6,8,5,8,6,0,8,8,5,3,6,5,7,5,5,4,6,7,6,8,5,6,8,8,7,0,7,5,0,5,6,0,7,0,0,7,0,0,0,0,0,0,0,0,0,0,0,0,0,0,0,0,0,0,0,0,0,0,0,0,0,0,0,0,0,0,0,0,0,0,0,0,0,0,0,0,0,0,0,0,0,0,0,0,0,0,0,0,0,0,0,0,0,0,0,0,0,0,0,0],"split_type":[0,0,0,0,0,0,0,0,0,0,0,0,0,0,0,0,0,0,0,0,0,0,0,0,0,0,0,0,0,0,0,0,0,0,0,0,0,0,0,0,0,0,0,0,0,0,0,0,0,0,0,0,0,0,0,0,0,0,0,0,0,0,0,0,0,0,0,0,0,0,0,0,0,0,0,0,0,0,0,0,0,0,0,0,0,0,0,0,0,0,0,0,0,0,0,0,0,0,0,0,0,0,0,0,0,0,0,0,0,0,0,0,0,0,0,0,0,0,0,0,0,0,0,0,0,0,0],"sum_hessian":[2.04382E5,1.37115E5,6.7267E4,6.7564E4,6.9551E4,4.8149E4,1.9118E4,2.9405E4,3.8159E4,2.2952E4,4.6599E4,3.7657E4,1.0492E4,1.1902E4,7.216E3,8.246E3,2.1159E4,1.0916E4,2.7243E4,1.6526E4,6.426E3,1.9206E4,2.7393E4,4.248E3,3.3409E4,3.112E3,7.38E3,2.543E3,9.359E3,1.583E3,5.633E3,8.147E3,9.9E1,1.4667E4,6.492E3,1.0897E4,1.9E1,1.4966E4,1.2277E4,1.3331E4,3.195E3,4.368E3,2.058E3,1.6139E4,3.067E3,1.633E4,1.1063E4,2.48E2,4E3,2.1946E4,1.1463E4,6.1E1,3.051E3,1.721E3,5.659E3,1.449E3,1.094E3,4.275E3,5.084E3,3E1,1.553E3,2.307E3,3.326E3,4.668E3,3.479E3,3E0,9.6E1,9.831E3,4.836E3,2.316E3,4.176E3,9.244E3,1.653E3,1.2E1,7E0,1.2633E4,2.333E3,1.2034E4,2.43E2,1.3311E4,2E1,1.427E3,1.768E3,1.391E3,2.977E3,1.1E1,2.047E3,6.45E3,9.689E3,3.048E3,1.9E1,1.3303E4,3.027E3,4.079E3,6.984E3,6.1E1,1.87E2,2.843E3,1.157E3,6.936E3,1.501E4,7.518E3,3.945E3,5.9E1,2E0,2.337E3,7.14E2,1.7E3,2.1E1,3.765E3,1.894E3,1.372E3,7.7E1,1.074E3,2E1,2.48E3,1.795E3,2.404E3,2.68E3,3E0,2.7E1,2.37E2,1.316E3,4.37E2,1.87E3,3.158E3,1.68E2],"tree_param":{"num_deleted":"0","num_feature":"9","num_nodes":"127","size_leaf_vector":"1"}},{"base_weights":[1.0189244E-3,-1.3289087E-1,2.746542E-1,-2.348392E-1,-3.341662E-2,1.7688209E-1,5.2059627E-1,-2.9823E-1,-1.7001995E-1,-1.18774645E-1,2.0231027E-2,1.2987946E-1,2.6123312E-1,4.380944E-1,6.550234E-1,-2.7380463E-1,-3.445846E-1,-1.9765422E-1,-1.04363434E-1,-1.4689176E-1,-5.086057E-2,5.860438E-4,9.782773E-2,7.095242E-2,1.7133765E-1,2.0109768E-1,3.1619474E-1,3.3178815E-1,4.6331882E-1,5.307131E-1,7.2528434E-1,-2.9920396E-1,-2.1917713E-1,-3.7512964E-1,-3.2659382E-1,-2.483464E-1,-1.7545003E-1,-1.0787327E-1,1.7386842E-1,-2.1434334E-1,-1.221995E-1,-8.363146E-2,1.7909817E-2,-5.1496517E-2,2.4247158E-2,7.341726E-2,1.636102E-1,3.8760062E-2,1.4006735E-1,1.3986093E-1,2.0101874E-1,1.764748E-1,3.5456368E-1,2.4949902E-1,3.560277E-1,2.475315E-1,4.4430912E-1,4.0650812E-1,5.1081586E-1,1.04538046E-1,5.4737455E-1,6.6264445E-1,8.4833235E-1,-1.6542887E-2,-1.3312252E-2,-1.1708539E-2,-6.264285E-3,-1.9283544E-2,-1.6959948E-2,-1.6434256E-2,-1.4418372E-3,-1.3235173E-2,-1.08591765E-2,-8.435702E-3,-1.2165788E-2,-6.0520065E-3,-1.6348955E-3,1.667538E-3,5.2817065E-2,-1.0820742E-2,3.3892933E-2,-5.6197178E-3,-1.0490848E-2,-7.7856234E-3,-2.793516E-3,8.5317664E-2,7.616631E-4,-3.594905E-3,-1.740935E-4,5.9772376E-4,4.0966105E-3,1.6514894E-4,5.0425264E-3,7.2262483E-3,1.3073753E-2,-1.9464784E-3,3.7424949E-3,3.7384238E-2,6.5369094E-3,1.4947349E-2,6.760359E-3,8.84981E-3,1.2647654E-2,-8.821998E-3,9.116526E-3,2.9453496E-2,1.6033601E-2,6.9094463E-3,1.4443983E-2,1.3957478E-2,1.8727837E-2,5.8927587E-3,1.4589704E-2,7.4802496E-2,2.192088E-2,1.939107E-2,2.812681E-2,2.0147441E-2,2.6602415E-2,2.4724955E-2,-9.915926E-3,2.6393844E-2,3.992808E-2,3.054635E-2,3.9253604E-2,3.587347E-2,4.641382E-2],"categories":[],"categories_nodes":[],"categories_segments":[],"categories_sizes":[],"default_left":[0,0,0,0,0,0,0,0,0,0,0,0,0,0,0,0,0,0,0,0,0,0,0,0,0,0,0,0,0,0,0,0,0,0,0,0,0,0,0,0,0,0,0,0,0,0,0,0,0,0,0,0,0,0,0,0,0,0,0,0,0,0,0,0,0,0,0,0,0,0,0,0,0,0,0,0,0,0,0,0,0,0,0,0,0,0,0,0,0,0,0,0,0,0,0,0,0,0,0,0,0,0,0,0,0,0,0,0,0,0,0,0,0,0,0,0,0,0,0,0,0,0,0,0,0,0,0],"id":7,"left_children":[1,3,5,7,9,11,13,15,17,19,21,23,25,27,29,31,33,35,37,39,41,43,45,47,49,51,53,55,57,59,61,63,65,67,69,71,73,75,77,79,81,83,85,87,89,91,93,95,97,99,101,103,105,107,109,111,113,115,117,119,121,123,125,-1,-1,-1,-1,-1,-1,-1,-1,-1,-1,-1,-1,-1,-1,-1,-1,-1,-1,-1,-1,-1,-1,-1,-1,-1,-1,-1,-1,-1,-1,-1,-1,-1,-1,-1,-1,-1,-1,-1,-1,-1,-1,-1,-1,-1,-1,-1,-1,-1,-1,-1,-1,-1,-1,-1,-1,-1,-1,-1,-1,-1,-1,-1,-1],"loss_changes":[7.4850254E3,1.3908928E3,1.6138696E3,2.782644E2,3.1789444E2,1.9038367E2,2.1145264E2,3.8676758E1,6.0746216E1,5.1153168E1,6.498299E1,7.5339966E1,5.673535E1,3.1579346E1,6.3016357E1,3.1057495E1,6.3690186E0,2.6486328E1,9.709045E0,3.153064E1,1.7683767E1,4.19227E1,1.3816978E1,2.8340721E1,1.6886719E1,3.0957397E1,2.3760254E1,2.143953E1,2.5593994E1,1.8582153E1,3.5163086E1,1.5883301E1,9.998199E0,1.5250854E0,4.6245728E0,3.6008606E0,7.453308E0,9.69632E0,1.5341142E1,9.528076E0,1.189389E1,1.0624889E1,1.1421169E1,1.0409689E1,1.6586384E1,1.2084789E1,4.3141212E0,2.4376396E1,2.2848602E1,6.467209E0,1.157785E1,1.4655212E1,8.823914E0,1.4688522E1,7.8981323E0,7.438835E0,5.366974E0,1.249115E1,1.1704102E1,1.1908295E1,1.1949707E1,1.8996582E1,1.5654297E1,0E0,0E0,0E0,0E0,0E0,0E0,0E0,0E0,0E0,0E0,0E0,0E0,0E0,0E0,0E0,0E0,0E0,0E0,0E0,0E0,0E0,0E0,0E0,0E0,0E0,0E0,0E0,0E0,0E0,0E0,0E0,0E0,0E0,0E0,0E0,0E0,0E0,0E0,0E0,0E0,0E0,0E0,0E0,0E0,0E0,0E0,0E0,0E0,0E0,0E0,0E0,0E0,0E0,0E0,0E0,0E0,0E0,0E0,0E0,0E0,0E0,0E0,0E0,0E0],"parents":[2147483647,0,0,1,1,2,2,3,3,4,4,5,5,6,6,7,7,8,8,9,9,10,10,11,11,12,12,13,13,14,14,15,15,16,16,17,17,18,18,19,19,20,20,21,21,22,22,23,23,24,24,25,25,26,26,27,27,28,28,29,29,30,30,31,31,32,32,33,33,34,34,35,35,36,36,37,37,38,38,39,39,40,40,41,41,42,42,43,43,44,44,45,45,46,46,47,47,48,48,49,49,50,50,51,51,52,52,53,53,54,54,55,55,56,56,57,57,58,58,59,59,60,60,61,61,62,62],"right_children":[2,4,6,8,10,12,14,16,18,20,22,24,26,28,30,32,34,36,38,40,42,44,46,48,50,52,54,56,58,60,62,64,66,68,70,72,74,76,78,80,82,84,86,88,90,92,94,96,98,100,102,104,106,108,110,112,114,116,118,120,122,124,126,-1,-1,-1,-1,-1,-1,-1,-1,-1,-1,-1,-1,-1,-1,-1,-1,-1,-1,-1,-1,-1,-1,-1,-1,-1,-1,-1,-1,-1,-1,-1,-1,-1,-1,-1,-1,-1,-1,-1,-1,-1,-1,-1,-1,-1,-1,-1,-1,-1,-1,-1,-1,-1,-1,-1,-1,-1,-1,-1,-1,-1,-1,-1,-1],"split_conditions":[8.8E-1,5E-1,1.36E0,1.47E1,2.14E1,1.12E0,1.68E0,4E0,2.35E1,7.2E-1,3.21E1,2.68E1,3E1,2.66E1,3.18E1,3.6E-1,2E-1,2.857143E-1,3.61E1,1.36E1,1E0,6.4E-1,3E0,1.2E0,3.16E1,1.6666666E0,1.2E0,1.6E0,1.48E0,1.85E1,2E1,1E1,6.666667E-1,2.3E1,1.2E0,1.89E1,5E0,6.666667E-1,4E0,1.6666666E0,5E0,1.49E1,4.75E0,2.81E1,1.2E0,5E-1,8.4E-1,1.95E1,1E0,1E0,1.04E0,1.34E1,4E0,8E0,6E0,2.02E1,1.14E1,2.9E1,5E0,2E0,2.2E0,2.04E0,1.84E0,-1.6542887E-2,-1.3312252E-2,-1.1708539E-2,-6.264285E-3,-1.9283544E-2,-1.6959948E-2,-1.6434256E-2,-1.4418372E-3,-1.3235173E-2,-1.08591765E-2,-8.435702E-3,-1.2165788E-2,-6.0520065E-3,-1.6348955E-3,1.667538E-3,5.2817065E-2,-1.0820742E-2,3.3892933E-2,-5.6197178E-3,-1.0490848E-2,-7.7856234E-3,-2.793516E-3,8.5317664E-2,7.616631E-4,-3.594905E-3,-1.740935E-4,5.9772376E-4,4.0966105E-3,1.6514894E-4,5.0425264E-3,7.2262483E-3,1.3073753E-2,-1.9464784E-3,3.7424949E-3,3.7384238E-2,6.5369094E-3,1.4947349E-2,6.760359E-3,8.84981E-3,1.2647654E-2,-8.821998E-3,9.116526E-3,2.9453496E-2,1.6033601E-2,6.9094463E-3,1.4443983E-2,1.3957478E-2,1.8727837E-2,5.8927587E-3,1.4589704E-2,7.4802496E-2,2.192088E-2,1.939107E-2,2.812681E-2,2.0147441E-2,2.6602415E-2,2.4724955E-2,-9.915926E-3,2.6393844E-2,3.992808E-2,3.054635E-2,3.9253604E-2,3.587347E-2,4.641382E-2],"split_indices":[8,8,8,5,5,8,8,4,5,8,5,5,5,5,5,8,8,8,5,5,6,8,4,6,5,6,8,6,8,5,2,5,6,2,6,5,4,6,4,6,4,5,5,5,6,6,8,5,4,2,8,5,2,2,2,5,5,1,2,6,8,8,8,0,0,0,0,0,0,0,0,0,0,0,0,0,0,0,0,0,0,0,0,0,0,0,0,0,0,0,0,0,0,0,0,0,0,0,0,0,0,0,0,0,0,0,0,0,0,0,0,0,0,0,0,0,0,0,0,0,0,0,0,0,0,0,0],"split_type":[0,0,0,0,0,0,0,0,0,0,0,0,0,0,0,0,0,0,0,0,0,0,0,0,0,0,0,0,0,0,0,0,0,0,0,0,0,0,0,0,0,0,0,0,0,0,0,0,0,0,0,0,0,0,0,0,0,0,0,0,0,0,0,0,0,0,0,0,0,0,0,0,0,0,0,0,0,0,0,0,0,0,0,0,0,0,0,0,0,0,0,0,0,0,0,0,0,0,0,0,0,0,0,0,0,0,0,0,0,0,0,0,0,0,0,0,0,0,0,0,0,0,0,0,0,0,0],"sum_hessian":[2.0427E5,1.37152E5,6.7118E4,6.7733E4,6.9419E4,4.8027E4,1.9091E4,3.4242E4,3.3491E4,2.6791E4,4.2628E4,3.0843E4,1.7184E4,1.1833E4,7.258E3,2.243E4,1.1812E4,2.3569E4,9.922E3,1.8946E4,7.845E3,3.4017E4,8.611E3,1.2739E4,1.8104E4,8.208E3,8.976E3,2.272E3,9.561E3,2.624E3,4.634E3,1.5308E4,7.122E3,4.371E3,7.441E3,7.176E3,1.6393E4,9.799E3,1.23E2,5.075E3,1.3871E4,5.313E3,2.532E3,1.0626E4,2.3391E4,6.282E3,2.329E3,8.692E3,4.047E3,8.789E3,9.315E3,7.075E3,1.133E3,3.359E3,5.617E3,1.301E3,9.71E2,4.358E3,5.203E3,9.9E1,2.525E3,3.075E3,1.559E3,7.804E3,7.504E3,6.14E3,9.82E2,3.372E3,9.99E2,7.389E3,5.2E1,4.701E3,2.475E3,1.4916E4,1.477E3,8.338E3,1.461E3,1.07E2,1.6E1,5.064E3,1.1E1,1.2477E4,1.394E3,1.476E3,3.837E3,3E0,2.529E3,7.457E3,3.169E3,1.9283E4,4.108E3,1.767E3,4.515E3,1.951E3,3.78E2,2.757E3,5.935E3,6E1,3.987E3,2.48E2,8.541E3,6.372E3,2.943E3,1.15E2,6.96E3,1.41E2,9.92E2,8.79E2,2.48E3,1.094E3,4.523E3,3.32E2,9.69E2,4E0,9.67E2,3.895E3,4.63E2,8.59E2,4.344E3,4.3E1,5.6E1,2.346E3,1.79E2,2.166E3,9.09E2,5.95E2,9.64E2],"tree_param":{"num_deleted":"0","num_feature":"9","num_nodes":"127","size_leaf_vector":"1"}},{"base_weights":[-7.8792457E-4,-1.2666152E-1,2.555233E-1,-2.212904E-1,-3.0721057E-2,1.6402452E-1,4.8496574E-1,-2.8594387E-1,-1.683568E-1,-1.1816202E-1,1.6210748E-2,1.1602309E-1,2.491119E-1,4.3395892E-1,6.673756E-1,-3.2891074E-1,-2.5010303E-1,-1.9771071E-1,-8.62889E-2,-1.3818926E-1,-4.1579816E-2,-1.5268828E-2,7.498299E-2,4.654343E-2,1.5248235E-1,1.8350445E-1,3.056846E-1,3.8344857E-1,5.006129E-1,5.5326927E-1,7.5310594E-1,-3.5273317E-1,-3.0132127E-1,-2.7322093E-1,-2.3198085E-1,-2.3411256E-1,-1.6606033E-1,-6.632701E-2,-1.7457962E-1,-1.9718389E-1,-1.1646781E-1,-8.152682E-2,5.970103E-3,-5.2997157E-2,8.8145E-3,2.2409113E-2,1.1310757E-1,2.1818858E-2,1.4369184E-1,1.264207E-1,1.8278454E-1,1.9766767E-1,2.557053E-2,2.585366E-1,3.3139294E-1,3.223955E-1,4.1395596E-1,9.266376E-2,5.135727E-1,8.0310315E-1,5.021652E-1,6.9221854E-1,8.9517343E-1,-1.6954526E-2,-1.8507008E-2,-1.757253E-2,-1.4180692E-2,-1.4629615E-2,-1.1068578E-2,-1.2301216E-2,-9.6043935E-3,-1.0061725E-2,-1.3893132E-2,-7.895356E-3,-1.1744044E-2,-4.3061227E-3,2.3665778E-4,-1.3158177E-2,-3.446753E-3,-8.211156E-3,-1.1307131E-2,-6.173401E-3,-1.6111324E-3,-4.639994E-3,8.631716E-3,-4.76004E-4,5.768968E-3,-3.482356E-3,5.509076E-4,6.122508E-4,-4.883627E-3,-6.9468915E-3,1.2516825E-3,4.7570183E-3,7.889263E-3,-1.6341796E-2,1.4429236E-3,8.726581E-3,-3.1228254E-3,6.9987173E-3,4.529587E-3,1.887103E-2,8.796631E-3,8.691835E-3,1.3095363E-2,2.9322943E-2,1.3184943E-4,1.31723005E-2,-4.285635E-3,1.4169115E-2,1.9206462E-2,1.1391882E-2,1.7754493E-2,1.8005418E-2,2.1592086E-2,6.828134E-3,-3.0323302E-2,2.167939E-2,2.7183926E-2,3.2551315E-2,5.1702727E-2,-1.4897908E-2,2.5687546E-2,3.154684E-2,4.0644646E-2,3.8683195E-2,5.3138193E-2],"categories":[],"categories_nodes":[],"categories_segments":[],"categories_sizes":[],"default_left":[0,0,0,0,0,0,0,0,0,0,0,0,0,0,0,0,0,0,0,0,0,0,0,0,0,0,0,0,0,0,0,0,0,0,0,0,0,0,0,0,0,0,0,0,0,0,0,0,0,0,0,0,0,0,0,0,0,0,0,0,0,0,0,0,0,0,0,0,0,0,0,0,0,0,0,0,0,0,0,0,0,0,0,0,0,0,0,0,0,0,0,0,0,0,0,0,0,0,0,0,0,0,0,0,0,0,0,0,0,0,0,0,0,0,0,0,0,0,0,0,0,0,0,0,0,0,0],"id":8,"left_children":[1,3,5,7,9,11,13,15,17,19,21,23,25,27,29,31,33,35,37,39,41,43,45,47,49,51,53,55,57,59,61,63,65,67,69,71,73,75,77,79,81,83,85,87,89,91,93,95,97,99,101,103,105,107,109,111,113,115,117,119,121,123,125,-1,-1,-1,-1,-1,-1,-1,-1,-1,-1,-1,-1,-1,-1,-1,-1,-1,-1,-1,-1,-1,-1,-1,-1,-1,-1,-1,-1,-1,-1,-1,-1,-1,-1,-1,-1,-1,-1,-1,-1,-1,-1,-1,-1,-1,-1,-1,-1,-1,-1,-1,-1,-1,-1,-1,-1,-1,-1,-1,-1,-1,-1,-1,-1],"loss_changes":[6.586615E3,1.2430176E3,1.4115156E3,2.3585034E2,2.7900854E2,1.9630823E2,1.7806201E2,4.769995E1,9.128931E1,3.6414154E1,8.185625E1,7.785007E1,6.429175E1,5.0251465E1,4.0542114E1,9.166138E0,7.0255127E0,3.2124023E1,1.7590004E1,2.4097778E1,9.35351E0,2.6179735E1,3.0928703E1,2.540712E1,1.5895416E1,1.7956879E1,1.1196533E1,1.575061E1,3.4084717E1,2.2578308E1,2.0036743E1,1.6710205E0,5.7091675E0,7.397888E0,5.270508E0,1.861615E1,8.343628E0,1.1460522E1,1.7210693E1,4.7964478E0,8.110764E0,7.683222E0,3.812635E0,1.1966021E1,6.425824E0,2.7508943E0,7.1654434E0,2.07098E1,1.3654243E1,5.251343E0,1.2360382E1,1.1235626E1,8.513863E0,5.5811768E0,1.5133179E1,8.717499E0,5.31781E0,6.2210274E0,1.4831299E1,1.0003998E1,1.4030304E1,1.1881409E1,1.3697205E1,0E0,0E0,0E0,0E0,0E0,0E0,0E0,0E0,0E0,0E0,0E0,0E0,0E0,0E0,0E0,0E0,0E0,0E0,0E0,0E0,0E0,0E0,0E0,0E0,0E0,0E0,0E0,0E0,0E0,0E0,0E0,0E0,0E0,0E0,0E0,0E0,0E0,0E0,0E0,0E0,0E0,0E0,0E0,0E0,0E0,0E0,0E0,0E0,0E0,0E0,0E0,0E0,0E0,0E0,0E0,0E0,0E0,0E0,0E0,0E0,0E0,0E0,0E0,0E0],"parents":[2147483647,0,0,1,1,2,2,3,3,4,4,5,5,6,6,7,7,8,8,9,9,10,10,11,11,12,12,13,13,14,14,15,15,16,16,17,17,18,18,19,19,20,20,21,21,22,22,23,23,24,24,25,25,26,26,27,27,28,28,29,29,30,30,31,31,32,32,33,33,34,34,35,35,36,36,37,37,38,38,39,39,40,40,41,41,42,42,43,43,44,44,45,45,46,46,47,47,48,48,49,49,50,50,51,51,52,52,53,53,54,54,55,55,56,56,57,57,58,58,59,59,60,60,61,61,62,62],"right_children":[2,4,6,8,10,12,14,16,18,20,22,24,26,28,30,32,34,36,38,40,42,44,46,48,50,52,54,56,58,60,62,64,66,68,70,72,74,76,78,80,82,84,86,88,90,92,94,96,98,100,102,104,106,108,110,112,114,116,118,120,122,124,126,-1,-1,-1,-1,-1,-1,-1,-1,-1,-1,-1,-1,-1,-1,-1,-1,-1,-1,-1,-1,-1,-1,-1,-1,-1,-1,-1,-1,-1,-1,-1,-1,-1,-1,-1,-1,-1,-1,-1,-1,-1,-1,-1,-1,-1,-1,-1,-1,-1,-1,-1,-1,-1,-1,-1,-1,-1,-1,-1,-1,-1,-1,-1,-1],"split_conditions":[8.8E-1,1.92E1,1.36E0,3.6E-1,5.6E-1,1.12E0,1.84E0,1E1,6.363636E-1,2.86E1,2.93E1,2.55E1,2.98E1,1.56E0,3.29E1,1.25E-1,1.34E1,1.4E1,4E0,3.3333334E-1,4.8E-1,6.8E-1,7.058824E-1,1.1111112E0,3.16E1,5E0,3.25E1,2.94E1,2.08E1,2.78E2,2.1E1,9.66E2,5.8E0,2.2E1,2.857143E-1,3E0,5E0,8.75E-1,1.52E1,1.4E1,7.1428573E-1,3.55E1,4E0,2.71E1,1E1,1.4E1,3.4E1,9.4E0,4E0,3E0,1E0,2.2E1,1E0,1.632E3,1.2142857E0,1.4E0,4.27E2,2.06E1,8E0,2.04E0,1.31E1,2.2857144E0,1.041E3,-1.6954526E-2,-1.8507008E-2,-1.757253E-2,-1.4180692E-2,-1.4629615E-2,-1.1068578E-2,-1.2301216E-2,-9.6043935E-3,-1.0061725E-2,-1.3893132E-2,-7.895356E-3,-1.1744044E-2,-4.3061227E-3,2.3665778E-4,-1.3158177E-2,-3.446753E-3,-8.211156E-3,-1.1307131E-2,-6.173401E-3,-1.6111324E-3,-4.639994E-3,8.631716E-3,-4.76004E-4,5.768968E-3,-3.482356E-3,5.509076E-4,6.122508E-4,-4.883627E-3,-6.9468915E-3,1.2516825E-3,4.7570183E-3,7.889263E-3,-1.6341796E-2,1.4429236E-3,8.726581E-3,-3.1228254E-3,6.9987173E-3,4.529587E-3,1.887103E-2,8.796631E-3,8.691835E-3,1.3095363E-2,2.9322943E-2,1.3184943E-4,1.31723005E-2,-4.285635E-3,1.4169115E-2,1.9206462E-2,1.1391882E-2,1.7754493E-2,1.8005418E-2,2.1592086E-2,6.828134E-3,-3.0323302E-2,2.167939E-2,2.7183926E-2,3.2551315E-2,5.1702727E-2,-1.4897908E-2,2.5687546E-2,3.154684E-2,4.0644646E-2,3.8683195E-2,5.3138193E-2],"split_indices":[8,5,8,8,8,8,8,5,8,5,5,5,5,8,5,7,5,5,4,8,8,8,8,7,5,4,5,5,5,0,2,0,5,2,8,4,4,7,5,2,7,5,4,5,4,0,5,5,4,4,2,2,2,0,8,8,0,5,2,8,5,7,0,0,0,0,0,0,0,0,0,0,0,0,0,0,0,0,0,0,0,0,0,0,0,0,0,0,0,0,0,0,0,0,0,0,0,0,0,0,0,0,0,0,0,0,0,0,0,0,0,0,0,0,0,0,0,0,0,0,0,0,0,0,0,0,0],"split_type":[0,0,0,0,0,0,0,0,0,0,0,0,0,0,0,0,0,0,0,0,0,0,0,0,0,0,0,0,0,0,0,0,0,0,0,0,0,0,0,0,0,0,0,0,0,0,0,0,0,0,0,0,0,0,0,0,0,0,0,0,0,0,0,0,0,0,0,0,0,0,0,0,0,0,0,0,0,0,0,0,0,0,0,0,0,0,0,0,0,0,0,0,0,0,0,0,0,0,0,0,0,0,0,0,0,0,0,0,0,0,0,0,0,0,0,0,0,0,0,0,0,0,0,0,0,0,0],"sum_hessian":[2.04153E5,1.36915E5,6.7238E4,6.8928E4,6.7987E4,4.807E4,1.9168E4,3.1027E4,3.7901E4,2.3745E4,4.4242E4,3.0734E4,1.7336E4,1.4982E4,4.186E3,1.4107E4,1.692E4,2.7915E4,9.986E3,1.8822E4,4.923E3,2.8811E4,1.5431E4,1.0578E4,2.0156E4,8.029E3,9.307E3,8.527E3,6.455E3,1.799E3,2.387E3,7.564E3,6.543E3,7.429E3,9.491E3,1.298E4,1.4935E4,8.146E3,1.84E3,5.063E3,1.3759E4,2.675E3,2.248E3,1.1225E4,1.7586E4,6.487E3,8.944E3,8.433E3,2.145E3,1.0839E4,9.317E3,7.368E3,6.61E2,3.288E3,6.019E3,2.845E3,5.682E3,1.99E2,6.256E3,3.03E2,1.496E3,1.675E3,7.12E2,4.252E3,3.312E3,1.703E3,4.84E3,5.405E3,2.024E3,7.016E3,2.475E3,7.414E3,5.566E3,1.3356E4,1.579E3,6.371E3,1.775E3,1E3,8.4E2,2.371E3,2.692E3,1.2703E4,1.056E3,2.562E3,1.13E2,1.97E3,2.78E2,8.908E3,2.317E3,1.7038E4,5.48E2,1.03E2,6.384E3,6.381E3,2.563E3,1.66E2,8.267E3,1.866E3,2.79E2,7.862E3,2.977E3,3.15E2,9.002E3,5.377E3,1.991E3,2.5E1,6.36E2,3.242E3,4.6E1,3.154E3,2.865E3,7.33E2,2.112E3,1.422E3,4.26E3,1.88E2,1.1E1,1.715E3,4.541E3,1.85E2,1.18E2,2.1E1,1.475E3,1.115E3,5.6E2,4.16E2,2.96E2],"tree_param":{"num_deleted":"0","num_feature":"9","num_nodes":"127","size_leaf_vector":"1"}},{"base_weights":[-1.7205808E-5,-1.3435087E-1,1.8623006E-1,-2.167562E-1,-3.3662453E-2,9.595014E-2,3.6314303E-1,-2.8088126E-1,-1.7888236E-1,-6.511084E-2,4.8570953E-2,5.0440696E-3,1.5423109E-1,2.8696787E-1,4.9606252E-1,-3.0452076E-1,-2.2840239E-1,-2.1080104E-1,-1.2905878E-1,-1.1371587E-1,-3.346223E-2,-1.7114295E-2,7.227875E-2,-6.245079E-2,2.6050964E-2,1.14949875E-1,2.0274854E-1,2.48285E-1,3.691243E-1,3.0251625E-1,5.328089E-1,-3.3423766E-1,-2.8514162E-1,-1.8658224E-1,-2.7678737E-1,-2.3656091E-1,-1.9745097E-1,-1.1022785E-1,-2.2293295E-1,-1.4045787E-1,-7.059193E-2,-6.539812E-2,-1.1616085E-2,-3.378486E-1,-8.799766E-3,3.8619045E-2,1.0235028E-1,-8.093115E-2,3.921131E-2,3.6568675E-2,-9.326873E-2,7.77321E-2,1.4914693E-1,1.7001678E-1,2.563131E-1,1.9423448E-1,2.8378186E-1,6.3618845E-1,3.6029333E-1,2.1510544E-1,4.7556156E-1,4.9098974E-1,6.191626E-1,-1.6106078E-2,-1.7616427E-2,-1.3457501E-2,-1.56169785E-2,2.0945214E-2,-9.575987E-3,-1.7869389E-2,-1.2273136E-2,-1.0922708E-2,-1.3323583E-2,-1.0779921E-2,-8.628987E-3,-6.2925154E-3,-4.056781E-3,-1.3067371E-2,-8.925149E-3,-8.159383E-3,-5.65448E-3,-3.5668798E-3,1.0695336E-1,-4.33536E-3,-1.1606787E-3,-2.4352928E-3,1.1634439E-3,-1.856563E-2,4.2838514E-2,-6.7839125E-4,1.5896445E-2,-3.1863654E-4,3.1818834E-3,-7.4937153E-3,5.4809256E-3,-1.0029078E-2,-2.7653507E-3,5.099678E-3,-4.9581933E-3,1.236036E-3,7.020177E-3,-4.905918E-3,3.2496437E-2,3.0533825E-3,6.9612875E-3,5.589281E-3,8.438384E-3,7.6451525E-3,1.0785423E-2,1.118808E-2,1.7214356E-2,5.499072E-3,1.2963347E-2,3.9647106E-2,1.36532085E-2,7.0937894E-2,2.7479295E-2,6.5694787E-3,1.8449336E-2,-3.3491836E-3,1.2035763E-2,2.8674519E-2,1.3343384E-2,2.173951E-2,2.6710777E-2,3.0209636E-2,5.285266E-2],"categories":[],"categories_nodes":[],"categories_segments":[],"categories_sizes":[],"default_left":[0,0,0,0,0,0,0,0,0,0,0,0,0,0,0,0,0,0,0,0,0,0,0,0,0,0,0,0,0,0,0,0,0,0,0,0,0,0,0,0,0,0,0,0,0,0,0,0,0,0,0,0,0,0,0,0,0,0,0,0,0,0,0,0,0,0,0,0,0,0,0,0,0,0,0,0,0,0,0,0,0,0,0,0,0,0,0,0,0,0,0,0,0,0,0,0,0,0,0,0,0,0,0,0,0,0,0,0,0,0,0,0,0,0,0,0,0,0,0,0,0,0,0,0,0,0,0],"id":9,"left_children":[1,3,5,7,9,11,13,15,17,19,21,23,25,27,29,31,33,35,37,39,41,43,45,47,49,51,53,55,57,59,61,63,65,67,69,71,73,75,77,79,81,83,85,87,89,91,93,95,97,99,101,103,105,107,109,111,113,115,117,119,121,123,125,-1,-1,-1,-1,-1,-1,-1,-1,-1,-1,-1,-1,-1,-1,-1,-1,-1,-1,-1,-1,-1,-1,-1,-1,-1,-1,-1,-1,-1,-1,-1,-1,-1,-1,-1,-1,-1,-1,-1,-1,-1,-1,-1,-1,-1,-1,-1,-1,-1,-1,-1,-1,-1,-1,-1,-1,-1,-1,-1,-1,-1,-1,-1,-1],"loss_changes":[5.1098125E3,9.844961E2,1.3668384E3,1.5842236E2,1.3811166E2,3.002209E2,2.9263647E2,2.998584E1,6.5214966E1,5.9421555E1,2.3008095E1,3.1390154E1,6.57829E1,5.8333496E1,7.475098E1,9.522095E0,1.518103E1,8.552002E0,2.8298126E1,1.7558243E1,1.6323463E1,1.0448038E1,1.0984478E1,9.876019E0,2.1192322E1,2.4276077E1,2.7039062E1,2.3931519E1,1.3645569E1,2.5354797E1,3.165918E1,1.3301392E0,4.3153076E0,1.2161179E1,8.7187195E0,4.5615234E0,7.3988037E0,6.055893E0,4.5206146E0,5.8302917E0,9.763443E0,8.541267E0,1.797953E1,4.2758245E0,5.956902E0,5.7681456E0,1.0526302E1,1.3623138E1,7.0383043E0,1.908602E1,4.9943686E0,9.357788E0,7.2706604E0,7.4667664E0,1.6695587E1,2.7142761E1,4.095117E1,1.189373E1,1.1288269E1,8.107285E0,1.1373512E1,1.4265503E1,1.8266357E1,0E0,0E0,0E0,0E0,0E0,0E0,0E0,0E0,0E0,0E0,0E0,0E0,0E0,0E0,0E0,0E0,0E0,0E0,0E0,0E0,0E0,0E0,0E0,0E0,0E0,0E0,0E0,0E0,0E0,0E0,0E0,0E0,0E0,0E0,0E0,0E0,0E0,0E0,0E0,0E0,0E0,0E0,0E0,0E0,0E0,0E0,0E0,0E0,0E0,0E0,0E0,0E0,0E0,0E0,0E0,0E0,0E0,0E0,0E0,0E0,0E0,0E0,0E0,0E0],"parents":[2147483647,0,0,1,1,2,2,3,3,4,4,5,5,6,6,7,7,8,8,9,9,10,10,11,11,12,12,13,13,14,14,15,15,16,16,17,17,18,18,19,19,20,20,21,21,22,22,23,23,24,24,25,25,26,26,27,27,28,28,29,29,30,30,31,31,32,32,33,33,34,34,35,35,36,36,37,37,38,38,39,39,40,40,41,41,42,42,43,43,44,44,45,45,46,46,47,47,48,48,49,49,50,50,51,51,52,52,53,53,54,54,55,55,56,56,57,57,58,58,59,59,60,60,61,61,62,62],"right_children":[2,4,6,8,10,12,14,16,18,20,22,24,26,28,30,32,34,36,38,40,42,44,46,48,50,52,54,56,58,60,62,64,66,68,70,72,74,76,78,80,82,84,86,88,90,92,94,96,98,100,102,104,106,108,110,112,114,116,118,120,122,124,126,-1,-1,-1,-1,-1,-1,-1,-1,-1,-1,-1,-1,-1,-1,-1,-1,-1,-1,-1,-1,-1,-1,-1,-1,-1,-1,-1,-1,-1,-1,-1,-1,-1,-1,-1,-1,-1,-1,-1,-1,-1,-1,-1,-1,-1,-1,-1,-1,-1,-1,-1,-1,-1,-1,-1,-1,-1,-1,-1,-1,-1,-1,-1,-1],"split_conditions":[8E-1,1.93E1,1.3E0,1.11E1,2.94E1,2.55E1,1.7E0,4E-1,4.2857143E-1,5E-1,5E-1,1.73E1,3.16E1,3.32E1,2.72E1,6.5E0,3E0,1.37E1,4E0,2.45E1,2.33E1,1E0,3.21E1,1.3333334E0,5E0,1E0,1.1E0,1.4E0,1E0,2.2E0,2.1E0,1.021E3,4E0,1E0,9E0,3E0,4E-1,6.666667E-1,1.54E1,2.5E-1,1.684E3,7.5E-1,1.5E1,3E1,3.77E1,1E1,1E0,1.24E1,3E0,1.2E0,1.684E3,2.4E1,2.78E1,3E0,3.55E1,2.73E1,1E0,1E0,6.666667E-1,1.75E1,2E1,3.29E1,1.605E3,-1.6106078E-2,-1.7616427E-2,-1.3457501E-2,-1.56169785E-2,2.0945214E-2,-9.575987E-3,-1.7869389E-2,-1.2273136E-2,-1.0922708E-2,-1.3323583E-2,-1.0779921E-2,-8.628987E-3,-6.2925154E-3,-4.056781E-3,-1.3067371E-2,-8.925149E-3,-8.159383E-3,-5.65448E-3,-3.5668798E-3,1.0695336E-1,-4.33536E-3,-1.1606787E-3,-2.4352928E-3,1.1634439E-3,-1.856563E-2,4.2838514E-2,-6.7839125E-4,1.5896445E-2,-3.1863654E-4,3.1818834E-3,-7.4937153E-3,5.4809256E-3,-1.0029078E-2,-2.7653507E-3,5.099678E-3,-4.9581933E-3,1.236036E-3,7.020177E-3,-4.905918E-3,3.2496437E-2,3.0533825E-3,6.9612875E-3,5.589281E-3,8.438384E-3,7.6451525E-3,1.0785423E-2,1.118808E-2,1.7214356E-2,5.499072E-3,1.2963347E-2,3.9647106E-2,1.36532085E-2,7.0937894E-2,2.7479295E-2,6.5694787E-3,1.8449336E-2,-3.3491836E-3,1.2035763E-2,2.8674519E-2,1.3343384E-2,2.173951E-2,2.6710777E-2,3.0209636E-2,5.285266E-2],"split_indices":[7,5,7,5,5,5,7,6,7,7,7,5,5,5,5,5,4,5,4,5,5,4,5,6,4,7,7,6,2,6,7,0,4,4,1,4,6,6,5,6,0,6,1,2,5,1,4,5,4,7,0,1,5,4,5,5,4,6,6,5,2,5,0,0,0,0,0,0,0,0,0,0,0,0,0,0,0,0,0,0,0,0,0,0,0,0,0,0,0,0,0,0,0,0,0,0,0,0,0,0,0,0,0,0,0,0,0,0,0,0,0,0,0,0,0,0,0,0,0,0,0,0,0,0,0,0,0],"split_type":[0,0,0,0,0,0,0,0,0,0,0,0,0,0,0,0,0,0,0,0,0,0,0,0,0,0,0,0,0,0,0,0,0,0,0,0,0,0,0,0,0,0,0,0,0,0,0,0,0,0,0,0,0,0,0,0,0,0,0,0,0,0,0,0,0,0,0,0,0,0,0,0,0,0,0,0,0,0,0,0,0,0,0,0,0,0,0,0,0,0,0,0,0,0,0,0,0,0,0,0,0,0,0,0,0,0,0,0,0,0,0,0,0,0,0,0,0,0,0,0,0,0,0,0,0,0,0],"sum_hessian":[2.04233E5,1.18653E5,8.558E4,6.525E4,5.3403E4,5.6665E4,2.8915E4,2.4226E4,4.1024E4,3.863E4,1.4773E4,2.2137E4,3.4528E4,1.8383E4,1.0532E4,1.6699E4,7.527E3,2.5003E4,1.6021E4,1.5233E4,2.3397E4,3.918E3,1.0855E4,5.254E3,1.6883E4,1.9082E4,1.5446E4,1.2501E4,5.882E3,1.682E3,8.85E3,6.585E3,1.0114E4,4.04E3,3.487E3,8.529E3,1.6474E4,1.3346E4,2.675E3,9.401E3,5.832E3,9.503E3,1.3894E4,9.8E1,3.82E3,5.123E3,5.732E3,4.446E3,8.08E2,1.5516E4,1.367E3,9.139E3,9.943E3,9.59E3,5.856E3,4.958E3,7.543E3,1.86E2,5.696E3,1.119E3,5.63E2,5.967E3,2.883E3,3.955E3,2.63E3,6.376E3,3.738E3,3.2E1,4.008E3,9.73E2,2.514E3,5.318E3,3.211E3,9.52E3,6.954E3,8.681E3,4.665E3,1.432E3,1.243E3,5.133E3,4.268E3,5.831E3,1E0,6.313E3,3.19E3,6.734E3,7.16E3,9.6E1,2E0,3.766E3,5.4E1,1.831E3,3.292E3,1.6E2,5.572E3,7.83E2,3.663E3,5.56E2,2.52E2,1.3928E4,1.588E3,1.359E3,8E0,7.192E3,1.947E3,3.426E3,6.517E3,6.98E3,2.61E3,4.277E3,1.579E3,2.161E3,2.797E3,1.54E2,7.389E3,1.7E1,1.69E2,2.09E2,5.487E3,9.3E1,1.026E3,3.82E2,1.81E2,2.599E3,3.368E3,2.79E3,9.3E1],"tree_param":{"num_deleted":"0","num_feature":"9","num_nodes":"127","size_leaf_vector":"1"}},{"base_weights":[-1.6878916E-4,-9.4440185E-2,2.4040666E-1,-1.9384114E-1,-9.2042366E-4,1.654328E-1,4.0712318E-1,-2.332754E-1,-1.1970914E-1,-3.7707116E-2,7.691755E-2,8.894616E-2,2.2885491E-1,3.3560184E-1,4.9260646E-1,-2.6474902E-1,-1.8295772E-1,-9.826252E-2,-2.0932296E-1,-8.9361094E-2,2.2845373E-3,6.611096E-3,1.0394824E-1,5.847454E-2,1.5151401E-1,1.9687276E-1,2.9645067E-1,2.7731705E-1,4.0583786E-1,2.749121E-1,5.284178E-1,-2.4469611E-1,-2.9897794E-1,-2.0594244E-1,-1.5104076E-1,-1.2897009E-1,-5.4242335E-2,-2.3899622E-1,-8.8773616E-2,-1.1939871E-1,-4.8853662E-2,-3.9826915E-2,3.0063383E-2,-3.3474913E-1,1.5066279E-2,6.103998E-2,1.3158762E-1,-1.802754E-1,6.730909E-2,7.5352764E-1,1.4309642E-1,1.815834E-1,2.7282426E-1,3.1213027E-1,1.8448383E-1,1.8690038E-1,3.1068575E-1,2.285074E-1,4.3149993E-1,1.8827397E-1,4.1326395E-1,9.5032454E-1,5.1659447E-1,-1.4158663E-2,-1.1147042E-2,-1.3895385E-2,-1.6191972E-2,-2.5438478E-2,-1.0215555E-2,-7.7047846E-3,3.158128E-3,-1.176137E-2,-5.953006E-3,3.53411E-2,-2.9641322E-3,-1.3596631E-2,-1.0625031E-2,-9.303479E-3,-4.54108E-4,-7.2435983E-3,-4.5514274E-3,-1.7442307E-2,-2.1345401E-3,-4.2896727E-3,-1.357174E-3,9.295206E-5,3.395373E-3,-2.619787E-2,-1.0822916E-2,-2.8540357E-4,2.9912249E-3,2.5290197E-3,6.398484E-3,5.717457E-3,8.7976E-3,3.3789158E-3,-1.1217867E-2,3.9734407E-3,-5.533178E-4,2.4332955E-2,5.8413107E-2,1.8113417E-3,8.397924E-3,6.6352314E-3,9.81336E-3,1.1210476E-2,1.9451506E-2,1.365666E-2,1.8771043E-2,1.3303799E-2,5.39027E-3,-9.0783014E-4,1.0542556E-2,1.3031721E-2,1.9710047E-2,1.7929321E-2,6.7218416E-3,2.0273035E-2,2.6169455E-2,1.4247039E-2,2.5426652E-3,-1.3211751E-2,2.1802125E-2,4.3396857E-2,1.1691325E-1,2.3864977E-2,2.8573183E-2],"categories":[],"categories_nodes":[],"categories_segments":[],"categories_sizes":[],"default_left":[0,0,0,0,0,0,0,0,0,0,0,0,0,0,0,0,0,0,0,0,0,0,0,0,0,0,0,0,0,0,0,0,0,0,0,0,0,0,0,0,0,0,0,0,0,0,0,0,0,0,0,0,0,0,0,0,0,0,0,0,0,0,0,0,0,0,0,0,0,0,0,0,0,0,0,0,0,0,0,0,0,0,0,0,0,0,0,0,0,0,0,0,0,0,0,0,0,0,0,0,0,0,0,0,0,0,0,0,0,0,0,0,0,0,0,0,0,0,0,0,0,0,0,0,0,0,0],"id":10,"left_children":[1,3,5,7,9,11,13,15,17,19,21,23,25,27,29,31,33,35,37,39,41,43,45,47,49,51,53,55,57,59,61,63,65,67,69,71,73,75,77,79,81,83,85,87,89,91,93,95,97,99,101,103,105,107,109,111,113,115,117,119,121,123,125,-1,-1,-1,-1,-1,-1,-1,-1,-1,-1,-1,-1,-1,-1,-1,-1,-1,-1,-1,-1,-1,-1,-1,-1,-1,-1,-1,-1,-1,-1,-1,-1,-1,-1,-1,-1,-1,-1,-1,-1,-1,-1,-1,-1,-1,-1,-1,-1,-1,-1,-1,-1,-1,-1,-1,-1,-1,-1,-1,-1,-1,-1,-1,-1],"loss_changes":[4.6337383E3,1.3645806E3,7.189221E2,2.0799414E2,2.1657628E2,1.9246509E2,1.0892456E2,7.351196E1,4.7471863E1,1.0610012E2,4.61304E1,3.428795E1,4.6836548E1,3.9670044E1,6.3204468E1,1.953894E1,1.3083496E1,2.6948318E1,1.704509E1,2.7265106E1,3.3867126E1,1.946423E1,2.078537E1,2.5531918E1,2.9744858E1,1.7053345E1,1.2170166E1,1.5974762E1,1.9947021E1,1.3706718E1,3.431299E1,1.502356E1,5.4370728E0,5.0288086E0,4.909683E0,1.2340591E1,3.1481749E1,3.2827911E0,7.3177633E0,9.287018E0,1.7632023E1,6.7064075E0,1.8619026E1,3.5347843E0,6.118576E0,4.8036194E0,8.134674E0,4.735137E0,1.1120762E1,8.3965E0,1.5433716E1,8.775452E0,1.3843994E1,1.4972961E1,5.3392696E0,7.0514946E0,1.6115814E1,6.792057E0,8.992615E0,9.403875E0,6.936363E0,1.9582458E1,1.4364746E1,0E0,0E0,0E0,0E0,0E0,0E0,0E0,0E0,0E0,0E0,0E0,0E0,0E0,0E0,0E0,0E0,0E0,0E0,0E0,0E0,0E0,0E0,0E0,0E0,0E0,0E0,0E0,0E0,0E0,0E0,0E0,0E0,0E0,0E0,0E0,0E0,0E0,0E0,0E0,0E0,0E0,0E0,0E0,0E0,0E0,0E0,0E0,0E0,0E0,0E0,0E0,0E0,0E0,0E0,0E0,0E0,0E0,0E0,0E0,0E0,0E0,0E0,0E0,0E0],"parents":[2147483647,0,0,1,1,2,2,3,3,4,4,5,5,6,6,7,7,8,8,9,9,10,10,11,11,12,12,13,13,14,14,15,15,16,16,17,17,18,18,19,19,20,20,21,21,22,22,23,23,24,24,25,25,26,26,27,27,28,28,29,29,30,30,31,31,32,32,33,33,34,34,35,35,36,36,37,37,38,38,39,39,40,40,41,41,42,42,43,43,44,44,45,45,46,46,47,47,48,48,49,49,50,50,51,51,52,52,53,53,54,54,55,55,56,56,57,57,58,58,59,59,60,60,61,61,62,62],"right_children":[2,4,6,8,10,12,14,16,18,20,22,24,26,28,30,32,34,36,38,40,42,44,46,48,50,52,54,56,58,60,62,64,66,68,70,72,74,76,78,80,82,84,86,88,90,92,94,96,98,100,102,104,106,108,110,112,114,116,118,120,122,124,126,-1,-1,-1,-1,-1,-1,-1,-1,-1,-1,-1,-1,-1,-1,-1,-1,-1,-1,-1,-1,-1,-1,-1,-1,-1,-1,-1,-1,-1,-1,-1,-1,-1,-1,-1,-1,-1,-1,-1,-1,-1,-1,-1,-1,-1,-1,-1,-1,-1,-1,-1,-1,-1,-1,-1,-1,-1,-1,-1,-1,-1,-1,-1,-1],"split_conditions":[1E0,1.94E1,1.4444444E0,4.2857143E-1,2.94E1,2.84E1,1.7777778E0,1.34E1,4E0,5E-1,5.555556E-1,1.4E0,1.2857143E0,3.22E1,2.72E1,4E0,4E-1,8E-1,8E-1,2.45E1,7E-1,1E0,3.18E1,1.36E1,1E0,3.55E1,4E0,1.25E0,1.2E0,2.2E0,1E0,2E-1,1E0,1E0,1.93E1,1.02E1,1E0,1.4E1,1.52E1,2.5E-1,1E0,5E-1,2.55E1,2.5E-1,5E-1,1.2E0,3E0,2E0,4E0,1.6666666E0,1.1E0,8E0,2.1E1,3.39E1,1.4E1,2.14E1,1.9E1,3.43E1,3.65E1,2E0,1.66E1,2.7142856E0,2.1E0,-1.4158663E-2,-1.1147042E-2,-1.3895385E-2,-1.6191972E-2,-2.5438478E-2,-1.0215555E-2,-7.7047846E-3,3.158128E-3,-1.176137E-2,-5.953006E-3,3.53411E-2,-2.9641322E-3,-1.3596631E-2,-1.0625031E-2,-9.303479E-3,-4.54108E-4,-7.2435983E-3,-4.5514274E-3,-1.7442307E-2,-2.1345401E-3,-4.2896727E-3,-1.357174E-3,9.295206E-5,3.395373E-3,-2.619787E-2,-1.0822916E-2,-2.8540357E-4,2.9912249E-3,2.5290197E-3,6.398484E-3,5.717457E-3,8.7976E-3,3.3789158E-3,-1.1217867E-2,3.9734407E-3,-5.533178E-4,2.4332955E-2,5.8413107E-2,1.8113417E-3,8.397924E-3,6.6352314E-3,9.81336E-3,1.1210476E-2,1.9451506E-2,1.365666E-2,1.8771043E-2,1.3303799E-2,5.39027E-3,-9.0783014E-4,1.0542556E-2,1.3031721E-2,1.9710047E-2,1.7929321E-2,6.7218416E-3,2.0273035E-2,2.6169455E-2,1.4247039E-2,2.5426652E-3,-1.3211751E-2,2.1802125E-2,4.3396857E-2,1.1691325E-1,2.3864977E-2,2.8573183E-2],"split_indices":[7,5,7,7,5,5,7,5,4,6,7,6,7,5,5,4,6,6,7,5,7,4,5,5,4,5,4,6,6,6,4,6,3,4,5,5,4,1,5,6,4,7,5,6,6,6,4,4,4,6,7,1,2,5,2,5,2,5,5,7,5,7,7,0,0,0,0,0,0,0,0,0,0,0,0,0,0,0,0,0,0,0,0,0,0,0,0,0,0,0,0,0,0,0,0,0,0,0,0,0,0,0,0,0,0,0,0,0,0,0,0,0,0,0,0,0,0,0,0,0,0,0,0,0,0,0,0],"split_type":[0,0,0,0,0,0,0,0,0,0,0,0,0,0,0,0,0,0,0,0,0,0,0,0,0,0,0,0,0,0,0,0,0,0,0,0,0,0,0,0,0,0,0,0,0,0,0,0,0,0,0,0,0,0,0,0,0,0,0,0,0,0,0,0,0,0,0,0,0,0,0,0,0,0,0,0,0,0,0,0,0,0,0,0,0,0,0,0,0,0,0,0,0,0,0,0,0,0,0,0,0,0,0,0,0,0,0,0,0,0,0,0,0,0,0,0,0,0,0,0,0,0,0,0,0,0,0],"sum_hessian":[2.04313E5,1.46792E5,5.7521E4,7.1158E4,7.5634E4,3.9679E4,1.7842E4,4.6448E4,2.471E4,5.1361E4,2.4273E4,1.7988E4,2.1691E4,9.717E3,8.125E3,2.8572E4,1.7876E4,1.994E4,4.77E3,2.2412E4,2.8949E4,6.741E3,1.7532E4,1.2098E4,5.89E3,1.4727E4,6.964E3,5.313E3,4.404E3,1.149E3,6.976E3,1.8022E4,1.055E4,1.0389E4,7.487E3,1.1745E4,8.195E3,3.827E3,9.43E2,1.2868E4,9.544E3,1.1506E4,1.7443E4,1.62E2,6.579E3,6.87E3,1.0662E4,4.31E2,1.1667E4,8E1,5.81E3,1.2262E4,2.465E3,6.107E3,8.57E2,1.434E3,3.879E3,5.58E2,3.846E3,7.08E2,4.41E2,1.88E2,6.788E3,6.505E3,1.1517E4,5.717E3,4.833E3,5.4E1,1.0335E4,7.382E3,1.05E2,1E3,1.0745E4,5.3E1,8.142E3,1.702E3,2.125E3,4.24E2,5.19E2,6.778E3,6.09E3,1.91E2,9.353E3,2.487E3,9.019E3,9.995E3,7.448E3,6.1E1,1.01E2,4.494E3,2.085E3,5.943E3,9.27E2,7.681E3,2.981E3,6.5E1,3.66E2,1.01E4,1.567E3,5E1,3E1,1.097E3,4.713E3,2.835E3,9.427E3,1.74E3,7.25E2,3.782E3,2.325E3,4.14E2,4.43E2,1.5E2,1.284E3,2.428E3,1.451E3,2.33E2,3.25E2,3.001E3,8.45E2,4.15E2,2.93E2,1.4E1,4.27E2,1.79E2,9E0,3.961E3,2.827E3],"tree_param":{"num_deleted":"0","num_feature":"9","num_nodes":"127","size_leaf_vector":"1"}},{"base_weights":[-1.477664E-3,-1.2248093E-1,1.6598736E-1,-1.950785E-1,-3.2032657E-2,8.5100465E-2,3.2424247E-1,-2.3532656E-1,-1.4469256E-1,-5.9781697E-2,3.950383E-2,7.2051813E-3,1.3424705E-1,2.5559834E-1,4.4433567E-1,-2.6886466E-1,-1.9745757E-1,-1.2627093E-1,-2.1586789E-1,-1.0314009E-1,-3.1867336E-2,1.5711362E-2,9.676577E-2,1.9928694E-2,-1.09276295E-1,1.0167963E-1,1.9507363E-1,2.242669E-1,3.4406334E-1,2.567957E-1,4.7653666E-1,-2.9485813E-1,-2.4491616E-1,-2.0852868E-1,-1.6523375E-1,-1.7058295E-1,-1.0421538E-1,-2.4370754E-1,-1.5173803E-1,-1.3342085E-1,-7.777709E-2,-5.771296E-2,-8.263645E-3,-2.7208218E-1,2.3153728E-2,8.417963E-2,2.4769783E-1,4.4613834E-3,9.913506E-2,-3.1090197E-1,-8.934506E-2,6.353404E-2,1.3600597E-1,1.746002E-1,2.8442147E-1,5.1749486E-1,2.1861365E-1,2.9794922E-1,4.0540472E-1,1.8332747E-1,4.0495253E-1,8.890764E-1,4.6507907E-1,-1.4944091E-2,-1.1158638E-2,-1.0891E-2,-1.39269745E-2,-9.6389605E-3,-1.1899411E-2,-1.0045896E-2,-6.0404013E-3,-9.149618E-3,-5.205981E-3,-6.2244437E-3,-3.2450557E-3,-1.2843815E-2,-9.368633E-3,-8.405845E-3,-1.7699959E-3,-4.4174027E-3,-7.134914E-3,-1.4474156E-2,-3.6795065E-3,-6.1570606E-3,-2.4030597E-3,-2.599229E-3,1.1162797E-3,-1.9361442E-2,-4.3267356E-3,4.870468E-5,3.5161332E-3,5.74383E-3,1.914128E-3,8.094611E-2,1.1516317E-2,-2.970508E-3,1.1968598E-3,4.2459186E-2,4.4615925E-3,-1.8810788E-2,-8.774567E-3,-4.702022E-3,2.8635556E-2,2.5961986E-3,5.3356555E-3,7.0379004E-3,-1.7538123E-3,8.88093E-3,2.708315E-4,1.5053175E-2,-4.7771234E-4,6.796925E-3,3.7020396E-2,5.4192594E-3,1.1614695E-2,9.8136915E-3,1.6937872E-2,4.211397E-2,1.960744E-2,5.5893756E-2,8.517939E-3,3.835031E-2,1.8292284E-2,1.4012274E-2,5.8574952E-2,2.210345E-2,2.876386E-2],"categories":[],"categories_nodes":[],"categories_segments":[],"categories_sizes":[],"default_left":[0,0,0,0,0,0,0,0,0,0,0,0,0,0,0,0,0,0,0,0,0,0,0,0,0,0,0,0,0,0,0,0,0,0,0,0,0,0,0,0,0,0,0,0,0,0,0,0,0,0,0,0,0,0,0,0,0,0,0,0,0,0,0,0,0,0,0,0,0,0,0,0,0,0,0,0,0,0,0,0,0,0,0,0,0,0,0,0,0,0,0,0,0,0,0,0,0,0,0,0,0,0,0,0,0,0,0,0,0,0,0,0,0,0,0,0,0,0,0,0,0,0,0,0,0,0,0],"id":11,"left_children":[1,3,5,7,9,11,13,15,17,19,21,23,25,27,29,31,33,35,37,39,41,43,45,47,49,51,53,55,57,59,61,63,65,67,69,71,73,75,77,79,81,83,85,87,89,91,93,95,97,99,101,103,105,107,109,111,113,115,117,119,121,123,125,-1,-1,-1,-1,-1,-1,-1,-1,-1,-1,-1,-1,-1,-1,-1,-1,-1,-1,-1,-1,-1,-1,-1,-1,-1,-1,-1,-1,-1,-1,-1,-1,-1,-1,-1,-1,-1,-1,-1,-1,-1,-1,-1,-1,-1,-1,-1,-1,-1,-1,-1,-1,-1,-1,-1,-1,-1,-1,-1,-1,-1,-1,-1,-1],"loss_changes":[4.1403633E3,7.788651E2,1.0970874E3,1.3340625E2,1.0484575E2,2.1713568E2,2.3886304E2,4.6404175E1,3.828894E1,4.6055527E1,2.0110275E1,3.2522877E1,6.887225E1,5.1055786E1,6.3540527E1,1.2001831E1,6.0959473E0,2.2672821E1,1.0687622E1,1.1436066E1,1.4123449E1,2.2345953E1,8.210339E0,2.42359E1,8.656519E0,2.9651855E1,2.2131866E1,2.2474548E1,1.3522095E1,1.6764557E1,4.2108032E1,2.614685E0,9.141968E0,5.8864746E0,6.94944E0,6.343231E0,1.2349167E1,3.0580444E0,3.4639435E0,2.8275223E0,7.1700974E0,6.972767E0,1.6186256E1,5.5855293E0,1.06375885E1,5.632614E0,7.5592537E0,2.0591284E1,2.3931185E1,1.6497478E0,6.1715746E0,5.3740387E0,9.697372E0,5.0382385E0,1.10546875E1,2.1758202E1,2.013617E1,1.13728485E1,1.1640045E1,1.2365757E1,6.968689E0,4.1283035E1,2.1945435E1,0E0,0E0,0E0,0E0,0E0,0E0,0E0,0E0,0E0,0E0,0E0,0E0,0E0,0E0,0E0,0E0,0E0,0E0,0E0,0E0,0E0,0E0,0E0,0E0,0E0,0E0,0E0,0E0,0E0,0E0,0E0,0E0,0E0,0E0,0E0,0E0,0E0,0E0,0E0,0E0,0E0,0E0,0E0,0E0,0E0,0E0,0E0,0E0,0E0,0E0,0E0,0E0,0E0,0E0,0E0,0E0,0E0,0E0,0E0,0E0,0E0,0E0,0E0,0E0],"parents":[2147483647,0,0,1,1,2,2,3,3,4,4,5,5,6,6,7,7,8,8,9,9,10,10,11,11,12,12,13,13,14,14,15,15,16,16,17,17,18,18,19,19,20,20,21,21,22,22,23,23,24,24,25,25,26,26,27,27,28,28,29,29,30,30,31,31,32,32,33,33,34,34,35,35,36,36,37,37,38,38,39,39,40,40,41,41,42,42,43,43,44,44,45,45,46,46,47,47,48,48,49,49,50,50,51,51,52,52,53,53,54,54,55,55,56,56,57,57,58,58,59,59,60,60,61,61,62,62],"right_children":[2,4,6,8,10,12,14,16,18,20,22,24,26,28,30,32,34,36,38,40,42,44,46,48,50,52,54,56,58,60,62,64,66,68,70,72,74,76,78,80,82,84,86,88,90,92,94,96,98,100,102,104,106,108,110,112,114,116,118,120,122,124,126,-1,-1,-1,-1,-1,-1,-1,-1,-1,-1,-1,-1,-1,-1,-1,-1,-1,-1,-1,-1,-1,-1,-1,-1,-1,-1,-1,-1,-1,-1,-1,-1,-1,-1,-1,-1,-1,-1,-1,-1,-1,-1,-1,-1,-1,-1,-1,-1,-1,-1,-1,-1,-1,-1,-1,-1,-1,-1,-1,-1,-1,-1,-1,-1],"split_conditions":[8E-1,1.94E1,1.3E0,3.75E-1,2.94E1,2.54E1,1.7E0,1.14E1,4E0,5E-1,7E-1,5E0,3.26E1,3.39E1,2.68E1,2E-1,1.69E1,4.2857143E-1,1.54E1,2.3E1,1.5E1,1E0,3.63E1,1.3333334E0,1.2E1,1E0,1.1428572E0,1E0,1.6E0,2.2E0,1E0,1.09E1,1E0,3E0,2.2222222E-1,1.78E1,8E-1,8E-1,2.8E1,2E0,1E0,2.5E-1,2.33E1,5E-1,3.33E1,9.6E2,6.6E1,1.74E1,1E0,2.1E1,1.684E3,1.2E0,1.632E3,1.654E3,6E0,1.25E0,2.08E1,4.27E2,1E0,1E0,1.19E2,1.6666666E0,2.2222223E0,-1.4944091E-2,-1.1158638E-2,-1.0891E-2,-1.39269745E-2,-9.6389605E-3,-1.1899411E-2,-1.0045896E-2,-6.0404013E-3,-9.149618E-3,-5.205981E-3,-6.2244437E-3,-3.2450557E-3,-1.2843815E-2,-9.368633E-3,-8.405845E-3,-1.7699959E-3,-4.4174027E-3,-7.134914E-3,-1.4474156E-2,-3.6795065E-3,-6.1570606E-3,-2.4030597E-3,-2.599229E-3,1.1162797E-3,-1.9361442E-2,-4.3267356E-3,4.870468E-5,3.5161332E-3,5.74383E-3,1.914128E-3,8.094611E-2,1.1516317E-2,-2.970508E-3,1.1968598E-3,4.2459186E-2,4.4615925E-3,-1.8810788E-2,-8.774567E-3,-4.702022E-3,2.8635556E-2,2.5961986E-3,5.3356555E-3,7.0379004E-3,-1.7538123E-3,8.88093E-3,2.708315E-4,1.5053175E-2,-4.7771234E-4,6.796925E-3,3.7020396E-2,5.4192594E-3,1.1614695E-2,9.8136915E-3,1.6937872E-2,4.211397E-2,1.960744E-2,5.5893756E-2,8.517939E-3,3.835031E-2,1.8292284E-2,1.4012274E-2,5.8574952E-2,2.210345E-2,2.876386E-2],"split_indices":[7,5,7,7,5,5,7,5,4,7,7,4,5,5,5,6,5,7,5,5,1,4,5,6,5,7,7,4,6,6,4,5,3,4,7,5,6,6,1,4,4,6,5,6,5,0,0,5,4,1,0,6,0,0,4,6,5,0,4,4,0,6,7,0,0,0,0,0,0,0,0,0,0,0,0,0,0,0,0,0,0,0,0,0,0,0,0,0,0,0,0,0,0,0,0,0,0,0,0,0,0,0,0,0,0,0,0,0,0,0,0,0,0,0,0,0,0,0,0,0,0,0,0,0,0,0,0],"split_type":[0,0,0,0,0,0,0,0,0,0,0,0,0,0,0,0,0,0,0,0,0,0,0,0,0,0,0,0,0,0,0,0,0,0,0,0,0,0,0,0,0,0,0,0,0,0,0,0,0,0,0,0,0,0,0,0,0,0,0,0,0,0,0,0,0,0,0,0,0,0,0,0,0,0,0,0,0,0,0,0,0,0,0,0,0,0,0,0,0,0,0,0,0,0,0,0,0,0,0,0,0,0,0,0,0,0,0,0,0,0,0,0,0,0,0,0,0,0,0,0,0,0,0,0,0,0,0],"sum_hessian":[2.04321E5,1.18615E5,8.5706E4,6.58E4,5.2815E4,5.6718E4,2.8988E4,3.6578E4,2.9222E4,3.8054E4,1.4761E4,2.1942E4,3.4776E4,1.8447E4,1.0541E4,1.9395E4,1.7183E4,2.3216E4,6.006E3,1.4903E4,2.3151E4,1.0429E4,4.332E3,1.9782E4,2.16E3,2.2651E4,1.2125E4,1.3625E4,4.822E3,1.546E3,8.995E3,9.295E3,1.01E4,1.2785E4,4.398E3,7.713E3,1.5503E4,4.186E3,1.82E3,6.791E3,8.112E3,1.105E4,1.2101E4,2.62E2,1.0167E4,4E3,3.32E2,1.6551E4,3.231E3,1.93E2,1.967E3,1.073E4,1.1921E4,9.867E3,2.258E3,2.56E2,1.3369E4,2.756E3,2.066E3,1.035E3,5.11E2,2.41E2,8.754E3,8.798E3,4.97E2,5.597E3,4.503E3,8.336E3,4.449E3,2.437E3,1.961E3,6.498E3,1.215E3,1.0227E4,5.276E3,3.39E3,7.96E2,1.595E3,2.25E2,1.161E3,5.63E3,1.56E2,7.956E3,1.419E3,9.631E3,4.981E3,7.12E3,1.61E2,1.01E2,6.916E3,3.251E3,2.396E3,1.604E3,3E0,3.29E2,3.867E3,1.2684E4,4.1E1,3.19E3,1.29E2,6.4E1,1.954E3,1.3E1,8.458E3,2.272E3,1.1599E4,3.22E2,9.694E3,1.73E2,2.137E3,1.21E2,9.5E1,1.61E2,1.477E3,1.1892E4,7.91E2,1.965E3,5.9E1,2.007E3,1.3E1,1.022E3,4.8E1,4.63E2,7.7E1,1.64E2,7.246E3,1.508E3],"tree_param":{"num_deleted":"0","num_feature":"9","num_nodes":"127","size_leaf_vector":"1"}},{"base_weights":[-1.3371732E-3,-1.0632268E-1,2.1293624E-1,-1.7507066E-1,-1.9127263E-2,1.2954544E-1,3.911772E-1,-2.2945704E-1,-1.2594049E-1,-7.0606455E-2,2.374145E-2,1.065702E-1,2.3451062E-1,3.3284304E-1,5.05415E-1,-2.084812E-1,-2.6984936E-1,-1.6619875E-1,-9.644731E-2,-1.5092799E-1,-5.589578E-2,-6.423244E-4,5.859161E-2,7.005112E-2,1.4193775E-1,1.3458812E-1,2.6533732E-1,2.7006206E-1,3.652924E-1,4.3512744E-1,5.6898296E-1,-2.1777149E-1,-9.289427E-2,-2.8685308E-1,-2.4396037E-1,-1.8137784E-1,-1.1608682E-1,-1.3506307E-1,-6.883516E-2,-1.627517E-2,-1.7146261E-1,-4.700591E-2,-1.4215913E-1,-4.5875553E-2,8.217745E-3,5.0307192E-2,1.546765E-1,5.4119635E-2,1.8654725E-1,8.296401E-2,1.513188E-1,9.662175E-1,1.2760958E-1,3.163355E-1,2.3437616E-1,2.3959737E-1,3.5348946E-1,3.1642267E-1,4.035298E-1,8.707149E-1,4.2477185E-1,5.8803463E-1,1.4039546E-1,-1.23089785E-2,-9.463983E-3,4.5681175E-2,-5.0397012E-3,-1.3633708E-2,-1.5168208E-2,-1.1153598E-2,-1.3410169E-2,-8.711599E-3,-1.2330165E-2,-6.1168754E-3,5.8573107E-3,1.3437537E-2,-6.8760016E-3,-4.234302E-3,-1.4421251E-3,-1.3612913E-3,5.0333668E-2,-6.860994E-3,-1.04134055E-2,-2.488233E-3,1.2423903E-2,-1.260703E-2,-5.9668995E-3,-2.4546678E-3,2.4610916E-2,3.7339004E-4,2.8036198E-2,2.436212E-3,2.1072118E-2,-2.9827688E-2,8.042536E-3,-9.688244E-3,2.947374E-3,4.049104E-2,8.825053E-3,5.1909625E-3,2.4635522E-4,7.4287667E-3,1.897518E-2,-1.756361E-2,8.959193E-2,8.356252E-3,1.1058833E-3,5.2623716E-3,1.641176E-2,8.6516645E-3,1.3955002E-2,4.751231E-3,1.3189423E-2,1.9071117E-2,7.9520065E-3,1.6524848E-2,-2.992517E-3,1.8602978E-2,2.4294367E-2,1.615945E-2,6.494508E-2,2.193635E-2,7.829872E-3,2.7459512E-2,3.4035575E-2,-4.2781103E-3,2.2090934E-2],"categories":[],"categories_nodes":[],"categories_segments":[],"categories_sizes":[],"default_left":[0,0,0,0,0,0,0,0,0,0,0,0,0,0,0,0,0,0,0,0,0,0,0,0,0,0,0,0,0,0,0,0,0,0,0,0,0,0,0,0,0,0,0,0,0,0,0,0,0,0,0,0,0,0,0,0,0,0,0,0,0,0,0,0,0,0,0,0,0,0,0,0,0,0,0,0,0,0,0,0,0,0,0,0,0,0,0,0,0,0,0,0,0,0,0,0,0,0,0,0,0,0,0,0,0,0,0,0,0,0,0,0,0,0,0,0,0,0,0,0,0,0,0,0,0,0,0],"id":12,"left_children":[1,3,5,7,9,11,13,15,17,19,21,23,25,27,29,31,33,35,37,39,41,43,45,47,49,51,53,55,57,59,61,63,65,67,69,71,73,75,77,79,81,83,85,87,89,91,93,95,97,99,101,103,105,107,109,111,113,115,117,119,121,123,125,-1,-1,-1,-1,-1,-1,-1,-1,-1,-1,-1,-1,-1,-1,-1,-1,-1,-1,-1,-1,-1,-1,-1,-1,-1,-1,-1,-1,-1,-1,-1,-1,-1,-1,-1,-1,-1,-1,-1,-1,-1,-1,-1,-1,-1,-1,-1,-1,-1,-1,-1,-1,-1,-1,-1,-1,-1,-1,-1,-1,-1,-1,-1,-1],"loss_changes":[4.598911E3,8.224972E2,9.991887E2,2.0496802E2,1.3349384E2,1.1042865E2,1.426206E2,3.079358E1,4.7845764E1,3.2467422E1,2.8047825E1,4.852542E1,2.529654E1,2.88031E1,3.210547E1,2.5719604E1,5.4070435E0,1.29427185E1,2.4800537E1,1.1759697E1,1.7809242E1,7.783322E0,1.0807571E1,3.4306534E1,1.0548187E1,1.1141399E1,9.848022E0,1.2211517E1,1.7344238E1,1.5160706E1,3.0937378E1,1.7910767E1,1.4285045E1,1.6740112E0,2.4412842E0,6.0531006E0,5.7947693E0,9.660828E0,8.599197E0,6.3453107E0,4.623268E0,1.718222E1,5.416401E0,5.5320005E0,6.724842E0,7.328974E0,5.0959854E0,1.9478935E1,1.3782669E1,4.266735E0,1.0252869E1,1.803338E1,8.024948E0,5.9211426E0,1.0689743E1,1.2380127E1,6.9568787E0,2.178009E1,1.3405579E1,1.810123E1,1.2524475E1,1.2719238E1,1.1139552E1,0E0,0E0,0E0,0E0,0E0,0E0,0E0,0E0,0E0,0E0,0E0,0E0,0E0,0E0,0E0,0E0,0E0,0E0,0E0,0E0,0E0,0E0,0E0,0E0,0E0,0E0,0E0,0E0,0E0,0E0,0E0,0E0,0E0,0E0,0E0,0E0,0E0,0E0,0E0,0E0,0E0,0E0,0E0,0E0,0E0,0E0,0E0,0E0,0E0,0E0,0E0,0E0,0E0,0E0,0E0,0E0,0E0,0E0,0E0,0E0,0E0,0E0,0E0,0E0],"parents":[2147483647,0,0,1,1,2,2,3,3,4,4,5,5,6,6,7,7,8,8,9,9,10,10,11,11,12,12,13,13,14,14,15,15,16,16,17,17,18,18,19,19,20,20,21,21,22,22,23,23,24,24,25,25,26,26,27,27,28,28,29,29,30,30,31,31,32,32,33,33,34,34,35,35,36,36,37,37,38,38,39,39,40,40,41,41,42,42,43,43,44,44,45,45,46,46,47,47,48,48,49,49,50,50,51,51,52,52,53,53,54,54,55,55,56,56,57,57,58,58,59,59,60,60,61,61,62,62],"right_children":[2,4,6,8,10,12,14,16,18,20,22,24,26,28,30,32,34,36,38,40,42,44,46,48,50,52,54,56,58,60,62,64,66,68,70,72,74,76,78,80,82,84,86,88,90,92,94,96,98,100,102,104,106,108,110,112,114,116,118,120,122,124,126,-1,-1,-1,-1,-1,-1,-1,-1,-1,-1,-1,-1,-1,-1,-1,-1,-1,-1,-1,-1,-1,-1,-1,-1,-1,-1,-1,-1,-1,-1,-1,-1,-1,-1,-1,-1,-1,-1,-1,-1,-1,-1,-1,-1,-1,-1,-1,-1,-1,-1,-1,-1,-1,-1,-1,-1,-1,-1,-1,-1,-1,-1,-1,-1],"split_conditions":[8.8E-1,5.6E-1,1.32E0,1.47E1,2.35E1,1.2E0,1.68E0,4E0,4E-1,1.34E1,7.5E-1,2.85E1,2.55E1,2.96E1,3.3E1,6.666667E-1,2.857143E-1,2.33E1,2.03E1,2E0,5E0,6E-1,3.53E1,1.5E0,9.2E-1,1E0,1.1111112E0,1.6666666E0,7.66E2,1E0,3.91E1,1.05E1,1E0,1E0,1E0,5E0,1.597E3,1E0,2.84E1,1.6666666E0,3E0,1.6666666E0,2.9E2,3.77E1,1.684E3,1.684E3,2.9E1,1.11E1,1E0,3.46E1,3.91E1,1.2E0,3E0,6.25E-1,1.25E0,3.35E2,2.89E1,7.25E2,1.56E0,2E0,7E0,1.282E3,1E0,-1.23089785E-2,-9.463983E-3,4.5681175E-2,-5.0397012E-3,-1.3633708E-2,-1.5168208E-2,-1.1153598E-2,-1.3410169E-2,-8.711599E-3,-1.2330165E-2,-6.1168754E-3,5.8573107E-3,1.3437537E-2,-6.8760016E-3,-4.234302E-3,-1.4421251E-3,-1.3612913E-3,5.0333668E-2,-6.860994E-3,-1.04134055E-2,-2.488233E-3,1.2423903E-2,-1.260703E-2,-5.9668995E-3,-2.4546678E-3,2.4610916E-2,3.7339004E-4,2.8036198E-2,2.436212E-3,2.1072118E-2,-2.9827688E-2,8.042536E-3,-9.688244E-3,2.947374E-3,4.049104E-2,8.825053E-3,5.1909625E-3,2.4635522E-4,7.4287667E-3,1.897518E-2,-1.756361E-2,8.959193E-2,8.356252E-3,1.1058833E-3,5.2623716E-3,1.641176E-2,8.6516645E-3,1.3955002E-2,4.751231E-3,1.3189423E-2,1.9071117E-2,7.9520065E-3,1.6524848E-2,-2.992517E-3,1.8602978E-2,2.4294367E-2,1.615945E-2,6.494508E-2,2.193635E-2,7.829872E-3,2.7459512E-2,3.4035575E-2,-4.2781103E-3,2.2090934E-2],"split_indices":[8,8,8,5,5,8,8,4,8,5,8,5,5,5,5,6,8,5,5,4,4,8,5,6,8,4,7,6,0,4,5,5,4,3,3,4,0,4,5,6,4,6,0,5,0,0,0,5,4,5,5,6,4,7,6,0,5,0,8,6,4,0,3,0,0,0,0,0,0,0,0,0,0,0,0,0,0,0,0,0,0,0,0,0,0,0,0,0,0,0,0,0,0,0,0,0,0,0,0,0,0,0,0,0,0,0,0,0,0,0,0,0,0,0,0,0,0,0,0,0,0,0,0,0,0,0,0],"split_type":[0,0,0,0,0,0,0,0,0,0,0,0,0,0,0,0,0,0,0,0,0,0,0,0,0,0,0,0,0,0,0,0,0,0,0,0,0,0,0,0,0,0,0,0,0,0,0,0,0,0,0,0,0,0,0,0,0,0,0,0,0,0,0,0,0,0,0,0,0,0,0,0,0,0,0,0,0,0,0,0,0,0,0,0,0,0,0,0,0,0,0,0,0,0,0,0,0,0,0,0,0,0,0,0,0,0,0,0,0,0,0,0,0,0,0,0,0,0,0,0,0,0,0,0,0,0,0],"sum_hessian":[2.04434E5,1.37208E5,6.7226E4,7.6719E4,6.0489E4,4.58E4,2.1426E4,3.641E4,4.0309E4,2.7484E4,3.3005E4,3.7577E4,8.223E3,1.4186E4,7.24E3,2.3969E4,1.2441E4,1.7042E4,2.3267E4,4.253E3,2.3231E4,1.9419E4,1.3586E4,1.8489E4,1.9088E4,1.94E3,6.283E3,4.837E3,9.349E3,3.442E3,3.798E3,2.2185E4,1.784E3,7.503E3,4.938E3,1.3078E4,3.964E3,9.699E3,1.3568E4,5.63E2,3.69E3,2.1062E4,2.169E3,3.18E3,1.6239E4,1.2509E4,1.077E3,1.6266E4,2.223E3,2.621E3,1.6467E4,1.5E1,1.925E3,2.37E3,3.913E3,3.546E3,1.291E3,4.108E3,5.241E3,7.8E1,3.364E3,3.636E3,1.62E2,1.1105E4,1.108E4,1.3E1,1.771E3,4.046E3,3.457E3,2.658E3,2.28E3,1.179E4,1.288E3,3.861E3,1.03E2,5.8E1,9.641E3,9.716E3,3.852E3,5.58E2,5E0,1.914E3,1.776E3,2.0868E4,1.94E2,3.71E2,1.798E3,3.162E3,1.8E1,1.6218E4,2.1E1,1.2457E4,5.2E1,8E0,1.069E3,3.1E2,1.5956E4,3.4E1,2.189E3,2.068E3,5.53E2,1.6273E4,1.94E2,6E0,9E0,1.4E3,5.25E2,1.27E2,2.243E3,1.652E3,2.261E3,5.09E2,3.037E3,1.128E3,1.63E2,3.96E3,1.48E2,3.796E3,1.445E3,3.5E1,4.3E1,3.197E3,1.67E2,2.567E3,1.069E3,9.3E1,6.9E1],"tree_param":{"num_deleted":"0","num_feature":"9","num_nodes":"127","size_leaf_vector":"1"}},{"base_weights":[-4.917465E-4,-1.1608402E-1,1.7682351E-1,-1.8828993E-1,-5.422397E-2,1.0529789E-1,3.745863E-1,-2.3193692E-1,-1.4394815E-1,-1.0602783E-1,-1.2182678E-2,6.900508E-2,1.823071E-1,3.3774728E-1,5.278561E-1,-2.6032472E-1,-2.0411465E-1,-1.6026221E-1,-7.648592E-2,-1.19420774E-1,-3.8880117E-2,-4.696283E-2,1.1948993E-2,-3.491846E-2,8.373034E-2,1.1183252E-1,2.0775357E-1,2.7222252E-1,3.744005E-1,4.2891404E-1,6.036275E-1,-2.888948E-1,-2.4214306E-1,-2.1983631E-1,-1.7467767E-1,-1.4352E-1,-2.1246281E-1,-7.829681E-2,1.1816894E0,-1.7151427E-1,-1.0589165E-1,-8.408512E-2,-1.210364E-2,-3.9217126E-2,-1.3296092E-1,2.7872154E-3,7.425926E-2,-3.351137E-1,-2.5698274E-2,6.070678E-2,1.0954777E-1,8.060695E-2,2.398453E-1,1.7668992E-1,2.4708563E-1,2.3385029E-1,3.3676666E-1,2.466118E-2,3.794869E-1,3.577778E-1,5.523722E-1,6.2793595E-1,4.5345613E-1,-1.3625532E-2,-1.5456435E-2,-1.3842801E-2,-1.1430435E-2,-1.00858165E-2,-1.2511258E-2,-9.006867E-3,-2.144637E-3,-7.806655E-3,-4.561206E-3,-1.1688101E-2,-7.632067E-3,-2.851702E-3,-8.118029E-3,-2.5793E-2,9.1675796E-2,-9.144749E-3,-4.957411E-3,-5.3833136E-3,7.1921484E-3,-4.7376333E-3,6.920621E-3,-2.2861576E-3,1.108783E-3,-3.4854466E-3,-1.1645608E-3,-1.4321257E-3,-7.942751E-3,-7.5833085E-3,3.130508E-4,3.2840516E-2,2.950442E-3,-1.8115321E-2,5.545171E-2,-2.1032111E-3,4.3811896E-3,3.6203233E-3,-1.1282698E-3,6.72565E-3,4.2531323E-3,4.5347917E-3,-6.425371E-3,2.2395378E-2,9.7409915E-3,7.5332993E-3,1.1825216E-2,1.2667631E-2,1.5105406E-3,8.211291E-3,1.3516433E-2,4.9302462E-2,1.59515E-2,2.9300159E-2,-5.7388814E-3,1.3645827E-2,1.9583851E-2,2.389773E-2,1.3441468E-2,4.3293964E-2,2.3602564E-2,2.9651407E-2,4.0785294E-2,3.4951326E-2,1.4857498E-2],"categories":[],"categories_nodes":[],"categories_segments":[],"categories_sizes":[],"default_left":[0,0,0,0,0,0,0,0,0,0,0,0,0,0,0,0,0,0,0,0,0,0,0,0,0,0,0,0,0,0,0,0,0,0,0,0,0,0,0,0,0,0,0,0,0,0,0,0,0,0,0,0,0,0,0,0,0,0,0,0,0,0,0,0,0,0,0,0,0,0,0,0,0,0,0,0,0,0,0,0,0,0,0,0,0,0,0,0,0,0,0,0,0,0,0,0,0,0,0,0,0,0,0,0,0,0,0,0,0,0,0,0,0,0,0,0,0,0,0,0,0,0,0,0,0,0,0],"id":13,"left_children":[1,3,5,7,9,11,13,15,17,19,21,23,25,27,29,31,33,35,37,39,41,43,45,47,49,51,53,55,57,59,61,63,65,67,69,71,73,75,77,79,81,83,85,87,89,91,93,95,97,99,101,103,105,107,109,111,113,115,117,119,121,123,125,-1,-1,-1,-1,-1,-1,-1,-1,-1,-1,-1,-1,-1,-1,-1,-1,-1,-1,-1,-1,-1,-1,-1,-1,-1,-1,-1,-1,-1,-1,-1,-1,-1,-1,-1,-1,-1,-1,-1,-1,-1,-1,-1,-1,-1,-1,-1,-1,-1,-1,-1,-1,-1,-1,-1,-1,-1,-1,-1,-1,-1,-1,-1,-1],"loss_changes":[4.193599E3,5.532261E2,1.1420933E3,1.1057385E2,1.452865E2,1.6572101E2,1.2091235E2,2.2692749E1,3.1191406E1,2.6871063E1,3.0908741E1,6.1683212E1,3.4039307E1,4.1430664E1,3.0883545E1,7.3327026E0,6.694763E0,1.9921875E1,1.2676281E1,1.7541443E1,6.0160346E0,1.0043144E1,1.2411708E1,1.3838972E1,2.0978394E1,2.0130917E1,1.700531E1,1.5294128E1,1.9713379E1,1.56545105E1,8.293701E0,1.7513428E0,4.0311584E0,5.1696777E0,3.640152E0,1.1389832E1,7.02565E0,9.850197E0,9.797898E0,4.210907E0,8.782089E0,4.401718E0,3.6001256E0,6.7192154E0,3.361185E0,1.0171608E1,2.4721355E1,6.253086E0,9.007882E0,1.818518E1,1.0160812E1,8.564497E0,9.168423E0,1.2105881E1,8.357941E0,9.850601E0,2.63107E1,1.2590918E1,1.4089722E1,1.2143112E1,1.6160477E1,1.2756653E1,1.2497444E1,0E0,0E0,0E0,0E0,0E0,0E0,0E0,0E0,0E0,0E0,0E0,0E0,0E0,0E0,0E0,0E0,0E0,0E0,0E0,0E0,0E0,0E0,0E0,0E0,0E0,0E0,0E0,0E0,0E0,0E0,0E0,0E0,0E0,0E0,0E0,0E0,0E0,0E0,0E0,0E0,0E0,0E0,0E0,0E0,0E0,0E0,0E0,0E0,0E0,0E0,0E0,0E0,0E0,0E0,0E0,0E0,0E0,0E0,0E0,0E0,0E0,0E0,0E0,0E0],"parents":[2147483647,0,0,1,1,2,2,3,3,4,4,5,5,6,6,7,7,8,8,9,9,10,10,11,11,12,12,13,13,14,14,15,15,16,16,17,17,18,18,19,19,20,20,21,21,22,22,23,23,24,24,25,25,26,26,27,27,28,28,29,29,30,30,31,31,32,32,33,33,34,34,35,35,36,36,37,37,38,38,39,39,40,40,41,41,42,42,43,43,44,44,45,45,46,46,47,47,48,48,49,49,50,50,51,51,52,52,53,53,54,54,55,55,56,56,57,57,58,58,59,59,60,60,61,61,62,62],"right_children":[2,4,6,8,10,12,14,16,18,20,22,24,26,28,30,32,34,36,38,40,42,44,46,48,50,52,54,56,58,60,62,64,66,68,70,72,74,76,78,80,82,84,86,88,90,92,94,96,98,100,102,104,106,108,110,112,114,116,118,120,122,124,126,-1,-1,-1,-1,-1,-1,-1,-1,-1,-1,-1,-1,-1,-1,-1,-1,-1,-1,-1,-1,-1,-1,-1,-1,-1,-1,-1,-1,-1,-1,-1,-1,-1,-1,-1,-1,-1,-1,-1,-1,-1,-1,-1,-1,-1,-1,-1,-1,-1,-1,-1,-1,-1,-1,-1,-1,-1,-1,-1,-1,-1,-1,-1,-1],"split_conditions":[8E-1,1.74E1,1.32E0,3.6E-1,5.6E-1,1.08E0,1.84E0,1E1,6.4E-1,2.86E1,2.45E1,1.87E1,2.57E1,1.44E0,3.3E1,1.4285715E-1,2.5E-1,4E0,2.2E0,2.857143E-1,4.2857143E-1,5E0,1.2E0,8.1E0,2.92E1,1.5E0,1.2E0,1.5E0,1.73E1,2.04E0,3.77E1,1E0,5.8E0,3E0,1.592E3,6.666667E-1,1.44E1,4E0,1E0,1.446E3,1.25E0,8E0,3.12E1,5E-1,1.88E1,1E0,1E0,1.6666666E0,1.25E0,4E0,7.7E2,9E0,2E0,3.375E1,1E1,5.33E2,1E0,1.48E0,2.18E2,1.8333334E0,2.71E2,3.67E1,2E0,-1.3625532E-2,-1.5456435E-2,-1.3842801E-2,